/*!
 * The following copyright notice may not be removed under any circumstances.
 * 
 * Manufacturer:
 * Dalton Maag Ltd.
 */
Cufon.registerFont({"w":1185,"face":{"font-family":"Aller Display","font-weight":400,"font-stretch":"normal","units-per-em":"2048","panose-1":"2 0 5 3 0 0 0 2 0 3","ascent":"1638","descent":"-410","x-height":"25","bbox":"-116 -1892.01 2060.5 495.696","underline-thickness":"102","underline-position":"-102","unicode-range":"U+0020-U+2122"},"glyphs":{" ":{"w":450},"!":{"d":"127,-1473v117,-17,248,-16,365,0r-19,955v-118,23,-196,24,-328,0xm137,-346v107,-20,235,-21,344,0v4,31,8,61,11,89v11,88,-1,172,-11,253v-109,21,-234,21,-344,0v-4,-31,-7,-61,-10,-90v-9,-89,-1,-171,10,-252","w":618},"\"":{"d":"401,-877v-93,21,-226,23,-319,0r0,-591v93,-21,227,-23,319,0r0,591xm852,-877v-93,21,-226,23,-319,0r0,-591v93,-21,227,-23,319,0r0,591","w":933},"#":{"d":"1042,-63v-86,17,-189,17,-274,0r27,-343r-203,0r-27,343v-89,17,-186,16,-276,0r28,-343r-215,0v-3,-22,-5,-43,-7,-62v-7,-62,0,-121,7,-179r236,0r18,-225r-215,0v-16,-83,-15,-163,0,-242r236,0r24,-295v88,-17,188,-17,275,0r-25,295r203,0r25,-295v88,-17,186,-17,274,0r-25,295r199,0v16,79,16,160,0,242r-219,0r-18,225r200,0v3,22,5,42,7,61v7,61,0,123,-7,180r-221,0xm612,-647r203,0r19,-225r-203,0","w":1431},"$":{"d":"729,238v-72,22,-169,21,-242,0r0,-215v-168,0,-285,-36,-405,-86v13,-113,42,-209,76,-312v107,45,196,80,323,80v120,0,213,-30,213,-139v0,-42,-16,-74,-48,-97v-131,-90,-337,-124,-438,-246v-52,-62,-88,-142,-87,-257v-1,-249,148,-389,366,-426r0,-185v73,-21,170,-22,242,0r0,179v110,13,200,40,299,73v-9,91,-37,188,-84,291v-99,-41,-168,-73,-311,-72v-81,1,-147,19,-148,101v-1,83,73,115,133,137r115,43v190,71,345,172,342,438v-2,241,-141,397,-346,451r0,242","w":1198},"%":{"d":"1322,-112v-82,-98,-125,-299,-72,-466v50,-159,163,-274,370,-276v138,-1,233,59,297,136v87,104,123,300,73,465v-32,108,-101,191,-196,239v-95,48,-256,48,-350,0v-49,-25,-89,-58,-122,-98xm1706,-266v35,-70,35,-231,0,-300v-19,-37,-47,-55,-86,-55v-39,0,-67,18,-86,55v-35,69,-35,230,0,300v19,38,47,57,86,57v39,0,67,-19,86,-57xm92,-872v-31,-104,-31,-221,0,-325v32,-108,97,-191,192,-239v94,-48,256,-48,351,0v136,69,219,206,219,402v0,195,-84,333,-219,401v-95,48,-256,48,-350,0v-95,-48,-160,-132,-193,-239xm546,-884v34,-70,35,-231,0,-300v-18,-37,-46,-55,-86,-55v-40,0,-68,18,-86,55v-35,69,-34,230,0,300v19,38,46,57,86,57v40,0,67,-19,86,-57xm774,-4v-99,15,-211,19,-313,0r846,-1448v99,-15,211,-19,313,0","w":2080},"&":{"d":"473,-1100v0,78,48,127,137,127r338,0r217,-274v22,-7,56,-8,101,-4r0,278r190,0v21,87,19,188,0,275r-190,0r0,200v-3,277,-149,425,-369,488v-138,39,-320,46,-467,8v-136,-35,-245,-106,-305,-220v-31,-58,-47,-128,-47,-210v0,-185,89,-308,198,-387v-72,-61,-143,-158,-141,-291v2,-206,121,-315,283,-362v155,-45,346,-28,485,26v5,113,-31,195,-80,266v-80,-30,-129,-38,-211,-41v-87,-3,-139,48,-139,121xm449,-487v1,133,78,211,219,211v186,0,264,-106,266,-287r0,-135r-291,0v-120,-2,-195,91,-194,211","w":1482},"'":{"d":"401,-877v-93,21,-226,23,-319,0r0,-591v93,-21,227,-23,319,0r0,591","w":483},"(":{"d":"690,330v-102,23,-253,33,-354,4v-147,-241,-235,-564,-234,-959v0,-397,86,-714,234,-958v99,-30,254,-20,354,4v-132,239,-237,567,-237,954v0,389,105,714,237,955","w":751},")":{"d":"61,-1579v102,-24,254,-35,355,-4v148,240,233,564,233,958v0,397,-85,715,-233,959v-100,29,-255,19,-355,-4v133,-239,238,-567,238,-955v0,-388,-105,-714,-238,-954","w":751},"*":{"d":"299,-614v-60,-31,-116,-71,-162,-117r144,-234r-248,-104v5,-70,36,-137,61,-188r258,57r23,-268v62,-13,133,-14,196,0r25,268r256,-60v35,53,51,122,66,187r-250,106r147,234v-47,47,-101,86,-164,117r-176,-201xm616,-977v-25,-55,-42,-114,-57,-174v-58,7,-108,5,-168,-2v-14,64,-35,123,-61,176v51,32,98,65,143,105v49,-42,97,-77,143,-105","w":950},"+":{"d":"739,-252v-98,20,-187,22,-293,0r0,-326r-301,0v-18,-95,-17,-197,0,-292r301,0r0,-326v92,-21,201,-20,293,0r0,326r299,0v21,92,23,200,0,292r-299,0r0,326"},",":{"d":"190,-328v108,-27,233,-26,340,4r-155,547v-110,27,-217,24,-326,-4","w":618},"-":{"d":"653,-715v22,96,24,213,0,309r-549,0v-24,-117,-24,-192,0,-309r549,0","w":755},".":{"d":"129,-352v82,-11,168,-21,258,-10v29,3,59,6,90,10v22,110,22,237,0,348v-110,21,-238,21,-348,0v-21,-110,-21,-238,0,-348","w":606},"\/":{"d":"506,-1468v106,-21,226,-24,336,0r-496,1464v-106,21,-227,21,-336,0","w":851},"0":{"d":"376,-1302v129,-69,349,-70,478,0v200,108,293,336,293,640v0,302,-97,529,-299,634v-131,68,-349,69,-478,0v-200,-106,-292,-332,-292,-634v0,-304,97,-533,298,-640xm612,-1047v-55,0,-95,34,-127,97v-58,113,-58,461,1,574v33,63,73,97,126,97v52,0,91,-33,123,-96v58,-113,57,-464,0,-576v-32,-63,-71,-96,-123,-96","w":1224},"1":{"d":"197,-803v-50,-77,-98,-174,-119,-280r600,-256r88,0r0,1032r262,0v25,108,25,200,0,307r-876,0v-24,-107,-26,-200,0,-307r266,0r0,-582","w":1097},"2":{"d":"57,-1260v99,-54,238,-97,398,-96v218,2,376,78,450,226v42,84,47,218,19,320v-38,135,-111,238,-183,339r-116,164r358,0v25,119,23,190,0,307r-926,0r-24,-59r364,-480v63,-85,110,-156,141,-214v31,-58,46,-110,46,-156v-1,-91,-75,-140,-174,-140v-106,0,-197,50,-267,86v-39,-89,-80,-182,-86,-297","w":1081},"3":{"d":"606,-498v-69,-51,-202,-56,-303,-26r-45,-68r252,-436r-412,0v-24,-107,-24,-202,0,-309r867,0r36,57r-290,502v189,33,312,171,311,389v0,179,-72,306,-173,390v-101,84,-248,133,-425,134v-166,2,-285,-25,-404,-74v5,-107,49,-218,91,-292v97,32,181,61,301,61v150,0,262,-56,262,-199v0,-61,-31,-101,-68,-129","w":1103},"4":{"d":"741,-662v103,-22,233,-22,336,0r0,230r109,0v24,108,24,195,0,303r-109,0r0,242v-103,23,-233,22,-336,0r0,-242r-651,0r-35,-61r551,-1180v122,17,222,49,305,117r-372,821r202,0r0,-230","w":1284},"5":{"d":"418,-539v-84,1,-156,19,-223,52r-54,-35r31,-815r748,0v25,119,23,190,0,307r-433,0r-4,213v313,-27,527,119,527,434v0,273,-146,420,-363,483v-77,22,-162,33,-256,33v-131,0,-260,-30,-364,-67v9,-116,47,-218,86,-304v117,45,262,84,397,44v83,-25,139,-73,139,-173v0,-121,-90,-174,-231,-172","w":1103},"6":{"d":"801,-471v0,-131,-57,-211,-168,-211v-111,0,-176,79,-176,201v0,129,55,219,167,219v110,0,177,-83,177,-209xm631,23v-361,0,-533,-215,-529,-594v4,-402,171,-674,448,-818v103,-55,226,-88,368,-100v54,54,57,228,22,311v-170,14,-299,83,-386,182v-29,34,-52,73,-67,115r7,4v39,-45,132,-79,229,-77v206,4,332,98,392,254v45,118,44,318,-7,433v-78,175,-235,290,-477,290","w":1220},"7":{"d":"70,-1028v-23,-104,-27,-196,0,-309r995,0r31,55r-584,1432v-129,-31,-211,-60,-313,-130r430,-1048r-559,0","w":1126},"8":{"d":"596,-1206v-83,0,-137,53,-137,127v0,92,65,146,135,174v75,-28,137,-78,137,-174v0,-73,-52,-127,-135,-127xm594,-256v112,0,178,-64,178,-166v0,-115,-89,-179,-180,-211v-92,33,-174,95,-174,211v0,100,68,166,176,166xm295,-780v-95,-62,-160,-156,-160,-297v0,-128,59,-223,133,-286v76,-65,191,-110,326,-110v208,0,354,92,424,235v23,49,35,102,35,161v-2,140,-71,234,-162,297v119,66,223,187,223,372v0,158,-69,261,-162,329v-127,93,-357,130,-550,77v-126,-34,-225,-104,-282,-210v-29,-54,-44,-119,-44,-196v0,-185,103,-303,219,-372","w":1189},"9":{"d":"422,-864v0,131,57,211,168,211v111,0,176,-80,176,-201v0,-129,-56,-219,-168,-219v-111,0,-176,81,-176,209xm592,-1358v361,0,531,215,528,594v-4,403,-172,673,-448,818v-103,54,-225,88,-367,100v-26,-29,-45,-96,-45,-160v0,-59,7,-114,23,-152v170,-14,300,-81,386,-181v29,-35,51,-73,66,-116r-6,-4v-39,45,-132,80,-229,78v-206,-4,-333,-98,-392,-254v-45,-118,-44,-318,7,-433v78,-175,234,-290,477,-290","w":1220},":":{"d":"129,-352v82,-11,168,-21,258,-10v29,3,59,6,90,10v22,110,22,237,0,348v-110,21,-238,21,-348,0v-21,-110,-21,-238,0,-348xm129,-1044v82,-11,168,-21,258,-10v29,3,59,6,90,10v22,110,22,237,0,348v-110,21,-238,21,-348,0v-21,-110,-21,-238,0,-348","w":606},";":{"d":"178,-328v108,-27,233,-26,340,4r-155,547v-110,27,-217,24,-326,-4xm178,-1044v82,-11,168,-21,258,-10v29,3,59,6,90,10v22,110,22,237,0,348v-110,21,-238,21,-348,0v-21,-110,-21,-238,0,-348","w":655},"<":{"d":"1020,-1225v16,91,26,221,4,314r-532,188r532,178v22,99,12,227,-4,324r-850,-346v-26,-108,-28,-208,0,-312"},"=":{"d":"1038,-1090v21,93,23,201,0,293r-893,0v-18,-95,-17,-198,0,-293r893,0xm1038,-649v21,93,23,200,0,293r-893,0v-18,-95,-18,-198,0,-293r893,0"},">":{"d":"166,-221v-17,-95,-26,-225,-4,-324r532,-178r-532,-188v-22,-94,-12,-221,4,-314r850,346v28,104,26,204,0,312"},"?":{"d":"410,-1182v-112,0,-181,27,-265,56v-34,-77,-67,-173,-77,-273v116,-41,223,-73,374,-74v165,0,290,38,373,113v83,75,125,179,125,311v0,223,-148,328,-299,400r0,186v-30,4,-59,7,-88,10v-85,9,-163,1,-240,-10r0,-385v107,-13,211,-42,261,-112v16,-22,24,-49,24,-80v0,-100,-83,-142,-188,-142xm295,-352v82,-11,168,-21,258,-10v29,3,59,6,90,10v21,110,21,238,0,348v-110,21,-238,21,-348,0v-21,-110,-21,-238,0,-348","w":980},"@":{"d":"821,-494v-1,94,38,148,121,148v46,0,77,-3,113,-16r78,-459v-62,-9,-119,-4,-164,23v-91,54,-145,163,-148,304xm1317,223v-108,56,-307,86,-473,84v-362,-4,-602,-162,-716,-425v-68,-158,-82,-382,-34,-576v69,-279,227,-497,447,-635v158,-99,361,-166,616,-164v360,2,610,144,727,395v72,156,82,378,20,556v-57,165,-165,299,-308,380v-132,75,-364,87,-468,-12v-82,40,-154,74,-282,72v-154,-3,-256,-73,-300,-190v-46,-120,-26,-295,20,-410v60,-150,169,-265,312,-329v173,-78,417,-43,580,15r-127,670v63,15,129,0,175,-36v104,-82,167,-233,167,-411v0,-307,-212,-462,-540,-462v-257,0,-452,106,-578,245v-119,132,-207,321,-207,551v0,266,124,428,324,494v175,58,415,30,567,-29v34,78,60,150,78,217","w":2011},"A":{"d":"639,-256v-73,0,-135,-11,-199,-29r-75,281v-117,23,-237,18,-355,-4r459,-1462v35,-4,68,-7,99,-10v99,-10,189,-1,284,10r453,1464v-141,22,-247,25,-375,2r-78,-285v-68,19,-134,33,-213,33xm514,-559v79,28,185,28,268,2r-131,-528","w":1314},"B":{"d":"915,-799v143,57,244,167,244,369v-1,365,-281,454,-647,455v-153,0,-251,-14,-389,-29r0,-1464v240,-37,606,-56,780,56v97,63,164,158,164,316v0,132,-70,244,-152,297xm793,-444v0,-164,-147,-180,-316,-174r0,344v156,16,316,-10,316,-170xm477,-909v143,6,247,-20,244,-160v-2,-125,-114,-155,-244,-143r0,303","w":1222},"C":{"d":"487,-1440v199,-87,487,-70,680,15v-4,111,-49,223,-86,301v-80,-27,-160,-54,-266,-54v-111,0,-196,37,-257,112v-61,75,-91,186,-91,333v0,289,121,434,364,434v111,0,169,-22,267,-53v45,98,75,199,90,303v-189,82,-505,101,-704,15v-254,-110,-400,-345,-400,-699v0,-353,151,-596,403,-707","w":1247},"D":{"d":"123,-1468v120,-16,268,-28,407,-29v513,0,789,258,789,770v0,526,-283,750,-811,752v-137,1,-263,-16,-385,-31r0,-1462xm828,-1082v-73,-78,-195,-102,-343,-92r0,877v141,10,272,-12,345,-86v74,-75,110,-187,110,-348v0,-159,-40,-274,-112,-351","w":1402},"E":{"d":"987,-1473v21,111,24,199,0,320r-502,0r0,225r396,0v24,123,24,199,0,320r-396,0r0,291r514,0v25,118,25,200,0,317r-876,0r0,-1473r864,0","w":1079},"F":{"d":"987,-1473v21,111,24,199,0,320r-502,0r0,250r396,0v24,126,24,195,0,321r-396,0r0,576v-151,24,-214,24,-362,0r0,-1467r864,0","w":1044},"G":{"d":"469,-733v-1,271,98,430,350,434v26,0,49,-2,70,-6r0,-492v118,-20,241,-21,358,0r0,746v-129,51,-288,73,-440,74v-245,2,-424,-83,-542,-213v-115,-125,-181,-312,-181,-543v0,-353,151,-596,403,-707v87,-38,186,-57,297,-57v158,0,258,20,383,74v-3,109,-49,225,-86,299v-80,-27,-160,-54,-266,-54v-111,0,-196,37,-256,112v-60,75,-90,186,-90,333","w":1349},"H":{"d":"848,-1468v121,-20,242,-23,362,0r0,1462v-149,24,-214,24,-362,0r0,-598r-363,0r0,598v-151,24,-214,24,-362,0r0,-1462v37,-5,70,-9,100,-12v95,-10,174,-2,262,12r0,542r363,0r0,-542","w":1333},"I":{"d":"123,-1468v121,-20,242,-23,362,0r0,1462v-149,24,-214,24,-362,0r0,-1462","w":608},"J":{"d":"72,-311v63,13,182,33,238,-5v36,-25,57,-65,57,-133r0,-704r-224,0v-24,-116,-24,-203,0,-320r586,0r0,1065v-2,295,-178,428,-469,433v-78,0,-164,-15,-225,-33v-12,-110,3,-203,37,-303","w":841},"K":{"d":"1296,-6v-114,24,-294,23,-407,0r-375,-737r346,-725v130,-24,277,-20,404,0r-351,706xm123,-1468v121,-20,242,-23,362,0r0,1462v-151,24,-214,24,-362,0r0,-1462","w":1296},"L":{"d":"958,-322v22,108,23,214,0,322r-835,0r0,-1468v37,-5,70,-9,100,-12v95,-10,174,-2,262,12r0,1146r473,0","w":1005},"M":{"d":"1534,-6v-107,22,-223,26,-348,0r-29,-848r-225,559v-86,15,-189,21,-273,0r-200,-551r-23,840v-120,24,-205,24,-330,0r60,-1462v29,-4,60,-8,93,-12v94,-12,189,-2,271,12r291,761r301,-761v79,-12,166,-24,254,-12v30,3,59,7,88,12","w":1640},"N":{"d":"897,-1468v110,-19,224,-25,330,0r-2,1462v-58,17,-166,24,-236,11v-27,-5,-47,-8,-59,-11r-477,-799r0,799v-124,24,-205,24,-330,0r0,-1462v94,-20,209,-23,299,0r475,802r0,-802","w":1349},"O":{"d":"122,-429v-51,-181,-50,-425,0,-607v51,-188,156,-323,317,-402v155,-76,424,-76,579,0v236,115,354,362,354,707v0,342,-118,587,-354,699v-155,73,-424,73,-579,0v-161,-76,-266,-213,-317,-397xm991,-731v0,-297,-87,-447,-260,-447v-177,0,-266,149,-266,447v0,149,22,260,65,333v43,73,109,109,199,109v175,0,262,-147,262,-442","w":1456},"P":{"d":"762,-975v0,-169,-110,-232,-285,-215r0,414v17,6,59,8,86,8v123,-1,199,-75,199,-207xm477,-6v-125,23,-217,24,-354,0r0,-1462v161,-23,422,-47,609,-8v243,51,398,199,398,501v0,269,-122,418,-326,477v-98,28,-223,32,-327,15r0,477","w":1198},"Q":{"d":"649,346r0,-58v4,-91,24,-155,60,-241r677,111v-4,115,-19,212,-53,305xm122,-429v-51,-181,-50,-425,0,-607v51,-188,156,-323,317,-402v155,-76,424,-76,579,0v236,115,354,362,354,707v0,342,-118,587,-354,699v-155,73,-424,73,-579,0v-161,-76,-266,-213,-317,-397xm991,-731v0,-297,-87,-447,-260,-447v-177,0,-266,149,-266,447v0,149,22,260,65,333v43,73,109,109,199,109v175,0,262,-147,262,-442","w":1456},"R":{"d":"735,-987v0,-147,-111,-217,-252,-191r0,1172v-151,24,-212,24,-360,0r0,-1462r185,-20v221,-23,464,-2,605,87v115,73,200,190,199,379v-1,189,-86,303,-190,385r319,631v-121,19,-283,23,-403,0r-291,-670v80,-39,138,-118,171,-209v12,-33,17,-67,17,-102","w":1261},"S":{"d":"635,-1196v-93,2,-167,28,-168,121v-1,86,68,112,131,137r98,39v202,81,378,166,375,448v-3,246,-138,378,-331,442v-127,42,-332,42,-470,13v-65,-14,-136,-34,-211,-63v12,-109,45,-219,78,-318v125,55,235,82,328,82v124,0,221,-25,221,-141v0,-95,-75,-120,-143,-146v-132,-51,-271,-95,-353,-193v-55,-66,-90,-149,-90,-269v0,-153,56,-262,140,-336v86,-76,214,-117,372,-117v162,0,277,35,410,80v-13,99,-45,212,-84,293v-82,-34,-174,-76,-303,-72","w":1155},"T":{"d":"1096,-1473v20,111,22,199,0,320r-342,0r0,1147v-150,24,-215,24,-363,0r0,-1147r-342,0v-24,-121,-24,-197,0,-320r1047,0","w":1142},"U":{"d":"879,-1468v127,-18,237,-21,362,0r0,837v1,304,-71,519,-287,609v-138,57,-415,57,-552,0v-216,-90,-288,-305,-287,-609r0,-837v125,-18,237,-21,362,0r0,794v1,119,5,217,39,291v28,60,75,84,162,84v86,0,136,-24,164,-84v34,-74,37,-172,37,-291r0,-794","w":1355},"V":{"d":"10,-1468v110,-20,275,-23,387,0r275,991r280,-991v112,-22,259,-22,373,0r-471,1464v-124,21,-248,20,-375,0","w":1335},"W":{"d":"6,-1466v122,-21,259,-29,381,-2r170,936r203,-936v97,-19,236,-24,332,0r213,946r170,-946v116,-24,237,-22,354,0r-352,1462v-99,23,-269,23,-369,0r-195,-848r-206,848v-67,15,-197,25,-279,12v-30,-4,-55,-8,-76,-12","w":1835},"X":{"d":"80,-1468v116,-23,270,-22,385,0r194,710r199,-710v112,-22,270,-24,383,0r-240,702r295,760v-124,23,-267,24,-385,0r-252,-731r-249,731v-116,24,-262,23,-385,0r297,-760","w":1320},"Y":{"d":"0,-1468v112,-20,279,-23,393,0r252,569r242,-569v116,-22,270,-22,387,0r-457,940r0,522v-151,24,-214,24,-362,0r0,-522r-229,-470","w":1273},"Z":{"d":"104,-1153v-22,-101,-21,-219,0,-320r998,0r31,60r-562,1096r494,0v25,117,23,201,0,317r-987,0r-37,-55r565,-1098r-502,0","w":1181},"[":{"d":"625,51v23,93,24,200,0,293r-523,0r0,-1933r523,0v24,99,23,182,0,293r-185,0r0,1347r185,0","w":704},"\\":{"d":"10,-1468v109,-22,230,-23,336,0r496,1464v-110,21,-230,21,-336,0","w":851},"]":{"d":"80,344v-25,-93,-24,-200,0,-293r184,0r0,-1347r-184,0v-24,-110,-25,-194,0,-293r522,0r0,1933r-522,0","w":704},"^":{"d":"559,-1124r-145,376v-101,23,-221,27,-332,0r332,-720v85,-20,218,-22,305,0r323,720v-111,25,-230,25,-331,0","w":1124},"_":{"d":"16,266v-22,-89,-20,-174,2,-262r990,0v22,91,20,171,-2,262r-990,0","w":1024},"`":{"d":"791,-1200v-85,18,-219,15,-299,0r-299,-252v107,-16,275,-16,378,0","w":983},"a":{"d":"545,23v-281,-3,-482,-89,-484,-369v-1,-137,68,-219,154,-270v109,-65,263,-74,434,-70v-7,-99,-97,-123,-203,-123v-85,0,-175,21,-249,47v-38,-71,-70,-143,-66,-256v109,-38,242,-65,371,-65v296,0,465,139,465,438r0,600v-111,31,-271,70,-422,68xm362,-352v0,99,89,118,183,121v22,0,87,-8,104,-13r0,-225r-117,0v-86,-1,-170,36,-170,117","w":1071},"b":{"d":"950,-48v-179,97,-568,80,-835,46r0,-1053v119,-16,268,-27,401,-28v171,0,298,25,383,73v85,48,127,123,127,226v-1,114,-60,176,-133,225v57,21,104,50,141,88v37,38,56,92,56,162v0,125,-48,211,-140,261xm721,-332v0,-118,-140,-106,-264,-106r0,211v4,0,15,1,33,2v18,1,41,2,71,2v98,1,160,-27,160,-109xm688,-758v0,-62,-47,-97,-129,-94v-15,0,-33,0,-53,1v-20,1,-36,2,-49,3r0,195r100,0v87,4,131,-39,131,-105","w":1150},"c":{"d":"930,-33v-108,44,-197,58,-328,58v-270,0,-433,-125,-504,-325v-46,-131,-46,-321,0,-454v48,-137,138,-233,268,-288v123,-53,327,-53,462,-12v27,8,57,18,90,30v5,108,-23,196,-64,272v-67,-23,-126,-38,-213,-36v-149,4,-227,87,-227,260v0,166,74,258,233,258v91,0,133,-17,207,-43v46,73,76,161,76,280","w":964},"d":{"d":"459,25v-135,0,-226,-11,-344,-27r0,-1053v57,-7,118,-13,182,-19v164,-16,339,-11,464,30v215,70,339,227,339,503v0,395,-235,566,-641,566xm537,-793v-27,0,-57,3,-76,7r0,518v19,1,34,5,61,4v168,-3,228,-94,228,-277v0,-162,-65,-249,-213,-252","w":1163},"e":{"d":"1017,-790v39,105,37,255,17,370r-622,0v29,108,97,154,227,154v97,0,200,-25,279,-58v38,69,71,176,73,281v-191,73,-437,97,-625,27v-197,-73,-303,-244,-303,-506v0,-259,110,-434,295,-517v116,-52,304,-60,424,-7v113,50,191,136,235,256xm735,-655v-5,-94,-59,-170,-160,-168v-99,2,-160,65,-167,168r327,0","w":1101},"f":{"d":"813,-606v22,90,21,199,0,289r-352,0r0,313v-105,22,-241,22,-346,0r0,-1055r782,0v22,90,22,199,0,289r-436,0r0,164r352,0","w":944},"g":{"d":"1022,-51v-99,37,-256,78,-414,76v-283,-3,-449,-128,-515,-343v-41,-135,-42,-302,6,-432v50,-137,146,-235,281,-290v179,-73,420,-44,589,30v-8,110,-45,191,-78,277v-74,-31,-148,-54,-232,-55v-164,-2,-243,93,-245,251v-3,186,82,277,270,267r0,-301v118,-24,210,-26,338,0r0,520","w":1097},"h":{"d":"1110,-2v-116,20,-231,21,-346,0r0,-389r-303,0r0,389v-116,20,-231,21,-346,0r0,-1057v105,-24,241,-24,346,0r0,361r303,0r0,-361v105,-24,241,-24,346,0r0,1057","w":1224},"i":{"d":"115,-1059v105,-24,241,-24,346,0r0,1057v-116,20,-231,21,-346,0r0,-1057","w":575},"j":{"d":"184,-274v101,4,144,-48,144,-154r0,-342r-205,0v-23,-91,-23,-199,0,-289r551,0r0,651v-1,291,-161,433,-445,433v-64,0,-144,-14,-204,-35v-1,-11,-2,-22,-3,-32v-7,-95,14,-171,37,-249v34,8,86,15,125,17","w":772},"k":{"d":"461,-4v-114,22,-232,21,-346,0r0,-1055v105,-24,241,-24,346,0r0,1055xm1143,-4v-107,20,-274,23,-377,0r-272,-549r241,-506v108,-21,274,-22,379,0r-254,492","w":1153},"l":{"d":"117,-1059v105,-24,241,-24,346,0r-2,770r387,0v22,90,22,199,0,289r-733,0","w":894},"m":{"d":"115,-1008v119,-39,246,-74,426,-71v125,1,234,15,317,67v74,-37,172,-69,287,-67v124,2,241,19,319,79v98,76,156,198,156,386r0,612v-114,22,-232,21,-346,0r0,-576v-1,-134,-34,-199,-158,-202v-30,-1,-76,9,-94,16v12,48,18,103,18,164r0,598v-115,22,-231,21,-346,0r0,-576v-2,-134,-29,-199,-153,-202v-22,-1,-68,5,-80,12r0,766v-114,22,-232,21,-346,0r0,-1006","w":1724},"n":{"d":"115,-1008v118,-39,251,-74,430,-71v135,2,258,18,343,79v104,75,165,196,165,386r0,612v-114,22,-232,21,-346,0r0,-576v0,-135,-43,-199,-166,-202v-22,-1,-68,5,-80,12r0,766v-114,22,-232,21,-346,0r0,-1006","w":1157},"o":{"d":"97,-300v-46,-132,-45,-319,0,-452v68,-203,225,-331,493,-331v270,0,426,127,494,331v44,133,45,320,0,452v-69,201,-226,325,-494,325v-266,0,-424,-125,-493,-325xm590,-256v136,0,178,-117,178,-268v0,-87,-15,-154,-44,-201v-29,-47,-74,-70,-134,-70v-60,0,-103,24,-133,70v-55,83,-56,316,0,399v30,45,73,70,133,70","w":1181},"p":{"d":"668,-666v0,-114,-93,-168,-215,-151r0,305v122,18,215,-26,215,-154xm453,-2v-113,21,-226,22,-338,0r0,-1053v238,-31,563,-61,731,53v97,66,161,168,160,336v-1,226,-118,347,-294,396v-79,22,-176,28,-259,16r0,252","w":1056},"q":{"d":"524,285v3,-84,20,-178,45,-244r559,80v-3,85,-19,177,-45,244xm97,-300v-46,-132,-45,-319,0,-452v68,-203,225,-331,493,-331v270,0,426,127,494,331v44,133,45,320,0,452v-69,201,-226,325,-494,325v-266,0,-424,-125,-493,-325xm590,-256v136,0,178,-117,178,-268v0,-87,-15,-154,-44,-201v-29,-47,-74,-70,-134,-70v-60,0,-103,24,-133,70v-55,83,-56,316,0,399v30,45,73,70,133,70","w":1181},"r":{"d":"457,-2v-114,21,-229,22,-342,0r0,-1053v119,-15,266,-28,395,-28v165,0,288,33,372,93v108,78,150,221,110,372v-20,77,-63,125,-115,167r233,447v-112,21,-278,22,-387,0r-227,-483v49,-28,107,-68,126,-104v16,-31,27,-64,27,-99v-2,-77,-47,-123,-133,-121v-26,0,-46,1,-59,4r0,805","w":1124},"s":{"d":"791,-748v-66,-28,-186,-60,-277,-59v-64,0,-96,18,-96,53v0,36,43,47,74,56v122,35,255,55,330,135v48,51,79,119,77,219v-4,192,-122,292,-279,340v-179,55,-415,29,-571,-35v7,-93,32,-187,76,-283v91,43,202,69,332,60v33,-2,62,-13,81,-29v22,-20,15,-60,-14,-73v-59,-25,-134,-42,-200,-62v-137,-41,-255,-129,-252,-305v3,-184,118,-282,265,-327v168,-52,382,-14,531,38v-5,92,-43,204,-77,272","w":962},"t":{"d":"696,-2v-116,20,-231,21,-346,0r0,-768r-303,0v-22,-90,-22,-199,0,-289r952,0v22,90,24,199,0,289r-303,0r0,768","w":1046},"u":{"d":"696,-1059v105,-24,241,-24,346,0r0,1010v-210,74,-591,122,-779,-11v-107,-76,-159,-203,-159,-401r0,-598v106,-24,242,-24,347,0r0,570v1,148,35,208,165,213v35,0,58,-2,80,-7r0,-776","w":1157},"v":{"d":"10,-1059v100,-14,281,-18,383,0r187,635r180,-635v100,-17,280,-14,379,0r-402,1055v-99,21,-238,23,-334,0","w":1148},"w":{"d":"12,-1059v97,-14,274,-18,373,0r133,627r148,-627v94,-24,231,-21,327,0r146,610r127,-610v93,-17,266,-15,358,0r-332,1055v-95,24,-229,21,-327,0r-150,-574r-156,574v-97,21,-231,23,-325,0","w":1636},"x":{"d":"51,-1059v93,-14,265,-18,361,0r137,492r135,-492v95,-17,269,-15,363,0r-185,508r225,549v-91,17,-259,20,-350,0r-188,-524r-189,524v-91,20,-262,16,-350,-2r226,-547","w":1097},"y":{"d":"10,-1059v97,-14,275,-18,375,0r201,404r200,-404v94,-18,266,-14,359,0r-395,686r0,371v-116,20,-231,21,-347,0r0,-371","w":1155},"z":{"d":"92,-778v-21,-92,-22,-190,0,-281r834,0r20,66r-430,712r391,0v19,109,20,182,0,281r-860,0r-33,-61r428,-717r-350,0","w":985},"{":{"d":"606,-193v0,128,-5,244,121,242r64,0v24,115,24,171,0,285v-106,11,-224,1,-297,-27v-157,-60,-207,-209,-218,-416v-7,-131,12,-287,-44,-373v-32,-49,-80,-80,-140,-110r0,-94v83,-41,150,-83,168,-182v27,-147,5,-350,41,-486v50,-186,188,-269,435,-260v13,0,31,1,55,4v24,116,24,171,0,285r-64,0v-126,-1,-121,114,-121,242v0,208,-15,362,-131,444v116,81,131,240,131,446","w":880},"|":{"d":"356,-1602v57,0,115,8,170,17r0,1923v-141,24,-198,24,-338,0r0,-1923v58,-9,110,-17,168,-17","w":714},"}":{"d":"274,-1083v-1,-127,6,-244,-120,-242r-64,0v-24,-114,-24,-168,0,-285v183,-18,342,19,422,115v95,114,92,328,98,532v3,108,30,180,94,227v22,17,50,33,84,50r0,94v-83,42,-149,85,-168,182v-28,146,-4,350,-40,488v-49,187,-190,269,-436,260v-13,0,-31,-1,-54,-4v-24,-115,-24,-169,0,-285r64,0v126,2,119,-115,120,-242v1,-208,16,-363,132,-446v-115,-81,-131,-238,-132,-444","w":880},"~":{"d":"4,-872v74,-88,230,-182,393,-130r166,54v49,15,109,18,151,-4v35,-18,61,-36,93,-66v64,60,115,145,143,232v-76,92,-235,177,-400,126r-169,-52v-25,-7,-49,-11,-72,-11v-84,-1,-113,39,-164,80v-59,-62,-117,-139,-141,-229","w":954},"\u00a0":{"w":450},"\u00a1":{"d":"492,0v-116,17,-248,17,-365,0r18,-954v141,-24,185,-26,328,0xm481,-1126v-107,20,-235,21,-344,0v-4,-31,-7,-61,-10,-89v-9,-88,0,-172,10,-253v109,-21,235,-23,344,0v4,31,8,61,11,90v11,90,-1,170,-11,252","w":618},"\u00a2":{"d":"696,238v-61,19,-171,21,-231,0r0,-226v-200,-37,-321,-165,-376,-348v-35,-118,-35,-263,0,-382v54,-183,178,-314,376,-353r0,-225v59,-21,171,-22,231,0r0,219v81,8,138,27,211,55v5,108,-22,196,-63,272v-67,-23,-126,-38,-211,-38v-142,0,-219,103,-219,260v0,164,81,258,221,258v91,0,134,-19,209,-45v46,73,76,161,76,280v-73,29,-140,48,-224,55r0,218","w":954},"\u00a3":{"d":"1090,-315v20,105,19,210,0,315r-940,0r-19,-63v117,-97,196,-275,168,-498r-170,0v-18,-99,-19,-185,0,-283r125,0v-10,-115,-15,-235,22,-333v44,-117,128,-205,246,-255v63,-27,137,-41,223,-41v150,0,248,26,355,72v-9,106,-37,205,-82,295v-66,-31,-134,-63,-236,-63v-96,0,-150,48,-173,119v-20,61,-4,145,3,206r297,0v18,99,21,186,0,283r-256,0v3,7,2,17,2,26v-1,81,-11,160,-39,220r474,0","w":1191},"\u00a4":{"d":"180,-500v-28,-55,-47,-122,-47,-200v0,-78,24,-150,51,-205r-135,-137v45,-99,113,-154,205,-207r141,141v124,-60,273,-60,398,0r141,-143v79,52,155,118,203,204r-136,134v31,59,56,127,56,213v0,78,-23,149,-49,206r66,68r65,61v-53,80,-122,155,-207,205r-135,-137v-125,63,-283,62,-410,0r-133,135v-98,-45,-155,-115,-207,-205xm594,-893v-103,0,-178,85,-178,193v0,109,74,188,178,188v105,0,180,-78,180,-188v0,-109,-75,-193,-180,-193"},"\u00a5":{"d":"111,-313v-14,-40,-15,-145,0,-191r307,0r0,-127r-307,0v-14,-40,-15,-144,0,-190r223,0r-330,-627v106,-14,270,-16,377,0r227,492r217,-492v111,-18,260,-15,373,0r-334,627r256,0v13,47,14,149,0,190r-340,0r0,127r340,0v13,47,14,149,0,191r-340,0r0,309v-117,22,-244,21,-362,0r0,-309r-307,0","w":1202},"\u00a6":{"d":"356,-1602v57,0,115,8,170,17r0,678v-112,20,-226,20,-338,0r0,-678v58,-9,110,-17,168,-17xm188,-338v112,-20,226,-21,338,0r0,676v-141,24,-198,24,-338,0r0,-676","w":714},"\u00a7":{"d":"211,-311v71,33,189,67,305,67v53,0,90,-6,112,-15v41,-17,39,-64,6,-83v-16,-9,-36,-18,-59,-25r-213,-63v-93,-29,-158,-69,-195,-120v-99,-137,-62,-304,69,-398v-50,-40,-70,-100,-70,-180v0,-108,43,-191,126,-254v158,-120,505,-111,703,-27v-5,92,-45,200,-80,266v-74,-29,-170,-62,-274,-63v-47,0,-80,6,-99,18v-33,19,-39,58,-6,80v14,10,31,19,50,25r241,69v90,27,151,65,185,114v34,49,51,102,51,159v0,115,-52,185,-127,241v83,62,94,231,33,326v-84,132,-256,199,-471,199v-141,0,-265,-23,-375,-66v6,-95,49,-203,88,-270xm451,-838v-25,29,-54,90,-15,128v14,13,35,27,66,36r217,60v34,-34,47,-87,15,-128v-12,-16,-41,-30,-85,-42","w":1169},"\u00a8":{"d":"580,-1200v-17,-83,-17,-163,0,-246v85,-16,199,-16,284,0v16,82,18,164,0,246v-85,15,-200,16,-284,0xm119,-1200v-17,-83,-17,-163,0,-246v84,-16,199,-16,284,0v16,82,18,164,0,246v-85,15,-199,16,-284,0","w":983},"\u00a9":{"d":"709,-737v0,113,59,175,165,176v52,0,104,-13,156,-39v31,63,57,154,60,246v-83,34,-154,45,-256,45v-205,0,-327,-103,-382,-257v-36,-102,-38,-232,0,-335v37,-105,106,-184,204,-229v50,-23,106,-35,169,-35v114,1,167,9,256,45v-1,87,-19,180,-53,243v-46,-18,-103,-33,-160,-34v-99,0,-159,70,-159,174xm586,-206v134,58,337,58,470,0v196,-85,326,-259,326,-529v0,-270,-131,-446,-326,-530v-134,-58,-337,-58,-470,0v-195,85,-326,260,-326,530v0,269,131,445,326,529xm1132,-32v-182,77,-439,77,-621,0v-185,-78,-320,-214,-395,-400v-73,-182,-73,-423,0,-606v75,-188,210,-322,395,-400v182,-77,438,-77,621,-2v186,77,319,216,394,402v73,182,73,425,0,606v-75,186,-209,322,-394,400","w":1642},"\u00aa":{"d":"301,-911v2,85,113,76,193,69r0,-155v-89,-7,-196,-7,-193,86xm754,-678v-154,53,-462,90,-600,-9v-64,-45,-105,-109,-105,-216v0,-109,53,-174,121,-215v79,-48,201,-63,324,-53v-8,-73,-50,-92,-138,-93v-57,0,-123,12,-196,35v-35,-55,-56,-116,-58,-194v83,-26,191,-50,289,-50v230,0,363,104,363,340r0,455","w":874},"\u00ab":{"d":"432,-545r316,455v-116,22,-258,25,-367,0r-320,-455r320,-454v107,-26,251,-24,367,0xm979,-545r316,455v-116,22,-258,25,-367,0r-320,-455r320,-454v107,-26,251,-24,367,0","w":1337},"\u00ac":{"d":"152,-578v-21,-93,-23,-200,0,-292r899,0r0,612v-98,20,-188,22,-293,0r0,-320r-606,0"},"\u00ad":{"d":"653,-715v22,96,24,213,0,309r-549,0v-24,-117,-24,-192,0,-309r549,0","w":755},"\u00ae":{"d":"1155,-897v0,107,-49,170,-104,217r139,320v-27,3,-54,5,-79,7v-63,4,-134,7,-191,-5r-140,-361v45,-35,119,-81,119,-158v0,-60,-39,-91,-106,-90r-41,0r0,609v-79,14,-165,13,-244,0r0,-791v83,-13,151,-22,246,-22v134,0,234,25,301,73v67,48,100,115,100,201xm586,-206v134,58,337,58,470,0v196,-85,326,-259,326,-529v0,-270,-131,-446,-326,-530v-134,-58,-337,-58,-470,0v-195,85,-326,260,-326,530v0,269,131,445,326,529xm1132,-32v-182,77,-439,77,-621,0v-185,-78,-320,-214,-395,-400v-73,-182,-73,-423,0,-606v75,-188,210,-322,395,-400v182,-77,438,-77,621,-2v186,77,319,216,394,402v73,182,73,425,0,606v-75,186,-209,322,-394,400","w":1642},"\u00af":{"d":"182,-1231v-19,-68,-19,-162,0,-229r619,0v19,71,19,159,0,229r-619,0","w":983},"\u00b0":{"d":"84,-1030v-36,-77,-36,-179,0,-256v53,-112,154,-201,311,-201v158,0,261,88,313,201v35,77,36,179,0,256v-52,112,-156,199,-313,199v-157,0,-258,-88,-311,-199xm395,-1282v-61,0,-116,60,-116,125v0,64,56,121,116,121v60,0,119,-57,119,-121v0,-66,-58,-125,-119,-125","w":792},"\u00b1":{"d":"1038,-270v21,93,23,200,0,293r-893,0v-18,-95,-18,-198,0,-293r301,0r0,-308r-301,0v-18,-95,-17,-197,0,-292r301,0r0,-326v92,-21,201,-20,293,0r0,326r299,0v21,92,23,200,0,292r-299,0r0,308r299,0"},"\u00b2":{"d":"369,-1473v192,0,344,94,340,277v-3,150,-93,234,-164,322r-23,26r221,0v17,72,19,151,0,223r-651,0r-18,-47r223,-270v48,-57,83,-104,105,-140v22,-36,32,-66,32,-89v0,-53,-43,-79,-100,-78v-84,2,-114,24,-184,53v-26,-55,-57,-133,-64,-209v64,-37,182,-68,283,-68","w":921},"\u00b3":{"d":"369,-987v-39,1,-55,4,-97,16r-36,-43r147,-215r-236,0v-17,-67,-17,-148,0,-215r572,0r24,43r-174,264v113,25,190,111,191,238v1,108,-48,178,-112,226v-66,49,-165,76,-277,77v-110,1,-203,-21,-279,-47v1,-77,36,-166,68,-213v46,20,124,50,192,49v70,-1,145,-25,142,-94v-2,-57,-53,-88,-125,-86","w":921},"\u00b4":{"d":"492,-1200v-79,15,-215,18,-299,0r219,-252v105,-16,271,-16,379,0","w":983},"\u00b5":{"d":"1055,-49v-102,34,-239,72,-383,72v-95,0,-171,-20,-211,-54r0,492v-105,24,-241,24,-346,0r0,-1520v106,-24,242,-24,348,0r0,570v1,148,36,208,166,213v36,0,57,-2,80,-7r0,-776v105,-24,241,-24,346,0r0,1010","w":1169},"\u00b6":{"d":"889,-1485v27,0,65,1,113,2v48,1,92,5,135,10r0,1473v-56,9,-164,12,-248,12r0,-1497xm780,12v-87,0,-189,-3,-248,-12r0,-627v-196,-8,-342,-79,-411,-220v-26,-51,-39,-114,-39,-187v0,-163,58,-279,174,-348v116,-69,291,-103,524,-103r0,1497","w":1269},"\u00b7":{"d":"129,-836v110,-17,236,-18,348,0v22,111,22,238,0,349v-110,21,-238,21,-348,0v-21,-111,-21,-238,0,-349","w":606},"\u00b8":{"d":"512,291v0,-39,-35,-56,-82,-55v-49,1,-68,6,-121,22r-41,-41r172,-270r172,0r-100,155v131,3,240,60,240,179v0,71,-31,123,-90,161v-95,61,-305,71,-429,25v2,-43,19,-107,43,-137v49,15,83,22,142,22v58,1,94,-18,94,-61","w":983},"\u00b9":{"d":"762,-846v17,72,16,149,0,221r-576,0v-16,-73,-17,-149,0,-221r166,0r0,-303r-141,55v-42,-55,-75,-129,-94,-200r415,-164r68,0r0,612r162,0","w":921},"\u00ba":{"d":"444,-836v95,0,118,-93,119,-202v0,-65,-12,-114,-29,-150v-33,-68,-141,-70,-176,-1v-33,63,-36,237,0,300v20,35,47,53,86,53xm68,-876v-31,-102,-31,-221,0,-324v33,-107,101,-188,197,-236v97,-48,263,-48,360,0v139,68,225,202,225,398v0,195,-86,328,-224,395v-97,47,-265,48,-361,0v-96,-48,-164,-126,-197,-233","w":894},"\u00bb":{"d":"43,-999v113,-22,260,-28,367,0r319,454r-319,455v-106,25,-254,23,-367,0r315,-455xm588,-999v113,-22,260,-28,367,0r319,454r-319,455v-106,25,-254,23,-367,0r315,-455","w":1335},"\u00bc":{"d":"1765,-2v-71,11,-156,15,-229,0r0,-111r-414,0r-26,-43r317,-700v89,10,149,27,211,72r-207,477r119,0r0,-131v73,-10,156,-11,229,0r0,131r74,0v15,65,17,128,0,194r-74,0r0,111xm709,-4v-99,15,-211,19,-314,0r846,-1448v99,-15,211,-19,313,0xm678,-846v17,72,16,149,0,221r-576,0v-16,-73,-17,-149,0,-221r166,0r0,-303r-141,55v-42,-55,-75,-129,-94,-200r415,-164r68,0r0,612r162,0","w":1898},"\u00bd":{"d":"709,-4v-99,15,-211,19,-314,0r846,-1448v99,-15,211,-19,313,0xm678,-846v17,72,16,149,0,221r-576,0v-16,-73,-17,-149,0,-221r166,0r0,-303r-141,55v-42,-55,-75,-129,-94,-200r415,-164r68,0r0,612r162,0xm1538,-850v192,0,344,94,340,277v-3,150,-93,234,-164,322r-23,26r221,0v17,72,19,151,0,223r-651,0r-18,-47r223,-270v48,-57,82,-105,104,-141v22,-36,33,-65,33,-88v0,-53,-43,-79,-100,-78v-84,2,-114,24,-184,53v-26,-55,-57,-133,-64,-209v64,-37,182,-68,283,-68","w":1972},"\u00be":{"d":"1731,-16v-74,11,-155,15,-230,0r0,-111r-414,0r-26,-43r317,-700v89,10,149,27,211,71r-207,477r119,0r0,-131v74,-10,157,-11,230,0r0,131r73,0v15,65,19,129,0,195r-73,0r0,111xm674,-4v-99,15,-211,19,-314,0r846,-1448v99,-15,211,-19,314,0xm326,-987v-39,1,-55,4,-97,16r-36,-43r147,-215r-236,0v-17,-67,-17,-148,0,-215r572,0r24,43r-174,264v113,25,190,111,191,238v1,108,-48,178,-112,226v-66,49,-165,76,-277,77v-110,1,-203,-21,-279,-47v1,-77,36,-166,68,-213v46,20,124,50,192,49v70,-1,145,-25,142,-94v-2,-57,-53,-88,-125,-86","w":1863},"\u00bf":{"d":"383,-420v-5,169,248,158,380,111r73,-25v33,78,67,173,77,273v-136,47,-216,73,-374,73v-165,0,-290,-37,-373,-112v-83,-75,-125,-179,-125,-312v1,-178,99,-280,207,-350v33,-22,65,-37,92,-49r0,-186v30,-4,59,-8,88,-11v84,-10,164,-1,240,11r0,385v-107,13,-210,40,-260,111v-16,23,-25,50,-25,81xm686,-1108v-110,17,-236,18,-348,0v-21,-110,-21,-238,0,-348v110,-22,237,-22,348,0v21,110,21,238,0,348","w":980},"\u00c0":{"d":"639,-256v-73,0,-135,-11,-199,-29r-75,281v-117,23,-237,18,-355,-4r459,-1462v35,-4,68,-7,99,-10v99,-10,189,-1,284,10r453,1464v-141,22,-247,25,-375,2r-78,-285v-68,19,-134,33,-213,33xm514,-559v79,28,185,28,268,2r-131,-528xm834,-1599v-85,18,-219,15,-299,0r-299,-252v107,-16,275,-16,378,0","w":1314},"\u00c1":{"d":"639,-256v-73,0,-135,-11,-199,-29r-75,281v-117,23,-237,18,-355,-4r459,-1462v35,-4,68,-7,99,-10v99,-10,189,-1,284,10r453,1464v-141,22,-247,25,-375,2r-78,-285v-68,19,-134,33,-213,33xm514,-559v79,28,185,28,268,2r-131,-528xm540,-1599v85,18,219,15,299,0r299,-252v-107,-16,-275,-16,-378,0","w":1314},"\u00c2":{"d":"639,-256v-73,0,-135,-11,-199,-29r-75,281v-117,23,-237,18,-355,-4r459,-1462v35,-4,68,-7,99,-10v99,-10,189,-1,284,10r453,1464v-141,22,-247,25,-375,2r-78,-285v-68,19,-134,33,-213,33xm514,-559v79,28,185,28,268,2r-131,-528xm1063,-1599v-85,19,-218,20,-305,0r-100,-98r-101,98v-70,18,-156,15,-237,11v-27,-2,-50,-6,-68,-11r260,-252v87,-14,204,-14,291,0","w":1314},"\u00c3":{"d":"639,-256v-73,0,-135,-11,-199,-29r-75,281v-117,23,-237,18,-355,-4r459,-1462v35,-4,68,-7,99,-10v99,-10,189,-1,284,10r453,1464v-141,22,-247,25,-375,2r-78,-285v-68,19,-134,33,-213,33xm514,-559v79,28,185,28,268,2r-131,-528xm361,-1603v-43,-44,-76,-112,-95,-178v50,-57,132,-112,238,-111v118,2,183,74,303,74v75,0,98,-19,147,-64v43,45,74,112,95,178v-57,76,-189,140,-318,99r-78,-25v-47,-15,-90,-37,-147,-37v-71,0,-104,20,-145,64","w":1314},"\u00c4":{"d":"639,-256v-73,0,-135,-11,-199,-29r-75,281v-117,23,-237,18,-355,-4r459,-1462v35,-4,68,-7,99,-10v99,-10,189,-1,284,10r453,1464v-141,22,-247,25,-375,2r-78,-285v-68,19,-134,33,-213,33xm514,-559v79,28,185,28,268,2r-131,-528xm746,-1599v-17,-83,-17,-163,0,-246v85,-16,199,-16,284,0v16,82,18,164,0,246v-85,15,-200,16,-284,0xm285,-1599v-17,-83,-17,-163,0,-246v84,-16,199,-16,284,0v16,82,18,164,0,246v-85,15,-199,16,-284,0","w":1314},"\u00c5":{"d":"639,-256v-73,0,-135,-11,-199,-29r-75,281v-117,23,-237,18,-355,-4r459,-1460v-42,-43,-63,-97,-63,-162v0,-146,113,-234,256,-234v143,0,256,88,256,234v0,67,-22,121,-66,162r453,1462v-141,22,-247,25,-375,2r-78,-285v-68,19,-134,33,-213,33xm514,-559v79,28,185,28,268,2r-131,-528xm559,-1630v0,59,44,102,103,102v57,0,102,-44,102,-102v0,-56,-46,-103,-102,-103v-59,0,-103,44,-103,103","w":1314},"\u00c6":{"d":"1835,-1473v20,111,22,199,0,320r-510,0r0,225r404,0v24,123,24,199,0,320r-404,0r0,291r522,0v25,118,25,200,0,317r-876,0r0,-340v-39,8,-122,18,-180,18v-89,0,-170,-17,-236,-38r-180,360v-114,18,-269,16,-375,0r795,-1473r1040,0xm690,-623v73,26,201,31,281,9r0,-560","w":1927},"\u00c7":{"d":"717,291v0,-39,-35,-56,-82,-55v-49,1,-68,6,-121,22r-41,-41r135,-213v-260,-56,-423,-225,-491,-473v-49,-178,-43,-401,14,-569v64,-187,182,-326,356,-402v199,-87,487,-70,680,15v-4,111,-49,223,-86,301v-80,-27,-160,-54,-266,-54v-111,0,-196,37,-257,112v-61,75,-91,186,-91,333v0,289,121,434,364,434v111,0,169,-22,267,-53v45,98,75,199,90,303v-118,47,-238,71,-397,72r-23,-3r-51,82v131,3,239,60,239,179v0,71,-31,123,-89,161v-94,61,-306,71,-429,25v2,-43,19,-107,43,-137v49,15,83,22,142,22v58,1,94,-18,94,-61","w":1247},"\u00c8":{"d":"987,-1473v21,111,24,199,0,320r-502,0r0,225r396,0v24,123,24,199,0,320r-396,0r0,291r514,0v25,118,25,200,0,317r-876,0r0,-1473r864,0xm795,-1599v-85,18,-219,15,-299,0r-299,-252v107,-16,275,-16,378,0","w":1079},"\u00c9":{"d":"987,-1473v21,111,24,199,0,320r-502,0r0,225r396,0v24,123,24,199,0,320r-396,0r0,291r514,0v25,118,25,200,0,317r-876,0r0,-1473r864,0xm438,-1599v85,18,219,15,299,0r299,-252v-107,-16,-275,-16,-378,0","w":1079},"\u00ca":{"d":"987,-1473v21,111,24,199,0,320r-502,0r0,225r396,0v24,123,24,199,0,320r-396,0r0,291r514,0v25,118,25,200,0,317r-876,0r0,-1473r864,0xm965,-1599v-85,19,-218,20,-305,0r-100,-98r-101,98v-70,18,-156,15,-237,11v-27,-2,-50,-6,-68,-11r260,-252v87,-14,204,-14,291,0","w":1079},"\u00cb":{"d":"987,-1473v21,111,24,199,0,320r-502,0r0,225r396,0v24,123,24,199,0,320r-396,0r0,291r514,0v25,118,25,200,0,317r-876,0r0,-1473r864,0xm646,-1599v-17,-83,-17,-163,0,-246v85,-16,199,-16,284,0v16,82,18,164,0,246v-85,15,-200,16,-284,0xm185,-1599v-17,-83,-17,-163,0,-246v84,-16,199,-16,284,0v16,82,18,164,0,246v-85,15,-199,16,-284,0","w":1079},"\u00cc":{"d":"123,-1468v121,-20,242,-23,362,0r0,1462v-149,24,-214,24,-362,0r0,-1462xm482,-1599v-85,18,-219,15,-299,0r-299,-252v107,-16,275,-16,378,0","w":608},"\u00cd":{"d":"123,-1468v121,-20,242,-23,362,0r0,1462v-149,24,-214,24,-362,0r0,-1462xm172,-1599v85,18,219,15,299,0r299,-252v-107,-16,-275,-16,-378,0","w":608},"\u00ce":{"d":"123,-1468v121,-20,242,-23,362,0r0,1462v-149,24,-214,24,-362,0r0,-1462xm711,-1599v-85,19,-218,20,-305,0r-100,-98r-101,98v-70,18,-156,15,-237,11v-27,-2,-50,-6,-68,-11r260,-252v87,-14,204,-14,291,0","w":608},"\u00cf":{"d":"123,-1468v121,-20,242,-23,362,0r0,1462v-149,24,-214,24,-362,0r0,-1462xm394,-1599v-17,-83,-17,-163,0,-246v85,-16,199,-16,284,0v16,82,18,164,0,246v-85,15,-200,16,-284,0xm-67,-1599v-17,-83,-17,-163,0,-246v84,-16,199,-16,284,0v16,82,18,164,0,246v-85,15,-199,16,-284,0","w":608},"\u00d0":{"d":"508,25v-137,1,-263,-16,-385,-31r0,-627r-109,0v-24,-84,-24,-139,0,-223r109,0r0,-612v120,-16,268,-28,407,-29v513,0,789,258,789,770v0,526,-283,750,-811,752xm828,-1082v-73,-78,-195,-102,-343,-92r0,318r191,0v22,67,22,156,0,223r-191,0r0,336v141,10,272,-12,345,-86v74,-75,110,-187,110,-348v0,-159,-40,-274,-112,-351","w":1402},"\u00d1":{"d":"897,-1468v110,-19,224,-25,330,0r-2,1462v-58,17,-166,24,-236,11v-27,-5,-47,-8,-59,-11r-477,-799r0,799v-124,24,-205,24,-330,0r0,-1462v94,-20,209,-23,299,0r475,802r0,-802xm377,-1603v-43,-44,-76,-112,-95,-178v50,-57,132,-112,238,-111v118,2,183,74,303,74v75,0,98,-19,147,-64v43,45,74,112,95,178v-57,76,-189,140,-318,99r-78,-25v-47,-15,-90,-37,-147,-37v-71,0,-104,20,-145,64","w":1349},"\u00d2":{"d":"122,-429v-51,-181,-50,-425,0,-607v51,-188,156,-323,317,-402v155,-76,424,-76,579,0v236,115,354,362,354,707v0,342,-118,587,-354,699v-155,73,-424,73,-579,0v-161,-76,-266,-213,-317,-397xm991,-731v0,-297,-87,-447,-260,-447v-177,0,-266,149,-266,447v0,149,22,260,65,333v43,73,109,109,199,109v175,0,262,-147,262,-442xm965,-1599v-85,18,-219,15,-299,0r-299,-252v107,-16,275,-16,378,0","w":1456},"\u00d3":{"d":"122,-429v-51,-181,-50,-425,0,-607v51,-188,156,-323,317,-402v155,-76,424,-76,579,0v236,115,354,362,354,707v0,342,-118,587,-354,699v-155,73,-424,73,-579,0v-161,-76,-266,-213,-317,-397xm991,-731v0,-297,-87,-447,-260,-447v-177,0,-266,149,-266,447v0,149,22,260,65,333v43,73,109,109,199,109v175,0,262,-147,262,-442xm602,-1599v85,18,219,15,299,0r299,-252v-107,-16,-275,-16,-378,0","w":1456},"\u00d4":{"d":"122,-429v-51,-181,-50,-425,0,-607v51,-188,156,-323,317,-402v155,-76,424,-76,579,0v236,115,354,362,354,707v0,342,-118,587,-354,699v-155,73,-424,73,-579,0v-161,-76,-266,-213,-317,-397xm991,-731v0,-297,-87,-447,-260,-447v-177,0,-266,149,-266,447v0,149,22,260,65,333v43,73,109,109,199,109v175,0,262,-147,262,-442xm1133,-1599v-85,19,-218,20,-305,0r-100,-98r-101,98v-70,18,-156,15,-237,11v-27,-2,-50,-6,-68,-11r260,-252v87,-14,204,-14,291,0","w":1456},"\u00d5":{"d":"122,-429v-51,-181,-50,-425,0,-607v51,-188,156,-323,317,-402v155,-76,424,-76,579,0v236,115,354,362,354,707v0,342,-118,587,-354,699v-155,73,-424,73,-579,0v-161,-76,-266,-213,-317,-397xm991,-731v0,-297,-87,-447,-260,-447v-177,0,-266,149,-266,447v0,149,22,260,65,333v43,73,109,109,199,109v175,0,262,-147,262,-442xm431,-1603v-43,-44,-76,-112,-95,-178v50,-57,132,-112,238,-111v118,2,183,74,303,74v75,0,98,-19,147,-64v43,45,74,112,95,178v-57,76,-189,140,-318,99r-78,-25v-47,-15,-90,-37,-147,-37v-71,0,-104,20,-145,64","w":1456},"\u00d6":{"d":"122,-429v-51,-181,-50,-425,0,-607v51,-188,156,-323,317,-402v155,-76,424,-76,579,0v236,115,354,362,354,707v0,342,-118,587,-354,699v-155,73,-424,73,-579,0v-161,-76,-266,-213,-317,-397xm991,-731v0,-297,-87,-447,-260,-447v-177,0,-266,149,-266,447v0,149,22,260,65,333v43,73,109,109,199,109v175,0,262,-147,262,-442xm816,-1599v-17,-83,-17,-163,0,-246v85,-16,199,-16,284,0v16,82,18,164,0,246v-85,15,-200,16,-284,0xm355,-1599v-17,-83,-17,-163,0,-246v84,-16,199,-16,284,0v16,82,18,164,0,246v-85,15,-199,16,-284,0","w":1456},"\u00d7":{"d":"172,-932v24,-44,61,-83,92,-117v27,-30,83,-71,117,-92r213,215r209,-215v83,51,158,124,209,209r-217,209r217,213v-24,44,-61,83,-92,117v-27,29,-82,70,-115,90r-211,-219r-213,219v-83,-51,-158,-124,-209,-209r219,-211"},"\u00d8":{"d":"242,-213v-94,-126,-138,-304,-138,-518v0,-345,117,-595,356,-707v81,-39,178,-59,290,-59v154,0,276,41,368,104r60,-80v61,-13,164,-9,227,0r-156,209v93,131,144,314,144,533v0,343,-118,589,-355,699v-80,38,-176,57,-288,57v-153,0,-278,-36,-377,-107r-62,82v-60,13,-165,9,-227,0xm1012,-731v0,-68,-6,-132,-17,-191r-417,564v42,47,99,69,172,69v175,0,262,-147,262,-442xm485,-731v0,65,4,123,13,174r413,-557v-42,-42,-95,-64,-159,-64v-178,0,-267,150,-267,447","w":1488},"\u00d9":{"d":"879,-1468v127,-18,237,-21,362,0r0,837v1,304,-71,519,-287,609v-138,57,-415,57,-552,0v-216,-90,-288,-305,-287,-609r0,-837v125,-18,237,-21,362,0r0,794v1,119,5,217,39,291v28,60,75,84,162,84v86,0,136,-24,164,-84v34,-74,37,-172,37,-291r0,-794xm854,-1599v-85,18,-219,15,-299,0r-299,-252v107,-16,275,-16,378,0","w":1355},"\u00da":{"d":"879,-1468v127,-18,237,-21,362,0r0,837v1,304,-71,519,-287,609v-138,57,-415,57,-552,0v-216,-90,-288,-305,-287,-609r0,-837v125,-18,237,-21,362,0r0,794v1,119,5,217,39,291v28,60,75,84,162,84v86,0,136,-24,164,-84v34,-74,37,-172,37,-291r0,-794xm552,-1599v85,18,219,15,299,0r299,-252v-107,-16,-275,-16,-378,0","w":1355},"\u00db":{"d":"879,-1468v127,-18,237,-21,362,0r0,837v1,304,-71,519,-287,609v-138,57,-415,57,-552,0v-216,-90,-288,-305,-287,-609r0,-837v125,-18,237,-21,362,0r0,794v1,119,5,217,39,291v28,60,75,84,162,84v86,0,136,-24,164,-84v34,-74,37,-172,37,-291r0,-794xm1083,-1599v-85,19,-218,20,-305,0r-100,-98r-101,98v-70,18,-156,15,-237,11v-27,-2,-50,-6,-68,-11r260,-252v87,-14,204,-14,291,0","w":1355},"\u00dc":{"d":"879,-1468v127,-18,237,-21,362,0r0,837v1,304,-71,519,-287,609v-138,57,-415,57,-552,0v-216,-90,-288,-305,-287,-609r0,-837v125,-18,237,-21,362,0r0,794v1,119,5,217,39,291v28,60,75,84,162,84v86,0,136,-24,164,-84v34,-74,37,-172,37,-291r0,-794xm766,-1599v-17,-83,-17,-163,0,-246v85,-16,199,-16,284,0v16,82,18,164,0,246v-85,15,-200,16,-284,0xm305,-1599v-17,-83,-17,-163,0,-246v84,-16,199,-16,284,0v16,82,18,164,0,246v-85,15,-199,16,-284,0","w":1355},"\u00dd":{"d":"0,-1468v112,-20,279,-23,393,0r252,569r242,-569v116,-22,270,-22,387,0r-457,940r0,522v-151,24,-214,24,-362,0r0,-522r-229,-470xm520,-1599v85,18,219,15,299,0r299,-252v-107,-16,-275,-16,-378,0","w":1273},"\u00de":{"d":"970,-352v-107,90,-303,126,-489,98r0,248v-151,24,-209,24,-358,0r0,-1460v148,-24,208,-26,358,0r0,204v180,-2,342,15,456,92v120,80,198,211,198,420v0,189,-65,314,-165,398xm762,-745v0,-167,-110,-227,-281,-211r0,405v18,6,55,8,82,8v123,-1,199,-70,199,-202","w":1202},"\u00df":{"d":"791,-748v-66,-28,-186,-60,-277,-59v-64,0,-96,18,-96,53v0,36,43,47,74,56v122,35,255,55,330,135v48,51,79,119,77,219v-4,192,-122,292,-279,340v-179,55,-415,29,-571,-35v7,-93,32,-187,76,-283v91,43,202,69,332,60v33,-2,62,-13,81,-29v22,-20,15,-60,-14,-73v-59,-25,-134,-42,-200,-62v-137,-41,-255,-129,-252,-305v3,-184,118,-282,265,-327v168,-52,382,-14,531,38v-5,92,-43,204,-77,272xm1754,-748v-66,-28,-186,-60,-277,-59v-64,0,-96,18,-96,53v0,36,43,47,74,56v122,35,255,55,330,135v48,51,79,119,77,219v-4,192,-122,292,-279,340v-179,55,-415,29,-571,-35v7,-93,32,-187,76,-283v91,43,202,69,332,60v33,-2,62,-13,81,-29v22,-20,15,-60,-14,-73v-59,-25,-134,-42,-200,-62v-137,-41,-255,-129,-252,-305v3,-184,118,-282,265,-327v168,-52,382,-14,531,38v-5,92,-43,204,-77,272","w":1925},"\u00e0":{"d":"545,23v-281,-3,-482,-89,-484,-369v-1,-137,68,-219,154,-270v109,-65,263,-74,434,-70v-7,-99,-97,-123,-203,-123v-85,0,-175,21,-249,47v-38,-71,-70,-143,-66,-256v109,-38,242,-65,371,-65v296,0,465,139,465,438r0,600v-111,31,-271,70,-422,68xm362,-352v0,99,89,118,183,121v22,0,87,-8,104,-13r0,-225r-117,0v-86,-1,-170,36,-170,117xm754,-1200v-85,18,-219,15,-299,0r-299,-252v107,-16,275,-16,378,0","w":1071},"\u00e1":{"d":"545,23v-281,-3,-482,-89,-484,-369v-1,-137,68,-219,154,-270v109,-65,263,-74,434,-70v-7,-99,-97,-123,-203,-123v-85,0,-175,21,-249,47v-38,-71,-70,-143,-66,-256v109,-38,242,-65,371,-65v296,0,465,139,465,438r0,600v-111,31,-271,70,-422,68xm362,-352v0,99,89,118,183,121v22,0,87,-8,104,-13r0,-225r-117,0v-86,-1,-170,36,-170,117xm366,-1200v85,18,219,15,299,0r299,-252v-107,-16,-275,-16,-378,0","w":1071},"\u00e2":{"d":"545,23v-281,-3,-482,-89,-484,-369v-1,-137,68,-219,154,-270v109,-65,263,-74,434,-70v-7,-99,-97,-123,-203,-123v-85,0,-175,21,-249,47v-38,-71,-70,-143,-66,-256v109,-38,242,-65,371,-65v296,0,465,139,465,438r0,600v-111,31,-271,70,-422,68xm362,-352v0,99,89,118,183,121v22,0,87,-8,104,-13r0,-225r-117,0v-86,-1,-170,36,-170,117xm924,-1200v-85,19,-218,20,-305,0r-100,-98r-101,98v-70,18,-156,15,-237,11v-27,-2,-50,-6,-68,-11r260,-252v87,-14,204,-14,291,0","w":1071},"\u00e3":{"d":"545,23v-281,-3,-482,-89,-484,-369v-1,-137,68,-219,154,-270v109,-65,263,-74,434,-70v-7,-99,-97,-123,-203,-123v-85,0,-175,21,-249,47v-38,-71,-70,-143,-66,-256v109,-38,242,-65,371,-65v296,0,465,139,465,438r0,600v-111,31,-271,70,-422,68xm362,-352v0,99,89,118,183,121v22,0,87,-8,104,-13r0,-225r-117,0v-86,-1,-170,36,-170,117xm228,-1204v-43,-44,-76,-112,-95,-178v50,-57,132,-112,238,-111v118,2,183,74,303,74v75,0,98,-19,147,-64v43,45,74,112,95,178v-57,76,-189,140,-318,99r-78,-25v-47,-15,-90,-37,-147,-37v-71,0,-104,20,-145,64","w":1071},"\u00e4":{"d":"545,23v-281,-3,-482,-89,-484,-369v-1,-137,68,-219,154,-270v109,-65,263,-74,434,-70v-7,-99,-97,-123,-203,-123v-85,0,-175,21,-249,47v-38,-71,-70,-143,-66,-256v109,-38,242,-65,371,-65v296,0,465,139,465,438r0,600v-111,31,-271,70,-422,68xm362,-352v0,99,89,118,183,121v22,0,87,-8,104,-13r0,-225r-117,0v-86,-1,-170,36,-170,117xm623,-1200v-17,-83,-17,-163,0,-246v85,-16,199,-16,284,0v16,82,18,164,0,246v-85,15,-200,16,-284,0xm162,-1200v-17,-83,-17,-163,0,-246v84,-16,199,-16,284,0v16,82,18,164,0,246v-85,15,-199,16,-284,0","w":1071},"\u00e5":{"d":"453,-1403v0,59,43,103,102,103v56,0,102,-45,102,-103v0,-56,-46,-102,-102,-102v-59,0,-102,43,-102,102xm555,-1169v-143,1,-256,-88,-256,-234v0,-146,114,-233,256,-233v143,0,256,87,256,233v0,146,-115,233,-256,234xm545,23v-281,-3,-482,-89,-484,-369v-1,-137,68,-219,154,-270v109,-65,263,-74,434,-70v-7,-99,-97,-123,-203,-123v-85,0,-175,21,-249,47v-38,-71,-70,-143,-66,-256v109,-38,242,-65,371,-65v296,0,465,139,465,438r0,600v-111,31,-271,70,-422,68xm362,-352v0,99,89,118,183,121v22,0,87,-8,104,-13r0,-225r-117,0v-86,-1,-170,36,-170,117","w":1071},"\u00e6":{"d":"532,-459v-85,0,-170,31,-170,111v1,98,88,115,183,117v46,2,101,-12,127,-23v-28,-64,-43,-124,-47,-205r-93,0xm1294,-662v-11,-93,-55,-163,-159,-161v-100,2,-156,62,-168,161r327,0xm649,-676v-1,-109,-95,-133,-203,-133v-85,0,-175,21,-249,47v-38,-71,-70,-143,-66,-256v109,-38,242,-65,371,-65v138,0,251,32,327,96v79,-58,183,-96,318,-96v152,0,261,56,337,137v89,94,141,260,120,443r-9,63r-628,0v17,121,102,174,231,174v97,0,200,-25,279,-58v38,69,71,176,73,281v-121,45,-245,68,-372,68v-141,0,-235,-30,-318,-70v-80,42,-197,69,-330,68v-275,-2,-467,-91,-469,-365v-1,-137,67,-216,154,-267v109,-64,264,-70,434,-67","w":1660},"\u00e7":{"d":"930,-33v-108,44,-197,58,-328,58v-270,0,-433,-125,-504,-325v-46,-131,-46,-321,0,-454v48,-137,138,-233,268,-288v123,-53,327,-53,462,-12v27,8,57,18,90,30v5,108,-23,196,-64,272v-67,-23,-126,-38,-213,-36v-149,4,-227,87,-227,260v0,166,74,258,233,258v91,0,133,-17,207,-43v46,73,76,161,76,280xm522,291v0,-39,-35,-56,-82,-55v-49,1,-68,6,-121,22r-41,-41r172,-270r172,0r-100,155v131,3,240,60,240,179v0,71,-31,123,-90,161v-95,61,-305,71,-429,25v2,-43,19,-107,43,-137v49,15,83,22,142,22v58,1,94,-18,94,-61","w":964},"\u00e8":{"d":"1017,-790v39,105,37,255,17,370r-622,0v29,108,97,154,227,154v97,0,200,-25,279,-58v38,69,71,176,73,281v-191,73,-437,97,-625,27v-197,-73,-303,-244,-303,-506v0,-259,110,-434,295,-517v116,-52,304,-60,424,-7v113,50,191,136,235,256xm735,-655v-5,-94,-59,-170,-160,-168v-99,2,-160,65,-167,168r327,0xm789,-1200v-85,18,-219,15,-299,0r-299,-252v107,-16,275,-16,378,0","w":1101},"\u00e9":{"d":"1017,-790v39,105,37,255,17,370r-622,0v29,108,97,154,227,154v97,0,200,-25,279,-58v38,69,71,176,73,281v-191,73,-437,97,-625,27v-197,-73,-303,-244,-303,-506v0,-259,110,-434,295,-517v116,-52,304,-60,424,-7v113,50,191,136,235,256xm735,-655v-5,-94,-59,-170,-160,-168v-99,2,-160,65,-167,168r327,0xm438,-1200v85,18,219,15,299,0r299,-252v-107,-16,-275,-16,-378,0","w":1101},"\u00ea":{"d":"1017,-790v39,105,37,255,17,370r-622,0v29,108,97,154,227,154v97,0,200,-25,279,-58v38,69,71,176,73,281v-191,73,-437,97,-625,27v-197,-73,-303,-244,-303,-506v0,-259,110,-434,295,-517v116,-52,304,-60,424,-7v113,50,191,136,235,256xm735,-655v-5,-94,-59,-170,-160,-168v-99,2,-160,65,-167,168r327,0xm991,-1200v-85,19,-218,20,-305,0r-100,-98r-101,98v-70,18,-156,15,-237,11v-27,-2,-50,-6,-68,-11r260,-252v87,-14,204,-14,291,0","w":1101},"\u00eb":{"d":"1017,-790v39,105,37,255,17,370r-622,0v29,108,97,154,227,154v97,0,200,-25,279,-58v38,69,71,176,73,281v-191,73,-437,97,-625,27v-197,-73,-303,-244,-303,-506v0,-259,110,-434,295,-517v116,-52,304,-60,424,-7v113,50,191,136,235,256xm735,-655v-5,-94,-59,-170,-160,-168v-99,2,-160,65,-167,168r327,0xm678,-1200v-17,-83,-17,-163,0,-246v85,-16,199,-16,284,0v16,82,18,164,0,246v-85,15,-200,16,-284,0xm217,-1200v-17,-83,-17,-163,0,-246v84,-16,199,-16,284,0v16,82,18,164,0,246v-85,15,-199,16,-284,0","w":1101},"\u00ec":{"d":"496,-1200v-85,18,-219,15,-299,0r-299,-252v107,-16,275,-16,378,0xm119,-1059v105,-24,241,-24,346,0r0,1057v-116,20,-231,21,-346,0r0,-1057","w":583},"\u00ed":{"d":"151,-1200v85,18,219,15,299,0r299,-252v-107,-16,-275,-16,-378,0xm119,-1059v105,-24,241,-24,346,0r0,1057v-116,20,-231,21,-346,0r0,-1057","w":583},"\u00ee":{"d":"698,-1200v-85,19,-218,20,-305,0r-100,-98r-101,98v-70,18,-156,15,-237,11v-27,-2,-50,-6,-68,-11r260,-252v87,-14,204,-14,291,0xm119,-1059v105,-24,241,-24,346,0r0,1057v-116,20,-231,21,-346,0r0,-1057","w":583},"\u00ef":{"d":"381,-1200v-17,-83,-17,-163,0,-246v85,-16,199,-16,284,0v16,82,18,164,0,246v-85,15,-200,16,-284,0xm-80,-1200v-17,-83,-17,-163,0,-246v84,-16,199,-16,284,0v16,82,18,164,0,246v-85,15,-199,16,-284,0xm119,-1059v105,-24,241,-24,346,0r0,1057v-116,20,-231,21,-346,0r0,-1057","w":583},"\u00f0":{"d":"20,-449v-20,-54,-19,-135,0,-190r95,0r0,-416v57,-7,118,-13,182,-19v164,-16,339,-11,464,30v215,70,339,227,339,503v0,395,-235,566,-641,566v-135,0,-226,-11,-344,-27r0,-447r-95,0xm537,-793v-27,0,-57,3,-76,7r0,147r125,0v20,54,19,136,0,190r-125,0r0,181v19,1,34,5,61,4v168,-3,228,-94,228,-277v0,-162,-65,-249,-213,-252","w":1163},"\u00f1":{"d":"115,-1008v118,-39,251,-74,430,-71v135,2,258,18,343,79v104,75,165,196,165,386r0,612v-114,22,-232,21,-346,0r0,-576v0,-135,-43,-199,-166,-202v-22,-1,-68,5,-80,12r0,766v-114,22,-232,21,-346,0r0,-1006xm277,-1204v-43,-44,-76,-112,-95,-178v50,-57,132,-112,238,-111v118,2,183,74,303,74v75,0,98,-19,147,-64v43,45,74,112,95,178v-57,76,-189,140,-318,99r-78,-25v-47,-15,-90,-37,-147,-37v-71,0,-104,20,-145,64","w":1157},"\u00f2":{"d":"97,-300v-46,-132,-45,-319,0,-452v68,-203,225,-331,493,-331v270,0,426,127,494,331v44,133,45,320,0,452v-69,201,-226,325,-494,325v-266,0,-424,-125,-493,-325xm590,-256v136,0,178,-117,178,-268v0,-87,-15,-154,-44,-201v-29,-47,-74,-70,-134,-70v-60,0,-103,24,-133,70v-55,83,-56,316,0,399v30,45,73,70,133,70xm807,-1200v-85,18,-219,15,-299,0r-299,-252v107,-16,275,-16,378,0","w":1181},"\u00f3":{"d":"97,-300v-46,-132,-45,-319,0,-452v68,-203,225,-331,493,-331v270,0,426,127,494,331v44,133,45,320,0,452v-69,201,-226,325,-494,325v-266,0,-424,-125,-493,-325xm590,-256v136,0,178,-117,178,-268v0,-87,-15,-154,-44,-201v-29,-47,-74,-70,-134,-70v-60,0,-103,24,-133,70v-55,83,-56,316,0,399v30,45,73,70,133,70xm438,-1200v85,18,219,15,299,0r299,-252v-107,-16,-275,-16,-378,0","w":1181},"\u00f4":{"d":"97,-300v-46,-132,-45,-319,0,-452v68,-203,225,-331,493,-331v270,0,426,127,494,331v44,133,45,320,0,452v-69,201,-226,325,-494,325v-266,0,-424,-125,-493,-325xm590,-256v136,0,178,-117,178,-268v0,-87,-15,-154,-44,-201v-29,-47,-74,-70,-134,-70v-60,0,-103,24,-133,70v-55,83,-56,316,0,399v30,45,73,70,133,70xm995,-1200v-85,19,-218,20,-305,0r-100,-98r-101,98v-70,18,-156,15,-237,11v-27,-2,-50,-6,-68,-11r260,-252v87,-14,204,-14,291,0","w":1181},"\u00f5":{"d":"97,-300v-46,-132,-45,-319,0,-452v68,-203,225,-331,493,-331v270,0,426,127,494,331v44,133,45,320,0,452v-69,201,-226,325,-494,325v-266,0,-424,-125,-493,-325xm590,-256v136,0,178,-117,178,-268v0,-87,-15,-154,-44,-201v-29,-47,-74,-70,-134,-70v-60,0,-103,24,-133,70v-55,83,-56,316,0,399v30,45,73,70,133,70xm293,-1204v-43,-44,-76,-112,-95,-178v50,-57,132,-112,238,-111v118,2,183,74,303,74v75,0,98,-19,147,-64v43,45,74,112,95,178v-57,76,-189,140,-318,99r-78,-25v-47,-15,-90,-37,-147,-37v-71,0,-104,20,-145,64","w":1181},"\u00f6":{"d":"97,-300v-46,-132,-45,-319,0,-452v68,-203,225,-331,493,-331v270,0,426,127,494,331v44,133,45,320,0,452v-69,201,-226,325,-494,325v-266,0,-424,-125,-493,-325xm590,-256v136,0,178,-117,178,-268v0,-87,-15,-154,-44,-201v-29,-47,-74,-70,-134,-70v-60,0,-103,24,-133,70v-55,83,-56,316,0,399v30,45,73,70,133,70xm678,-1200v-17,-83,-17,-163,0,-246v85,-16,199,-16,284,0v16,82,18,164,0,246v-85,15,-200,16,-284,0xm217,-1200v-17,-83,-17,-163,0,-246v84,-16,199,-16,284,0v16,82,18,164,0,246v-85,15,-199,16,-284,0","w":1181},"\u00f7":{"d":"594,-981v-101,0,-188,-87,-188,-188v0,-101,87,-189,188,-189v101,0,188,88,188,189v0,101,-87,188,-188,188xm596,-147v-101,0,-188,-88,-188,-189v0,-101,87,-188,188,-188v101,0,188,87,188,188v0,101,-87,189,-188,189xm1038,-899v21,93,23,201,0,293r-893,0v-18,-95,-18,-198,0,-293r893,0"},"\u00f8":{"d":"588,-1083v121,0,215,26,293,71r39,-47v40,-8,151,-8,198,0r-121,150v79,98,119,226,119,385v-1,261,-109,434,-299,510v-153,61,-391,50,-520,-31r-37,45v-43,8,-150,8,-199,0r117,-145v-78,-94,-117,-220,-117,-379v0,-264,107,-443,299,-520v66,-26,142,-39,228,-39xm588,-242v175,0,203,-207,178,-383r-283,351v26,22,61,32,105,32xm588,-809v-173,-2,-200,201,-178,379r280,-346v-30,-22,-64,-33,-102,-33","w":1181},"\u00f9":{"d":"696,-1059v105,-24,241,-24,346,0r0,1010v-210,74,-591,122,-779,-11v-107,-76,-159,-203,-159,-401r0,-598v106,-24,242,-24,347,0r0,570v1,148,35,208,165,213v35,0,58,-2,80,-7r0,-776xm779,-1200v-85,18,-219,15,-299,0r-299,-252v107,-16,275,-16,378,0","w":1157},"\u00fa":{"d":"696,-1059v105,-24,241,-24,346,0r0,1010v-210,74,-591,122,-779,-11v-107,-76,-159,-203,-159,-401r0,-598v106,-24,242,-24,347,0r0,570v1,148,35,208,165,213v35,0,58,-2,80,-7r0,-776xm423,-1200v85,18,219,15,299,0r299,-252v-107,-16,-275,-16,-378,0","w":1157},"\u00fb":{"d":"696,-1059v105,-24,241,-24,346,0r0,1010v-210,74,-591,122,-779,-11v-107,-76,-159,-203,-159,-401r0,-598v106,-24,242,-24,347,0r0,570v1,148,35,208,165,213v35,0,58,-2,80,-7r0,-776xm979,-1200v-85,19,-218,20,-305,0r-100,-98r-101,98v-70,18,-156,15,-237,11v-27,-2,-50,-6,-68,-11r260,-252v87,-14,204,-14,291,0","w":1157},"\u00fc":{"d":"696,-1059v105,-24,241,-24,346,0r0,1010v-210,74,-591,122,-779,-11v-107,-76,-159,-203,-159,-401r0,-598v106,-24,242,-24,347,0r0,570v1,148,35,208,165,213v35,0,58,-2,80,-7r0,-776xm662,-1200v-17,-83,-17,-163,0,-246v85,-16,199,-16,284,0v16,82,18,164,0,246v-85,15,-200,16,-284,0xm201,-1200v-17,-83,-17,-163,0,-246v84,-16,199,-16,284,0v16,82,18,164,0,246v-85,15,-199,16,-284,0","w":1157},"\u00fd":{"d":"10,-1059v97,-14,275,-18,375,0r201,404r200,-404v94,-18,266,-14,359,0r-395,686r0,371v-116,20,-231,21,-347,0r0,-371xm426,-1200v85,18,219,15,299,0r299,-252v-107,-16,-275,-16,-378,0","w":1155},"\u00fe":{"d":"453,-2v-113,21,-226,22,-338,0r0,-1204v113,-22,225,-23,338,0r0,164v157,-2,296,14,393,80v98,65,161,169,160,337v-1,226,-118,348,-294,397v-79,22,-176,27,-259,15r0,211xm668,-625v0,-114,-93,-168,-215,-151r0,305v122,18,215,-26,215,-154","w":1056},"\u00ff":{"d":"10,-1059v97,-14,275,-18,375,0r201,404r200,-404v94,-18,266,-14,359,0r-395,686r0,371v-116,20,-231,21,-347,0r0,-371xm666,-1200v-17,-83,-17,-163,0,-246v85,-16,199,-16,284,0v16,82,18,164,0,246v-85,15,-200,16,-284,0xm205,-1200v-17,-83,-17,-163,0,-246v84,-16,199,-16,284,0v16,82,18,164,0,246v-85,15,-199,16,-284,0","w":1155},"\u0152":{"d":"1669,-930v23,103,22,219,0,322r-401,0r0,291r520,0v21,100,20,216,0,317r-799,0v-60,14,-170,25,-239,25v-347,-3,-539,-187,-624,-456v-56,-180,-55,-424,0,-605v57,-186,168,-323,333,-402v137,-66,354,-74,522,-35r793,0v24,112,23,213,0,318r-506,0r0,225r401,0xm750,-281v67,0,112,-3,159,-18r0,-870v-46,-12,-94,-17,-157,-17v-90,0,-160,39,-211,116v-51,77,-76,190,-76,337v0,149,25,261,75,337v50,76,119,115,210,115","w":1865},"\u0153":{"d":"1741,-592v0,63,-7,124,-15,172r-622,0v29,108,97,154,227,154v97,0,200,-25,279,-58v38,69,71,176,73,281v-121,45,-245,68,-372,68v-161,0,-309,-73,-377,-162v-72,93,-193,163,-359,162v-260,-2,-410,-129,-478,-325v-46,-132,-45,-319,0,-452v68,-203,225,-330,493,-331v153,-2,286,75,350,165v68,-98,181,-165,350,-165v285,-1,451,196,451,491xm1427,-655v-5,-96,-57,-170,-159,-168v-100,2,-159,66,-168,168r327,0xm590,-256v136,0,178,-117,178,-268v0,-87,-15,-154,-44,-201v-29,-47,-74,-70,-134,-70v-60,0,-103,24,-133,70v-55,83,-56,316,0,399v30,45,73,70,133,70","w":1794},"\u0178":{"d":"0,-1468v112,-20,279,-23,393,0r252,569r242,-569v116,-22,270,-22,387,0r-457,940r0,522v-151,24,-214,24,-362,0r0,-522r-229,-470xm725,-1599v-17,-83,-17,-163,0,-246v85,-16,199,-16,284,0v16,82,18,164,0,246v-85,15,-200,16,-284,0xm264,-1599v-17,-83,-17,-163,0,-246v84,-16,199,-16,284,0v16,82,18,164,0,246v-85,15,-199,16,-284,0","w":1273},"\u02c6":{"d":"897,-1200v-85,19,-218,20,-305,0r-100,-98r-101,98v-70,18,-156,15,-237,11v-27,-2,-50,-6,-68,-11r260,-252v87,-14,204,-14,291,0","w":983},"\u02dc":{"d":"195,-1204v-43,-44,-76,-112,-95,-178v50,-57,132,-112,238,-111v118,2,183,74,303,74v75,0,98,-19,147,-64v43,45,74,112,95,178v-57,76,-189,140,-318,99r-78,-25v-47,-15,-90,-37,-147,-37v-71,0,-104,20,-145,64","w":983},"\u2013":{"d":"4,-406v-21,-101,-20,-208,0,-309r1016,0v22,98,22,211,0,309r-1016,0","w":1024},"\u2014":{"d":"4,-406v-21,-101,-20,-208,0,-309r2040,0v22,98,22,211,0,309r-2040,0","w":2048},"\u2018":{"d":"565,-922v-95,18,-230,26,-327,0r-156,-546v110,-20,235,-26,342,0","w":647},"\u2019":{"d":"410,-922v-99,24,-232,21,-328,0r141,-546v107,-24,232,-22,342,0","w":647},"\u201a":{"d":"410,254v-99,24,-231,18,-328,0r141,-547v107,-24,232,-20,342,0","w":647},"\u201c":{"d":"565,-922v-95,18,-230,26,-327,0r-156,-546v110,-20,235,-26,342,0xm1036,-922v-95,18,-230,26,-327,0r-156,-546v110,-20,235,-26,342,0","w":1118},"\u201d":{"d":"410,-922v-99,24,-232,21,-328,0r141,-546v107,-24,232,-22,342,0xm879,-922v-99,24,-232,21,-328,0r141,-546v107,-24,232,-22,342,0","w":1116},"\u201e":{"d":"410,254v-99,24,-231,18,-328,0r141,-547v107,-24,232,-20,342,0xm879,254v-99,24,-231,18,-328,0r141,-547v107,-24,232,-20,342,0","w":1116},"\u2022":{"d":"160,-616v-37,-83,-37,-188,0,-271v36,-84,102,-148,186,-185v83,-37,187,-37,270,0v118,54,213,157,213,320v0,164,-95,267,-213,321v-83,37,-187,37,-270,0v-84,-37,-150,-101,-186,-185","w":962},"\u2026":{"d":"129,-352v82,-11,168,-21,258,-10v29,3,59,6,90,10v22,110,22,237,0,348v-110,21,-238,21,-348,0v-21,-110,-21,-238,0,-348xm1423,-352v82,-11,168,-21,258,-10v29,3,59,6,90,10v22,110,22,237,0,348v-110,21,-238,21,-348,0v-21,-110,-21,-238,0,-348xm776,-352v82,-11,168,-21,258,-10v29,3,59,6,90,10v22,110,22,237,0,348v-110,21,-238,21,-348,0v-21,-110,-21,-238,0,-348","w":1900},"\u2039":{"d":"432,-545r316,455v-116,22,-258,25,-367,0r-320,-455r320,-454v107,-26,251,-24,367,0","w":790},"\u203a":{"d":"43,-999v113,-22,260,-28,367,0r319,454r-319,455v-106,25,-254,23,-367,0r315,-455","w":790},"\u20ac":{"d":"1130,-1112v-97,-33,-150,-51,-262,-51v-152,0,-216,76,-254,198r373,0v13,40,14,144,0,183r-399,0r0,107v0,13,1,25,2,36r397,0v13,41,14,143,0,182r-369,0v39,116,113,171,265,172v101,0,186,-21,266,-49v44,92,69,177,84,289v-138,50,-227,70,-391,70v-358,0,-538,-186,-600,-482r-179,0v-14,-39,-13,-142,0,-182r156,0v-4,-44,-1,-95,-2,-143r-154,0v-14,-39,-13,-142,0,-183r179,0v47,-229,162,-397,364,-471v67,-25,145,-37,232,-37v152,-1,262,29,374,72v-4,108,-44,218,-82,289","w":1253},"\u2122":{"d":"881,-1077v-44,8,-101,8,-146,0r0,-189r-69,154v-18,3,-34,3,-48,0r-69,-154r0,189v-45,8,-102,8,-146,0r17,-418v50,-9,92,-12,145,0r78,192r76,-192v53,-12,94,-9,145,0xm342,-1499v7,41,8,92,0,133r-92,0r0,289v-45,8,-104,8,-148,0r0,-289r-92,0v-8,-35,-8,-96,0,-133r332,0","w":954}}});
