/*!
 * The following copyright notice may not be removed under any circumstances.
 * 
 * Manufacturer:
 * Dalton Maag Ltd.
 */
Cufon.registerFont({"w":1228,"face":{"font-family":"Aller","font-weight":700,"font-stretch":"normal","units-per-em":"2048","panose-1":"2 0 8 3 4 0 0 2 0 4","ascent":"1638","descent":"-410","bbox":"-105 -1917 2066 510.031","underline-thickness":"102","underline-position":"-102","unicode-range":"U+0020-U+2122"},"glyphs":{" ":{"w":450},"!":{"d":"147,-1473v107,-16,211,-16,318,0r-21,1002v-96,16,-183,16,-276,0xm156,0v-16,-102,-18,-198,0,-301v103,-16,197,-16,301,0v16,104,16,199,0,301v-104,16,-198,16,-301,0","w":612},"\"":{"d":"367,-899v-83,14,-182,14,-265,0r0,-576v83,-14,182,-14,265,0r0,576xm777,-899v-83,14,-182,14,-265,0r0,-576v83,-14,182,-14,265,0r0,576","w":878},"#":{"d":"571,-61v-80,14,-172,14,-252,0r29,-359r-231,0v-12,-65,-9,-152,2,-217r248,0r20,-248r-229,0v-13,-68,-14,-151,0,-219r248,0r26,-309v76,-14,172,-14,248,0r-27,309r250,0r27,-309v79,-14,171,-14,250,0r-27,309r215,0v13,67,12,151,0,219r-231,0r-21,248r213,0v13,69,12,148,0,217r-231,0r-29,359v-79,13,-172,14,-250,0r29,-359r-248,0xm866,-637r21,-248r-250,0r-21,248r250,0","w":1503},"$":{"d":"1087,-436v-3,246,-152,394,-372,440r0,238v-58,16,-119,16,-178,0r0,-217r-17,0v-172,2,-294,-27,-416,-76v9,-89,35,-167,62,-246v105,43,189,61,323,61v156,0,271,-42,271,-186v0,-134,-114,-159,-207,-199r-109,-47v-164,-70,-301,-150,-301,-385v0,-255,160,-392,394,-420r0,-217v59,-16,117,-16,178,0r0,211v122,9,213,35,317,70v-8,79,-30,157,-65,233v-90,-37,-182,-63,-314,-63v-114,0,-200,34,-200,149v-1,116,89,145,170,179r122,51v140,60,266,111,317,256v16,44,25,101,25,168"},"%":{"d":"1846,-12v-96,48,-256,48,-352,0v-137,-68,-218,-203,-218,-398v0,-194,82,-332,218,-399v96,-47,256,-48,352,0v137,68,220,203,220,399v0,195,-84,330,-220,398xm1671,-170v49,0,84,-23,109,-66v46,-80,46,-271,0,-349v-24,-42,-60,-64,-109,-64v-49,0,-85,23,-109,65v-45,79,-45,268,0,348v24,43,60,66,109,66xm673,-639v-96,48,-256,48,-352,0v-136,-68,-219,-203,-219,-397v0,-194,82,-332,218,-400v95,-47,257,-48,353,0v137,68,220,204,220,400v0,195,-84,329,-220,397xm498,-797v49,0,83,-22,108,-65v46,-80,45,-271,0,-350v-24,-42,-59,-64,-108,-64v-49,0,-85,22,-109,64v-45,79,-46,271,0,350v25,43,60,65,109,65xm1438,-1452v97,-16,182,-16,284,0r-991,1448v-99,17,-183,15,-282,0","w":2150},"&":{"d":"449,-1114v0,121,82,160,208,160r349,0r241,-289r45,0r0,289r209,0v14,71,13,150,0,221r-209,0v-3,171,14,353,-44,471v-95,193,-301,287,-589,287v-238,0,-422,-80,-511,-238v-49,-88,-63,-235,-26,-345v39,-120,117,-218,224,-265v-97,-54,-189,-151,-186,-303v3,-199,121,-303,279,-348v148,-42,333,-26,468,24v0,78,-21,150,-63,215v-70,-28,-134,-33,-211,-35v-116,-3,-184,58,-184,156xm422,-479v3,165,89,254,270,254v222,0,312,-124,318,-334r0,-174r-344,0v-147,-2,-246,107,-244,254","w":1562},"'":{"d":"367,-899v-83,14,-182,14,-265,0r0,-576v83,-14,182,-14,265,0r0,576","w":468},"(":{"d":"629,342v-80,15,-212,18,-289,0v-150,-245,-238,-564,-238,-967v0,-404,87,-719,238,-964v76,-20,211,-16,289,0v-138,237,-232,570,-232,964v0,247,41,464,93,643v36,127,89,239,139,324","w":731},")":{"d":"102,-1589v80,-16,212,-19,289,0v151,244,238,561,238,964v0,405,-87,720,-238,967v-76,18,-210,15,-289,0v138,-238,232,-571,232,-967v0,-248,-39,-462,-92,-641v-37,-127,-90,-238,-140,-323","w":731},"*":{"d":"618,-1192v-61,10,-146,11,-202,0r22,-281v52,-8,104,-8,156,0xm74,-1090v5,-55,28,-106,49,-147r274,63v-12,73,-33,137,-63,193xm844,-711v-37,37,-78,69,-127,93r-185,-213v53,-51,108,-90,164,-119xm911,-1239v22,42,38,97,47,147r-260,111v-30,-58,-51,-122,-61,-193xm340,-948v56,29,111,68,164,119r-185,213v-49,-22,-90,-56,-126,-93","w":991},"+":{"d":"489,-600r-321,0v-16,-82,-16,-166,0,-248r321,0r0,-362v82,-16,166,-18,248,0r0,362r322,0v16,82,16,166,0,248r-322,0r0,362v-82,16,-166,18,-248,0r0,-362"},",":{"d":"205,-295v84,-20,197,-18,282,0r-149,524v-81,17,-188,19,-268,0","w":595},"-":{"d":"641,-688v16,81,16,172,0,252r-522,0v-16,-81,-18,-172,0,-252r522,0","w":759},".":{"d":"145,0v-16,-102,-16,-198,0,-301v102,-16,198,-16,301,0v16,104,18,199,0,301v-104,16,-199,16,-301,0","w":591},"\/":{"d":"522,-1473v100,-16,191,-16,291,0r-500,1473v-99,16,-190,16,-288,0","w":837},"0":{"d":"856,-26v-130,67,-348,68,-477,0v-201,-105,-293,-335,-293,-638v0,-305,96,-533,298,-640v128,-68,349,-68,478,0v201,106,293,335,293,640v0,305,-95,533,-299,638xm621,-221v69,0,124,-35,163,-107v39,-72,58,-184,58,-336v0,-151,-19,-262,-58,-334v-39,-72,-94,-108,-163,-108v-71,0,-126,36,-167,108v-41,72,-61,183,-61,334v0,151,21,263,62,335v41,72,97,108,166,108"},"1":{"d":"236,0v-14,-79,-16,-167,0,-246r296,0r0,-717r-251,101v-49,-64,-86,-134,-109,-219r588,-258r55,0r0,1093r293,0v14,79,14,167,0,246r-872,0"},"2":{"d":"213,-1040v-32,-70,-64,-148,-70,-238v109,-43,216,-79,371,-78v223,2,388,70,463,220v43,85,48,215,17,316v-51,166,-161,296,-257,425r-108,145r436,0v17,82,15,170,0,250r-936,0r-14,-31r424,-553v61,-79,116,-150,151,-236v13,-33,19,-67,19,-102v-1,-124,-97,-180,-230,-180v-115,0,-187,27,-266,62"},"3":{"d":"696,-526v-71,-50,-223,-59,-331,-33r-21,-31r274,-495r-450,0v-16,-81,-16,-170,0,-250r856,0r20,35r-329,546v118,-2,204,49,261,112v53,59,91,147,91,249v0,275,-147,429,-359,497v-153,49,-379,43,-526,-2r-100,-32v5,-87,36,-180,72,-240v149,57,399,93,530,-5v55,-42,94,-104,94,-200v0,-73,-37,-120,-82,-151"},"4":{"d":"1022,121v-90,13,-193,12,-283,0r0,-287r-688,0r-18,-29r579,-1171v104,13,187,40,256,96r-422,856r293,0r0,-327r68,-7v72,-8,147,0,215,7r0,327r147,0v16,77,18,173,0,248r-147,0r0,287"},"5":{"d":"485,-580v-92,1,-162,17,-229,52r-31,-25r31,-782r733,0v16,81,16,170,0,250r-471,0r-12,292v99,-23,218,-17,307,13v162,56,264,186,264,401v0,273,-148,420,-365,483v-77,22,-164,33,-259,33v-128,0,-248,-27,-349,-61v8,-90,43,-173,72,-246v88,30,162,52,270,53v114,1,196,-27,254,-75v46,-38,72,-94,72,-168v0,-158,-106,-222,-287,-220"},"6":{"d":"643,25v-359,0,-529,-220,-526,-598v4,-410,164,-694,451,-829v102,-49,222,-76,360,-83v24,74,35,160,6,242v-232,9,-373,120,-456,277v-27,52,-45,106,-54,163v60,-85,149,-149,297,-147v209,3,342,107,405,266v48,121,46,311,-9,425v-81,168,-239,284,-474,284xm422,-479v0,157,72,266,215,266v138,0,221,-100,221,-256v0,-162,-73,-252,-213,-252v-143,0,-223,90,-223,242"},"7":{"d":"758,-1085r-617,0v-16,-81,-16,-170,0,-250r1008,0r12,24r-602,1463v-107,-24,-192,-58,-270,-117"},"8":{"d":"96,-389v2,-207,113,-320,250,-391v-98,-57,-186,-167,-184,-316v3,-194,121,-298,273,-350v109,-36,250,-36,359,0v109,35,190,100,238,194v23,46,35,99,35,156v1,149,-90,257,-186,316v64,33,130,78,171,138v44,64,81,145,81,253v0,154,-71,252,-161,319v-169,125,-546,125,-715,0v-91,-67,-162,-166,-161,-319xm614,-211v141,0,223,-68,224,-203v0,-65,-21,-119,-64,-160v-43,-41,-97,-72,-162,-94v-65,22,-119,54,-160,96v-41,42,-61,94,-61,158v0,131,87,203,223,203xm614,-1245v-112,0,-180,57,-180,160v0,125,84,178,180,215v55,-19,98,-46,132,-79v34,-33,51,-79,51,-136v-1,-103,-71,-160,-183,-160"},"9":{"d":"612,-1356v359,0,530,220,527,598v-4,410,-165,694,-451,830v-102,49,-222,77,-360,82v-24,-75,-37,-158,-6,-242v229,-9,373,-119,454,-276v26,-52,44,-107,55,-164v-60,85,-150,147,-296,147v-209,0,-341,-107,-405,-265v-48,-119,-47,-312,8,-426v81,-168,239,-284,474,-284xm397,-862v0,162,73,252,213,252v143,0,224,-90,224,-242v0,-157,-72,-266,-216,-266v-138,0,-221,100,-221,256"},":":{"d":"145,0v-16,-102,-16,-198,0,-301v102,-16,198,-16,301,0v16,104,18,199,0,301v-104,16,-199,16,-301,0xm145,-758v-16,-102,-16,-198,0,-301v102,-16,198,-16,301,0v16,104,18,199,0,301v-104,16,-199,16,-301,0","w":591},";":{"d":"193,-295v84,-20,197,-18,282,0r-149,524v-81,17,-188,19,-268,0xm188,-758v-16,-102,-16,-198,0,-301v102,-16,198,-16,301,0v16,104,18,199,0,301v-104,16,-199,16,-301,0","w":634},"<":{"d":"1042,-1182v16,102,19,174,2,264r-618,224r618,211v15,85,16,191,-2,276r-847,-336v-23,-106,-27,-202,0,-305"},"=":{"d":"1047,-1047v16,82,16,166,0,248r-863,0v-16,-82,-16,-166,0,-248r863,0xm1047,-627v16,82,16,166,0,248r-863,0v-16,-82,-16,-166,0,-248r863,0"},">":{"d":"803,-694r-619,-211v-14,-85,-14,-192,2,-277r848,336v23,107,27,202,0,305r-848,334v-16,-102,-16,-173,-2,-264"},"?":{"d":"88,-1405v113,-39,216,-68,365,-68v164,0,288,37,371,112v83,75,124,177,124,306v0,130,-60,220,-126,284v-54,53,-134,93,-197,122r0,186v-91,15,-181,17,-267,0r0,-352v107,-19,213,-55,264,-132v18,-27,27,-60,27,-100v1,-124,-102,-180,-231,-180v-110,0,-181,23,-260,51v-36,-66,-64,-139,-70,-229xm338,0v-16,-102,-16,-198,0,-301v103,-16,197,-16,301,0v16,104,16,199,0,301v-104,16,-198,16,-301,0","w":1009},"@":{"d":"1161,-182v-87,42,-164,80,-299,78v-153,-1,-248,-72,-292,-186v-46,-120,-24,-292,21,-407v60,-151,169,-265,311,-331v166,-77,415,-48,575,8r-131,694v13,11,36,17,67,17v116,0,188,-80,235,-162v49,-85,80,-206,81,-330v1,-324,-214,-485,-547,-485v-278,0,-484,106,-622,252v-128,136,-220,337,-220,579v0,284,127,453,341,521v67,21,139,30,216,30v139,0,261,-16,360,-55v12,30,24,61,35,93v11,32,21,64,29,95v-115,57,-284,78,-457,78v-359,0,-602,-156,-714,-417v-86,-204,-79,-481,4,-704v98,-265,290,-467,554,-584v211,-94,542,-130,796,-53v187,57,327,174,406,344v72,154,80,379,18,557v-58,165,-160,299,-300,382v-132,79,-366,92,-467,-14xm817,-489v-2,111,47,172,146,174v58,1,88,-10,135,-23r88,-508v-69,-18,-150,-12,-204,20v-101,61,-163,179,-165,337","w":2058},"A":{"d":"485,-1473v106,-16,226,-15,334,0r461,1473v-107,15,-212,17,-315,0r-82,-295r-488,0r-84,295v-100,17,-193,15,-291,0xm813,-543r-170,-618r-178,618r348,0","w":1302},"B":{"d":"974,-62v-197,117,-546,94,-827,62r0,-1475v232,-30,589,-45,755,59v95,60,162,150,161,302v-1,138,-63,233,-145,290v-27,18,-55,29,-84,33v187,34,324,151,325,377v1,179,-73,286,-185,352xm852,-432v0,-169,-116,-220,-285,-219r-123,0r0,426v108,12,240,15,314,-32v54,-34,94,-86,94,-175xm776,-1083v0,-141,-95,-194,-235,-193v-38,0,-70,2,-97,6r0,393r91,0v149,1,242,-55,241,-206","w":1239},"C":{"d":"854,-233v114,-1,170,-15,262,-46v34,70,58,152,70,240v-128,47,-219,63,-375,64v-240,1,-410,-85,-525,-215v-113,-127,-180,-313,-180,-543v0,-353,152,-596,403,-707v87,-38,185,-57,296,-57v151,1,243,15,360,63v-6,89,-41,165,-69,238v-92,-31,-144,-44,-258,-45v-131,0,-232,43,-302,128v-70,85,-106,212,-106,380v0,333,141,500,424,500","w":1265},"D":{"d":"516,25v-136,1,-246,-12,-366,-25r0,-1473v124,-14,244,-25,389,-24v514,0,791,256,790,770v-1,526,-283,751,-813,752xm451,-238v12,1,28,2,47,4v82,6,174,2,244,-18v118,-33,191,-116,235,-234v45,-121,44,-369,0,-492v-65,-184,-210,-275,-460,-260v-25,1,-47,2,-66,5r0,995","w":1433},"E":{"d":"143,-1473r836,0v16,81,16,174,0,254r-537,0r0,320r426,0v16,87,18,171,0,256r-426,0r0,389r551,0v16,81,18,174,0,254r-850,0r0,-1473","w":1087},"F":{"d":"143,-1473r836,0v16,81,16,174,0,254r-537,0r0,347r426,0v16,87,18,171,0,256r-426,0r0,616v-105,16,-197,16,-299,0r0,-1473","w":1038},"G":{"d":"840,-233v43,1,79,-7,112,-13r0,-518v103,-16,194,-16,297,0r0,723v-115,46,-282,66,-424,66v-368,0,-582,-178,-675,-455v-61,-182,-60,-426,2,-608v64,-186,182,-326,355,-402v87,-38,185,-57,296,-57v148,1,247,14,360,63v-6,89,-41,165,-69,238v-92,-31,-144,-44,-258,-45v-131,0,-232,43,-302,128v-70,85,-106,212,-106,380v0,168,34,293,104,376v70,83,173,124,308,124","w":1368},"H":{"d":"143,-1473v102,-16,198,-16,301,0r0,578r494,0r0,-578v103,-16,197,-16,301,0r0,1473v-104,16,-199,16,-301,0r0,-637r-494,0r0,637v-104,16,-199,16,-301,0r0,-1473","w":1382},"I":{"d":"143,-1473v102,-16,198,-16,301,0r0,1473v-104,16,-199,16,-301,0r0,-1473","w":587},"J":{"d":"86,-248v31,5,67,18,104,17v55,-1,109,-3,145,-29v48,-33,75,-84,75,-174r0,-785r-244,0v-16,-76,-16,-177,0,-254r543,0r0,1082v1,151,-53,253,-135,321v-95,78,-250,109,-420,88v-35,-4,-68,-10,-99,-18v-11,-90,2,-166,31,-248","w":841},"K":{"d":"485,-741r400,-732v106,-20,220,-11,327,0r-403,711r438,762r-91,8v-87,7,-159,5,-241,-8xm442,2v-94,14,-205,14,-299,0r0,-1477v94,-14,205,-14,299,0r0,1477","w":1267},"L":{"d":"948,-258v14,82,14,177,0,258r-805,0r0,-1473v103,-16,192,-16,295,0r0,1215r510,0","w":1009},"M":{"d":"184,-1473v108,-16,210,-16,316,0r338,844r348,-844v86,-17,201,-15,291,0r69,1473v-100,15,-189,17,-284,0r-37,-999r-299,692v-71,11,-159,16,-230,0r-278,-707r-29,1014v-91,17,-171,15,-262,0","w":1673},"N":{"d":"143,-1473v87,-16,161,-16,248,0r570,938r0,-938v92,-15,177,-17,264,0r0,1473v-91,16,-152,16,-244,0r-573,-936r0,936v-86,16,-180,16,-265,0r0,-1473","w":1368},"O":{"d":"1030,-32v-154,74,-420,75,-574,0v-235,-114,-352,-358,-352,-701v0,-343,117,-594,353,-707v155,-74,419,-74,573,0v237,114,352,363,352,707v0,343,-117,588,-352,701xm743,-225v211,0,317,-169,318,-508v0,-169,-26,-296,-77,-381v-51,-85,-131,-127,-239,-127v-215,0,-322,169,-321,508v0,339,106,508,319,508","w":1486},"P":{"d":"442,0v-95,14,-203,13,-299,0r0,-1479v63,-5,127,-10,191,-13v226,-13,453,-6,593,92v116,82,191,211,191,417v0,207,-75,333,-190,415v-117,84,-297,109,-486,95r0,473xm541,-1249v-41,0,-56,1,-99,6r0,522v33,6,63,4,99,4v169,0,270,-86,270,-262v0,-178,-97,-268,-270,-270","w":1193},"Q":{"d":"1419,115v-6,85,-18,172,-47,239r-508,-82r10,-72v8,-62,26,-111,44,-163xm1030,-32v-154,74,-420,75,-574,0v-235,-114,-352,-358,-352,-701v0,-343,117,-594,353,-707v155,-74,419,-74,573,0v237,114,352,363,352,707v0,343,-117,588,-352,701xm743,-225v211,0,317,-169,318,-508v0,-169,-26,-296,-77,-381v-51,-85,-131,-127,-239,-127v-215,0,-322,169,-321,508v0,339,106,508,319,508","w":1486},"R":{"d":"457,0v-95,12,-203,15,-299,0r0,-1473v60,-7,116,-12,169,-17v128,-11,275,-10,397,14v150,30,269,99,340,213v54,87,71,255,34,371v-39,125,-125,208,-226,267r359,623r-86,8v-83,7,-167,5,-246,-8r-385,-684v102,-53,208,-97,262,-200v17,-32,27,-70,27,-113v0,-196,-151,-274,-346,-244r0,1243","w":1251},"S":{"d":"457,-236v155,0,276,-50,276,-194v0,-132,-100,-168,-196,-205v-168,-65,-348,-113,-405,-287v-32,-96,-26,-244,14,-331v74,-160,234,-244,466,-244v155,0,263,30,387,72v-8,79,-30,157,-65,233v-88,-39,-182,-65,-313,-63v-117,0,-202,39,-201,159v0,113,88,141,170,174r123,48v143,57,267,113,317,260v35,102,33,263,-13,360v-85,180,-265,278,-530,279v-171,1,-294,-27,-415,-76v9,-88,35,-176,61,-254v105,42,191,69,324,69","w":1126},"T":{"d":"731,0v-96,12,-205,14,-301,0r0,-1219r-367,0v-16,-80,-16,-172,0,-254r1035,0v16,81,16,174,0,254r-367,0r0,1219","w":1161},"U":{"d":"940,-1473v96,-14,206,-14,301,0r0,828v-1,200,-27,369,-113,485v-89,120,-226,185,-440,185v-314,0,-474,-141,-528,-397v-17,-82,-25,-174,-25,-273r0,-828v94,-14,205,-14,299,0r0,764v1,148,3,268,46,361v35,77,98,115,208,115v248,1,252,-223,252,-476r0,-764","w":1374},"V":{"d":"20,-1473v23,-3,50,-5,80,-8v89,-8,156,-3,244,8r322,1162r325,-1162v98,-14,212,-14,309,0r-475,1473v-106,16,-226,16,-333,0","w":1320},"W":{"d":"33,-1473v91,-14,224,-19,317,0r211,1108r254,-1108v95,-14,182,-17,281,0r264,1137r211,-1137v90,-19,196,-12,287,0r-355,1473v-107,17,-208,15,-323,0r-236,-981r-254,981v-33,3,-62,5,-87,8v-75,7,-143,5,-220,-8","w":1886},"X":{"d":"657,-764r230,-704v105,-16,210,-18,313,-2r-260,700r320,770v-31,4,-59,7,-83,9v-83,7,-154,2,-231,-11xm96,-1470v103,-14,209,-16,314,2r233,704r-293,762v-106,19,-206,17,-313,2r323,-770","w":1296},"Y":{"d":"780,2v-96,14,-205,14,-301,0r0,-528r-459,-947v109,-15,220,-17,328,0r291,668r287,-668v105,-16,204,-16,313,0r-459,947r0,528","w":1259},"Z":{"d":"78,-20r618,-1199r-565,0v-16,-82,-16,-173,0,-254r987,0r17,25r-613,1194r582,0v16,81,16,174,0,254r-1012,0","w":1187},"[":{"d":"590,111v16,79,16,158,0,233r-488,0r0,-1933r488,0v16,75,16,153,0,233r-205,0r0,1467r205,0","w":704},"\\":{"d":"31,-1473v102,-16,188,-16,291,0r497,1473v-100,16,-190,16,-289,0","w":847},"]":{"d":"115,344v-16,-75,-18,-154,0,-233r204,0r0,-1467r-204,0v-16,-78,-17,-159,0,-233r487,0r0,1933r-487,0","w":704},"^":{"d":"1022,-743v-81,19,-187,20,-266,2r-201,-467r-186,467v-84,15,-182,18,-267,-2r324,-730v93,-16,180,-16,276,0","w":1124},"_":{"d":"14,205v-13,-64,-14,-137,0,-201r1004,0v13,64,14,137,0,201r-1004,0","w":1032},"`":{"d":"221,-1473v106,-17,247,-15,354,0r230,252v-89,18,-191,15,-275,0","w":1024},"a":{"d":"350,-344v0,159,186,155,322,129r0,-270v-17,-3,-35,-5,-54,-7v-138,-14,-268,16,-268,148xm549,25v-273,-3,-470,-84,-471,-357v-1,-135,66,-219,150,-271v110,-68,272,-86,444,-69v10,-148,-84,-182,-226,-182v-74,0,-152,14,-235,43v-36,-68,-56,-115,-57,-213v103,-36,224,-59,348,-59v288,0,452,133,452,430r0,614v-109,33,-250,66,-405,64","w":1069},"b":{"d":"774,-15v-184,67,-464,40,-635,-20r0,-1462v99,-16,191,-16,289,0r0,541v41,-74,148,-129,266,-127v219,4,342,123,398,299v44,134,43,346,-9,476v-57,142,-162,240,-309,293xm614,-840v-123,0,-186,86,-186,226r0,385v32,11,68,12,109,12v190,-3,287,-115,284,-322v-2,-178,-41,-301,-207,-301","w":1208},"c":{"d":"379,-528v0,221,97,330,315,316v63,-4,111,-21,160,-38v34,57,58,129,57,223v-98,40,-179,52,-303,52v-269,0,-422,-130,-491,-333v-44,-131,-44,-306,-1,-438v65,-200,217,-335,480,-337v126,-2,213,16,303,53v-1,76,-21,159,-51,217v-76,-24,-121,-35,-213,-35v-181,0,-256,129,-256,320","w":972},"d":{"d":"402,-1035v104,-46,252,-57,376,-28r0,-434v90,-14,199,-14,289,0r0,1462v-137,40,-252,62,-436,60v-252,-2,-424,-106,-503,-291v-54,-126,-59,-331,-6,-470v53,-138,148,-240,280,-299xm651,-215v53,0,83,-3,127,-16r0,-609v-81,-22,-182,-24,-249,12v-98,53,-145,165,-146,312v-1,192,83,299,268,301","w":1204},"e":{"d":"1034,-777v33,97,38,227,21,337r-680,0v8,163,122,233,291,233v102,0,202,-20,280,-51v31,55,55,137,58,221v-168,67,-438,88,-614,21v-196,-75,-302,-244,-302,-506v0,-257,110,-433,290,-517v114,-54,301,-59,419,-5v113,52,195,143,237,267xm791,-643v-4,-123,-70,-220,-195,-219v-142,0,-206,86,-219,219r414,0","w":1150},"f":{"d":"748,-1059v13,71,14,151,0,221r-246,0r0,838v-99,16,-191,16,-289,0r0,-838r-168,0v-13,-71,-14,-151,0,-221r168,0v-11,-232,80,-374,247,-435v105,-39,257,-36,363,-3v-6,93,-15,158,-43,229v-37,-6,-63,-15,-112,-14v-114,4,-163,47,-166,178r0,45r246,0","w":811},"g":{"d":"399,-352v-38,24,-51,49,-51,96v0,58,36,74,109,76r280,4v228,4,363,94,363,307v0,132,-78,220,-168,277v-102,65,-249,102,-414,102v-148,1,-265,-22,-349,-74v-65,-40,-101,-104,-101,-198v0,-135,74,-199,161,-256v-59,-38,-103,-86,-102,-179v1,-119,55,-164,129,-221v-86,-61,-150,-153,-150,-289v0,-189,114,-294,263,-345v56,-19,119,-29,188,-29v137,-1,257,49,332,112v56,-70,122,-102,252,-102v13,74,13,164,0,240r-166,0v37,69,32,196,-3,273v-65,142,-209,222,-415,224v-59,0,-111,-6,-158,-18xm823,150v-1,-78,-49,-107,-133,-109r-215,-4v-96,-3,-153,41,-153,131v0,114,96,133,215,133v86,0,155,-14,207,-41v52,-27,79,-64,79,-110xm393,-707v0,114,49,185,166,185v116,0,162,-71,162,-185v0,-113,-46,-186,-162,-186v-117,0,-166,72,-166,186","w":1159},"h":{"d":"428,2v-90,14,-199,14,-289,0r0,-1499v89,-14,200,-14,289,0r0,563v60,-79,148,-150,293,-149v250,3,358,141,358,407r0,678v-91,14,-200,14,-291,0r0,-600v-2,-134,-29,-229,-153,-229v-153,0,-207,109,-207,272r0,557","w":1200},"i":{"d":"63,-838v-15,-68,-17,-151,0,-221r422,0r0,1059v-99,16,-185,16,-284,0r0,-838r-138,0xm457,-1237v-91,14,-208,14,-299,0v-16,-94,-18,-179,0,-274v91,-16,209,-18,299,0v14,85,13,189,0,274","w":628},"j":{"d":"43,172v121,0,160,-74,160,-201r0,-809r-140,0v-15,-68,-17,-151,0,-221r422,0r0,1082v1,260,-130,368,-383,370v-69,0,-145,-9,-202,-22v0,-83,10,-152,37,-211v28,5,71,12,106,12xm455,-1243v-89,22,-208,22,-297,0v-17,-88,-18,-175,0,-262v89,-24,208,-26,297,0v17,87,16,174,0,262","w":628},"k":{"d":"125,-1497v94,-16,195,-16,289,0r0,1497v-94,16,-196,16,-289,0r0,-1497xm455,-555r262,-504v102,-15,212,-17,313,0r-270,490r315,569v-110,15,-204,17,-313,0","w":1095},"l":{"d":"568,8v-274,28,-433,-90,-433,-366r0,-1139v98,-16,191,-16,289,0r0,1075v0,120,12,205,131,201v24,0,52,-3,74,-8v18,67,24,122,22,193v0,9,-1,19,-4,30v-22,7,-48,11,-79,14","w":663},"m":{"d":"1249,-827v-143,0,-191,103,-192,256r0,571v-98,16,-193,16,-291,0r0,-598v0,-74,-12,-130,-28,-170v-33,-81,-193,-72,-244,-10v-41,50,-61,122,-60,223r0,555v-99,16,-192,16,-291,0r0,-1059v71,-16,167,-16,238,0v18,38,26,98,33,148v54,-96,144,-172,293,-172v165,0,271,63,317,188v55,-98,150,-190,305,-188v255,3,350,142,350,409r0,674v-99,16,-192,16,-290,0r0,-598v0,-74,-9,-131,-28,-170v-19,-39,-56,-59,-112,-59","w":1800},"n":{"d":"791,-598v-2,-134,-28,-229,-152,-229v-153,0,-205,108,-205,272r0,555v-99,16,-192,16,-291,0r0,-1059v71,-16,167,-16,238,0v18,38,26,98,33,148v62,-92,152,-172,305,-172v254,0,362,139,362,407r0,676v-99,16,-192,16,-290,0r0,-598","w":1202},"o":{"d":"817,-17v-123,55,-327,55,-449,0v-181,-81,-284,-256,-284,-509v0,-255,103,-432,284,-514v123,-56,326,-55,449,0v182,82,285,257,285,514v0,255,-104,428,-285,509xm592,-197v77,0,130,-30,165,-85v65,-102,65,-388,0,-489v-35,-55,-88,-85,-165,-85v-75,0,-128,30,-163,85v-65,101,-65,388,0,489v35,55,88,85,163,85","w":1187},"p":{"d":"428,485v-92,14,-199,16,-291,0r0,-1546v74,-15,159,-13,236,2v19,40,26,101,35,152v55,-99,146,-176,299,-176v214,0,332,126,387,299v42,133,44,346,-6,476v-79,207,-254,330,-535,333v-42,0,-91,-5,-125,-11r0,471xm555,-209v185,-3,262,-128,262,-330v0,-126,-29,-225,-107,-272v-46,-28,-132,-30,-180,-3v-70,39,-101,121,-102,228r0,361v37,11,79,16,127,16","w":1210},"q":{"d":"1065,485v-90,14,-200,16,-289,0r-2,-477v-116,17,-248,18,-356,-16v-207,-65,-338,-222,-334,-500v4,-271,140,-445,342,-529v180,-76,453,-44,639,1r0,1521xm647,-215v53,0,83,-3,127,-16r0,-603v-55,-9,-56,-11,-106,-12v-189,-3,-281,148,-281,338v0,189,77,293,260,293","w":1202},"r":{"d":"434,2v-91,14,-199,13,-291,0r0,-1061v73,-16,166,-15,238,2v18,39,26,99,33,150v30,-42,67,-78,110,-113v59,-48,157,-61,250,-43v14,77,9,183,-6,256v-90,-9,-189,-7,-244,41v-60,53,-90,135,-90,264r0,504","w":823},"s":{"d":"141,-254v95,37,193,64,317,48v46,-7,84,-27,110,-54v30,-32,23,-103,-10,-126v-51,-35,-141,-54,-210,-75v-76,-23,-137,-54,-180,-97v-43,-43,-64,-108,-64,-194v0,-221,181,-334,416,-331v121,1,220,22,316,57v-5,73,-31,159,-60,211v-63,-25,-145,-52,-233,-51v-81,1,-148,18,-148,90v0,70,48,79,107,98v145,47,304,75,350,219v25,79,24,194,-14,267v-72,138,-222,217,-432,217v-132,0,-228,-20,-324,-58v6,-81,30,-157,59,-221","w":942},"t":{"d":"555,12v-252,-2,-383,-111,-383,-370r0,-480r-133,0r-10,-41r383,-489r47,0r0,309r248,0v14,70,13,151,0,221r-248,0r0,416v-1,128,30,203,155,203v40,0,78,-8,113,-14v23,62,33,146,23,223v-63,15,-128,23,-195,22","w":784},"u":{"d":"1051,-41v-96,33,-259,68,-398,66v-148,-2,-281,-18,-369,-87v-107,-83,-159,-220,-159,-427r0,-570v99,-16,192,-16,291,0r0,561v-3,179,45,285,219,283v51,0,93,-5,127,-14r0,-830v100,-16,190,-16,289,0r0,1018","w":1171},"v":{"d":"10,-1057v100,-19,223,-19,322,-2r231,789r228,-789v98,-15,213,-18,313,2r-402,1057v-92,12,-208,16,-296,-2","w":1114},"w":{"d":"14,-1057v97,-19,218,-20,314,-2r170,783r196,-783v83,-17,209,-15,289,0r193,768r167,-768v92,-16,199,-17,293,2r-329,1057v-90,13,-205,16,-291,-2r-193,-700r-198,702v-92,12,-204,16,-291,-2","w":1650},"x":{"d":"272,-547r-202,-512v95,-17,207,-15,307,0r162,518r-211,541v-102,16,-193,16,-297,0xm553,-541r164,-518v99,-16,207,-16,307,0r-205,512r244,547v-104,16,-196,16,-297,0","w":1093},"y":{"d":"195,272v55,17,157,30,207,-4v70,-48,87,-173,116,-268v-15,1,-32,3,-50,3v-45,0,-96,5,-136,-3r-312,-1059v76,-17,149,-12,234,-10v29,1,55,5,78,10r221,924r250,-924v96,-15,193,-19,291,0r-396,1309v-50,162,-139,260,-346,260v-77,0,-133,-10,-194,-27v-9,-80,13,-152,37,-211","w":1110},"z":{"d":"936,-223v13,70,14,154,0,223r-864,0r-17,-25r477,-811r-405,0v-13,-70,-14,-154,0,-223r834,0r10,25r-486,811r451,0","w":1009},"{":{"d":"322,86v-35,-138,-10,-347,-38,-492v-21,-109,-87,-164,-182,-206r0,-54v94,-44,161,-96,182,-206v27,-145,6,-352,38,-490v45,-193,208,-268,458,-250v16,79,18,148,0,226v-85,-2,-152,7,-178,62v-43,90,-21,298,-36,408v-19,141,-56,233,-163,277v64,33,107,69,133,141v33,93,37,202,39,344v1,115,1,213,77,250v28,14,80,16,128,15v16,79,18,147,0,225v-171,11,-320,-19,-392,-112v-30,-38,-52,-84,-66,-138","w":894},"|":{"d":"209,-1589v94,-16,186,-18,280,0r0,1933v-95,16,-187,16,-280,0r0,-1933","w":698},"}":{"d":"115,111v85,3,151,-9,177,-63v25,-51,26,-120,27,-202v0,-143,5,-251,39,-344v26,-73,68,-108,134,-141v-159,-65,-171,-250,-173,-483v-1,-115,1,-214,-77,-249v-29,-13,-79,-16,-127,-15v-16,-78,-18,-146,0,-226v171,-12,317,22,392,112v91,110,89,317,93,513v4,178,66,268,193,321r0,54v-94,44,-161,96,-181,206v-27,146,-9,354,-40,492v-43,194,-208,268,-457,250v-16,-77,-18,-146,0,-225","w":894},"~":{"d":"133,-686v-44,-50,-90,-108,-108,-180v56,-65,155,-123,280,-121v139,3,221,82,363,82v86,0,113,-23,174,-74v51,50,86,115,110,186v-55,65,-158,118,-282,117v-140,-1,-227,-82,-363,-82v-90,0,-113,20,-174,72","w":974},"\u00a0":{"w":0},"\u00a1":{"d":"168,-588v94,-16,181,-16,276,0r21,1002v-107,16,-211,16,-318,0xm156,-758v-16,-103,-18,-197,0,-301v103,-16,197,-16,301,0v16,104,16,200,0,301v-104,17,-198,17,-301,0","w":612},"\u00a2":{"d":"1042,-27v-71,28,-134,42,-217,50r0,219v-58,16,-119,16,-178,0r0,-224v-218,-28,-350,-153,-405,-344v-35,-123,-37,-279,0,-402v57,-189,186,-322,405,-349r0,-223v59,-16,117,-18,178,0r0,221v81,7,135,22,205,49v0,90,-20,155,-51,217v-76,-24,-121,-35,-213,-35v-181,0,-256,129,-256,320v0,221,96,330,314,316v63,-4,112,-21,161,-38v34,57,58,129,57,223"},"\u00a3":{"d":"1130,-258v14,82,16,177,0,258r-946,0r-8,-29v98,-69,150,-196,175,-335v16,-83,8,-147,-1,-226r-184,0v-13,-71,-14,-151,0,-221r149,0v-18,-124,-33,-263,11,-376v44,-114,129,-199,246,-247v62,-26,137,-39,223,-39v146,-1,237,22,338,62v-8,83,-29,168,-66,237v-79,-30,-135,-56,-246,-55v-147,2,-219,90,-223,230v-2,76,7,126,18,188r320,0v13,71,14,151,0,221r-285,0v1,11,3,22,4,34v6,124,-7,207,-53,298r528,0"},"\u00a4":{"d":"1075,-700v0,91,-29,169,-65,229r141,139v-42,62,-94,125,-162,162r-143,-145v-132,79,-328,78,-459,0r-143,145v-77,-36,-122,-94,-164,-164r143,-143v-80,-132,-79,-321,4,-451r-147,-149v37,-78,90,-122,164,-164r151,151v133,-76,311,-76,445,0r149,-151v63,43,125,91,162,162r-145,143v47,73,70,151,69,236xm538,-500v49,24,114,23,163,0v71,-35,126,-99,126,-200v0,-101,-53,-170,-125,-204v-48,-23,-115,-24,-164,0v-72,34,-126,102,-126,204v0,101,56,165,126,200"},"\u00a5":{"d":"764,2v-95,14,-202,14,-297,0r0,-321r-340,0v-11,-47,-10,-127,0,-175r340,0r0,-143r-340,0v-11,-46,-11,-127,0,-174r244,0r-344,-637v109,-15,219,-17,327,0r271,571r266,-571v104,-16,205,-16,313,0r-344,637r279,0v8,40,9,130,0,174r-375,0r0,143r375,0v8,41,9,130,0,175r-375,0r0,321"},"\u00a6":{"d":"209,-1589v94,-16,186,-18,280,0r0,686v-95,16,-187,16,-280,0r0,-686xm209,-342v94,-16,186,-16,280,0r0,686v-95,16,-187,16,-280,0r0,-686","w":698},"\u00a7":{"d":"213,-246v64,28,168,53,256,53v74,0,131,-7,171,-21v40,-14,60,-40,60,-77v0,-27,-8,-47,-26,-59v-18,-12,-46,-21,-84,-33r-225,-70v-89,-27,-149,-64,-183,-109v-34,-45,-51,-94,-51,-149v0,-108,63,-187,127,-256v-48,-45,-72,-106,-72,-182v0,-104,40,-184,121,-240v81,-56,191,-84,332,-84v136,0,229,22,336,58v-5,74,-40,161,-70,213v-63,-28,-151,-53,-239,-53v-73,0,-122,10,-150,25v-49,25,-55,97,-14,128v18,14,47,26,84,37r245,74v81,25,136,59,167,103v31,44,46,93,46,145v0,122,-60,196,-126,270v44,43,71,90,71,174v-1,116,-64,191,-141,240v-168,108,-496,105,-703,26v5,-73,40,-161,68,-213xm449,-872v-35,29,-66,60,-66,120v0,70,45,91,113,111r227,66v25,-24,65,-68,65,-121v0,-27,-9,-51,-26,-71v-17,-20,-53,-37,-109,-52","w":1171},"\u00a8":{"d":"418,-1214v-80,14,-183,14,-264,0v-13,-77,-14,-165,0,-242v80,-16,183,-15,264,0v14,74,13,168,0,242xm870,-1214v-80,13,-184,14,-264,0v-16,-82,-16,-159,0,-242v80,-16,184,-16,264,0v11,76,12,165,0,242","w":1024},"\u00a9":{"d":"893,-510v77,0,97,-5,160,-29v27,43,43,114,43,185v-72,29,-132,36,-224,37v-132,1,-227,-55,-292,-125v-89,-97,-130,-295,-76,-456v35,-103,102,-183,196,-228v109,-52,279,-43,385,4v-1,63,-12,139,-36,184v-59,-19,-88,-27,-156,-27v-128,0,-188,91,-188,228v0,141,63,227,188,227xm592,-172v143,62,357,62,500,0v208,-90,346,-276,346,-563v0,-287,-139,-472,-346,-563v-143,-63,-357,-62,-500,0v-208,91,-346,276,-346,563v0,286,138,473,346,563xm1152,-32v-182,77,-438,77,-620,0v-185,-78,-319,-214,-394,-400v-73,-182,-73,-423,0,-606v75,-188,208,-322,394,-400v182,-77,438,-78,620,-2v185,77,319,216,394,402v73,182,73,425,0,606v-75,186,-209,322,-394,400","w":1683},"\u00aa":{"d":"502,-809v33,0,61,-2,86,-8r0,-197v-111,-11,-242,-6,-242,107v0,84,76,97,156,98xm498,-625v-213,-3,-368,-64,-371,-274v-1,-105,52,-171,118,-211v83,-51,214,-66,343,-53v4,-111,-63,-123,-172,-123v-66,0,-129,11,-183,31v-33,-51,-50,-93,-51,-170v81,-26,183,-48,279,-48v225,0,356,101,356,332r0,465v-78,23,-208,52,-319,51","w":1024},"\u00ab":{"d":"82,-545r319,-454v91,-18,204,-16,299,0r-315,454r315,455v-97,15,-206,17,-299,0xm629,-545r319,-454v91,-18,204,-16,299,0r-315,454r315,455v-97,15,-206,17,-299,0","w":1310},"\u00ac":{"d":"1065,-850r0,590v-81,16,-172,16,-252,0r0,-338r-623,0v-16,-81,-16,-172,0,-252r875,0"},"\u00ad":{"d":"641,-688v16,81,16,172,0,252r-522,0v-16,-81,-18,-172,0,-252r522,0","w":759},"\u00ae":{"d":"768,-360v-57,11,-140,10,-201,0r0,-783v77,-13,140,-20,230,-20v130,0,223,23,279,69v56,46,83,106,83,181v0,89,-43,168,-90,206r-31,25r181,320v-71,10,-162,12,-232,0r-184,-359v40,-23,84,-52,111,-83v20,-23,30,-50,30,-83v-1,-68,-43,-108,-119,-106v-24,0,-33,1,-57,6r0,627xm592,-172v143,62,357,62,500,0v208,-90,346,-276,346,-563v0,-287,-139,-472,-346,-563v-143,-63,-357,-62,-500,0v-208,91,-346,276,-346,563v0,286,138,473,346,563xm1152,-32v-182,77,-438,77,-620,0v-185,-78,-319,-214,-394,-400v-73,-182,-73,-423,0,-606v75,-188,208,-322,394,-400v182,-77,438,-78,620,-2v185,77,319,216,394,402v73,182,73,425,0,606v-75,186,-209,322,-394,400","w":1683},"\u00af":{"d":"784,-1448v16,71,18,137,0,207r-542,0v-16,-70,-18,-136,0,-207r542,0","w":1024},"\u00b0":{"d":"102,-1060v-33,-74,-32,-163,0,-238v46,-107,139,-189,283,-189v144,0,241,82,287,189v32,75,33,164,0,238v-48,105,-141,188,-287,188v-144,0,-236,-84,-283,-188xm258,-1178v0,75,56,134,127,134v72,0,131,-58,131,-134v0,-74,-60,-137,-131,-137v-71,0,-127,63,-127,137","w":772},"\u00b1":{"d":"489,-248r0,-352r-321,0v-16,-82,-16,-166,0,-248r321,0r0,-362v82,-16,166,-18,248,0r0,362r322,0v16,82,16,166,0,248r-322,0r0,352r307,0v16,82,18,166,0,248r-862,0v-16,-82,-16,-166,0,-248r307,0"},"\u00b2":{"d":"408,-1473v189,-2,338,90,337,271v0,65,-17,124,-50,175v-38,59,-105,144,-167,208r258,0v11,51,12,144,0,194r-661,0r-16,-39r272,-299v82,-90,123,-162,123,-217v0,-59,-57,-91,-125,-90v-84,1,-119,15,-184,43v-23,-57,-49,-118,-56,-190v88,-34,153,-56,269,-56","w":921},"\u00b3":{"d":"426,-989v-34,0,-60,1,-92,12r-39,-43r156,-244r-254,0v-12,-59,-16,-123,0,-184r561,0r22,43r-190,275v93,15,159,71,190,149v26,68,16,153,-15,209v-62,112,-192,169,-364,170v-105,0,-179,-13,-260,-39v2,-65,29,-139,58,-178v65,18,124,38,198,39v84,0,168,-35,168,-119v0,-65,-74,-90,-139,-90","w":921},"\u00b4":{"d":"451,-1473v104,-15,249,-17,354,0r-309,252v-83,14,-187,19,-275,0","w":1024},"\u00b5":{"d":"426,485v-91,14,-195,16,-285,0r0,-1544v99,-16,191,-16,289,0r0,551v0,109,17,185,51,228v34,43,83,65,148,65v138,1,182,-91,182,-229r0,-615v100,-16,190,-16,289,0r0,1061v-63,14,-147,13,-209,-2v-19,-29,-35,-77,-45,-115v-74,86,-134,138,-279,140v-55,0,-102,-14,-141,-31r0,491","w":1220},"\u00b6":{"d":"772,12v-71,0,-137,-1,-184,-12r0,-641v-214,3,-370,-69,-446,-213v-54,-103,-50,-291,4,-392v99,-186,335,-239,626,-239r0,1497xm905,-1485v69,0,138,2,185,12r0,1473v-46,10,-117,12,-185,12r0,-1497","w":1226},"\u00b7":{"d":"152,-418v-16,-100,-18,-190,0,-289v99,-16,190,-16,288,0v16,99,18,191,0,289v-100,16,-189,16,-288,0","w":591},"\u00b8":{"d":"449,225v-43,0,-93,5,-125,19r-15,-15r103,-278r145,0r-61,158v10,-3,18,-5,32,-5v130,-3,230,64,230,179v0,69,-30,121,-88,157v-91,57,-263,70,-394,35v7,-49,11,-109,37,-143v45,12,76,18,127,18v63,0,127,-8,127,-63v0,-54,-58,-62,-118,-62","w":1024},"\u00b9":{"d":"211,-625v-22,-55,-22,-138,0,-192r172,0r0,-365r-156,58v-46,-49,-65,-99,-88,-174r416,-160r51,0r0,641r174,0v15,61,15,132,0,192r-569,0","w":921},"\u00ba":{"d":"510,-791v52,0,89,-24,114,-69v46,-84,46,-278,0,-360v-25,-44,-62,-66,-114,-66v-51,0,-87,22,-112,66v-47,81,-47,278,0,361v25,45,61,68,112,68xm681,-643v-93,48,-248,48,-341,0v-132,-68,-213,-203,-213,-395v0,-192,81,-330,213,-398v93,-48,248,-47,341,0v134,68,214,205,214,398v0,192,-81,327,-214,395","w":1024},"\u00bb":{"d":"379,-545r-316,-454v98,-14,205,-20,299,0r320,454r-320,455v-95,18,-201,14,-299,0xm924,-545r-316,-454v98,-14,205,-20,299,0r320,454r-320,455v-95,18,-201,14,-299,0","w":1308},"\u00bc":{"d":"1282,-188r324,-668v75,6,138,30,190,65r-211,461r131,0r0,-145v63,-8,150,-8,215,0r0,145r88,0v10,49,13,127,0,178r-88,0r0,150v-57,11,-162,11,-215,0r0,-150r-411,0xm1485,-1452v97,-16,182,-16,284,0r-991,1448v-99,17,-183,15,-282,0xm207,-625v-22,-55,-22,-138,0,-192r172,0r0,-365r-156,58v-46,-49,-65,-99,-88,-174r416,-160r51,0r0,641r174,0v15,61,15,132,0,192r-569,0","w":2150},"\u00bd":{"d":"1452,-1452v97,-16,182,-16,285,0r-992,1448v-99,17,-183,15,-282,0xm195,-625v-22,-55,-22,-138,0,-192r172,0r0,-365r-156,58v-46,-49,-65,-99,-88,-174r416,-160r51,0r0,641r174,0v15,61,15,132,0,192r-569,0xm1657,-850v189,-2,338,90,337,271v0,65,-17,124,-50,175v-38,59,-105,144,-167,208r258,0v11,51,12,144,0,194r-661,0r-16,-39r272,-299v82,-90,123,-162,123,-217v0,-59,-57,-91,-125,-90v-84,1,-119,15,-184,43v-23,-57,-49,-118,-56,-190v88,-34,153,-56,269,-56","w":2150},"\u00be":{"d":"1290,-203r324,-667v75,6,138,30,190,65r-211,461r131,0r0,-145v63,-8,150,-10,215,0r0,145r89,0v10,49,11,127,0,178r-89,0r0,150v-57,11,-162,11,-215,0r0,-150r-411,0xm1489,-1452v97,-16,182,-16,285,0r-992,1448v-99,17,-183,15,-282,0xm475,-989v-34,0,-60,1,-92,12r-39,-43r156,-244r-254,0v-12,-59,-16,-123,0,-184r561,0r22,43r-190,275v93,15,160,71,191,149v26,68,15,153,-16,209v-62,112,-192,169,-364,170v-105,0,-179,-13,-260,-39v2,-65,29,-139,58,-178v65,18,124,38,198,39v84,0,168,-35,168,-119v0,-65,-74,-90,-139,-90","w":2150},"\u00bf":{"d":"977,346v-113,39,-215,68,-365,68v-164,0,-287,-37,-370,-112v-83,-75,-125,-177,-125,-306v0,-234,162,-330,323,-406r0,-186v89,-15,182,-17,267,0r0,352v-107,19,-213,54,-263,133v-18,27,-28,60,-28,99v-1,124,102,180,231,180v109,0,181,-24,260,-51v35,65,64,140,70,229xm426,-758v-16,-103,-16,-197,0,-301v103,-16,197,-16,301,0v16,104,16,200,0,301v-104,17,-199,17,-301,0","w":1009},"\u00c0":{"d":"209,-1812v113,-21,279,-19,395,0r201,213v-95,15,-203,18,-295,0xm485,-1473v106,-16,226,-15,334,0r461,1473v-107,15,-212,17,-315,0r-82,-295r-488,0r-84,295v-100,17,-193,15,-291,0xm813,-543r-170,-618r-178,618r348,0","w":1302},"\u00c1":{"d":"668,-1812v116,-17,280,-22,395,0r-301,213v-91,18,-201,15,-295,0xm485,-1473v106,-16,226,-15,334,0r461,1473v-107,15,-212,17,-315,0r-82,-295r-488,0r-84,295v-100,17,-193,15,-291,0xm813,-543r-170,-618r-178,618r348,0","w":1302},"\u00c2":{"d":"1044,-1599v-84,17,-216,16,-301,0r-96,-103r-92,103v-86,16,-216,17,-301,0r217,-213v100,-16,255,-18,356,0xm485,-1473v106,-16,226,-15,334,0r461,1473v-107,15,-212,17,-315,0r-82,-295r-488,0r-84,295v-100,17,-193,15,-291,0xm813,-543r-170,-618r-178,618r348,0","w":1302},"\u00c3":{"d":"350,-1616v-37,-47,-75,-88,-90,-151v54,-73,184,-151,310,-102r150,58v25,9,52,13,79,13v73,0,95,-24,145,-70v45,48,76,100,92,156v-44,56,-126,113,-225,110v-123,-2,-197,-84,-315,-84v-75,0,-94,26,-146,70xm485,-1473v106,-16,226,-15,334,0r461,1473v-107,15,-212,17,-315,0r-82,-295r-488,0r-84,295v-100,17,-193,15,-291,0xm813,-543r-170,-618r-178,618r348,0","w":1302},"\u00c4":{"d":"1008,-1616v-81,13,-185,14,-265,0v-16,-82,-16,-159,0,-242v80,-16,184,-15,265,0v10,76,11,166,0,242xm555,-1616v-80,14,-183,14,-264,0v-3,-21,-5,-41,-7,-60v-7,-62,0,-126,7,-182v80,-16,183,-15,264,0v14,74,14,168,0,242xm485,-1473v106,-16,226,-15,334,0r461,1473v-107,15,-212,17,-315,0r-82,-295r-488,0r-84,295v-100,17,-193,15,-291,0xm813,-543r-170,-618r-178,618r348,0","w":1302},"\u00c5":{"d":"909,-1665v0,89,-44,154,-94,195r465,1470v-107,15,-212,17,-315,0r-82,-295r-488,0r-84,295v-100,17,-193,15,-291,0r469,-1470v-54,-42,-96,-102,-96,-195v0,-151,111,-252,258,-252v148,0,258,100,258,252xm813,-543r-170,-643r-178,643r348,0xm553,-1665v0,72,31,124,98,125v65,0,98,-42,99,-125v1,-74,-31,-127,-99,-127v-68,0,-98,53,-98,127","w":1302},"\u00c6":{"d":"850,-1473r1001,0v16,81,18,174,0,254r-536,0r0,320r426,0v16,87,16,171,0,256r-426,0r0,389r551,0v16,81,16,174,0,254r-850,0r0,-303r-510,0r-160,303v-98,17,-231,15,-326,0xm1016,-551r0,-692r-12,0r-367,692r379,0","w":1959},"\u00c7":{"d":"717,227v-52,0,-85,7,-131,23r-23,-29r80,-213v-268,-52,-433,-222,-503,-473v-50,-179,-44,-404,14,-573v64,-186,182,-326,355,-402v87,-38,185,-57,296,-57v151,1,243,15,360,63v-6,89,-41,165,-69,238v-92,-31,-144,-44,-258,-45v-131,0,-232,43,-302,128v-70,85,-106,212,-106,380v0,333,141,500,424,500v114,-1,170,-15,262,-46v34,70,58,152,70,240v-128,47,-219,62,-375,64r-25,-2r-30,73v122,-17,226,27,258,114v35,92,3,184,-70,232v-91,59,-288,68,-422,31v7,-57,15,-110,45,-149v60,24,181,31,233,6v20,-10,29,-26,29,-47v0,-37,-37,-56,-112,-56","w":1265},"\u00c8":{"d":"201,-1812v113,-21,279,-19,395,0r201,213v-94,15,-204,18,-295,0xm143,-1473r836,0v16,81,16,174,0,254r-537,0r0,320r426,0v16,87,18,171,0,256r-426,0r0,389r551,0v16,81,18,174,0,254r-850,0r0,-1473","w":1087},"\u00c9":{"d":"528,-1812v116,-17,281,-23,396,0r-301,213v-91,18,-201,15,-295,0xm143,-1473r836,0v16,81,16,174,0,254r-537,0r0,320r426,0v16,87,18,171,0,256r-426,0r0,389r551,0v16,81,18,174,0,254r-850,0r0,-1473","w":1087},"\u00ca":{"d":"938,-1599v-84,17,-216,16,-301,0r-96,-103r-92,103v-86,16,-216,16,-302,0r218,-213v100,-17,255,-17,356,0xm143,-1473r836,0v16,81,16,174,0,254r-537,0r0,320r426,0v16,87,18,171,0,256r-426,0r0,389r551,0v16,81,18,174,0,254r-850,0r0,-1473","w":1087},"\u00cb":{"d":"913,-1616v-81,14,-184,14,-264,0v-16,-82,-16,-159,0,-242v80,-16,184,-16,264,0v11,75,13,167,0,242xm461,-1616v-80,14,-183,14,-264,0v-13,-74,-15,-166,0,-242v80,-16,183,-15,264,0v14,74,14,168,0,242xm143,-1473r836,0v16,81,16,174,0,254r-537,0r0,320r426,0v16,87,18,171,0,256r-426,0r0,389r551,0v16,81,18,174,0,254r-850,0r0,-1473","w":1087},"\u00cc":{"d":"-104,-1812v113,-21,279,-19,395,0r201,213v-94,15,-204,18,-295,0xm143,-1473v102,-16,198,-16,301,0r0,1473v-104,16,-199,16,-301,0r0,-1473","w":587},"\u00cd":{"d":"328,-1812v116,-17,280,-22,395,0r-301,213v-91,18,-201,15,-295,0xm143,-1473v102,-16,198,-16,301,0r0,1473v-104,16,-199,16,-301,0r0,-1473","w":587},"\u00ce":{"d":"690,-1599v-84,17,-216,16,-301,0r-96,-103r-92,103v-86,16,-216,17,-301,0r217,-213v100,-16,255,-17,356,0xm143,-1473v102,-16,198,-16,301,0r0,1473v-104,16,-199,16,-301,0r0,-1473","w":587},"\u00cf":{"d":"653,-1616v-81,14,-184,14,-264,0v-16,-82,-16,-159,0,-242v80,-16,184,-16,264,0v11,77,11,164,0,242xm201,-1616v-80,14,-183,14,-264,0v-13,-74,-15,-166,0,-242v80,-16,183,-15,264,0v14,74,14,168,0,242xm143,-1473v102,-16,198,-16,301,0r0,1473v-104,16,-199,16,-301,0r0,-1473","w":587},"\u00d0":{"d":"518,25v-136,1,-246,-12,-366,-25r0,-668r-140,0v-16,-69,-16,-136,0,-206r140,0r0,-599v124,-14,244,-25,389,-24v514,0,791,256,790,770v-1,526,-283,751,-813,752xm453,-238v12,1,28,2,47,4v82,6,174,2,244,-18v118,-33,191,-116,235,-234v45,-121,44,-369,0,-492v-65,-184,-210,-275,-460,-260v-25,1,-47,2,-66,5r0,359r284,0v16,70,18,137,0,206r-284,0r0,430","w":1435},"\u00d1":{"d":"406,-1616v-37,-46,-76,-87,-91,-151v54,-72,185,-151,311,-102r149,58v25,9,52,13,79,13v72,0,96,-23,145,-70v45,48,76,100,93,156v-54,73,-183,140,-310,97v-27,-9,-54,-19,-80,-29v-45,-17,-95,-42,-151,-42v-75,0,-94,26,-145,70xm143,-1473v87,-16,161,-16,248,0r570,938r0,-938v92,-15,177,-17,264,0r0,1473v-91,16,-152,16,-244,0r-573,-936r0,936v-86,16,-180,16,-265,0r0,-1473","w":1370},"\u00d2":{"d":"299,-1812v113,-21,279,-19,395,0r201,213v-95,15,-203,18,-295,0xm1030,-32v-154,74,-420,75,-574,0v-235,-114,-352,-358,-352,-701v0,-343,117,-594,353,-707v155,-74,419,-74,573,0v237,114,352,363,352,707v0,343,-117,588,-352,701xm743,-225v211,0,317,-169,318,-508v0,-169,-26,-296,-77,-381v-51,-85,-131,-127,-239,-127v-215,0,-322,169,-321,508v0,339,106,508,319,508","w":1486},"\u00d3":{"d":"782,-1812v116,-17,281,-23,396,0r-301,213v-91,18,-201,15,-295,0xm1030,-32v-154,74,-420,75,-574,0v-235,-114,-352,-358,-352,-701v0,-343,117,-594,353,-707v155,-74,419,-74,573,0v237,114,352,363,352,707v0,343,-117,588,-352,701xm743,-225v211,0,317,-169,318,-508v0,-169,-26,-296,-77,-381v-51,-85,-131,-127,-239,-127v-215,0,-322,169,-321,508v0,339,106,508,319,508","w":1486},"\u00d4":{"d":"1137,-1599v-84,16,-217,16,-301,0r-97,-103r-92,103v-86,16,-216,16,-301,0r217,-213v100,-16,255,-17,357,0xm1030,-32v-154,74,-420,75,-574,0v-235,-114,-352,-358,-352,-701v0,-343,117,-594,353,-707v155,-74,419,-74,573,0v237,114,352,363,352,707v0,343,-117,588,-352,701xm743,-225v211,0,317,-169,318,-508v0,-169,-26,-296,-77,-381v-51,-85,-131,-127,-239,-127v-215,0,-322,169,-321,508v0,339,106,508,319,508","w":1486},"\u00d5":{"d":"469,-1616v-37,-47,-75,-88,-90,-151v54,-73,184,-151,310,-102r150,58v25,9,52,13,79,13v73,0,95,-24,145,-70v45,48,76,100,92,156v-44,56,-126,113,-225,110v-124,-2,-197,-84,-316,-84v-75,0,-93,26,-145,70xm1030,-32v-154,74,-420,75,-574,0v-235,-114,-352,-358,-352,-701v0,-343,117,-594,353,-707v155,-74,419,-74,573,0v237,114,352,363,352,707v0,343,-117,588,-352,701xm743,-225v211,0,317,-169,318,-508v0,-169,-26,-296,-77,-381v-51,-85,-131,-127,-239,-127v-215,0,-322,169,-321,508v0,339,106,508,319,508","w":1486},"\u00d6":{"d":"1102,-1616v-81,13,-184,14,-264,0v-16,-82,-18,-159,0,-242v80,-16,183,-15,264,0v10,76,11,166,0,242xm649,-1616v-80,14,-183,14,-264,0v-3,-21,-5,-41,-7,-60v-7,-62,0,-126,7,-182v80,-16,184,-16,264,0v14,74,14,168,0,242xm1030,-32v-154,74,-420,75,-574,0v-235,-114,-352,-358,-352,-701v0,-343,117,-594,353,-707v155,-74,419,-74,573,0v237,114,352,363,352,707v0,343,-117,588,-352,701xm743,-225v211,0,317,-169,318,-508v0,-169,-26,-296,-77,-381v-51,-85,-131,-127,-239,-127v-215,0,-322,169,-321,508v0,339,106,508,319,508","w":1486},"\u00d7":{"d":"440,-709r-227,-227v44,-69,107,-131,176,-176r227,227r226,-225v69,47,129,105,176,174r-227,227r227,228v-45,70,-106,126,-174,174r-228,-228r-229,230v-72,-44,-129,-107,-176,-176"},"\u00d8":{"d":"743,25v-168,0,-292,-45,-389,-119r-65,92v-50,14,-128,12,-180,2r143,-197v-99,-130,-148,-313,-148,-536v0,-343,115,-596,353,-707v81,-38,176,-57,286,-57v160,0,283,41,375,111r62,-84v51,-18,127,-16,182,-3r-137,189v104,130,157,323,157,551v0,343,-116,590,-352,701v-81,38,-176,57,-287,57xm522,-324v53,65,127,99,221,99v211,0,317,-169,318,-508v0,-109,-12,-203,-35,-281xm950,-1157v-49,-56,-118,-84,-205,-84v-215,0,-322,169,-321,508v0,100,5,188,29,262","w":1486},"\u00d9":{"d":"274,-1812v113,-21,280,-19,396,0r200,213v-95,15,-203,18,-295,0xm940,-1473v96,-14,206,-14,301,0r0,828v-1,200,-27,369,-113,485v-89,120,-226,185,-440,185v-314,0,-474,-141,-528,-397v-17,-82,-25,-174,-25,-273r0,-828v94,-14,205,-14,299,0r0,764v1,148,3,268,46,361v35,77,98,115,208,115v248,1,252,-223,252,-476r0,-764","w":1374},"\u00da":{"d":"721,-1812v116,-17,280,-22,395,0r-301,213v-92,18,-200,15,-295,0xm940,-1473v96,-14,206,-14,301,0r0,828v-1,200,-27,369,-113,485v-89,120,-226,185,-440,185v-314,0,-474,-141,-528,-397v-17,-82,-25,-174,-25,-273r0,-828v94,-14,205,-14,299,0r0,764v1,148,3,268,46,361v35,77,98,115,208,115v248,1,252,-223,252,-476r0,-764","w":1374},"\u00db":{"d":"1083,-1599v-84,17,-216,16,-301,0r-96,-103r-92,103v-86,16,-216,17,-301,0r217,-213v100,-16,255,-17,356,0xm940,-1473v96,-14,206,-14,301,0r0,828v-1,200,-27,369,-113,485v-89,120,-226,185,-440,185v-314,0,-474,-141,-528,-397v-17,-82,-25,-174,-25,-273r0,-828v94,-14,205,-14,299,0r0,764v1,148,3,268,46,361v35,77,98,115,208,115v248,1,252,-223,252,-476r0,-764","w":1374},"\u00dc":{"d":"1049,-1616v-81,13,-185,14,-265,0v-16,-82,-16,-159,0,-242v80,-16,184,-15,265,0v10,76,11,166,0,242xm596,-1616v-80,14,-183,14,-264,0v-3,-21,-5,-41,-7,-60v-7,-62,0,-126,7,-182v80,-16,183,-15,264,0v14,74,14,168,0,242xm940,-1473v96,-14,206,-14,301,0r0,828v-1,200,-27,369,-113,485v-89,120,-226,185,-440,185v-314,0,-474,-141,-528,-397v-17,-82,-25,-174,-25,-273r0,-828v94,-14,205,-14,299,0r0,764v1,148,3,268,46,361v35,77,98,115,208,115v248,1,252,-223,252,-476r0,-764","w":1374},"\u00dd":{"d":"657,-1812v116,-17,281,-23,396,0r-301,213v-91,18,-201,15,-295,0xm780,2v-96,14,-205,14,-301,0r0,-528r-459,-947v109,-15,220,-17,328,0r291,668r287,-668v105,-16,204,-16,313,0r-459,947r0,528","w":1259},"\u00de":{"d":"442,0v-96,13,-204,14,-299,0r0,-1473v95,-14,203,-13,299,0r0,224v187,-10,367,14,485,94v117,79,191,211,191,416v0,206,-74,335,-191,415v-119,81,-291,101,-485,97r0,227xm541,-1004v-40,0,-55,3,-99,7r0,516v25,3,43,4,56,5v195,11,313,-70,313,-263v0,-178,-98,-263,-270,-265","w":1206},"\u00df":{"d":"743,-1141v-1,-96,-50,-147,-149,-147v-60,0,-104,24,-132,72v-28,48,-42,125,-42,233r0,983v-101,16,-186,16,-285,0r0,-983v2,-334,138,-539,475,-539v155,0,264,47,337,121v58,59,93,145,93,248v0,160,-86,238,-153,332v-32,44,-42,111,-5,149v58,61,153,87,210,152v47,54,85,124,82,231v-4,148,-83,239,-202,284v-124,47,-329,36,-444,-15v6,-82,30,-157,60,-222v51,28,101,39,166,41v80,1,131,-40,131,-116v-1,-60,-42,-88,-82,-113v-105,-65,-232,-112,-232,-283v0,-99,46,-151,87,-209v42,-59,87,-116,85,-219","w":1236},"\u00e0":{"d":"350,-344v0,159,186,155,322,129r0,-270v-17,-3,-35,-5,-54,-7v-138,-14,-268,16,-268,148xm549,25v-273,-3,-470,-84,-471,-357v-1,-135,66,-219,150,-271v110,-68,272,-86,444,-69v10,-148,-84,-182,-226,-182v-74,0,-152,14,-235,43v-36,-68,-56,-115,-57,-213v103,-36,224,-59,348,-59v288,0,452,133,452,430r0,614v-109,33,-250,66,-405,64xm143,-1473v106,-17,247,-15,354,0r230,252v-89,18,-191,15,-275,0","w":1069},"\u00e1":{"d":"350,-344v0,159,186,155,322,129r0,-270v-17,-3,-35,-5,-54,-7v-138,-14,-268,16,-268,148xm549,25v-273,-3,-470,-84,-471,-357v-1,-135,66,-219,150,-271v110,-68,272,-86,444,-69v10,-148,-84,-182,-226,-182v-74,0,-152,14,-235,43v-36,-68,-56,-115,-57,-213v103,-36,224,-59,348,-59v288,0,452,133,452,430r0,614v-109,33,-250,66,-405,64xm521,-1473v104,-15,249,-17,354,0r-309,252v-83,14,-187,19,-275,0","w":1069},"\u00e2":{"d":"350,-344v0,159,186,155,322,129r0,-270v-17,-3,-35,-5,-54,-7v-138,-14,-268,16,-268,148xm549,25v-273,-3,-470,-84,-471,-357v-1,-135,66,-219,150,-271v110,-68,272,-86,444,-69v10,-148,-84,-182,-226,-182v-74,0,-152,14,-235,43v-36,-68,-56,-115,-57,-213v103,-36,224,-59,348,-59v288,0,452,133,452,430r0,614v-109,33,-250,66,-405,64xm350,-1473v99,-10,227,-18,324,3r198,251v-71,18,-203,18,-278,-2r-84,-131r-82,131v-74,21,-205,19,-278,2","w":1069},"\u00e3":{"d":"350,-344v0,159,186,155,322,129r0,-270v-17,-3,-35,-5,-54,-7v-138,-14,-268,16,-268,148xm549,25v-273,-3,-470,-84,-471,-357v-1,-135,66,-219,150,-271v110,-68,272,-86,444,-69v10,-148,-84,-182,-226,-182v-74,0,-152,14,-235,43v-36,-68,-56,-115,-57,-213v103,-36,224,-59,348,-59v288,0,452,133,452,430r0,614v-109,33,-250,66,-405,64xm247,-1227v-34,-45,-74,-96,-86,-159v46,-57,121,-110,224,-109v114,2,178,72,292,72v70,0,93,-18,140,-64v41,42,72,102,88,164v-45,58,-123,105,-226,104v-113,-2,-180,-71,-292,-71v-73,0,-91,18,-140,63","w":1069},"\u00e4":{"d":"350,-344v0,159,186,155,322,129r0,-270v-17,-3,-35,-5,-54,-7v-138,-14,-268,16,-268,148xm549,25v-273,-3,-470,-84,-471,-357v-1,-135,66,-219,150,-271v110,-68,272,-86,444,-69v10,-148,-84,-182,-226,-182v-74,0,-152,14,-235,43v-36,-68,-56,-115,-57,-213v103,-36,224,-59,348,-59v288,0,452,133,452,430r0,614v-109,33,-250,66,-405,64xm455,-1214v-80,14,-183,14,-264,0v-13,-77,-14,-165,0,-242v80,-16,183,-15,264,0v14,74,13,168,0,242xm907,-1214v-80,13,-184,14,-264,0v-16,-82,-16,-159,0,-242v80,-16,184,-16,264,0v11,76,12,165,0,242","w":1069},"\u00e5":{"d":"453,-1423v0,65,37,112,96,112v59,0,96,-48,96,-112v0,-64,-38,-113,-96,-113v-58,0,-96,48,-96,113xm549,-1190v-137,0,-240,-90,-240,-233v0,-144,104,-233,240,-234v136,0,239,91,239,234v0,144,-102,233,-239,233xm350,-344v0,159,186,155,322,129r0,-270v-17,-3,-35,-5,-54,-7v-138,-14,-268,16,-268,148xm549,25v-273,-3,-470,-84,-471,-357v-1,-135,66,-219,150,-271v110,-68,272,-86,444,-69v10,-148,-84,-182,-226,-182v-74,0,-152,14,-235,43v-36,-68,-56,-115,-57,-213v103,-36,224,-59,348,-59v288,0,452,133,452,430r0,614v-109,33,-250,66,-405,64","w":1069},"\u00e6":{"d":"856,-63v-94,54,-206,89,-356,88v-253,-2,-420,-101,-422,-357v-1,-135,65,-217,150,-268v111,-67,277,-82,448,-66r0,-30v1,-132,-98,-159,-230,-158v-84,1,-165,17,-235,43v-36,-68,-56,-115,-57,-213v103,-36,224,-59,348,-59v147,0,258,45,334,120v78,-69,182,-121,325,-120v232,2,360,126,417,306v31,97,35,228,17,335r-661,0v-3,164,130,235,293,235v104,0,178,-21,260,-51v31,55,55,137,57,221v-97,38,-213,61,-340,62v-138,0,-263,-32,-348,-88xm350,-344v-1,113,84,143,191,143v70,0,133,-19,174,-37v-31,-64,-40,-144,-45,-233v-30,-5,-70,-10,-103,-10v-122,3,-215,20,-217,137xm1331,-643v-5,-121,-52,-219,-174,-219v-142,0,-208,86,-221,219r395,0","w":1691},"\u00e7":{"d":"532,225v-43,0,-92,5,-124,19r-15,-15r80,-217v-252,-54,-389,-240,-389,-540v0,-257,106,-430,288,-512v147,-66,390,-52,527,10v-1,76,-21,159,-51,217v-76,-24,-121,-35,-213,-35v-181,0,-256,129,-256,320v0,221,97,330,315,316v63,-4,111,-21,160,-38v34,57,58,129,57,223v-99,38,-176,51,-299,52r-32,84v10,-3,18,-5,32,-5v130,-3,230,64,230,179v0,69,-30,121,-88,157v-91,57,-263,70,-394,35v7,-49,11,-109,37,-143v45,12,76,18,127,18v63,0,127,-8,127,-63v0,-54,-58,-62,-119,-62","w":972},"\u00e8":{"d":"1034,-777v33,97,38,227,21,337r-680,0v8,163,122,233,291,233v102,0,202,-20,280,-51v31,55,55,137,58,221v-168,67,-438,88,-614,21v-196,-75,-302,-244,-302,-506v0,-257,110,-433,290,-517v114,-54,301,-59,419,-5v113,52,195,143,237,267xm791,-643v-4,-123,-70,-220,-195,-219v-142,0,-206,86,-219,219r414,0xm211,-1473v106,-17,247,-15,354,0r230,252v-89,18,-191,15,-275,0","w":1150},"\u00e9":{"d":"1034,-777v33,97,38,227,21,337r-680,0v8,163,122,233,291,233v102,0,202,-20,280,-51v31,55,55,137,58,221v-168,67,-438,88,-614,21v-196,-75,-302,-244,-302,-506v0,-257,110,-433,290,-517v114,-54,301,-59,419,-5v113,52,195,143,237,267xm791,-643v-4,-123,-70,-220,-195,-219v-142,0,-206,86,-219,219r414,0xm621,-1473v104,-15,249,-17,354,0r-309,252v-83,14,-187,19,-275,0","w":1150},"\u00ea":{"d":"1034,-777v33,97,38,227,21,337r-680,0v8,163,122,233,291,233v102,0,202,-20,280,-51v31,55,55,137,58,221v-168,67,-438,88,-614,21v-196,-75,-302,-244,-302,-506v0,-257,110,-433,290,-517v114,-54,301,-59,419,-5v113,52,195,143,237,267xm791,-643v-4,-123,-70,-220,-195,-219v-142,0,-206,86,-219,219r414,0xm432,-1473v99,-10,227,-18,324,3r198,251v-71,18,-203,18,-278,-2r-84,-131r-82,131v-74,21,-205,19,-278,2","w":1150},"\u00eb":{"d":"1034,-777v33,97,38,227,21,337r-680,0v8,163,122,233,291,233v102,0,202,-20,280,-51v31,55,55,137,58,221v-168,67,-438,88,-614,21v-196,-75,-302,-244,-302,-506v0,-257,110,-433,290,-517v114,-54,301,-59,419,-5v113,52,195,143,237,267xm791,-643v-4,-123,-70,-220,-195,-219v-142,0,-206,86,-219,219r414,0xm484,-1214v-80,14,-183,14,-264,0v-13,-77,-14,-165,0,-242v80,-16,183,-15,264,0v14,74,13,168,0,242xm936,-1214v-80,13,-184,14,-264,0v-16,-82,-16,-159,0,-242v80,-16,184,-16,264,0v11,76,12,165,0,242","w":1150},"\u00ec":{"d":"63,-838v-15,-69,-17,-151,0,-221r422,0r0,1059v-99,16,-185,16,-284,0r0,-838r-138,0xm-105,-1473v106,-17,247,-15,354,0r230,252v-89,18,-191,15,-275,0","w":628},"\u00ed":{"d":"63,-838v-15,-69,-17,-151,0,-221r422,0r0,1059v-99,16,-185,16,-284,0r0,-838r-138,0xm324,-1473v104,-15,249,-17,354,0r-309,252v-83,14,-187,19,-275,0","w":628},"\u00ee":{"d":"63,-838v-15,-69,-17,-151,0,-221r422,0r0,1059v-99,16,-185,16,-284,0r0,-838r-138,0xm151,-1473v99,-10,227,-18,324,3r198,251v-71,18,-203,18,-278,-2r-84,-131r-82,131v-74,21,-205,19,-278,2","w":628},"\u00ef":{"d":"63,-838v-15,-69,-17,-151,0,-221r422,0r0,1059v-99,16,-185,16,-284,0r0,-838r-138,0xm221,-1214v-80,14,-183,14,-264,0v-13,-77,-14,-165,0,-242v80,-16,183,-15,264,0v14,74,13,168,0,242xm673,-1214v-80,13,-184,14,-264,0v-16,-82,-16,-159,0,-242v80,-16,184,-16,264,0v11,76,12,165,0,242","w":628},"\u00f0":{"d":"276,-1505v164,0,289,42,396,104r164,-110v43,31,70,78,92,131r-121,80v170,169,280,407,280,739v0,271,-93,459,-281,544v-120,54,-321,54,-442,3v-175,-74,-280,-229,-280,-469v0,-235,97,-398,261,-475v112,-53,303,-56,392,18v-32,-84,-83,-162,-151,-213r-185,123v-35,-30,-72,-82,-86,-133r113,-74v-47,-15,-99,-24,-158,-27v-29,-81,-19,-168,6,-241xm584,-786v-164,0,-205,125,-205,303v0,98,16,173,47,225v31,52,84,78,158,78v164,0,205,-126,207,-303v0,-98,-17,-173,-49,-225v-32,-52,-85,-78,-158,-78","w":1171},"\u00f1":{"d":"791,-598v-2,-134,-28,-229,-152,-229v-153,0,-205,108,-205,272r0,555v-99,16,-192,16,-291,0r0,-1059v71,-16,167,-16,238,0v18,38,26,98,33,148v62,-92,152,-172,305,-172v254,0,362,139,362,407r0,676v-99,16,-192,16,-290,0r0,-598xm321,-1227v-34,-45,-74,-96,-86,-159v46,-57,121,-110,224,-109v114,2,178,72,292,72v70,0,93,-18,140,-64v41,42,72,102,88,164v-45,58,-123,105,-226,104v-113,-2,-180,-71,-292,-71v-73,0,-91,18,-140,63","w":1202},"\u00f2":{"d":"817,-17v-123,55,-327,55,-449,0v-181,-81,-284,-256,-284,-509v0,-255,103,-432,284,-514v123,-56,326,-55,449,0v182,82,285,257,285,514v0,255,-104,428,-285,509xm592,-197v77,0,130,-30,165,-85v65,-102,65,-388,0,-489v-35,-55,-88,-85,-165,-85v-75,0,-128,30,-163,85v-65,101,-65,388,0,489v35,55,88,85,163,85xm176,-1473v106,-17,247,-15,354,0r230,252v-89,18,-191,15,-275,0","w":1187},"\u00f3":{"d":"817,-17v-123,55,-327,55,-449,0v-181,-81,-284,-256,-284,-509v0,-255,103,-432,284,-514v123,-56,326,-55,449,0v182,82,285,257,285,514v0,255,-104,428,-285,509xm592,-197v77,0,130,-30,165,-85v65,-102,65,-388,0,-489v-35,-55,-88,-85,-165,-85v-75,0,-128,30,-163,85v-65,101,-65,388,0,489v35,55,88,85,163,85xm613,-1473v104,-15,249,-17,354,0r-309,252v-83,14,-187,19,-275,0","w":1187},"\u00f4":{"d":"817,-17v-123,55,-327,55,-449,0v-181,-81,-284,-256,-284,-509v0,-255,103,-432,284,-514v123,-56,326,-55,449,0v182,82,285,257,285,514v0,255,-104,428,-285,509xm592,-197v77,0,130,-30,165,-85v65,-102,65,-388,0,-489v-35,-55,-88,-85,-165,-85v-75,0,-128,30,-163,85v-65,101,-65,388,0,489v35,55,88,85,163,85xm432,-1473v99,-10,227,-18,324,3r198,251v-71,18,-203,18,-278,-2r-84,-131r-82,131v-74,21,-205,19,-278,2","w":1187},"\u00f5":{"d":"817,-17v-123,55,-327,55,-449,0v-181,-81,-284,-256,-284,-509v0,-255,103,-432,284,-514v123,-56,326,-55,449,0v182,82,285,257,285,514v0,255,-104,428,-285,509xm592,-197v77,0,130,-30,165,-85v65,-102,65,-388,0,-489v-35,-55,-88,-85,-165,-85v-75,0,-128,30,-163,85v-65,101,-65,388,0,489v35,55,88,85,163,85xm307,-1227v-34,-45,-74,-96,-86,-159v46,-57,121,-110,224,-109v114,2,178,72,292,72v70,0,93,-18,140,-64v41,42,72,102,88,164v-45,58,-123,105,-226,104v-113,-2,-180,-71,-292,-71v-73,0,-91,18,-140,63","w":1187},"\u00f6":{"d":"817,-17v-123,55,-327,55,-449,0v-181,-81,-284,-256,-284,-509v0,-255,103,-432,284,-514v123,-56,326,-55,449,0v182,82,285,257,285,514v0,255,-104,428,-285,509xm592,-197v77,0,130,-30,165,-85v65,-102,65,-388,0,-489v-35,-55,-88,-85,-165,-85v-75,0,-128,30,-163,85v-65,101,-65,388,0,489v35,55,88,85,163,85xm498,-1214v-80,14,-183,14,-264,0v-13,-77,-14,-165,0,-242v80,-16,183,-15,264,0v14,74,13,168,0,242xm950,-1214v-80,13,-184,14,-264,0v-16,-82,-16,-159,0,-242v80,-16,184,-16,264,0v11,76,12,165,0,242","w":1187},"\u00f7":{"d":"612,-977v-91,0,-168,-77,-168,-168v0,-90,78,-170,168,-170v90,0,170,80,170,170v0,91,-79,168,-170,168xm612,-145v-91,0,-168,-77,-168,-168v0,-90,78,-170,168,-170v91,0,170,79,170,170v0,91,-79,168,-170,168xm1047,-848v16,82,16,166,0,248r-863,0v-16,-82,-16,-166,0,-248r863,0"},"\u00f8":{"d":"987,-907v75,92,115,221,115,381v0,255,-103,430,-285,509v-147,65,-383,54,-506,-30r-35,45v-45,10,-114,12,-159,2r98,-127v-84,-92,-131,-230,-131,-399v0,-255,102,-434,284,-514v64,-29,138,-43,224,-43v128,0,228,35,305,88r39,-47v42,-12,120,-11,160,-2xm739,-793v-35,-42,-84,-63,-147,-63v-75,0,-128,29,-163,85v-52,83,-64,290,-32,415xm465,-240v33,29,75,43,127,43v77,0,130,-30,165,-85v48,-76,62,-259,38,-380","w":1187},"\u00f9":{"d":"1051,-41v-96,33,-259,68,-398,66v-148,-2,-281,-18,-369,-87v-107,-83,-159,-220,-159,-427r0,-570v99,-16,192,-16,291,0r0,561v-3,179,45,285,219,283v51,0,93,-5,127,-14r0,-830v100,-16,190,-16,289,0r0,1018xm215,-1473v106,-17,247,-15,354,0r230,252v-89,18,-191,15,-275,0","w":1171},"\u00fa":{"d":"1051,-41v-96,33,-259,68,-398,66v-148,-2,-281,-18,-369,-87v-107,-83,-159,-220,-159,-427r0,-570v99,-16,192,-16,291,0r0,561v-3,179,45,285,219,283v51,0,93,-5,127,-14r0,-830v100,-16,190,-16,289,0r0,1018xm631,-1473v104,-15,249,-17,354,0r-309,252v-83,14,-187,19,-275,0","w":1171},"\u00fb":{"d":"1051,-41v-96,33,-259,68,-398,66v-148,-2,-281,-18,-369,-87v-107,-83,-159,-220,-159,-427r0,-570v99,-16,192,-16,291,0r0,561v-3,179,45,285,219,283v51,0,93,-5,127,-14r0,-830v100,-16,190,-16,289,0r0,1018xm426,-1473v99,-10,227,-18,324,3r198,251v-71,18,-203,18,-278,-2r-84,-131r-82,131v-74,21,-205,19,-278,2","w":1171},"\u00fc":{"d":"1051,-41v-96,33,-259,68,-398,66v-148,-2,-281,-18,-369,-87v-107,-83,-159,-220,-159,-427r0,-570v99,-16,192,-16,291,0r0,561v-3,179,45,285,219,283v51,0,93,-5,127,-14r0,-830v100,-16,190,-16,289,0r0,1018xm508,-1214v-80,14,-183,14,-264,0v-13,-77,-14,-165,0,-242v80,-16,183,-15,264,0v14,74,13,168,0,242xm960,-1214v-80,13,-184,14,-264,0v-16,-82,-16,-159,0,-242v80,-16,184,-16,264,0v11,76,12,165,0,242","w":1171},"\u00fd":{"d":"195,272v55,17,157,30,207,-4v70,-48,87,-173,116,-268v-15,1,-32,3,-50,3v-45,0,-96,5,-136,-3r-312,-1059v76,-17,149,-12,234,-10v29,1,55,5,78,10r221,924r250,-924v96,-15,193,-19,291,0r-396,1309v-50,162,-139,260,-346,260v-77,0,-133,-10,-194,-27v-9,-80,13,-152,37,-211xm564,-1473v104,-15,249,-17,354,0r-309,252v-83,14,-187,19,-275,0","w":1110},"\u00fe":{"d":"555,-209v185,-3,262,-128,262,-330v0,-126,-29,-225,-107,-272v-46,-28,-132,-30,-180,-3v-70,39,-101,121,-102,228r0,361v37,11,79,16,127,16xm428,485v-92,14,-199,16,-291,0r0,-1982v92,-14,199,-14,291,0r0,557v56,-75,143,-146,279,-143v214,5,332,126,387,299v42,133,44,346,-6,476v-79,207,-254,330,-535,333v-42,0,-91,-5,-125,-11r0,471","w":1210},"\u00ff":{"d":"195,272v55,17,157,30,207,-4v70,-48,87,-173,116,-268v-15,1,-32,3,-50,3v-45,0,-96,5,-136,-3r-312,-1059v76,-17,149,-12,234,-10v29,1,55,5,78,10r221,924r250,-924v96,-15,193,-19,291,0r-396,1309v-50,162,-139,260,-346,260v-77,0,-133,-10,-194,-27v-9,-80,13,-152,37,-211xm467,-1214v-80,14,-183,14,-264,0v-13,-77,-14,-165,0,-242v80,-16,183,-15,264,0v14,74,13,168,0,242xm919,-1214v-80,13,-184,14,-264,0v-16,-82,-16,-159,0,-242v80,-16,184,-16,264,0v11,76,12,165,0,242","w":1110},"\u0152":{"d":"470,-1440v138,-66,360,-69,529,-33r807,0v16,81,18,174,0,254r-536,0r0,320r426,0v16,87,16,171,0,256r-426,0r0,389r551,0v16,81,16,174,0,254r-811,0v-169,37,-400,35,-540,-32v-240,-115,-372,-353,-372,-701v0,-348,131,-592,372,-707xm760,-225v92,0,148,-7,211,-31r0,-958v-63,-18,-121,-27,-209,-27v-108,0,-192,42,-253,127v-61,85,-91,212,-91,381v0,171,30,298,90,382v60,84,144,126,252,126","w":1914},"\u0153":{"d":"1713,-777v34,97,37,227,20,337r-639,0v10,163,99,233,270,233v104,0,180,-21,260,-51v31,55,55,137,57,221v-105,40,-199,62,-340,62v-187,1,-302,-70,-387,-172v-83,106,-177,172,-354,172v-265,0,-415,-136,-483,-335v-45,-132,-44,-303,0,-436v44,-138,131,-238,258,-294v64,-29,139,-43,225,-43v170,1,276,69,354,172v70,-101,186,-172,344,-172v229,0,356,130,415,306xm600,-197v77,0,131,-30,169,-85v70,-102,70,-388,0,-489v-38,-55,-92,-85,-169,-85v-75,0,-129,30,-167,85v-70,101,-70,388,0,489v38,55,92,85,167,85xm1468,-643v-4,-119,-59,-219,-174,-219v-126,0,-187,93,-198,219r372,0","w":1828},"\u0178":{"d":"987,-1616v-81,14,-184,14,-264,0v-16,-82,-16,-159,0,-242v80,-16,184,-16,264,0v10,76,11,166,0,242xm535,-1616v-81,14,-184,14,-265,0v-3,-21,-5,-41,-7,-60v-7,-62,0,-126,7,-182v80,-16,184,-15,265,0v14,74,14,168,0,242xm780,2v-96,14,-205,14,-301,0r0,-528r-459,-947v109,-15,220,-17,328,0r291,668r287,-668v105,-16,204,-16,313,0r-459,947r0,528","w":1259},"\u02c6":{"d":"350,-1473v99,-10,227,-18,324,3r198,251v-71,18,-203,18,-278,-2r-84,-131r-82,131v-74,21,-205,19,-278,2","w":1019},"\u02dc":{"d":"227,-1227v-34,-45,-74,-96,-86,-159v46,-57,121,-110,224,-109v114,2,178,72,292,72v70,0,93,-18,140,-64v41,42,72,102,88,164v-45,58,-123,105,-226,104v-113,-2,-180,-71,-292,-71v-73,0,-91,18,-140,63","w":1024},"\u2013":{"d":"1024,-688v16,88,16,165,0,252r-1024,0v-16,-86,-16,-165,0,-252r1024,0","w":1024},"\u2014":{"d":"2048,-688v16,88,16,165,0,252r-2048,0v-16,-86,-16,-165,0,-252r2048,0","w":2048},"\u2018":{"d":"520,-946v-81,18,-186,16,-268,0r-150,-524v85,-19,199,-22,283,0","w":622},"\u2019":{"d":"238,-1470v84,-20,197,-20,282,0r-149,524v-82,17,-188,17,-269,0","w":622},"\u201a":{"d":"238,-295v85,-20,197,-18,282,0r-149,524v-82,17,-189,19,-269,0","w":622},"\u201c":{"d":"520,-946v-81,18,-186,16,-268,0r-150,-524v85,-19,199,-22,283,0xm954,-946v-81,18,-186,16,-268,0r-150,-524v85,-19,199,-22,283,0","w":1056},"\u201d":{"d":"238,-1470v84,-20,197,-20,282,0r-149,524v-82,17,-188,17,-269,0xm672,-1470v84,-20,197,-20,282,0r-149,524v-82,17,-188,17,-269,0","w":1056},"\u201e":{"d":"238,-295v85,-20,197,-18,282,0r-149,524v-82,17,-189,19,-269,0xm672,-295v85,-20,197,-18,282,0r-149,524v-82,17,-189,19,-269,0","w":1056},"\u2022":{"d":"178,-632v-32,-74,-33,-165,0,-238v48,-104,138,-189,283,-189v144,0,236,86,283,189v33,73,32,164,0,238v-32,76,-90,129,-164,163v-73,33,-164,33,-238,0v-75,-33,-131,-87,-164,-163","w":921},"\u2026":{"d":"145,0v-16,-102,-16,-198,0,-301v102,-16,198,-16,301,0v16,104,18,199,0,301v-104,16,-199,16,-301,0xm698,0v-16,-102,-16,-198,0,-301v102,-16,198,-16,301,0v16,104,18,199,0,301v-104,16,-199,16,-301,0xm1251,0v-16,-102,-16,-198,0,-301v102,-16,198,-16,301,0v16,104,18,199,0,301v-104,16,-199,16,-301,0","w":1697},"\u2039":{"d":"82,-545r319,-454v91,-18,204,-16,299,0r-315,454r315,455v-97,15,-206,17,-299,0","w":763},"\u203a":{"d":"379,-545r-316,-454v98,-14,205,-20,299,0r320,454r-320,455v-95,18,-201,14,-299,0","w":763},"\u20ac":{"d":"860,25v-362,0,-546,-182,-608,-482r-184,0v-14,-40,-15,-131,0,-172r161,0v-3,-52,-3,-112,0,-166r-161,0v-14,-40,-15,-131,0,-172r182,0v67,-301,240,-506,604,-506v151,0,243,16,360,64v-6,90,-41,164,-69,238v-92,-31,-143,-46,-258,-46v-194,0,-275,89,-314,250r424,0v13,46,11,125,0,172r-446,0r0,124v0,15,1,29,2,42r444,0v13,46,11,125,0,172r-422,0v44,157,129,224,328,224v113,0,172,-15,262,-46v34,70,58,152,70,240v-128,47,-219,64,-375,64"},"\u2122":{"d":"440,-631v-67,16,-143,22,-211,0r0,-622r-196,0v-11,-56,-10,-137,0,-195r602,0v10,60,11,135,0,195r-195,0r0,622xm922,-631v-67,22,-136,13,-205,0r45,-815r62,-7v55,-7,107,1,157,7r156,389r151,-389v66,-13,142,-12,211,0r45,815v-69,14,-142,21,-211,0r-26,-416r-115,269v-48,10,-103,7,-156,0r-94,-260","w":1638}}});
