Cufon.registerFont({"w":1228,"face":{"font-family":"Aller","font-weight":400,"font-style":"italic","font-stretch":"normal","units-per-em":"2048","panose-1":"2 0 5 3 4 0 0 9 0 4","ascent":"1638","descent":"-410","x-height":"25","bbox":"-236 -1917 2159 502","underline-thickness":"102","underline-position":"-102","slope":"-12","unicode-range":"U+0020-U+2122"},"glyphs":{" ":{"w":460},"!":{"d":"436,-1473v76,-8,142,-8,219,0r-196,1033v-68,8,-132,8,-195,0xm391,0v-69,10,-152,11,-219,0v0,-78,13,-154,39,-227v68,-11,150,-12,217,0v0,87,-17,154,-37,227","w":567},"\"":{"d":"737,-1470v57,-11,142,-13,195,0r-97,561v-62,8,-138,8,-196,0xm348,-1470v57,-11,142,-13,195,0r-97,561v-62,8,-138,8,-196,0","w":796},"#":{"d":"178,-428v4,-60,17,-109,29,-162r258,0r88,-338r-246,0v7,-56,9,-117,29,-159r260,0r84,-326v59,-7,124,-9,184,-2r-84,328r332,0r84,-326v60,-7,125,-9,186,-2r-84,328r232,0v-9,57,-13,105,-29,159r-244,0r-88,338r230,0v0,51,-9,105,-27,162r-244,0r-94,369v-59,8,-126,9,-184,0r94,-369r-332,0r-94,369v-62,9,-125,8,-188,0r94,-369r-246,0xm985,-590r86,-338r-332,0r-86,338r332,0","w":1462},"$":{"d":"1141,-1241v-114,-65,-366,-96,-492,-15v-49,32,-84,80,-84,158v0,52,20,95,57,132v96,95,309,169,401,278v49,58,81,120,81,223v0,211,-110,339,-257,415v-55,28,-119,48,-190,60r-39,232v-42,11,-102,11,-143,0r37,-217v-129,2,-276,-28,-362,-68v12,-67,29,-127,57,-184v99,40,183,67,319,67v196,0,346,-87,348,-266v0,-60,-19,-109,-57,-148v-38,-39,-96,-79,-174,-120v-115,-62,-224,-124,-275,-245v-14,-35,-22,-76,-22,-124v0,-113,37,-207,112,-279v75,-72,181,-115,318,-128r31,-183v42,-11,101,-10,143,0r-30,176v113,4,197,31,282,62v-10,65,-29,126,-61,174"},"%":{"d":"670,-1473v212,0,311,132,311,343v0,229,-96,399,-250,482v-55,29,-117,44,-188,44v-107,0,-184,-33,-235,-96v-85,-105,-92,-282,-48,-434v37,-128,110,-232,217,-292v55,-31,119,-47,193,-47xm561,-752v91,-1,142,-61,175,-126v33,-64,54,-154,55,-242v0,-135,-47,-203,-142,-203v-91,0,-139,65,-173,129v-33,63,-51,156,-52,244v0,132,46,198,137,198xm1702,-846v212,2,311,131,311,342v0,229,-96,398,-250,482v-55,30,-117,45,-188,45v-107,0,-184,-34,-235,-97v-84,-105,-91,-282,-48,-434v36,-128,110,-233,217,-292v55,-31,119,-46,193,-46xm1593,-125v90,0,142,-63,175,-127v33,-64,54,-154,55,-242v0,-135,-47,-203,-142,-202v-91,1,-139,63,-173,128v-33,63,-51,156,-52,244v0,133,46,199,137,199xm1581,-1450v65,-10,154,-11,219,0r-1134,1448v-68,11,-150,10,-217,0","w":2019},"&":{"d":"575,-1114v0,120,92,172,203,172r408,0v15,-79,29,-161,26,-256v45,-24,135,-40,197,-41v12,97,-5,202,-25,297r209,0v-6,64,-14,110,-30,166r-207,0r-47,264v-34,189,-104,325,-209,410v-105,85,-249,127,-430,127v-218,0,-376,-72,-448,-221v-44,-91,-47,-239,-10,-342v53,-149,160,-259,308,-312v-84,-45,-152,-122,-153,-252v-1,-138,68,-231,147,-295v126,-103,396,-127,576,-57v-9,64,-22,109,-52,156v-67,-20,-124,-35,-209,-35v-142,-1,-254,77,-254,219xm414,-401v2,164,103,245,284,245v278,0,381,-159,418,-395r39,-225r-348,0v-237,-4,-395,145,-393,375","w":1478},"'":{"d":"348,-1470v57,-11,142,-13,195,0r-97,561v-62,8,-138,8,-196,0","w":407},"(":{"d":"553,340v-61,9,-143,13,-201,0v-87,-207,-128,-564,-84,-862v53,-357,165,-680,319,-931v35,-55,69,-100,103,-134v56,-12,145,-10,203,0v-230,330,-433,759,-436,1325v-1,233,36,440,96,602","w":677},")":{"d":"322,-1587v60,-9,141,-13,198,0v60,147,107,377,105,604v-2,277,-67,557,-143,775v-71,206,-177,420,-298,548v-59,11,-142,10,-200,0v229,-330,432,-758,434,-1323v1,-233,-36,-442,-96,-604","w":692},"*":{"d":"678,-1473v43,-8,81,-8,127,0r-31,267v-50,8,-111,9,-160,0xm567,-1180v-19,55,-44,106,-73,152r-234,-98v13,-41,35,-81,64,-121xm502,-985v41,23,83,56,112,92r-206,207v-36,-22,-66,-42,-89,-76xm831,-1028v-14,-43,-21,-95,-20,-152r268,-67v14,38,20,75,19,121xm662,-893v48,-38,96,-69,145,-92r104,223v-35,33,-72,53,-116,76","w":974},"+":{"d":"1178,-809v-1,70,-10,122,-29,180r-340,0r-66,373v-54,11,-132,11,-188,0r66,-373r-336,0v1,-65,9,-126,28,-180r340,0r66,-373v57,-11,131,-11,188,0r-65,373r336,0"},",":{"d":"217,-223v60,-14,144,-14,203,0r-201,452v-60,10,-140,13,-196,0","w":483},"-":{"d":"748,-684v0,63,-17,138,-33,188r-516,0v3,-64,13,-127,32,-188r517,0","w":712},".":{"d":"354,0v-74,10,-156,11,-229,0v0,-84,19,-157,39,-227v71,-11,157,-12,227,0v0,87,-17,154,-37,227","w":481},"\/":{"d":"778,-1473v62,-11,142,-10,205,0r-733,1473v-63,9,-141,12,-203,0","w":761},"0":{"d":"895,-52v-126,82,-339,103,-481,36v-148,-71,-224,-223,-224,-433v0,-370,139,-663,369,-815v125,-83,339,-103,481,-36v148,70,224,225,224,434v0,369,-138,663,-369,814xm1051,-872v0,-168,-60,-289,-232,-289v-65,0,-124,21,-175,61v-159,127,-241,375,-241,658v0,166,62,287,232,288v64,0,122,-20,173,-61v159,-127,243,-375,243,-657"},"1":{"d":"250,0v0,-59,13,-129,29,-174r315,0r149,-862r-286,129v-30,-49,-53,-98,-60,-164r568,-260r39,0r-205,1157r297,0v0,60,-15,125,-29,174r-817,0"},"2":{"d":"1057,-178v0,62,-16,129,-31,178r-903,0v-3,-11,-5,-19,-8,-25r454,-450v114,-117,248,-232,313,-391v17,-42,25,-84,25,-127v0,-115,-81,-168,-213,-168v-123,0,-208,43,-297,78v-26,-51,-40,-108,-43,-172v108,-40,228,-86,381,-86v230,0,398,106,398,323v0,133,-52,228,-111,316v-73,108,-171,202,-268,296r-236,228r539,0"},"3":{"d":"792,-552v-74,-59,-237,-53,-350,-30r-14,-30r440,-527r-518,0v0,-63,17,-131,31,-182r817,0r10,25r-467,555v218,8,346,140,346,350v0,276,-159,431,-371,504v-187,65,-455,38,-607,-35v14,-59,40,-118,67,-168v112,54,315,87,458,40v95,-31,165,-92,206,-178v32,-68,43,-186,8,-256v-14,-28,-33,-51,-56,-68"},"4":{"d":"1212,-340v0,63,-13,132,-30,180r-178,0r-52,281v-60,8,-143,9,-202,0r51,-281r-674,0r-10,-22r762,-1178v65,8,130,40,168,76r-609,944r393,0r72,-405v60,-10,144,-13,203,0r-72,405r178,0"},"5":{"d":"616,-612v-99,0,-171,12,-239,39r-21,-23r156,-725r672,0v0,63,-17,131,-31,182r-485,0r-78,371v96,-20,209,-16,288,16v128,51,214,154,216,326v2,195,-81,333,-190,426v-105,91,-258,149,-443,150v-129,1,-239,-25,-328,-64v14,-60,37,-126,66,-174v84,31,156,61,276,59v181,-2,305,-78,363,-207v21,-46,32,-100,32,-161v-2,-147,-95,-215,-254,-215"},"6":{"d":"504,-805v72,-83,185,-153,342,-151v170,2,278,81,326,208v46,122,27,298,-20,413v-59,146,-164,256,-304,317v-120,52,-285,58,-402,9v-150,-63,-227,-205,-227,-413v0,-284,102,-529,243,-700v157,-191,389,-339,703,-369v14,56,18,111,6,172v-353,34,-571,219,-667,514xm434,-387v2,135,72,240,219,237v116,-2,196,-59,248,-130v52,-69,85,-168,86,-279v1,-151,-76,-225,-223,-225v-160,0,-254,107,-302,232v-18,49,-28,104,-28,165"},"7":{"d":"338,-1139v0,-58,12,-141,31,-182r936,0r8,16r-850,1459v-82,-22,-130,-42,-182,-91r708,-1202r-651,0"},"8":{"d":"623,25v-250,0,-435,-90,-435,-340v0,-121,50,-212,110,-282v67,-78,162,-139,261,-185v-94,-57,-176,-139,-176,-289v0,-127,66,-218,141,-283v105,-91,302,-150,484,-100v91,25,161,78,202,154v38,71,41,182,8,261v-50,124,-152,205,-272,261v120,68,228,156,228,340v0,157,-74,267,-166,340v-91,73,-229,123,-385,123xm406,-346v-2,139,97,199,233,199v151,0,251,-65,297,-171v42,-97,25,-207,-46,-272v-46,-42,-100,-79,-165,-106v-129,44,-240,119,-295,235v-16,35,-24,74,-24,115xm1038,-1143v0,-153,-169,-200,-300,-149v-88,34,-152,105,-152,221v0,125,102,174,194,211v81,-29,144,-66,190,-112v46,-46,68,-102,68,-171"},"9":{"d":"940,-514v-72,87,-186,155,-348,152v-168,-3,-271,-90,-320,-216v-47,-120,-27,-292,19,-405v58,-144,161,-251,299,-311v119,-52,284,-59,400,-10v150,63,231,203,231,411v0,290,-91,520,-223,695v-156,207,-390,351,-732,372v-12,-50,-17,-119,-6,-174v345,-45,591,-204,680,-514xm457,-758v-1,151,75,226,219,226v160,0,257,-104,307,-230v28,-72,42,-176,15,-257v-28,-85,-93,-142,-207,-142v-178,0,-269,116,-313,255v-14,48,-21,97,-21,148"},":":{"d":"487,-758v-74,10,-156,11,-229,0v0,-84,19,-157,39,-227v71,-11,157,-12,227,0v0,87,-17,154,-37,227xm354,0v-74,10,-156,11,-229,0v0,-84,19,-157,39,-227v71,-11,157,-12,227,0v0,87,-17,154,-37,227","w":481},";":{"d":"178,-223v60,-14,144,-14,203,0r-201,452v-60,10,-140,13,-196,0xm510,-758v-74,10,-156,11,-229,0v0,-84,19,-157,39,-227v71,-11,157,-12,227,0v0,87,-17,154,-37,227","w":483},"<":{"d":"1249,-1161v1,69,-16,160,-32,209r-699,254r608,258v1,68,-17,143,-36,190r-773,-346v0,-81,12,-153,37,-217"},"=":{"d":"1139,-602v0,69,-10,124,-29,180r-852,0v0,-56,10,-116,29,-180r852,0xm326,-817v1,-67,9,-125,30,-180r852,0v-1,67,-9,125,-30,180r-852,0"},">":{"d":"985,-715r-606,-252v1,-72,12,-137,35,-192r774,346v-1,71,-15,163,-39,217r-895,348v0,-74,15,-151,33,-209"},"?":{"d":"334,-1257v-17,-42,-35,-116,-35,-173v109,-42,204,-54,336,-55v196,-1,331,72,391,206v41,92,33,213,-7,305v-69,159,-212,269,-384,325r-35,211v-67,7,-132,9,-194,0r57,-332v152,-35,287,-98,345,-228v16,-35,23,-74,23,-116v1,-132,-104,-194,-241,-193v-111,0,-170,21,-256,50xm539,-2v-72,10,-156,11,-228,0v3,-84,16,-161,41,-227v72,-13,156,-14,228,0v-3,87,-16,158,-41,227","w":954},"@":{"d":"975,-102v-190,0,-316,-130,-316,-326v0,-196,77,-355,175,-460v94,-101,235,-180,415,-181v115,-1,212,19,303,47r-147,731v23,20,67,27,108,27v131,-2,210,-90,264,-180v56,-92,92,-224,93,-361v1,-354,-226,-530,-586,-530v-295,0,-513,117,-658,274v-135,147,-233,358,-233,615v0,308,133,492,361,569v176,60,427,36,581,-23v18,43,33,92,45,144v-104,50,-265,70,-428,69v-354,-3,-586,-157,-692,-417v-84,-206,-75,-482,6,-706v96,-265,285,-470,544,-589v207,-95,537,-131,787,-54v185,57,319,175,395,344v69,154,76,376,20,554v-52,163,-150,297,-284,379v-124,76,-350,84,-456,-2v-77,45,-175,76,-297,76xm862,-467v-1,134,56,203,185,203v75,0,114,-13,172,-39r114,-590v-84,-21,-177,-15,-247,21v-135,68,-222,208,-224,405","w":2023},"A":{"d":"741,-1473v74,-8,177,-9,250,0r201,1473v-73,7,-146,9,-219,0r-39,-346r-496,0r-149,346v-62,7,-154,10,-217,0xm913,-526r-84,-711r-311,711r395,0","w":1226},"B":{"d":"922,-788v144,22,254,140,254,309v0,187,-82,309,-195,387v-146,101,-384,134,-628,110v-57,-5,-111,-11,-163,-18r259,-1473v137,-19,351,-35,490,-5v109,24,192,74,239,155v43,74,43,200,10,287v-46,122,-139,211,-266,248xm958,-467v0,-165,-114,-219,-278,-219r-160,0r-94,526v141,18,307,6,400,-53v77,-49,132,-126,132,-254xm997,-1145v0,-187,-186,-201,-366,-178r-82,465r143,0v179,2,305,-108,305,-287","w":1185},"C":{"d":"836,-160v113,0,193,-21,276,-57v26,49,41,107,45,174v-100,43,-232,66,-369,68v-355,5,-561,-218,-557,-570v4,-416,176,-718,455,-872v172,-95,478,-102,662,-27v-16,71,-30,113,-64,172v-146,-61,-377,-57,-508,20v-208,123,-316,368,-319,689v-2,258,127,403,379,403","w":1181},"D":{"d":"690,-1493v458,-24,735,163,735,598v0,429,-191,711,-498,849v-190,86,-503,81,-737,46r259,-1473r157,-15v29,-2,57,-4,84,-5xm1202,-866v-2,-292,-128,-449,-426,-447v-54,0,-99,5,-147,10r-199,1131v41,6,117,10,168,10v310,-6,484,-182,563,-424v27,-86,41,-179,41,-280","w":1400},"E":{"d":"446,-1473r781,0v0,61,-11,123,-33,185r-569,0r-74,420r455,0v0,63,-11,124,-33,184r-455,0r-88,502r586,0v-9,69,-9,119,-33,182r-795,0","w":1073},"F":{"d":"1190,-1473v-10,75,-7,124,-33,185r-532,0r-76,432r446,0v-3,64,-13,125,-32,184r-447,0r-117,672v-68,7,-146,9,-211,0r258,-1473r744,0","w":1015},"G":{"d":"457,-561v-5,296,174,435,471,394v34,-5,63,-12,88,-21r102,-572v64,-10,146,-11,209,0r-127,715v-165,65,-462,103,-646,29v-200,-81,-323,-255,-323,-529v0,-419,172,-722,453,-874v173,-93,480,-99,664,-23v-16,71,-30,113,-64,172v-144,-61,-380,-57,-509,20v-207,123,-312,369,-318,689","w":1345},"H":{"d":"449,-1473v63,-11,146,-11,210,0r-106,607r565,0r105,-607v63,-11,147,-11,211,0r-258,1473v-63,10,-149,11,-211,0r118,-682r-563,0r-119,682v-64,10,-148,11,-211,0","w":1363},"I":{"d":"449,-1473v65,-10,146,-11,210,0r-258,1473v-66,10,-146,11,-211,0","w":589},"J":{"d":"106,-180v78,24,219,37,285,-12v48,-36,74,-91,88,-170r164,-928r-246,0v0,-66,11,-132,31,-183r455,0r-187,1063v-39,203,-95,360,-272,414v-100,31,-266,27,-361,-6v6,-68,15,-128,43,-178","w":806},"K":{"d":"449,-1473v66,-8,142,-8,208,0r-258,1473v-67,8,-146,8,-209,0xm594,-748r563,-725v75,-9,162,-8,236,0r-570,723r353,750v-88,8,-141,8,-228,0","w":1193},"L":{"d":"979,-184v-6,75,-10,126,-35,184r-756,0r258,-1473v63,-10,146,-11,209,0r-225,1289r549,0","w":1003},"M":{"d":"487,-1473v69,-10,158,-11,226,0r200,912r523,-912v65,-10,156,-11,221,0r-189,1473v-62,10,-142,12,-202,0r151,-1120r-471,815v-60,8,-108,8,-164,0r-184,-819r-240,1124v-58,11,-136,11,-194,0","w":1640},"N":{"d":"446,-1473v58,-9,137,-8,193,0r414,1111r192,-1111r40,-4v50,-5,107,-1,155,4r-258,1473v-58,8,-133,9,-191,0r-416,-1104r-190,1104v-64,10,-134,7,-197,0","w":1370},"O":{"d":"1031,-56v-141,85,-367,110,-530,42v-180,-75,-272,-250,-272,-502v0,-415,161,-737,429,-898v143,-86,368,-113,532,-42v179,77,270,252,270,504v0,418,-162,735,-429,896xm446,-518v0,217,81,362,291,362v81,0,152,-23,214,-70v184,-139,290,-410,290,-724v0,-213,-79,-365,-291,-363v-82,0,-154,23,-217,69v-186,139,-287,409,-287,726","w":1435},"P":{"d":"449,-1475v147,-17,338,-36,485,-3v123,27,217,86,271,184v63,113,48,318,-5,436v-91,204,-283,324,-569,328v-55,0,-100,-2,-137,-7r-95,537v-69,8,-141,8,-209,0xm645,-711v242,-4,380,-122,381,-370v0,-91,-27,-152,-78,-187v-70,-48,-204,-61,-319,-43r-103,592v41,6,70,8,119,8","w":1159},"Q":{"d":"838,223v6,-64,25,-123,53,-172r452,82v-5,63,-27,129,-51,174xm1031,-56v-141,85,-367,110,-530,42v-180,-75,-272,-250,-272,-502v0,-415,161,-737,429,-898v143,-86,368,-113,532,-42v179,77,270,252,270,504v0,418,-162,735,-429,896xm446,-518v0,217,81,362,291,362v81,0,152,-23,214,-70v184,-139,290,-410,290,-724v0,-213,-79,-365,-291,-363v-82,0,-154,23,-217,69v-186,139,-287,409,-287,726","w":1435},"R":{"d":"1008,-1092v0,-208,-175,-250,-379,-221r-232,1313r-53,4v-52,3,-109,3,-156,-4r261,-1475v213,-33,483,-38,627,58v88,59,151,145,151,291v0,147,-55,252,-122,332v-59,72,-148,129,-231,167r269,627v-77,8,-157,8,-230,0r-284,-686v156,-46,295,-138,357,-284v15,-36,22,-77,22,-122","w":1177},"S":{"d":"1118,-1262v-117,-65,-363,-90,-489,-12v-50,31,-88,82,-88,160v0,55,16,100,49,136v90,101,298,168,390,274v51,59,87,123,87,229v0,256,-150,397,-351,464v-185,62,-463,37,-618,-28v11,-60,34,-121,68,-184v98,33,185,63,311,63v116,0,203,-27,267,-76v99,-76,132,-251,40,-348v-36,-38,-93,-75,-166,-116v-117,-65,-227,-128,-278,-252v-37,-89,-24,-213,16,-295v78,-160,248,-248,486,-250v145,-1,240,23,342,61v-12,64,-33,125,-66,174","w":1089},"T":{"d":"1249,-1473v0,71,-13,126,-32,183r-365,0r-225,1290v-66,7,-147,10,-211,0r225,-1290r-365,0v0,-69,14,-126,33,-183r940,0","w":1054},"U":{"d":"676,25v-282,-2,-418,-130,-418,-412v0,-74,10,-144,23,-213r153,-873v65,-10,147,-11,211,0r-147,836v-17,94,-25,174,-25,240v2,170,62,233,234,233v281,0,333,-229,376,-473r146,-836v66,-10,146,-11,211,0r-156,887v-64,351,-195,614,-608,611","w":1357},"V":{"d":"311,-1473v67,-10,157,-11,224,0r143,1235r541,-1235v67,-10,157,-11,223,0r-676,1473v-77,10,-176,11,-252,0","w":1249},"W":{"d":"326,-1473v66,-8,152,-9,219,0r26,1201r484,-1201v67,-8,153,-9,219,0r80,1213r438,-1213v64,-7,149,-9,213,0r-582,1473v-72,9,-169,8,-241,0r-80,-1128r-469,1128v-71,8,-168,9,-238,0","w":1826},"X":{"d":"532,-772r-188,-701v72,-7,143,-9,217,0r180,707r-452,766v-76,9,-160,8,-236,0xm758,-766r420,-707v74,-8,154,-8,227,0r-434,703r241,770v-79,8,-139,8,-219,0","w":1243},"Y":{"d":"272,-1473v68,-7,156,-10,224,0r196,723r422,-723v68,-7,158,-10,225,0r-579,943r-92,530v-68,8,-147,8,-211,0r96,-537","w":1124},"Z":{"d":"1032,-182v0,72,-11,130,-33,182r-923,0r-10,-16r860,-1272r-596,0v0,-64,11,-126,32,-185r898,0r8,21r-858,1270r622,0","w":1085},"[":{"d":"573,178v-3,58,-11,117,-28,166r-430,0r334,-1900r430,0v0,58,-12,122,-29,165r-232,0r-274,1569r229,0","w":700},"\\":{"d":"281,-1473v64,-10,137,-11,200,0r328,1473v-62,11,-139,10,-201,0","w":837},"]":{"d":"6,344v0,-60,11,-122,29,-168r229,0r277,-1567r-230,0v0,-53,10,-108,29,-165r430,0r-334,1900r-430,0","w":673},"^":{"d":"1079,-754v-61,8,-130,9,-190,0r-135,-530r-318,532v-59,7,-134,6,-194,-2r438,-716v67,-11,147,-13,213,0","w":1081},"_":{"d":"-16,180v-6,-56,5,-105,22,-151r971,0v0,61,-11,104,-25,151r-968,0","w":995},"`":{"d":"512,-1477v80,-11,180,-10,260,0r189,260v-62,11,-145,13,-205,0","w":1024},"a":{"d":"379,-350v-1,115,35,207,139,207v42,0,82,-14,122,-41v137,-99,213,-289,251,-492r41,-219v-103,-21,-216,-10,-294,37v-154,93,-256,270,-259,508xm440,25v-187,1,-275,-139,-272,-332v5,-340,160,-581,397,-703v153,-79,415,-82,586,-22r-139,797v-12,89,-20,156,-6,233v-58,10,-133,11,-191,0v-15,-72,-6,-168,8,-236v-54,102,-139,193,-253,238v-40,17,-83,25,-130,25","w":1134},"b":{"d":"954,-659v2,-136,-53,-240,-182,-240v-150,0,-217,104,-268,222v-22,53,-38,118,-51,194r-56,323v95,24,209,18,292,-24v159,-81,262,-242,265,-475xm866,-1075v203,1,308,158,305,379v-5,335,-158,552,-400,662v-159,72,-437,75,-599,9r186,-1056v18,-132,53,-272,41,-420v60,-9,142,-12,203,-2v1,13,2,25,3,37v6,96,-16,216,-32,303r-47,268v73,-100,167,-181,340,-180","w":1169},"c":{"d":"862,-184v22,41,35,94,35,159v-68,31,-186,50,-279,50v-289,3,-438,-146,-438,-420v0,-297,146,-514,352,-621v76,-40,162,-59,261,-59v87,-1,173,18,235,41v-3,58,-27,126,-53,166v-54,-20,-118,-40,-191,-39v-142,0,-234,73,-296,159v-60,82,-96,202,-97,332v-2,178,90,273,258,273v83,0,148,-13,213,-41","w":940},"d":{"d":"381,-350v-1,115,35,207,139,207v42,0,83,-13,122,-41v138,-98,217,-289,253,-492r39,-219v-103,-21,-216,-10,-294,37v-154,93,-256,270,-259,508xm1006,-1501v58,-9,140,-12,200,-2v18,111,-6,236,-24,338r-129,719v-26,147,-49,255,-47,406v0,10,1,23,4,38v-57,10,-132,11,-189,0v-19,-68,-7,-175,10,-240v-57,102,-141,196,-257,242v-40,17,-83,25,-130,25v-187,1,-277,-139,-274,-332v5,-341,157,-585,398,-703v109,-54,246,-76,393,-59v28,-153,54,-270,45,-432","w":1130},"e":{"d":"774,-1075v167,0,293,88,293,244v0,135,-74,214,-166,270v-133,82,-327,116,-520,143v9,178,83,276,266,277v109,1,211,-33,289,-62v23,38,35,101,35,160v-139,59,-398,98,-559,36v-151,-57,-234,-185,-234,-388v0,-296,150,-511,352,-621v73,-40,154,-59,244,-59xm866,-809v0,-68,-52,-107,-127,-106v-99,1,-168,51,-220,107v-57,61,-98,148,-122,239r113,-21v117,-20,211,-45,283,-93v47,-31,73,-62,73,-126","w":1019},"f":{"d":"985,-1497v-16,70,-31,108,-59,164v-48,-20,-125,-28,-182,-9v-108,37,-131,164,-156,291r252,0v-1,67,-8,107,-27,162r-252,0r-158,895v-30,162,-67,291,-149,384v-66,75,-155,109,-289,110v-59,0,-116,-11,-158,-27v11,-65,26,-111,54,-160v47,21,129,27,183,7v63,-24,91,-80,118,-154v16,-44,30,-101,43,-172r157,-883r-169,0v1,-65,7,-109,26,-162r170,0v38,-275,137,-471,432,-471v67,-1,115,11,164,25","w":688},"g":{"d":"121,293v60,14,136,33,217,33v276,0,397,-134,444,-367r43,-197v-54,103,-140,193,-255,238v-40,17,-83,25,-130,25v-187,1,-275,-139,-272,-332v5,-340,160,-581,397,-703v154,-80,418,-82,590,-22r-182,1024v-58,330,-265,504,-643,508v-88,1,-193,-19,-254,-43v1,-59,16,-113,45,-164xm408,-554v-48,147,-63,411,110,411v110,0,176,-76,230,-154v104,-150,145,-378,184,-596v-101,-23,-215,-12,-295,35v-109,64,-187,174,-229,304","w":1126},"h":{"d":"930,-745v2,-99,-58,-152,-150,-152v-150,0,-216,105,-270,226v-50,113,-76,301,-101,444r-40,227v-63,7,-141,9,-203,0r190,-1079v23,-150,55,-267,41,-422v60,-9,144,-12,203,0v21,169,-30,326,-53,476r-25,138v71,-93,192,-188,352,-186v171,1,269,90,267,268v0,47,-7,99,-15,141r-116,664v-60,8,-144,9,-203,0r111,-631r8,-61v3,-21,4,-38,4,-53","w":1161},"i":{"d":"242,-889v1,-64,6,-111,26,-162r328,0r-184,1051v-60,8,-140,9,-199,0r156,-889r-127,0xm403,-1489v73,-10,162,-11,234,0v-3,83,-19,153,-39,221v-71,8,-160,9,-231,0v0,-85,17,-152,36,-221","w":583},"j":{"d":"-137,317v29,10,81,20,119,19v126,-5,185,-75,208,-207r179,-1018r-127,0v1,-65,7,-109,26,-162r328,0r-209,1192v-42,239,-172,358,-391,359v-64,0,-125,-11,-172,-27v0,-50,20,-120,39,-156xm403,-1489v73,-10,162,-11,234,0v-3,83,-19,153,-39,221v-71,8,-160,9,-231,0v0,-85,17,-152,36,-221","w":581},"k":{"d":"535,-545r215,-268v59,-77,117,-148,141,-238v69,-11,150,-10,219,0v-18,85,-53,131,-109,199r-125,152r-128,151r249,549v-81,8,-138,8,-217,0xm399,-1501v61,-10,143,-12,203,0v11,95,-3,192,-18,280r-215,1221v-60,8,-142,9,-201,0r190,-1079v24,-151,50,-264,41,-422","w":1032},"l":{"d":"440,14v-158,3,-240,-68,-239,-227v0,-57,15,-115,24,-166r129,-700v13,-77,24,-143,32,-198v11,-84,17,-141,11,-224v61,-10,143,-11,203,0v14,114,-11,236,-29,338r-159,864v-4,23,-6,42,-6,55v-2,68,32,94,98,94v24,0,62,-7,82,-12v14,41,21,100,16,156v-41,14,-107,20,-162,20","w":608},"m":{"d":"893,-750v0,-99,-34,-149,-129,-149v-79,0,-133,37,-177,92v-67,86,-110,202,-136,350r-82,457v-61,10,-141,11,-201,0r142,-819v12,-77,15,-125,14,-196v0,-10,-2,-23,-5,-38v58,-10,133,-11,191,0v12,51,9,130,0,185v64,-104,191,-207,352,-207v150,0,225,75,238,213v71,-110,195,-213,362,-213v161,0,242,89,242,266v0,46,-7,101,-14,143r-117,666v-60,10,-142,11,-201,0r111,-631v7,-37,12,-81,12,-119v-1,-100,-33,-149,-129,-149v-140,0,-202,106,-254,219v-23,53,-42,120,-55,199r-84,481v-62,10,-142,11,-203,0r111,-631v7,-37,12,-81,12,-119","w":1726},"n":{"d":"946,-748v2,-102,-47,-151,-139,-151v-97,0,-159,63,-209,133v-69,97,-118,231,-145,383r-68,383v-62,10,-142,11,-203,0r109,-608v24,-133,46,-238,49,-365v0,-38,0,-48,-6,-80v57,-10,133,-11,190,0v16,70,6,171,-8,236v50,-102,141,-189,253,-233v40,-16,83,-25,128,-25v169,1,262,91,260,268v0,45,-7,101,-14,141r-117,666v-62,10,-142,11,-203,0r111,-631v7,-37,12,-79,12,-117","w":1177},"o":{"d":"766,-1075v257,-2,385,150,385,405v0,289,-128,517,-323,630v-74,43,-162,65,-263,65v-254,1,-387,-150,-383,-404v4,-288,130,-515,324,-629v74,-43,160,-67,260,-67xm389,-377v-1,145,60,240,197,240v139,0,223,-90,276,-185v51,-90,83,-221,84,-348v1,-146,-63,-239,-201,-239v-140,0,-221,91,-274,186v-51,90,-80,220,-82,346","w":1140},"p":{"d":"954,-659v2,-135,-55,-240,-182,-240v-150,0,-217,104,-268,222v-22,53,-38,118,-51,194r-56,323v94,27,211,17,292,-24v160,-80,262,-242,265,-475xm995,-192v-128,146,-357,247,-630,208r-80,467v-63,11,-142,12,-205,0r194,-1091v23,-133,47,-238,50,-365v0,-37,-1,-47,-5,-80v58,-10,132,-11,191,0v12,50,10,126,0,179v71,-107,182,-202,356,-201v203,2,307,158,305,379v-2,212,-70,383,-176,504","w":1169},"q":{"d":"446,25v-187,1,-275,-141,-272,-334v5,-340,159,-581,397,-701v123,-62,288,-79,453,-53v49,8,94,18,133,29r-266,1517v-61,11,-140,12,-201,0r123,-698v-57,91,-137,175,-245,217v-38,15,-78,23,-122,23xm414,-556v-46,147,-63,413,108,413v42,0,83,-13,123,-41v138,-98,212,-289,250,-492r41,-219v-102,-21,-216,-9,-294,37v-107,64,-188,171,-228,302","w":1128},"r":{"d":"856,-866v-118,-20,-214,14,-282,92v-57,65,-97,166,-121,303r-84,471v-66,9,-138,7,-203,0r102,-550v16,-89,30,-172,40,-246v15,-110,24,-169,9,-257v57,-8,134,-9,191,0v12,50,9,125,2,183v72,-95,156,-184,319,-187v20,0,53,3,68,8v-1,62,-13,143,-41,183","w":747},"s":{"d":"399,-141v134,0,244,-37,246,-172v0,-42,-12,-74,-37,-95v-75,-67,-225,-87,-298,-164v-38,-40,-69,-97,-68,-178v4,-173,110,-259,248,-302v96,-29,230,-30,332,-4v50,12,89,25,118,40v-11,53,-30,105,-59,154v-52,-23,-145,-53,-228,-51v-109,2,-208,30,-204,137v3,85,51,103,126,139v126,60,279,99,279,285v0,206,-124,307,-288,354v-146,41,-358,22,-474,-29v6,-64,21,-118,49,-163v62,28,172,49,258,49","w":888},"t":{"d":"532,16v-179,0,-294,-48,-294,-229v0,-59,12,-120,22,-174r90,-502r-166,0v1,-65,10,-108,29,-162r164,0v15,-79,29,-160,26,-256v45,-24,135,-40,197,-41v12,97,-5,202,-25,297r265,0v0,66,-10,110,-27,162r-262,0r-99,542v-6,33,-8,64,-8,91v-1,79,43,108,117,109v48,0,82,-9,121,-19v13,42,17,104,12,160v-41,12,-104,22,-162,22","w":716},"u":{"d":"469,25v-170,-1,-262,-91,-260,-269v0,-45,7,-100,14,-141r117,-666v61,-10,142,-11,203,0r-111,631v-8,44,-12,83,-12,117v-2,102,47,151,139,151v97,0,159,-62,209,-132v69,-97,118,-232,145,-384r68,-383v62,-10,142,-11,203,0r-109,609v-27,158,-59,281,-45,444v-57,10,-132,11,-188,0v-15,-57,-6,-178,8,-235v-50,102,-141,188,-253,233v-40,17,-83,25,-128,25","w":1163},"v":{"d":"909,-1051v69,-11,159,-11,228,0v-1,75,-16,109,-50,172r-238,442r-243,437v-71,8,-147,9,-215,0r-188,-1051v66,-11,152,-11,217,0r119,844r264,-530v46,-95,94,-199,106,-299r0,-15","w":1024},"w":{"d":"1444,-1051v63,-11,157,-10,217,0v-2,97,-33,146,-72,230r-381,821v-66,10,-150,11,-215,0r-102,-756r-311,756v-66,10,-150,11,-215,0r-144,-1051v67,-10,153,-11,217,0r80,815r328,-815v60,-10,138,-11,198,0r101,818r256,-621v27,-65,43,-121,43,-197","w":1564},"x":{"d":"270,0v-73,8,-137,9,-209,0v3,-11,0,-19,7,-29v14,-85,75,-170,126,-240r106,-144r101,-134r-147,-504v62,-11,140,-11,203,0r141,506r-262,383v-35,52,-63,93,-66,162xm981,0v-67,9,-145,12,-211,0r-79,-272r-77,-273r222,-332v36,-53,55,-108,59,-174v68,-12,130,-10,197,0v-3,87,-27,148,-72,211r-205,285","w":1003},"y":{"d":"215,-1051v68,-11,146,-10,213,0r104,949r117,-258r93,-215r76,-181v31,-85,79,-161,87,-266r-2,-29v63,-10,143,-5,215,-6v12,95,-29,182,-63,254r-198,425r-236,501v-63,135,-124,233,-217,309v-61,50,-121,68,-220,70v-48,0,-94,-7,-139,-21v3,-62,16,-119,45,-157v44,14,108,25,158,7v66,-23,102,-78,145,-147v27,-45,57,-106,90,-184v-39,3,-90,3,-131,0","w":1024},"z":{"d":"883,-160v0,59,-9,118,-29,160r-784,0r-7,-29r658,-860r-455,0v1,-65,6,-112,29,-162r743,0r6,27r-659,864r498,0","w":919},"{":{"d":"606,340v-219,0,-327,-77,-327,-283v0,-153,55,-272,55,-426v0,-124,-54,-181,-141,-237r4,-23v92,-47,164,-94,207,-187v13,-28,25,-61,34,-99v62,-228,76,-512,260,-612v58,-32,174,-50,275,-38v0,53,-17,121,-31,162v-95,-3,-160,17,-198,71v-57,80,-68,222,-93,341v-30,143,-56,257,-146,329v-24,18,-52,35,-83,52v75,49,113,97,113,221v0,139,-56,295,-56,432v0,117,57,132,183,135v0,58,-10,113,-27,160","w":778},"|":{"d":"532,-1589v60,-10,140,-11,199,0r-340,1933v-59,11,-139,11,-198,0","w":681},"}":{"d":"20,334v0,-53,17,-121,31,-162v95,3,160,-15,197,-70v79,-115,85,-352,132,-496v37,-114,94,-178,191,-227v-76,-49,-112,-97,-112,-221v0,-140,55,-295,55,-432v0,-116,-56,-132,-182,-135v0,-58,9,-113,26,-160r29,-2v219,0,328,77,328,283v0,152,-56,274,-56,426v0,125,54,181,142,237r-4,23v-92,47,-166,95,-209,187v-13,28,-24,61,-33,100v-41,161,-67,360,-137,486v-63,115,-158,167,-342,167v-20,0,-37,-2,-56,-4","w":770},"~":{"d":"272,-707v-36,-37,-65,-73,-79,-129v70,-61,166,-120,292,-120v136,0,203,82,338,82v76,0,116,-32,172,-78v38,46,58,80,78,141v-66,56,-165,106,-280,106v-133,0,-205,-81,-334,-81v-78,0,-132,34,-187,79","w":980},"\u00a0":{"w":184},"\u00a1":{"d":"297,-618v67,-8,130,-10,195,0r-173,1032v-76,8,-143,8,-219,0xm545,-831v-68,10,-150,11,-217,0v0,-88,17,-154,37,-228v69,-10,152,-11,219,0v0,78,-13,154,-39,228","w":577},"\u00a2":{"d":"1001,-182v19,41,36,95,35,157v-62,29,-169,43,-250,48r-36,219v-43,11,-102,11,-144,0r39,-226v-215,-32,-326,-172,-326,-409v0,-272,124,-473,295,-589v64,-43,137,-71,220,-83r43,-238v44,-12,99,-13,143,0r-41,232v66,5,137,19,186,37v-3,58,-24,129,-51,168v-54,-20,-120,-40,-194,-39v-139,-1,-235,77,-294,163v-57,81,-97,203,-98,328v-2,178,91,270,260,271v68,0,139,-13,213,-39"},"\u00a3":{"d":"1139,-184v1,68,-18,133,-31,184r-893,0r-4,-23v14,-14,30,-23,45,-36v144,-119,246,-306,231,-564r-184,0v0,-52,10,-105,29,-159r147,0v-3,-26,-5,-51,-6,-76v-18,-286,82,-482,281,-572v109,-50,311,-54,434,-20v55,15,98,30,131,45v-16,65,-40,110,-74,166v-71,-30,-161,-59,-264,-59v-222,1,-298,145,-299,366v0,50,5,101,10,150r383,0v0,53,-9,106,-28,159r-347,0v0,73,-8,147,-26,223v-18,76,-56,149,-115,216r580,0"},"\u00a4":{"d":"1178,-713v0,102,-36,181,-78,246r155,156v-30,52,-69,92,-116,121r-162,-160v-140,99,-354,98,-494,0r-157,157v-58,-25,-95,-68,-121,-122r155,-156v-43,-62,-70,-143,-71,-242v0,-103,33,-180,78,-245r-162,-164v29,-58,67,-95,125,-121r162,164v62,-43,141,-72,239,-72v100,0,178,30,242,72r164,-164v48,30,93,69,120,119r-161,161v47,64,81,147,82,250xm628,-462v63,29,145,28,208,0v91,-42,159,-123,159,-251v0,-126,-69,-209,-159,-251v-63,-28,-145,-29,-208,0v-90,42,-157,124,-157,251v0,127,67,209,157,251"},"\u00a5":{"d":"1188,-481v0,57,-11,100,-25,143r-393,0r-59,338v-66,8,-147,8,-209,0r59,-338r-371,0v1,-59,6,-97,25,-143r373,0r26,-160r-372,0v0,-58,10,-100,26,-143r295,0r-241,-676v68,-10,157,-12,223,0r203,622r397,-622v69,-7,157,-10,225,0r-446,676r317,0v-1,58,-5,96,-24,143r-394,0r-28,160r393,0"},"\u00a6":{"d":"418,-1589v61,-10,138,-11,198,0r-118,682v-60,10,-139,11,-199,0xm199,-338v61,-10,138,-11,198,0r-118,682v-61,10,-139,11,-199,0","w":481},"\u00a7":{"d":"295,-190v121,59,401,97,497,-14v37,-42,34,-127,-15,-158v-28,-17,-58,-35,-93,-48r-252,-86v-100,-35,-170,-82,-170,-202v0,-137,82,-218,164,-291v-23,-36,-46,-78,-45,-137v0,-125,62,-207,137,-263v148,-111,483,-101,653,-20v-13,59,-43,108,-71,154v-119,-61,-388,-92,-482,15v-37,43,-30,130,18,158v29,17,60,33,95,46r213,75v53,19,97,44,130,75v33,31,50,73,50,126v-2,130,-81,215,-155,289v41,44,61,95,61,152v0,125,-63,206,-138,262v-152,113,-491,98,-667,22v13,-59,41,-111,70,-155xm539,-901v-35,32,-82,77,-82,139v0,71,47,84,112,107r112,40r169,62v44,-42,121,-139,47,-199v-72,-58,-188,-84,-285,-120","w":1118},"\u00a8":{"d":"606,-1237v-69,8,-142,9,-209,0v3,-77,14,-142,37,-205v66,-10,144,-11,209,0v-3,78,-13,142,-37,205xm1024,-1237v-69,8,-142,9,-209,0v4,-79,10,-143,37,-205v64,-11,144,-10,209,0v-6,77,-17,138,-37,205","w":1024},"\u00a9":{"d":"1030,-455v68,0,111,-10,162,-32v23,39,38,85,43,137v-100,50,-278,59,-388,11v-143,-63,-231,-195,-231,-394v0,-199,89,-337,229,-403v105,-49,272,-39,376,-1v-3,54,-11,102,-31,142v-59,-17,-95,-25,-164,-25v-162,-1,-238,119,-238,287v0,170,85,278,242,278xm730,-156v147,65,365,65,511,0v148,-66,255,-180,312,-334v56,-150,56,-341,0,-491v-57,-155,-164,-269,-312,-334v-146,-64,-364,-64,-511,0v-149,65,-256,179,-313,334v-56,150,-56,341,0,491v57,155,164,268,313,334xm1296,-32v-182,77,-439,77,-621,0v-185,-78,-320,-214,-395,-400v-73,-182,-73,-423,0,-606v75,-188,210,-322,395,-400v182,-77,438,-77,621,-2v186,77,319,216,394,402v73,182,73,425,0,606v-75,186,-209,322,-394,400","w":1732},"\u00aa":{"d":"463,-897v0,87,23,160,102,160v83,0,136,-63,177,-122v52,-77,91,-186,112,-298r31,-164v-80,-14,-161,-5,-221,31v-120,72,-201,207,-201,393xm506,-598v-157,1,-232,-101,-230,-260v3,-272,132,-460,321,-558v126,-65,340,-63,480,-16r-92,517v-21,133,-28,191,-22,297v-52,5,-117,6,-168,0v-12,-46,-10,-119,0,-173v-30,51,-69,96,-117,135v-48,39,-105,58,-172,58","w":1024},"\u00ab":{"d":"1157,-92v-68,10,-150,11,-217,0r-279,-463r428,-444v71,-12,164,-12,236,0r-432,456xm672,-92v-68,10,-150,11,-217,0r-279,-463r428,-444v71,-12,164,-12,236,0r-432,456","w":1198},"\u00ac":{"d":"281,-602v-9,-54,-10,-135,0,-189r856,0r0,572v-54,11,-134,10,-189,0r0,-383r-667,0"},"\u00ad":{"d":"748,-684v0,63,-17,138,-33,188r-516,0v3,-64,13,-127,32,-188r517,0","w":735},"\u00ae":{"d":"1120,-897v2,-109,-120,-141,-233,-119r0,662v-40,8,-113,8,-154,0r0,-789v34,-4,67,-7,101,-10v34,-3,71,-4,112,-4v188,3,336,59,336,244v0,120,-67,187,-143,231r213,326v-58,8,-123,9,-178,0r-234,-365v51,-21,93,-43,135,-79v30,-25,45,-58,45,-97xm729,-156v146,65,364,65,511,0v213,-95,355,-283,355,-579v0,-293,-142,-485,-355,-578v-147,-64,-365,-64,-511,0v-212,93,-354,284,-354,578v0,295,142,485,354,579xm1296,-32v-182,77,-439,77,-621,0v-185,-78,-320,-214,-395,-400v-73,-182,-73,-423,0,-606v75,-188,210,-322,395,-400v182,-77,438,-77,621,-2v186,77,319,216,394,402v73,182,73,425,0,606v-75,186,-209,322,-394,400","w":1732},"\u00af":{"d":"410,-1262v1,-63,4,-110,24,-159r553,0v0,63,-7,107,-24,159r-553,0","w":1024},"\u00b0":{"d":"260,-1072v-32,-72,-31,-163,0,-234v45,-103,134,-181,275,-181v139,0,229,80,275,181v32,71,32,163,0,234v-46,102,-135,181,-275,181v-139,0,-231,-78,-275,-181xm381,-1188v0,90,66,160,154,160v88,0,153,-70,153,-160v0,-89,-66,-162,-153,-162v-87,0,-154,74,-154,162","w":757},"\u00b1":{"d":"172,-2v0,-73,12,-128,33,-186r866,0v1,72,-11,133,-31,186r-868,0xm1178,-809v-1,70,-10,122,-29,180r-340,0r-66,373v-54,11,-132,11,-188,0r66,-373r-336,0v1,-65,9,-126,28,-180r340,0r66,-373v57,-11,131,-11,188,0r-65,373r336,0"},"\u00b2":{"d":"627,-1458v152,0,262,83,260,227v-3,181,-120,262,-219,352r-115,105r303,0v0,48,-9,97,-27,147r-612,0r-4,-24r326,-305v42,-39,79,-78,112,-116v33,-38,49,-80,49,-128v0,-74,-39,-111,-116,-111v-67,0,-142,26,-191,47v-15,-38,-35,-83,-37,-133v75,-34,165,-61,271,-61","w":921},"\u00b3":{"d":"549,-1018v-26,0,-60,3,-84,8r-19,-24r236,-273r-295,0v0,-54,7,-97,23,-141r510,0r10,31r-248,295v114,9,184,93,184,202v0,165,-98,254,-227,296v-125,42,-302,18,-397,-25v8,-45,28,-89,59,-131v63,18,118,39,193,39v111,0,192,-46,194,-158v1,-80,-58,-119,-139,-119","w":921},"\u00b4":{"d":"719,-1477v82,-10,179,-11,260,0r-254,260v-61,11,-143,13,-205,0","w":1024},"\u00b5":{"d":"565,25v-95,1,-179,-43,-211,-105r-94,563v-60,11,-140,12,-199,0r263,-1534v60,-10,140,-11,200,0r-96,549v-7,47,-14,103,-14,154v1,135,53,210,188,207v126,-3,202,-77,253,-167v21,-38,36,-82,44,-132r105,-611v60,-10,140,-11,200,0r-180,1051v-46,11,-120,10,-166,0v1,-45,-1,-92,6,-131v-67,89,-151,156,-299,156","w":1187},"\u00b6":{"d":"631,-641v-224,-21,-391,-117,-391,-360v0,-389,304,-483,698,-484r-256,1495v-57,-2,-115,2,-162,-12xm1094,-1485v59,1,121,1,159,15r-252,1470v-37,8,-91,12,-163,12","w":1177},"\u00b7":{"d":"444,-461v-74,10,-156,11,-229,0v0,-84,19,-157,39,-227v71,-11,157,-12,227,0v0,87,-17,154,-37,227","w":493},"\u00b8":{"d":"260,455v9,-38,25,-86,47,-113v34,11,86,29,129,29v69,0,133,-12,133,-82v0,-94,-150,-72,-227,-56r-8,-10r141,-270r121,0r-88,166v119,-23,217,46,215,155v-3,163,-123,218,-285,220v-69,2,-139,-17,-178,-39","w":1024},"\u00b9":{"d":"287,-627v1,-58,6,-102,28,-145r183,0r82,-467r-193,78v-27,-37,-43,-81,-47,-133r397,-162r54,0r-119,684r188,0v-1,57,-6,101,-26,145r-547,0","w":921},"\u00ba":{"d":"754,-1470v209,-1,315,118,315,325v0,230,-101,406,-257,495v-60,34,-131,52,-214,52v-207,1,-320,-117,-317,-322v3,-229,101,-410,258,-498v60,-34,132,-52,215,-52xm885,-1145v1,-110,-47,-181,-148,-182v-107,-1,-168,69,-207,143v-37,69,-63,170,-63,266v0,121,48,181,143,181v108,0,170,-68,211,-141v39,-69,63,-170,64,-267","w":1024},"\u00bb":{"d":"745,-999v67,-10,151,-14,217,0r279,467r-430,440v-71,11,-162,10,-234,0r436,-467xm262,-999v67,-10,151,-14,217,0r279,467r-430,440v-71,11,-162,10,-234,0r436,-467","w":1241},"\u00bc":{"d":"1985,-299v-1,45,-8,102,-23,137r-94,0r-29,162v-48,5,-105,6,-151,-2r26,-160r-416,0r-10,-26r436,-664v53,8,108,29,144,53r-332,500r201,0r30,-168v44,-9,107,-7,152,0r-29,168r95,0xm1675,-1450v65,-10,155,-11,219,0r-1134,1448v-68,11,-150,10,-217,0xm287,-627v1,-58,6,-102,28,-145r183,0r82,-467r-193,78v-27,-37,-43,-81,-47,-133r397,-162r54,0r-119,684r188,0v-1,57,-6,101,-26,145r-547,0","w":2150},"\u00bd":{"d":"1651,-1450v66,-10,154,-11,219,0r-1135,1448v-68,11,-150,10,-217,0xm287,-627v1,-58,6,-102,28,-145r183,0r82,-467r-193,78v-27,-37,-43,-81,-47,-133r397,-162r54,0r-119,684r188,0v-1,57,-6,101,-26,145r-547,0xm1757,-833v152,0,262,83,260,227v-3,181,-120,262,-219,352r-115,105r303,0v0,48,-9,97,-27,147r-612,0r-4,-24r326,-305v42,-39,79,-77,112,-115v33,-38,49,-81,49,-129v0,-74,-39,-111,-116,-111v-67,0,-142,26,-191,47v-15,-38,-35,-83,-37,-133v75,-34,165,-61,271,-61","w":2150},"\u00be":{"d":"1958,-299v0,46,-7,103,-23,137r-94,0r-29,162v-48,5,-105,6,-151,-2r27,-160r-416,0r-10,-26r436,-664v52,8,108,29,143,53r-332,500r201,0r31,-168v44,-9,106,-7,151,0r-28,168r94,0xm1638,-1450v66,-10,155,-11,220,0r-1135,1448v-68,11,-150,10,-217,0xm563,-1018v-26,0,-60,3,-84,8r-19,-24r236,-273r-295,0v0,-54,7,-97,23,-141r510,0r10,31r-248,295v114,9,184,93,184,202v0,165,-98,254,-227,296v-125,42,-302,18,-397,-25v8,-45,28,-89,59,-131v63,18,118,39,193,39v111,0,192,-46,194,-158v1,-80,-58,-119,-139,-119","w":2150},"\u00bf":{"d":"864,197v17,42,35,115,35,172v-109,42,-204,55,-336,55v-196,0,-332,-71,-391,-206v-41,-93,-33,-213,7,-305v70,-159,211,-270,384,-325r35,-211v66,-7,133,-9,195,0r-58,332v-153,35,-287,98,-345,229v-16,35,-23,73,-23,115v-1,132,104,193,241,193v111,0,170,-21,256,-49xm846,-831v-72,12,-156,13,-228,0v3,-87,16,-159,41,-228v72,-10,156,-11,228,0v-3,85,-16,161,-41,228","w":927},"\u00c0":{"d":"1010,-1593v-55,13,-150,14,-207,2r-246,-234v76,-10,191,-12,266,0xm741,-1473v74,-8,177,-9,250,0r201,1473v-73,7,-146,9,-219,0r-39,-346r-496,0r-149,346v-62,7,-154,10,-217,0xm913,-526r-84,-711r-311,711r395,0","w":1226},"\u00c1":{"d":"961,-1817v76,-11,189,-10,264,0r-297,226v-61,9,-159,9,-217,-2xm741,-1473v74,-8,177,-9,250,0r201,1473v-73,7,-146,9,-219,0r-39,-346r-496,0r-149,346v-62,7,-154,10,-217,0xm913,-526r-84,-711r-311,711r395,0","w":1226},"\u00c2":{"d":"1204,-1595v-62,11,-142,11,-203,-2r-92,-123r-141,125v-67,10,-156,11,-221,0r260,-226v70,-10,159,-11,229,0xm741,-1473v74,-8,177,-9,250,0r201,1473v-73,7,-146,9,-219,0r-39,-346r-496,0r-149,346v-62,7,-154,10,-217,0xm913,-526r-84,-711r-311,711r395,0","w":1226},"\u00c3":{"d":"602,-1626v-22,-24,-55,-71,-59,-111v49,-49,120,-102,213,-102v118,0,171,74,286,74v65,0,85,-20,132,-58v19,24,53,78,59,115v-51,44,-122,98,-215,98v-115,0,-171,-71,-283,-71v-67,0,-86,21,-133,55xm741,-1473v74,-8,177,-9,250,0r201,1473v-73,7,-146,9,-219,0r-39,-346r-496,0r-149,346v-62,7,-154,10,-217,0xm913,-526r-84,-711r-311,711r395,0","w":1226},"\u00c4":{"d":"1200,-1593v-67,10,-149,11,-215,0v0,-68,12,-137,35,-207v67,-10,149,-11,215,0v-3,69,-14,138,-35,207xm762,-1593v-68,10,-148,11,-215,0v0,-71,12,-140,35,-207v68,-10,149,-11,215,0v0,71,-12,140,-35,207xm741,-1473v74,-8,177,-9,250,0r201,1473v-73,7,-146,9,-219,0r-39,-346r-496,0r-149,346v-62,7,-154,10,-217,0xm913,-526r-84,-711r-311,711r395,0","w":1226},"\u00c5":{"d":"1137,-1700v0,111,-63,195,-144,232r201,1468v-62,8,-152,8,-217,0r-41,-346r-494,0r-151,346v-67,10,-149,7,-217,0r669,-1468v-56,-33,-92,-94,-92,-177v0,-127,69,-211,162,-251v33,-14,69,-21,109,-21v133,0,215,92,215,217xm915,-526r-84,-711r-311,711r395,0xm780,-1661v0,70,30,119,101,119v79,0,126,-71,125,-148v-1,-66,-26,-116,-97,-116v-81,0,-130,66,-129,145","w":1239},"\u00c6":{"d":"1737,-182v0,66,-14,128,-31,182r-795,0r60,-344r-496,0r-244,344v-71,10,-161,11,-231,0r1018,-1473r930,0v0,57,-10,119,-31,185r-569,0r-74,420r455,0v0,66,-14,129,-33,184r-455,0r-88,502r584,0xm1004,-524r137,-781r-13,0r-528,781r404,0","w":1796},"\u00c7":{"d":"827,289v0,-95,-154,-71,-231,-56r-10,-10r108,-205v-293,-33,-464,-239,-461,-563v4,-416,176,-717,455,-872v173,-96,477,-101,662,-27v-16,71,-30,113,-64,172v-146,-61,-379,-57,-510,20v-208,123,-316,368,-319,689v-2,258,129,403,379,403v114,0,194,-21,278,-57v24,46,38,109,43,174v-85,42,-227,60,-340,68r-53,94v124,-22,222,43,221,155v-2,165,-127,218,-291,220v-71,2,-143,-17,-182,-39v6,-38,26,-86,45,-113v36,11,91,29,135,29v69,0,135,-12,135,-82","w":1181},"\u00c8":{"d":"1012,-1593v-55,13,-150,14,-207,2r-246,-234v76,-10,191,-12,266,0xm446,-1473r781,0v0,61,-11,123,-33,185r-569,0r-74,420r455,0v0,63,-11,124,-33,184r-455,0r-88,502r586,0v-9,69,-9,119,-33,182r-795,0","w":1073},"\u00c9":{"d":"956,-1817v76,-11,189,-11,265,0r-297,226v-61,9,-159,9,-217,-2xm446,-1473r781,0v0,61,-11,123,-33,185r-569,0r-74,420r455,0v0,63,-11,124,-33,184r-455,0r-88,502r586,0v-9,69,-9,119,-33,182r-795,0","w":1073},"\u00ca":{"d":"1180,-1595v-62,11,-143,12,-203,-2r-92,-123r-142,125v-68,10,-156,11,-221,0r260,-226v70,-10,159,-11,230,0xm446,-1473r781,0v0,61,-11,123,-33,185r-569,0r-74,420r455,0v0,63,-11,124,-33,184r-455,0r-88,502r586,0v-9,69,-9,119,-33,182r-795,0","w":1073},"\u00cb":{"d":"1188,-1593v-67,10,-149,11,-215,0v0,-68,12,-137,35,-207v67,-10,149,-11,215,0v-3,69,-14,138,-35,207xm750,-1593v-68,10,-148,11,-215,0v0,-71,11,-140,34,-207v67,-10,150,-11,215,0v0,71,-11,140,-34,207xm446,-1473r781,0v0,61,-11,123,-33,185r-569,0r-74,420r455,0v0,63,-11,124,-33,184r-455,0r-88,502r586,0v-9,69,-9,119,-33,182r-795,0","w":1073},"\u00cc":{"d":"731,-1593v-55,13,-150,14,-207,2r-245,-234v76,-10,190,-12,266,0xm449,-1473v65,-10,146,-11,210,0r-258,1473v-66,10,-146,11,-211,0","w":589},"\u00cd":{"d":"643,-1817v76,-11,189,-11,264,0r-297,226v-61,9,-158,9,-217,-2xm449,-1473v65,-10,146,-11,210,0r-258,1473v-66,10,-146,11,-211,0","w":589},"\u00ce":{"d":"903,-1595v-62,11,-142,11,-203,-2r-92,-123r-141,125v-67,10,-156,11,-221,0r260,-226v70,-10,159,-11,229,0xm449,-1473v65,-10,146,-11,210,0r-258,1473v-66,10,-146,11,-211,0","w":589},"\u00cf":{"d":"901,-1593v-67,10,-149,11,-215,0v0,-68,12,-137,35,-207v67,-10,149,-11,215,0v-3,69,-14,138,-35,207xm463,-1593v-68,10,-148,11,-215,0v0,-71,12,-140,35,-207v68,-10,149,-11,215,0v0,71,-12,140,-35,207xm449,-1473v65,-10,146,-11,210,0r-258,1473v-66,10,-146,11,-211,0","w":589},"\u00d0":{"d":"717,-1493v458,-24,735,164,735,598v0,429,-196,710,-502,849v-190,86,-500,81,-733,46r121,-692r-154,0v0,-60,7,-108,25,-154r156,0r110,-627r158,-15v29,-2,57,-4,84,-5xm928,-846v0,58,-6,110,-25,154r-354,0r-92,520v41,6,117,10,168,10v202,-1,348,-84,445,-200v100,-118,161,-293,161,-504v0,-292,-123,-449,-422,-447v-52,0,-107,5,-152,10r-82,457r353,0","w":1425},"\u00d1":{"d":"694,-1626v-22,-24,-55,-71,-59,-111v49,-49,120,-102,213,-102v118,0,171,74,287,74v65,0,84,-21,131,-58v19,24,55,77,59,115v-51,44,-122,98,-215,98v-115,0,-171,-71,-283,-71v-67,0,-86,21,-133,55xm446,-1473v58,-9,137,-8,193,0r414,1111r192,-1111r40,-4v50,-5,107,-1,155,4r-258,1473v-58,8,-133,9,-191,0r-416,-1104r-190,1104v-64,10,-134,7,-197,0","w":1370},"\u00d2":{"d":"1200,-1593v-55,13,-150,14,-207,2r-245,-234v76,-10,190,-12,266,0xm1031,-56v-141,85,-367,110,-530,42v-180,-75,-272,-250,-272,-502v0,-415,161,-737,429,-898v143,-86,368,-113,532,-42v179,77,270,252,270,504v0,418,-162,735,-429,896xm446,-518v0,217,81,362,291,362v81,0,152,-23,214,-70v184,-139,290,-410,290,-724v0,-213,-79,-365,-291,-363v-82,0,-154,23,-217,69v-186,139,-287,409,-287,726","w":1435},"\u00d3":{"d":"1059,-1817v76,-11,189,-11,264,0r-297,226v-61,9,-159,9,-217,-2xm1031,-56v-141,85,-367,110,-530,42v-180,-75,-272,-250,-272,-502v0,-415,161,-737,429,-898v143,-86,368,-113,532,-42v179,77,270,252,270,504v0,418,-162,735,-429,896xm446,-518v0,217,81,362,291,362v81,0,152,-23,214,-70v184,-139,290,-410,290,-724v0,-213,-79,-365,-291,-363v-82,0,-154,23,-217,69v-186,139,-287,409,-287,726","w":1435},"\u00d4":{"d":"1313,-1595v-62,11,-143,12,-203,-2r-92,-123r-141,125v-68,10,-156,11,-222,0r260,-226v70,-10,159,-11,230,0xm1031,-56v-141,85,-367,110,-530,42v-180,-75,-272,-250,-272,-502v0,-415,161,-737,429,-898v143,-86,368,-113,532,-42v179,77,270,252,270,504v0,418,-162,735,-429,896xm446,-518v0,217,81,362,291,362v81,0,152,-23,214,-70v184,-139,290,-410,290,-724v0,-213,-79,-365,-291,-363v-82,0,-154,23,-217,69v-186,139,-287,409,-287,726","w":1435},"\u00d5":{"d":"739,-1626v-22,-24,-55,-71,-59,-111v49,-49,120,-102,213,-102v118,0,171,74,287,74v65,0,84,-21,131,-58v19,24,55,77,59,115v-51,44,-122,98,-215,98v-115,0,-171,-71,-283,-71v-67,0,-86,21,-133,55xm1031,-56v-141,85,-367,110,-530,42v-180,-75,-272,-250,-272,-502v0,-415,161,-737,429,-898v143,-86,368,-113,532,-42v179,77,270,252,270,504v0,418,-162,735,-429,896xm446,-518v0,217,81,362,291,362v81,0,152,-23,214,-70v184,-139,290,-410,290,-724v0,-213,-79,-365,-291,-363v-82,0,-154,23,-217,69v-186,139,-287,409,-287,726","w":1435},"\u00d6":{"d":"1327,-1593v-67,10,-149,11,-215,0v0,-68,12,-137,35,-207v67,-10,149,-11,215,0v-3,69,-14,138,-35,207xm889,-1593v-68,10,-148,11,-215,0v0,-71,12,-140,35,-207v68,-10,149,-11,215,0v0,71,-12,140,-35,207xm1031,-56v-141,85,-367,110,-530,42v-180,-75,-272,-250,-272,-502v0,-415,161,-737,429,-898v143,-86,368,-113,532,-42v179,77,270,252,270,504v0,418,-162,735,-429,896xm446,-518v0,217,81,362,291,362v81,0,152,-23,214,-70v184,-139,290,-410,290,-724v0,-213,-79,-365,-291,-363v-82,0,-154,23,-217,69v-186,139,-287,409,-287,726","w":1435},"\u00d7":{"d":"610,-731r-198,-242v46,-48,95,-94,153,-131r199,244r289,-248v44,36,91,93,118,145r-288,248r196,238v-40,49,-96,94,-151,127r-197,-238r-295,250v-49,-35,-88,-91,-119,-145"},"\u00d8":{"d":"319,-164v-119,-171,-106,-487,-41,-718v66,-234,194,-419,380,-532v176,-107,475,-116,624,15r72,-92v45,-10,121,-11,164,0r-148,188v120,175,106,489,40,719v-66,230,-195,417,-379,528v-173,104,-472,113,-621,-12r-78,99v-44,11,-118,10,-164,0xm535,-231v94,103,303,93,416,5v181,-142,285,-410,290,-724v0,-61,-7,-114,-22,-158xm1155,-1235v-95,-106,-307,-98,-422,-9v-184,141,-282,409,-287,726v0,61,8,115,25,160","w":1435},"\u00d9":{"d":"1120,-1593v-55,13,-150,14,-207,2r-245,-234v76,-10,191,-12,266,0xm676,25v-282,-2,-418,-130,-418,-412v0,-74,10,-144,23,-213r153,-873v65,-10,147,-11,211,0r-147,836v-17,94,-25,174,-25,240v2,170,62,233,234,233v281,0,333,-229,376,-473r146,-836v66,-10,146,-11,211,0r-156,887v-64,351,-195,614,-608,611","w":1357},"\u00da":{"d":"1040,-1817v76,-11,189,-11,265,0r-297,226v-61,9,-159,9,-217,-2xm676,25v-282,-2,-418,-130,-418,-412v0,-74,10,-144,23,-213r153,-873v65,-10,147,-11,211,0r-147,836v-17,94,-25,174,-25,240v2,170,62,233,234,233v281,0,333,-229,376,-473r146,-836v66,-10,146,-11,211,0r-156,887v-64,351,-195,614,-608,611","w":1357},"\u00db":{"d":"1286,-1595v-62,11,-142,11,-203,-2r-92,-123r-141,125v-67,10,-156,11,-221,0r260,-226v70,-10,159,-11,229,0xm676,25v-282,-2,-418,-130,-418,-412v0,-74,10,-144,23,-213r153,-873v65,-10,147,-11,211,0r-147,836v-17,94,-25,174,-25,240v2,170,62,233,234,233v281,0,333,-229,376,-473r146,-836v66,-10,146,-11,211,0r-156,887v-64,351,-195,614,-608,611","w":1357},"\u00dc":{"d":"1296,-1593v-67,10,-149,11,-215,0v0,-68,12,-137,35,-207v67,-10,150,-11,215,0v-3,69,-14,138,-35,207xm858,-1593v-68,10,-148,11,-215,0v0,-71,12,-140,35,-207v67,-10,150,-11,215,0v0,71,-12,140,-35,207xm676,25v-282,-2,-418,-130,-418,-412v0,-74,10,-144,23,-213r153,-873v65,-10,147,-11,211,0r-147,836v-17,94,-25,174,-25,240v2,170,62,233,234,233v281,0,333,-229,376,-473r146,-836v66,-10,146,-11,211,0r-156,887v-64,351,-195,614,-608,611","w":1357},"\u00dd":{"d":"930,-1817v76,-11,189,-11,264,0r-297,226v-61,9,-159,9,-217,-2xm272,-1473v68,-7,156,-10,224,0r196,723r422,-723v68,-7,158,-10,225,0r-579,943r-92,530v-68,8,-147,8,-211,0r96,-537","w":1124},"\u00de":{"d":"840,-318v-108,37,-250,44,-383,31r-51,287v-67,8,-143,8,-209,0r258,-1473v66,-8,145,-9,209,0r-41,230v173,-10,335,12,437,87v87,64,149,162,148,314v-3,285,-150,450,-368,524xm987,-829v5,-218,-182,-257,-397,-232r-103,594v47,6,67,6,125,6v241,-3,370,-124,375,-368","w":1181},"\u00df":{"d":"-182,313v47,21,125,26,181,9v61,-19,94,-63,119,-128v14,-38,27,-88,38,-149r194,-1116v42,-276,160,-449,473,-449v169,0,282,62,331,178v37,88,24,208,-20,280v-54,88,-121,151,-185,226v-50,57,-60,144,-4,198v60,59,119,110,169,182v48,70,50,200,10,283v-58,124,-181,196,-360,198v-101,0,-189,-17,-256,-48v15,-55,41,-110,67,-159v50,22,122,41,191,41v97,0,188,-51,188,-154v0,-44,-12,-79,-38,-105v-52,-56,-121,-102,-170,-164v-53,-67,-48,-199,4,-270v58,-79,132,-153,188,-234v29,-40,43,-86,43,-138v0,-133,-161,-177,-281,-134v-105,38,-128,153,-151,283r-195,1118v-28,149,-71,256,-150,341v-88,95,-287,122,-440,73v11,-67,26,-112,54,-162","w":1183},"\u00e0":{"d":"379,-350v-1,115,35,207,139,207v42,0,82,-14,122,-41v137,-99,213,-289,251,-492r41,-219v-103,-21,-216,-10,-294,37v-154,93,-256,270,-259,508xm440,25v-187,1,-275,-139,-272,-332v5,-340,160,-581,397,-703v153,-79,415,-82,586,-22r-139,797v-12,89,-20,156,-6,233v-58,10,-133,11,-191,0v-15,-72,-6,-168,8,-236v-54,102,-139,193,-253,238v-40,17,-83,25,-130,25xm565,-1477v80,-11,180,-10,260,0r189,260v-62,11,-145,13,-205,0","w":1134},"\u00e1":{"d":"379,-350v-1,115,35,207,139,207v42,0,82,-14,122,-41v137,-99,213,-289,251,-492r41,-219v-103,-21,-216,-10,-294,37v-154,93,-256,270,-259,508xm440,25v-187,1,-275,-139,-272,-332v5,-340,160,-581,397,-703v153,-79,415,-82,586,-22r-139,797v-12,89,-20,156,-6,233v-58,10,-133,11,-191,0v-15,-72,-6,-168,8,-236v-54,102,-139,193,-253,238v-40,17,-83,25,-130,25xm912,-1477v82,-10,179,-11,260,0r-254,260v-61,11,-143,13,-205,0","w":1134},"\u00e2":{"d":"379,-350v-1,115,35,207,139,207v42,0,82,-14,122,-41v137,-99,213,-289,251,-492r41,-219v-103,-21,-216,-10,-294,37v-154,93,-256,270,-259,508xm440,25v-187,1,-275,-139,-272,-332v5,-340,160,-581,397,-703v153,-79,415,-82,586,-22r-139,797v-12,89,-20,156,-6,233v-58,10,-133,11,-191,0v-15,-72,-6,-168,8,-236v-54,102,-139,193,-253,238v-40,17,-83,25,-130,25xm1149,-1217v-56,12,-141,12,-199,0r-84,-161r-143,161v-65,10,-157,14,-220,0r254,-260v72,-10,170,-12,240,2","w":1134},"\u00e3":{"d":"379,-350v-1,115,35,207,139,207v42,0,82,-14,122,-41v137,-99,213,-289,251,-492r41,-219v-103,-21,-216,-10,-294,37v-154,93,-256,270,-259,508xm440,25v-187,1,-275,-139,-272,-332v5,-340,160,-581,397,-703v153,-79,415,-82,586,-22r-139,797v-12,89,-20,156,-6,233v-58,10,-133,11,-191,0v-15,-72,-6,-168,8,-236v-54,102,-139,193,-253,238v-40,17,-83,25,-130,25xm557,-1241v-21,-24,-54,-71,-59,-111v48,-49,119,-103,213,-102v117,0,171,72,286,72v66,0,88,-18,134,-56v20,25,53,74,57,115v-49,44,-124,98,-215,98v-117,0,-170,-73,-283,-73v-67,0,-86,23,-133,57","w":1134},"\u00e4":{"d":"379,-350v-1,115,35,207,139,207v42,0,82,-14,122,-41v137,-99,213,-289,251,-492r41,-219v-103,-21,-216,-10,-294,37v-154,93,-256,270,-259,508xm440,25v-187,1,-275,-139,-272,-332v5,-340,160,-581,397,-703v153,-79,415,-82,586,-22r-139,797v-12,89,-20,156,-6,233v-58,10,-133,11,-191,0v-15,-72,-6,-168,8,-236v-54,102,-139,193,-253,238v-40,17,-83,25,-130,25xm723,-1237v-69,8,-142,9,-209,0v3,-77,14,-142,37,-205v66,-10,144,-11,209,0v-3,78,-13,142,-37,205xm1141,-1237v-69,8,-142,9,-209,0v4,-79,10,-143,37,-205v64,-11,144,-10,209,0v-6,77,-17,138,-37,205","w":1134},"\u00e5":{"d":"803,-1407v1,61,24,103,86,102v68,0,104,-56,102,-129v-2,-62,-22,-102,-84,-102v-68,0,-105,63,-104,129xm879,-1200v-120,2,-198,-77,-197,-195v2,-113,57,-187,137,-225v29,-13,61,-20,96,-20v122,-1,201,78,199,202v-2,112,-60,185,-141,219v-29,12,-60,18,-94,19xm379,-350v-1,115,35,207,139,207v42,0,82,-14,122,-41v137,-99,213,-289,251,-492r41,-219v-103,-21,-216,-10,-294,37v-154,93,-256,270,-259,508xm440,25v-187,1,-275,-139,-272,-332v5,-340,160,-581,397,-703v153,-79,415,-82,586,-22r-139,797v-12,89,-20,156,-6,233v-58,10,-133,11,-191,0v-15,-72,-6,-168,8,-236v-54,102,-139,193,-253,238v-40,17,-83,25,-130,25","w":1134},"\u00e6":{"d":"408,-554v-46,147,-64,411,108,411v110,0,180,-76,234,-154v69,-99,114,-235,141,-379r39,-217v-101,-23,-216,-12,-294,36v-107,65,-188,172,-228,303xm1534,-803v0,-69,-54,-113,-129,-112v-99,2,-168,49,-219,105v-56,61,-97,148,-119,241v144,-24,304,-45,394,-110v44,-31,73,-62,73,-124xm1454,-1075v161,0,284,90,283,244v-1,135,-74,214,-166,270v-133,82,-327,116,-520,143v1,169,86,277,262,277v109,0,210,-33,289,-62v26,38,33,100,34,160v-94,40,-224,67,-354,68v-230,2,-364,-93,-408,-275v-53,87,-115,155,-184,203v-69,48,-147,72,-233,72v-199,2,-289,-133,-289,-332v0,-337,159,-581,394,-703v149,-77,390,-82,558,-24r-20,116v80,-85,193,-157,354,-157","w":1689},"\u00e7":{"d":"643,289v0,-94,-155,-72,-231,-56r-11,-10r111,-207v-221,-30,-332,-169,-332,-411v0,-297,146,-514,352,-621v76,-40,162,-59,261,-59v87,-1,173,18,235,41v-3,58,-27,126,-53,166v-54,-20,-118,-40,-191,-39v-142,0,-234,73,-296,159v-60,82,-96,202,-97,332v-2,178,90,273,258,273v82,0,148,-15,213,-41v22,41,35,94,35,159v-68,29,-177,47,-266,50r-51,94v122,-22,221,44,219,155v-2,165,-127,217,-291,220v-70,2,-144,-17,-182,-39v9,-39,23,-86,47,-113v35,12,89,29,135,29v69,0,135,-12,135,-82","w":940},"\u00e8":{"d":"774,-1075v167,0,293,88,293,244v0,135,-74,214,-166,270v-133,82,-327,116,-520,143v9,178,83,276,266,277v109,1,211,-33,289,-62v23,38,35,101,35,160v-139,59,-398,98,-559,36v-151,-57,-234,-185,-234,-388v0,-296,150,-511,352,-621v73,-40,154,-59,244,-59xm866,-809v0,-68,-52,-107,-127,-106v-99,1,-168,51,-220,107v-57,61,-98,148,-122,239r113,-21v117,-20,211,-45,283,-93v47,-31,73,-62,73,-126xm489,-1477v80,-11,180,-10,260,0r189,260v-62,11,-145,13,-205,0","w":1019},"\u00e9":{"d":"774,-1075v167,0,293,88,293,244v0,135,-74,214,-166,270v-133,82,-327,116,-520,143v9,178,83,276,266,277v109,1,211,-33,289,-62v23,38,35,101,35,160v-139,59,-398,98,-559,36v-151,-57,-234,-185,-234,-388v0,-296,150,-511,352,-621v73,-40,154,-59,244,-59xm866,-809v0,-68,-52,-107,-127,-106v-99,1,-168,51,-220,107v-57,61,-98,148,-122,239r113,-21v117,-20,211,-45,283,-93v47,-31,73,-62,73,-126xm813,-1477v82,-10,179,-11,260,0r-254,260v-61,11,-143,13,-205,0","w":1019},"\u00ea":{"d":"774,-1075v167,0,293,88,293,244v0,135,-74,214,-166,270v-133,82,-327,116,-520,143v9,178,83,276,266,277v109,1,211,-33,289,-62v23,38,35,101,35,160v-139,59,-398,98,-559,36v-151,-57,-234,-185,-234,-388v0,-296,150,-511,352,-621v73,-40,154,-59,244,-59xm866,-809v0,-68,-52,-107,-127,-106v-99,1,-168,51,-220,107v-57,61,-98,148,-122,239r113,-21v117,-20,211,-45,283,-93v47,-31,73,-62,73,-126xm1069,-1217v-56,12,-141,12,-199,0r-84,-161r-143,161v-65,10,-157,14,-220,0r254,-260v72,-10,170,-12,240,2","w":1019},"\u00eb":{"d":"774,-1075v167,0,293,88,293,244v0,135,-74,214,-166,270v-133,82,-327,116,-520,143v9,178,83,276,266,277v109,1,211,-33,289,-62v23,38,35,101,35,160v-139,59,-398,98,-559,36v-151,-57,-234,-185,-234,-388v0,-296,150,-511,352,-621v73,-40,154,-59,244,-59xm866,-809v0,-68,-52,-107,-127,-106v-99,1,-168,51,-220,107v-57,61,-98,148,-122,239r113,-21v117,-20,211,-45,283,-93v47,-31,73,-62,73,-126xm637,-1237v-69,8,-142,9,-209,0v3,-77,14,-142,37,-205v66,-10,144,-11,209,0v-3,78,-13,142,-37,205xm1055,-1237v-69,8,-142,9,-209,0v4,-79,10,-143,37,-205v64,-11,144,-10,209,0v-6,77,-17,138,-37,205","w":1019},"\u00ec":{"d":"242,-889v1,-64,6,-111,26,-162r328,0r-184,1051v-60,8,-140,9,-199,0r156,-889r-127,0xm215,-1477v80,-11,180,-10,260,0r189,260v-62,11,-145,13,-205,0","w":583},"\u00ed":{"d":"242,-889v1,-64,6,-111,26,-162r328,0r-184,1051v-60,8,-140,9,-199,0r156,-889r-127,0xm512,-1477v82,-10,179,-11,260,0r-254,260v-61,11,-143,13,-205,0","w":583},"\u00ee":{"d":"242,-889v1,-64,6,-111,26,-162r328,0r-184,1051v-60,8,-140,9,-199,0r156,-889r-127,0xm791,-1217v-56,12,-141,12,-199,0r-84,-161r-143,161v-65,10,-157,14,-220,0r254,-260v72,-10,170,-12,240,2","w":583},"\u00ef":{"d":"242,-889v1,-64,6,-111,26,-162r328,0r-184,1051v-60,8,-140,9,-199,0r156,-889r-127,0xm366,-1237v-69,8,-142,9,-209,0v3,-77,14,-142,37,-205v66,-10,144,-11,209,0v-3,78,-13,142,-37,205xm784,-1237v-69,8,-142,9,-209,0v4,-79,10,-143,37,-205v64,-11,144,-10,209,0v-6,77,-17,138,-37,205","w":583},"\u00f0":{"d":"696,-997v126,-1,228,59,279,135v-5,-145,-49,-261,-119,-340r-211,119v-28,-23,-53,-69,-59,-111r166,-94v-60,-34,-128,-53,-203,-58v2,-65,15,-113,45,-163v136,7,258,49,338,112r205,-112v29,24,53,67,61,110r-170,94v198,233,177,801,12,1061v-49,77,-110,142,-187,193v-77,51,-172,76,-284,76v-260,-2,-391,-149,-391,-406v0,-263,114,-462,292,-561v65,-37,140,-55,226,-55xm385,-387v0,151,54,253,209,252v119,-1,197,-68,250,-141v51,-72,88,-175,88,-287v0,-166,-65,-277,-227,-277v-124,0,-197,74,-246,156v-46,77,-74,187,-74,297","w":1157},"\u00f1":{"d":"946,-748v2,-102,-47,-151,-139,-151v-97,0,-159,63,-209,133v-69,97,-118,231,-145,383r-68,383v-62,10,-142,11,-203,0r109,-608v24,-133,46,-238,49,-365v0,-38,0,-48,-6,-80v57,-10,133,-11,190,0v16,70,6,171,-8,236v50,-102,141,-189,253,-233v40,-16,83,-25,128,-25v169,1,262,91,260,268v0,45,-7,101,-14,141r-117,666v-62,10,-142,11,-203,0r111,-631v7,-37,12,-79,12,-117xm514,-1241v-21,-24,-54,-71,-59,-111v48,-49,119,-103,213,-102v117,0,171,72,286,72v66,0,88,-18,134,-56v20,25,53,74,57,115v-49,44,-124,98,-215,98v-117,0,-170,-73,-283,-73v-67,0,-86,23,-133,57","w":1177},"\u00f2":{"d":"766,-1075v257,-2,385,150,385,405v0,289,-128,517,-323,630v-74,43,-162,65,-263,65v-254,1,-387,-150,-383,-404v4,-288,130,-515,324,-629v74,-43,160,-67,260,-67xm389,-377v-1,145,60,240,197,240v139,0,223,-90,276,-185v51,-90,83,-221,84,-348v1,-146,-63,-239,-201,-239v-140,0,-221,91,-274,186v-51,90,-80,220,-82,346xm563,-1477v80,-11,180,-10,260,0r189,260v-62,11,-145,13,-205,0","w":1140},"\u00f3":{"d":"766,-1075v257,-2,385,150,385,405v0,289,-128,517,-323,630v-74,43,-162,65,-263,65v-254,1,-387,-150,-383,-404v4,-288,130,-515,324,-629v74,-43,160,-67,260,-67xm389,-377v-1,145,60,240,197,240v139,0,223,-90,276,-185v51,-90,83,-221,84,-348v1,-146,-63,-239,-201,-239v-140,0,-221,91,-274,186v-51,90,-80,220,-82,346xm823,-1477v82,-10,179,-11,260,0r-254,260v-61,11,-143,13,-205,0","w":1140},"\u00f4":{"d":"766,-1075v257,-2,385,150,385,405v0,289,-128,517,-323,630v-74,43,-162,65,-263,65v-254,1,-387,-150,-383,-404v4,-288,130,-515,324,-629v74,-43,160,-67,260,-67xm389,-377v-1,145,60,240,197,240v139,0,223,-90,276,-185v51,-90,83,-221,84,-348v1,-146,-63,-239,-201,-239v-140,0,-221,91,-274,186v-51,90,-80,220,-82,346xm1104,-1217v-56,12,-141,12,-199,0r-84,-161r-143,161v-65,10,-157,14,-220,0r254,-260v72,-10,170,-12,240,2","w":1140},"\u00f5":{"d":"766,-1075v257,-2,385,150,385,405v0,289,-128,517,-323,630v-74,43,-162,65,-263,65v-254,1,-387,-150,-383,-404v4,-288,130,-515,324,-629v74,-43,160,-67,260,-67xm389,-377v-1,145,60,240,197,240v139,0,223,-90,276,-185v51,-90,83,-221,84,-348v1,-146,-63,-239,-201,-239v-140,0,-221,91,-274,186v-51,90,-80,220,-82,346xm500,-1241v-21,-24,-54,-71,-59,-111v48,-49,119,-103,213,-102v117,0,171,72,286,72v66,0,88,-18,134,-56v20,25,53,74,57,115v-49,44,-124,98,-215,98v-117,0,-170,-73,-283,-73v-67,0,-86,23,-133,57","w":1140},"\u00f6":{"d":"766,-1075v257,-2,385,150,385,405v0,289,-128,517,-323,630v-74,43,-162,65,-263,65v-254,1,-387,-150,-383,-404v4,-288,130,-515,324,-629v74,-43,160,-67,260,-67xm389,-377v-1,145,60,240,197,240v139,0,223,-90,276,-185v51,-90,83,-221,84,-348v1,-146,-63,-239,-201,-239v-140,0,-221,91,-274,186v-51,90,-80,220,-82,346xm684,-1237v-69,8,-142,9,-209,0v3,-77,14,-142,37,-205v66,-10,144,-11,209,0v-3,78,-13,142,-37,205xm1102,-1237v-69,8,-142,9,-209,0v4,-79,10,-143,37,-205v64,-11,144,-10,209,0v-6,77,-17,138,-37,205","w":1140},"\u00f7":{"d":"674,-215v-76,0,-126,-57,-127,-125v-2,-86,72,-156,158,-156v79,0,126,49,126,129v0,80,-71,152,-157,152xm797,-954v-76,0,-126,-59,-127,-127v-2,-85,72,-156,157,-156v79,0,127,49,127,129v0,80,-71,154,-157,154xm311,-629v0,-65,16,-134,33,-186r866,0v0,65,-12,137,-32,186r-867,0"},"\u00f8":{"d":"826,-40v-129,79,-366,87,-490,7v-29,44,-55,80,-133,80v-30,0,-54,-2,-72,-6r123,-150v-90,-119,-91,-333,-38,-505v52,-168,149,-308,290,-394v131,-80,357,-93,487,-8r56,-69v33,-9,110,-9,145,0r-119,145v92,122,93,334,41,509v-50,168,-151,306,-290,391xm457,-180v73,66,216,48,291,-10v123,-95,191,-274,196,-478v0,-35,-6,-64,-14,-90xm870,-866v-73,-66,-216,-49,-290,10v-121,96,-189,276,-193,481v0,29,3,58,10,88","w":1140},"\u00f9":{"d":"469,25v-170,-1,-262,-91,-260,-269v0,-45,7,-100,14,-141r117,-666v61,-10,142,-11,203,0r-111,631v-8,44,-12,83,-12,117v-2,102,47,151,139,151v97,0,159,-62,209,-132v69,-97,118,-232,145,-384r68,-383v62,-10,142,-11,203,0r-109,609v-27,158,-59,281,-45,444v-57,10,-132,11,-188,0v-15,-57,-6,-178,8,-235v-50,102,-141,188,-253,233v-40,17,-83,25,-128,25xm489,-1477v80,-11,180,-10,260,0r189,260v-62,11,-145,13,-205,0","w":1163},"\u00fa":{"d":"469,25v-170,-1,-262,-91,-260,-269v0,-45,7,-100,14,-141r117,-666v61,-10,142,-11,203,0r-111,631v-8,44,-12,83,-12,117v-2,102,47,151,139,151v97,0,159,-62,209,-132v69,-97,118,-232,145,-384r68,-383v62,-10,142,-11,203,0r-109,609v-27,158,-59,281,-45,444v-57,10,-132,11,-188,0v-15,-57,-6,-178,8,-235v-50,102,-141,188,-253,233v-40,17,-83,25,-128,25xm864,-1477v82,-10,179,-11,260,0r-254,260v-61,11,-143,13,-205,0","w":1163},"\u00fb":{"d":"469,25v-170,-1,-262,-91,-260,-269v0,-45,7,-100,14,-141r117,-666v61,-10,142,-11,203,0r-111,631v-8,44,-12,83,-12,117v-2,102,47,151,139,151v97,0,159,-62,209,-132v69,-97,118,-232,145,-384r68,-383v62,-10,142,-11,203,0r-109,609v-27,158,-59,281,-45,444v-57,10,-132,11,-188,0v-15,-57,-6,-178,8,-235v-50,102,-141,188,-253,233v-40,17,-83,25,-128,25xm1100,-1217v-56,12,-141,12,-199,0r-84,-161r-143,161v-65,10,-157,14,-220,0r254,-260v72,-10,170,-12,240,2","w":1163},"\u00fc":{"d":"469,25v-170,-1,-262,-91,-260,-269v0,-45,7,-100,14,-141r117,-666v61,-10,142,-11,203,0r-111,631v-8,44,-12,83,-12,117v-2,102,47,151,139,151v97,0,159,-62,209,-132v69,-97,118,-232,145,-384r68,-383v62,-10,142,-11,203,0r-109,609v-27,158,-59,281,-45,444v-57,10,-132,11,-188,0v-15,-57,-6,-178,8,-235v-50,102,-141,188,-253,233v-40,17,-83,25,-128,25xm684,-1237v-69,8,-142,9,-209,0v3,-77,14,-142,37,-205v66,-10,144,-11,209,0v-3,78,-13,142,-37,205xm1102,-1237v-69,8,-142,9,-209,0v4,-79,10,-143,37,-205v64,-11,144,-10,209,0v-6,77,-17,138,-37,205","w":1163},"\u00fd":{"d":"215,-1051v68,-11,146,-10,213,0r104,949r117,-258r93,-215r76,-181v31,-85,79,-161,87,-266r-2,-29v63,-10,143,-5,215,-6v12,95,-29,182,-63,254r-198,425r-236,501v-63,135,-124,233,-217,309v-61,50,-121,68,-220,70v-48,0,-94,-7,-139,-21v3,-62,16,-119,45,-157v44,14,108,25,158,7v66,-23,102,-78,145,-147v27,-45,57,-106,90,-184v-39,3,-90,3,-131,0xm750,-1477v82,-10,179,-11,260,0r-254,260v-61,11,-143,13,-205,0","w":1024},"\u00fe":{"d":"912,-442v59,-163,58,-462,-146,-455v-149,5,-217,102,-268,220v-22,53,-39,117,-52,194r-55,325v94,22,209,15,290,-23v108,-51,189,-142,231,-261xm989,-192v-128,146,-361,250,-631,206r-79,469v-62,8,-142,9,-203,0r135,-769r137,-769v27,-158,59,-281,45,-444v59,-10,139,-11,201,-2v20,93,2,202,-16,299r-60,325v37,-56,82,-103,136,-141v54,-38,123,-57,206,-57v203,2,307,158,305,379v-2,212,-70,383,-176,504","w":1159},"\u00ff":{"d":"215,-1051v68,-11,146,-10,213,0r104,949r117,-258r93,-215r76,-181v31,-85,79,-161,87,-266r-2,-29v63,-10,143,-5,215,-6v12,95,-29,182,-63,254r-198,425r-236,501v-63,135,-124,233,-217,309v-61,50,-121,68,-220,70v-48,0,-94,-7,-139,-21v3,-62,16,-119,45,-157v44,14,108,25,158,7v66,-23,102,-78,145,-147v27,-45,57,-106,90,-184v-39,3,-90,3,-131,0xm586,-1237v-69,8,-142,9,-209,0v3,-77,14,-142,37,-205v66,-10,144,-11,209,0v-3,78,-13,142,-37,205xm1004,-1237v-69,8,-142,9,-209,0v4,-79,10,-143,37,-205v64,-11,144,-10,209,0v-6,77,-17,138,-37,205","w":1024},"\u0152":{"d":"1780,-868v0,66,-14,129,-33,184r-455,0r-88,502r584,0r-4,49v0,47,-15,95,-27,133r-803,0v-136,29,-334,38,-453,-14v-180,-79,-274,-251,-274,-504v0,-414,154,-739,422,-897v93,-55,200,-82,322,-82v88,0,176,24,250,24r778,0v-1,67,-11,130,-33,185r-567,0r-74,420r455,0xm1188,-1290v-66,-22,-133,-33,-223,-33v-82,0,-155,23,-219,67v-189,130,-297,383,-297,695v0,134,23,237,69,309v46,72,125,107,234,107v99,0,177,-12,241,-39","w":1845},"\u0153":{"d":"389,-375v-1,145,62,238,197,238v139,0,223,-90,276,-185v51,-89,82,-221,84,-346v1,-146,-64,-240,-201,-241v-140,0,-221,91,-274,186v-51,90,-80,222,-82,348xm1597,-803v0,-70,-53,-113,-129,-112v-99,2,-168,49,-219,105v-56,62,-98,149,-121,241v144,-24,304,-45,395,-110v44,-31,74,-62,74,-124xm760,-1075v178,0,288,101,327,233v48,-65,109,-121,181,-166v98,-62,241,-90,366,-48v96,32,164,103,164,225v0,135,-74,214,-166,270v-133,82,-327,116,-520,143v6,169,88,277,264,277v107,0,213,-32,289,-62v26,38,35,100,35,160v-94,40,-224,67,-354,68v-201,2,-318,-81,-369,-228v-81,119,-218,228,-422,228v-245,0,-378,-152,-373,-404v5,-287,130,-514,322,-629v72,-44,157,-67,256,-67","w":1751},"\u0178":{"d":"1153,-1593v-67,10,-149,11,-215,0v0,-68,12,-137,35,-207v67,-10,149,-11,215,0v-3,69,-14,138,-35,207xm715,-1593v-68,10,-148,11,-215,0v0,-71,12,-140,35,-207v68,-10,149,-11,215,0v0,71,-12,140,-35,207xm272,-1473v68,-7,156,-10,224,0r196,723r422,-723v68,-7,158,-10,225,0r-579,943r-92,530v-68,8,-147,8,-211,0r96,-537","w":1124},"\u02c6":{"d":"1049,-1217v-56,12,-141,12,-199,0r-84,-161r-143,161v-65,10,-157,14,-220,0r254,-260v72,-10,170,-12,240,2","w":1021},"\u02dc":{"d":"434,-1241v-21,-24,-54,-71,-59,-111v48,-49,119,-103,213,-102v117,0,171,72,286,72v66,0,88,-18,134,-56v20,25,53,74,57,115v-49,44,-124,98,-215,98v-117,0,-170,-73,-283,-73v-67,0,-86,23,-133,57","w":1024},"\u2013":{"d":"86,-481v0,-77,9,-127,31,-187r1024,0v0,63,-11,125,-33,187r-1022,0","w":1024},"\u2014":{"d":"2159,-668v0,63,-11,125,-33,187r-2046,0v0,-64,10,-126,31,-187r2048,0","w":2048},"\u2018":{"d":"289,-1470v63,-11,136,-12,203,-3r122,459v-57,11,-137,10,-196,0","w":483},"\u2019":{"d":"459,-1470v61,-11,142,-13,203,0r-203,456v-62,11,-139,12,-199,0","w":481},"\u201a":{"d":"217,-223v61,-14,143,-14,203,0r-201,452v-60,10,-140,13,-196,0","w":483},"\u201c":{"d":"674,-1470v63,-11,136,-12,203,-3r122,459v-57,11,-137,10,-196,0xm289,-1470v63,-11,136,-12,203,-3r122,459v-57,11,-137,10,-196,0","w":868},"\u201d":{"d":"844,-1470v61,-11,142,-13,203,0r-203,456v-62,11,-139,12,-199,0xm459,-1470v61,-11,142,-13,203,0r-203,456v-62,11,-139,12,-199,0","w":866},"\u201e":{"d":"602,-223v61,-14,143,-14,203,0r-201,452v-60,10,-140,13,-196,0xm217,-223v61,-14,143,-14,203,0r-201,452v-60,10,-140,13,-196,0","w":868},"\u2022":{"d":"290,-610v-27,-63,-28,-141,0,-204v41,-90,119,-161,245,-161v122,0,202,72,241,161v28,63,27,141,0,204v-39,90,-118,161,-241,161v-125,0,-206,-70,-245,-161","w":833},"\u2026":{"d":"858,0v-74,10,-156,11,-229,0v0,-84,19,-157,39,-227v71,-11,157,-12,227,0v0,87,-17,154,-37,227xm1362,0v-74,10,-156,11,-229,0v0,-84,19,-157,39,-227v71,-11,157,-12,227,0v0,87,-17,154,-37,227xm354,0v-74,10,-156,11,-229,0v0,-84,19,-157,39,-227v71,-11,157,-12,227,0v0,87,-17,154,-37,227","w":1488},"\u2039":{"d":"672,-92v-68,10,-150,11,-217,0r-279,-463r428,-444v71,-12,164,-12,236,0r-432,456","w":712},"\u203a":{"d":"262,-999v67,-10,151,-14,217,0r279,467r-430,440v-71,11,-162,10,-234,0r436,-467","w":755},"\u20ac":{"d":"150,-483v1,-54,6,-101,26,-142r143,0v4,-65,12,-129,25,-190r-135,0v0,-51,7,-102,24,-141r150,0v80,-225,224,-397,451,-476v160,-56,427,-47,559,17v-15,73,-30,110,-64,170v-111,-48,-291,-61,-419,-19v-151,49,-247,161,-302,308r535,0v8,53,-7,104,-23,141r-555,0v-14,61,-16,124,-22,190r544,0v0,50,-9,104,-26,142r-514,0v20,209,113,323,338,323v112,0,194,-21,276,-57v26,49,41,107,45,172v-97,43,-224,68,-358,70v-342,5,-512,-190,-529,-508r-169,0"},"\u2122":{"d":"633,-629v-50,10,-109,11,-158,0r0,-669r-231,0v-8,-53,-8,-95,0,-150r618,0v10,46,11,104,0,150r-229,0r0,669xm1780,-629v-52,9,-107,13,-158,0r-31,-522r-176,367v-41,9,-67,7,-117,0r-161,-361r-27,516v-56,11,-101,10,-156,0r41,-819v57,-5,115,-8,172,0r203,449r201,-449v15,-1,29,-3,42,-4v41,-5,87,0,126,4","w":1691}}});
