/*!
 * The following copyright notice may not be removed under any circumstances.
 * 
 * Manufacturer:
 * Dalton Maag Ltd.
 */
Cufon.registerFont({"w":1228,"face":{"font-family":"Aller","font-weight":700,"font-style":"italic","font-stretch":"normal","units-per-em":"2048","panose-1":"2 0 8 3 4 0 0 9 0 4","ascent":"1638","descent":"-410","x-height":"23","bbox":"-238 -1917 2157.93 500.152","underline-thickness":"102","underline-position":"-102","slope":"-12","unicode-range":"U+0020-U+2122"},"glyphs":{" ":{"w":428},"!":{"d":"397,-1473v98,-17,219,-17,316,0r-201,1002v-89,15,-186,17,-276,0xm440,0v-93,19,-207,19,-299,0v0,-118,22,-204,52,-299v93,-19,207,-19,299,0v0,118,-22,204,-52,299","w":589},"\"":{"d":"348,-1470v80,-17,185,-19,264,0r-100,573v-84,13,-182,14,-264,0xm737,-1470v80,-17,185,-19,264,0r-100,573v-84,13,-182,14,-264,0","w":874},"#":{"d":"1440,-637v-1,82,-16,147,-37,217r-232,0r-92,359v-80,13,-172,14,-250,0r93,-359r-248,0r-92,359v-79,13,-174,14,-252,0r92,-359r-232,0v0,-82,18,-147,39,-217r248,0r66,-248r-230,0v0,-77,13,-150,39,-219r248,0r80,-309v77,-13,172,-14,248,0r-80,309r250,0r80,-309v78,-13,172,-14,249,0r-79,309r215,0v-7,82,-14,146,-39,219r-232,0r-65,248r213,0xm977,-637r65,-248r-249,0r-66,248r250,0","w":1503},"$":{"d":"1180,-1176v-96,-49,-224,-78,-372,-59v-58,9,-104,32,-132,71v-15,20,-23,48,-23,81v0,39,17,74,51,103v127,113,361,191,434,366v35,85,30,202,-2,292v-65,177,-215,287,-423,328r-39,236v-61,16,-119,16,-178,0r39,-217v-156,0,-262,-20,-379,-72v14,-97,25,-174,63,-258v163,89,500,117,597,-43v27,-45,30,-114,4,-160v-45,-77,-139,-120,-216,-168v-109,-68,-206,-131,-248,-257v-11,-33,-16,-72,-16,-116v0,-119,41,-216,122,-291v81,-75,193,-120,335,-135r32,-182v59,-16,121,-16,179,0r-33,178v113,9,189,32,280,68v-14,87,-30,168,-75,235"},"%":{"d":"1606,25v-214,-2,-322,-126,-322,-334v0,-234,101,-407,260,-492v90,-48,246,-62,346,-19v112,49,172,157,172,312v0,239,-106,408,-268,491v-56,28,-119,42,-188,42xm1542,-416v-17,110,-17,246,90,246v77,0,114,-63,140,-120v25,-56,40,-136,40,-208v0,-86,-21,-151,-100,-151v-77,0,-118,63,-142,123v-14,35,-23,72,-28,110xm549,-602v-215,-1,-322,-125,-322,-334v0,-233,101,-406,260,-492v91,-49,245,-62,345,-18v112,49,174,156,174,311v0,239,-106,408,-269,491v-56,28,-119,42,-188,42xm486,-1042v-18,110,-18,245,89,245v77,0,115,-61,141,-119v25,-56,40,-136,40,-208v0,-86,-21,-152,-101,-152v-77,0,-116,65,-141,124v-14,35,-22,72,-28,110xm1501,-1452v96,-16,183,-16,285,0r-991,1448v-99,16,-184,16,-283,0","w":2062},"&":{"d":"655,-1094v2,88,55,140,156,140r338,0v13,-59,18,-131,18,-195v61,-44,179,-62,277,-63v22,78,2,183,-14,258r163,0v-6,88,-17,144,-39,221r-161,0r-43,250v-60,340,-282,509,-674,508v-216,-1,-378,-69,-453,-215v-47,-92,-50,-243,-10,-346v54,-138,157,-241,289,-295v-72,-45,-137,-131,-137,-248v0,-146,71,-245,157,-311v84,-65,205,-107,344,-107v96,0,199,13,269,45v-8,91,-22,150,-64,217v-106,-44,-261,-57,-349,5v-39,27,-68,71,-67,136xm496,-418v0,126,92,194,225,193v230,-2,325,-138,360,-334r29,-174v-155,5,-346,-18,-451,37v-92,48,-164,142,-163,278","w":1515},"'":{"d":"348,-1470v80,-17,185,-19,264,0r-100,573v-84,13,-182,14,-264,0","w":485},"(":{"d":"631,340v-80,18,-208,20,-285,0v-61,-168,-101,-381,-100,-614v0,-579,182,-993,432,-1313v77,-21,213,-20,293,0v-141,195,-247,403,-319,621v-72,218,-109,447,-109,687v0,235,32,452,88,619","w":755},")":{"d":"330,-1587v80,-19,207,-21,284,0v62,167,101,381,101,614v0,579,-183,993,-432,1313v-77,20,-213,19,-293,0v141,-195,248,-402,320,-620v72,-218,108,-448,108,-689v0,-232,-33,-451,-88,-618","w":786},"*":{"d":"682,-1470v50,-11,112,-12,162,0r-27,278v-67,9,-141,11,-207,0xm256,-1102v14,-51,36,-100,66,-137r266,68v-23,69,-56,125,-94,182xm678,-836v55,-47,103,-80,170,-112r102,250v-43,40,-76,57,-131,86xm1110,-1237v14,47,26,87,25,150r-273,112v-30,-49,-32,-120,-26,-194xm498,-954v45,29,110,83,145,127r-209,211v-39,-21,-90,-67,-115,-103","w":1011},"+":{"d":"1206,-848v5,92,-17,174,-43,248r-317,0r-64,362v-84,16,-177,18,-256,0r64,-362r-318,0v0,-79,14,-162,43,-248r318,0r65,-362v80,-16,176,-18,256,0r-65,362r317,0"},",":{"d":"258,-293v82,-23,201,-22,283,0r-234,522v-83,17,-188,19,-270,0","w":593},"-":{"d":"207,-475v1,-95,19,-172,43,-252r512,0v3,92,-19,179,-43,252r-512,0","w":749},".":{"d":"444,0v-93,19,-207,19,-299,0v0,-118,22,-204,52,-299v93,-19,207,-19,299,0v0,118,-22,204,-52,299","w":589},"\/":{"d":"760,-1470v99,-18,198,-21,291,0r-732,1470v-103,15,-190,17,-288,0","w":823},"0":{"d":"834,-1356v312,3,448,191,448,504v0,319,-112,573,-286,732v-91,83,-213,144,-378,145v-307,2,-446,-194,-446,-498v0,-232,66,-427,158,-579v70,-115,166,-210,294,-264v62,-27,132,-40,210,-40xm469,-463v-2,145,44,242,172,242v93,0,155,-58,197,-119v89,-129,141,-317,141,-526v0,-160,-56,-240,-168,-240v-63,0,-116,22,-159,68v-118,122,-180,349,-183,575"},"1":{"d":"1116,-246v-1,93,-17,165,-43,246r-844,0v0,-82,14,-164,43,-246r277,0r123,-704r-244,96v-35,-68,-63,-134,-72,-225r611,-260r67,0r-192,1093r274,0"},"2":{"d":"1096,-250v-1,96,-17,171,-43,250r-951,0r-10,-29r373,-395v26,-29,61,-64,103,-106v82,-82,172,-180,230,-284v29,-51,44,-100,44,-147v0,-95,-88,-142,-189,-141v-115,1,-176,32,-266,66v-36,-65,-64,-148,-68,-240v135,-48,237,-80,410,-80v191,0,331,64,393,194v43,91,38,223,0,320v-71,180,-210,312,-336,443r-143,149r453,0"},"3":{"d":"590,-575v-58,0,-111,7,-160,20r-18,-39r372,-491r-446,0v1,-94,16,-173,43,-250r838,0r18,35r-426,544v202,17,307,150,307,359v0,184,-91,307,-200,394v-159,128,-478,179,-733,107v-31,-9,-63,-20,-97,-32v15,-88,38,-165,74,-240v150,60,409,87,538,-11v59,-45,107,-109,107,-210v0,-133,-86,-185,-217,-186"},"4":{"d":"1235,-414v-1,91,-17,174,-43,248r-139,0r-52,287v-23,3,-46,5,-69,7v-73,7,-151,1,-217,-7r51,-287r-676,0r-12,-29r717,-1171v101,12,184,40,243,98r-516,854r287,0r65,-368v23,-3,47,-6,70,-8v74,-8,151,0,217,8r-65,368r139,0"},"5":{"d":"571,-567v-97,1,-153,22,-231,55r-31,-31r168,-792r715,0v-1,95,-20,169,-43,250r-449,0r-65,303v87,-19,189,-18,265,14v127,52,220,159,220,330v0,295,-187,455,-416,534v-186,64,-429,48,-598,-22v15,-87,37,-175,72,-248v116,45,253,77,398,42v85,-20,154,-68,195,-134v21,-34,32,-75,32,-123v-2,-125,-95,-179,-232,-178"},"6":{"d":"616,25v-290,-1,-432,-169,-430,-469v2,-290,106,-543,252,-714v159,-187,392,-335,733,-327v21,72,20,164,5,242v-316,1,-518,125,-601,364v60,-56,161,-115,293,-112v173,5,281,83,331,213v46,123,31,290,-16,412v-60,154,-168,274,-317,340v-75,34,-158,51,-250,51xm489,-418v-1,121,52,195,164,195v97,0,161,-54,203,-115v42,-59,71,-145,72,-237v2,-122,-68,-176,-183,-177v-94,-1,-153,47,-193,106v-39,57,-62,138,-63,228"},"7":{"d":"322,-1085v1,-84,15,-187,43,-250r974,0r7,24r-830,1465v-109,-27,-192,-65,-266,-125r641,-1114r-569,0"},"8":{"d":"866,-1470v218,-2,390,106,389,317v0,79,-22,150,-65,212v-43,62,-101,117,-176,165v51,34,93,74,127,122v69,94,63,287,4,396v-92,170,-273,283,-524,283v-190,0,-338,-59,-407,-183v-24,-42,-36,-94,-36,-155v0,-101,30,-191,88,-267v58,-76,135,-144,232,-204v-65,-49,-133,-139,-131,-256v2,-137,70,-240,151,-308v82,-70,205,-121,348,-122xm485,-367v0,100,64,154,168,152v111,-2,183,-56,219,-136v22,-49,29,-121,4,-171v-34,-69,-101,-113,-171,-148v-86,43,-162,110,-201,202v-13,31,-19,64,-19,101xm846,-1241v-111,0,-201,75,-199,184v2,79,56,122,105,156v18,11,34,20,49,27v85,-53,176,-108,176,-240v0,-75,-51,-127,-131,-127"},"9":{"d":"801,-1356v292,1,442,162,440,463v-2,291,-88,524,-218,699v-104,142,-244,250,-443,300v-103,26,-219,39,-349,39v-15,-81,-17,-168,0,-249v328,8,553,-105,631,-363v-68,57,-167,115,-311,111v-107,-3,-186,-46,-242,-107v-60,-65,-102,-160,-100,-282v4,-282,146,-469,349,-561v73,-33,154,-50,243,-50xm508,-768v-2,120,63,176,172,176v141,0,216,-95,252,-206v12,-39,18,-79,18,-120v2,-119,-57,-189,-166,-190v-97,-1,-162,46,-206,104v-44,58,-69,140,-70,236"},":":{"d":"444,0v-93,19,-207,19,-299,0v0,-118,22,-204,52,-299v93,-19,207,-19,299,0v0,118,-22,204,-52,299xm577,-758v-93,19,-207,19,-299,0v0,-118,22,-204,52,-299v93,-19,207,-19,299,0v0,118,-22,204,-52,299","w":589},";":{"d":"219,-293v82,-23,201,-22,283,0r-234,522v-83,17,-188,19,-270,0xm600,-758v-93,19,-207,19,-299,0v0,-118,22,-204,52,-299v93,-19,207,-19,299,0v0,118,-22,204,-52,299","w":593},"<":{"d":"1233,-1182v-1,100,-16,202,-45,281r-656,211r578,229v3,96,-17,185,-49,254r-789,-336v-4,-104,14,-206,54,-305"},"=":{"d":"250,-377v-5,-92,17,-174,43,-248r862,0v6,83,-17,192,-43,248r-862,0xm324,-799v1,-96,15,-171,45,-248r862,0v-1,95,-16,171,-45,248r-862,0"},">":{"d":"926,-711r-578,-217v-1,-96,15,-177,49,-254r789,336v2,114,-14,205,-53,305r-908,334v1,-99,16,-202,45,-280"},"?":{"d":"276,-1436v106,-45,227,-61,355,-61v141,0,250,29,327,88v77,59,115,145,115,258v0,203,-112,331,-237,421v-48,33,-100,60,-156,81r-33,186v-90,15,-184,18,-268,0r61,-352v122,-22,236,-80,294,-172v22,-35,34,-74,34,-121v0,-100,-85,-144,-190,-143v-103,1,-150,16,-240,47v-34,-67,-55,-141,-62,-232xm580,0v-92,18,-208,19,-299,0v0,-118,20,-204,51,-299v93,-19,207,-19,299,0v0,117,-22,204,-51,299","w":968},"@":{"d":"1284,-182v-87,42,-165,80,-299,78v-153,-1,-247,-72,-291,-186v-46,-120,-25,-292,20,-407v60,-151,169,-265,311,-331v165,-76,416,-49,574,8r-131,694v13,11,36,17,68,17v116,0,188,-80,234,-162v48,-85,80,-206,81,-330v1,-324,-213,-485,-546,-485v-278,0,-484,106,-622,252v-129,136,-220,337,-220,579v0,283,127,454,341,521v175,55,426,34,576,-25v12,30,24,61,35,93v11,32,21,64,29,95v-115,57,-284,78,-457,78v-359,0,-603,-156,-715,-417v-86,-204,-77,-481,6,-704v98,-265,288,-467,552,-584v211,-94,543,-130,797,-53v187,57,326,174,405,344v72,154,81,379,19,557v-58,165,-160,299,-301,382v-132,78,-366,92,-466,-14xm940,-489v-2,111,47,172,145,174v58,1,89,-10,136,-23r88,-508v-69,-18,-150,-12,-204,20v-101,61,-163,179,-165,337","w":2082},"A":{"d":"739,-1473v108,-15,232,-17,342,0r181,1473v-107,16,-195,16,-304,0r-26,-297r-449,0r-131,297v-96,16,-207,16,-301,0xm909,-543r-53,-590r-262,590r315,0","w":1296},"B":{"d":"961,-786v147,23,250,147,251,305v1,193,-83,313,-204,391v-196,126,-545,134,-846,90r258,-1473v210,-33,518,-44,674,45v89,51,155,133,153,269v-3,155,-88,263,-184,329v-34,23,-68,37,-102,44xm911,-485v0,-130,-93,-164,-225,-166r-113,0r-75,426v109,18,231,4,302,-43v65,-41,111,-107,111,-217xm952,-1130v3,-136,-141,-157,-270,-138r-70,391v69,-1,130,5,185,-15v94,-33,153,-112,155,-238","w":1196},"C":{"d":"532,-567v-3,241,146,347,394,329v68,-5,124,-23,180,-41v30,66,47,161,53,248v-94,39,-226,56,-352,56v-295,0,-481,-120,-559,-335v-66,-183,-39,-425,22,-604v78,-228,223,-406,426,-508v141,-71,325,-89,507,-64v50,7,102,23,155,48v-19,96,-43,159,-86,240v-141,-61,-333,-58,-456,16v-184,111,-279,332,-284,615","w":1173},"D":{"d":"420,-1470v55,-7,111,-12,168,-18v159,-16,338,-11,466,32v237,80,396,252,396,559v0,459,-222,734,-562,861v-205,76,-491,70,-726,36xm1128,-868v0,-251,-131,-389,-396,-370v-15,1,-33,2,-52,5r-176,995v105,15,231,4,314,-40v191,-101,310,-300,310,-590","w":1404},"E":{"d":"1026,-254v9,97,-21,175,-43,254r-821,0r258,-1473r807,0v8,97,-17,179,-45,254r-508,0r-56,320r404,0v0,82,-15,167,-45,256r-404,0r-69,389r522,0","w":1085},"F":{"d":"1018,-872v0,100,-19,173,-45,256r-404,0r-108,616v-109,16,-196,16,-299,0r258,-1473r807,0v8,97,-17,179,-45,254r-508,0r-60,347r404,0","w":1038},"G":{"d":"535,-567v-4,246,141,346,381,326v23,-2,40,-4,53,-7r90,-514v93,-19,206,-19,297,0r-129,729v-108,39,-275,58,-414,58v-296,0,-483,-127,-564,-341v-69,-182,-40,-419,21,-598v77,-228,223,-406,426,-508v142,-71,326,-90,508,-63v51,8,102,24,154,47v-19,96,-43,159,-86,240v-135,-62,-337,-57,-456,16v-182,111,-276,332,-281,615","w":1349},"H":{"d":"420,-1470v101,-18,205,-21,301,0r-100,575r444,0r100,-575v93,-19,210,-22,301,0r-258,1470v-105,16,-199,16,-301,0r111,-637r-445,0r-110,637v-109,16,-198,16,-301,0","w":1366},"I":{"d":"420,-1470v101,-18,205,-21,301,0r-258,1470v-109,16,-198,16,-301,0","w":620},"J":{"d":"119,-250v76,20,207,35,269,-12v48,-36,73,-89,87,-172r137,-785r-231,0v6,-91,18,-182,45,-254r530,0r-190,1082v-27,150,-83,257,-167,321v-84,64,-194,95,-329,95v-70,0,-141,-12,-198,-27v4,-90,9,-180,47,-248","w":854},"K":{"d":"1212,0v-104,16,-212,17,-315,0r-279,-741r508,-732v106,-21,223,-13,330,0r-524,732xm422,-1473v94,-17,205,-17,299,0r-260,1473v-104,16,-200,16,-299,0","w":1230},"L":{"d":"420,-1473v102,-18,196,-19,295,0r-213,1215r483,0v-1,100,-22,180,-45,258r-778,0","w":1001},"M":{"d":"469,-1470v105,-18,207,-21,305,0r170,821r477,-821v86,-19,205,-21,291,0r-192,1470v-104,15,-191,17,-285,0r137,-965r-389,658v-21,3,-41,5,-61,7v-58,5,-119,4,-170,-7r-134,-666r-198,973v-96,16,-168,16,-262,0","w":1660},"N":{"d":"420,-1473v80,-17,168,-15,250,0r362,936r162,-936v89,-14,187,-19,270,0r-260,1473v-95,16,-155,16,-246,0r-364,-934r-162,934v-85,15,-184,17,-270,0","w":1363},"O":{"d":"965,-1497v349,4,508,208,508,559v0,364,-127,641,-330,813v-105,89,-244,149,-430,150v-347,2,-508,-207,-508,-549v0,-266,74,-486,183,-654v80,-125,191,-222,338,-278v72,-27,152,-41,239,-41xm739,-225v117,0,196,-61,251,-131v110,-141,169,-356,169,-598v0,-191,-74,-287,-221,-287v-118,0,-196,60,-252,130v-113,140,-170,358,-170,601v0,190,74,285,223,285","w":1425},"P":{"d":"422,-1477r161,-15v25,-2,50,-3,75,-4v169,-6,333,11,444,78v106,64,187,172,184,347v-5,293,-155,473,-377,557v-102,39,-233,53,-366,41r-82,473v-97,14,-202,13,-299,0xm973,-1051v0,-164,-128,-213,-293,-192r-92,520v48,8,141,8,192,-11v119,-45,193,-146,193,-317","w":1189},"Q":{"d":"872,274v7,-82,25,-176,62,-237r487,78v-7,86,-32,175,-59,241xm965,-1497v349,4,508,208,508,559v0,364,-127,641,-330,813v-105,89,-244,149,-430,150v-347,2,-508,-207,-508,-549v0,-266,74,-486,183,-654v80,-125,191,-222,338,-278v72,-27,152,-41,239,-41xm739,-225v117,0,196,-61,251,-131v110,-141,169,-356,169,-598v0,-191,-74,-287,-221,-287v-118,0,-196,60,-252,130v-113,140,-170,358,-170,601v0,190,74,285,223,285","w":1425},"R":{"d":"973,-1061v0,-158,-140,-205,-295,-182r-219,1243v-27,3,-53,5,-77,7v-74,6,-151,3,-220,-7r258,-1470v227,-42,523,-44,686,52v101,58,172,155,172,314v0,129,-44,228,-97,306v-54,81,-130,139,-210,186r219,612v-107,15,-215,17,-316,0r-227,-684r35,-21v53,-31,126,-64,176,-111v59,-56,115,-130,115,-245","w":1206},"S":{"d":"1108,-1192v-95,-50,-215,-79,-364,-59v-58,8,-103,32,-132,71v-15,20,-22,47,-22,80v0,47,17,85,50,115v132,118,356,179,432,353v43,99,28,229,-12,330v-55,138,-166,233,-316,284v-202,69,-465,53,-666,-29v13,-94,46,-173,82,-254v121,44,281,95,432,55v70,-19,127,-56,158,-112v25,-45,32,-121,4,-168v-42,-70,-123,-104,-193,-148v-86,-54,-157,-106,-208,-161v-51,-55,-77,-120,-77,-195v3,-242,134,-374,323,-436v114,-37,299,-38,423,-14v55,11,112,27,172,50v-14,86,-42,171,-86,238","w":1087},"T":{"d":"1315,-1473v-1,97,-19,174,-45,254r-348,0r-213,1219v-109,16,-198,16,-301,0r213,-1219r-349,0v1,-96,19,-175,45,-254r998,0","w":1124},"U":{"d":"682,25v-302,-3,-440,-129,-440,-437v0,-68,7,-146,22,-233r146,-828v93,-17,206,-17,299,0r-134,764v-15,94,-30,175,-30,269v0,138,40,207,176,207v178,0,232,-116,273,-262v17,-59,31,-131,46,-214r134,-764v96,-17,206,-17,301,0r-146,828v-53,294,-129,532,-373,626v-74,29,-166,44,-274,44","w":1368},"V":{"d":"272,-1473v106,-15,208,-17,316,0r94,1158r506,-1158v100,-16,212,-16,313,0r-698,1473v-118,16,-232,16,-346,0","w":1265},"W":{"d":"293,-1473v93,-13,220,-21,311,0r4,1072r424,-1072v89,-16,192,-18,279,0r49,1098r387,-1098v88,-18,205,-15,293,0r-594,1473v-105,16,-210,16,-322,0r-53,-948r-397,948r-72,6v-86,9,-148,8,-235,-6","w":1824},"X":{"d":"1272,0v-108,15,-216,17,-322,-2r-176,-762r354,-709v107,-16,218,-16,324,-2r-379,699xm330,-1475v99,-13,214,-14,309,2r121,709r-371,762v-111,17,-226,19,-336,2r410,-760","w":1288},"Y":{"d":"510,-526r-268,-947v109,-14,213,-19,315,0r158,654r379,-654v99,-14,218,-14,317,0r-600,947r-92,526v-95,16,-207,17,-301,0","w":1153},"Z":{"d":"309,-1219v-1,-101,18,-177,45,-254r951,0r12,25r-782,1194r516,0v2,96,-21,178,-43,254r-951,0r-10,-20r787,-1199r-525,0","w":1095},"[":{"d":"428,-1589r477,0v4,77,-10,154,-41,233r-194,0r-258,1467r194,0v0,75,-14,153,-41,233r-477,0","w":714},"\\":{"d":"256,-1473v102,-16,186,-16,289,0r471,1471v-93,19,-199,19,-291,0","w":1005},"]":{"d":"252,111r258,-1467r-195,0v0,-75,14,-153,41,-233r478,0r-340,1933r-478,0v-4,-77,10,-154,41,-233r195,0","w":702},"^":{"d":"1102,-743v-68,16,-127,15,-201,12v-22,-1,-42,-5,-61,-12r-105,-445r-248,447v-85,14,-188,20,-272,-2r432,-727v92,-15,191,-20,279,0r89,362","w":1095},"_":{"d":"-14,205v-2,-80,12,-138,32,-201r967,0v1,83,-10,133,-35,201r-964,0","w":1009},"`":{"d":"455,-1473v106,-17,247,-15,354,0r182,252v-89,18,-190,15,-274,0","w":1024},"a":{"d":"883,-840v-90,-16,-177,0,-237,43v-120,85,-200,246,-200,437v0,101,34,152,101,151v65,0,126,-40,182,-120v56,-80,97,-192,123,-337xm418,25v-183,2,-273,-131,-271,-314v5,-355,163,-602,410,-727v170,-86,449,-81,637,-20r-100,577v-26,157,-49,297,-41,455v-92,16,-165,16,-260,0v-14,-47,-18,-129,-9,-193v-39,63,-90,115,-151,158v-61,43,-133,64,-215,64","w":1165},"b":{"d":"918,-659v0,-93,-35,-177,-132,-177v-63,0,-117,27,-162,80v-45,53,-77,141,-98,264r-45,263v81,23,187,10,249,-30v116,-76,188,-218,188,-400xm934,-1083v208,3,300,156,297,383v-2,198,-59,372,-161,490v-122,141,-312,235,-585,235v-131,0,-233,-24,-327,-62r188,-1063v29,-185,44,-264,33,-397v93,-14,192,-18,289,0v7,21,10,47,10,78v-3,156,-52,352,-76,504v73,-92,162,-170,332,-168","w":1204},"c":{"d":"659,-209v84,0,125,-13,199,-43v35,58,52,121,51,223v-86,38,-180,53,-301,54v-296,3,-450,-148,-450,-426v0,-295,146,-509,349,-621v139,-76,371,-77,523,-18v-4,85,-30,168,-69,229v-90,-40,-237,-59,-327,-3v-114,71,-174,206,-177,386v-2,140,75,219,202,219","w":942},"d":{"d":"883,-840v-90,-16,-177,0,-237,43v-120,85,-200,246,-200,437v0,101,34,152,101,151v65,0,126,-40,182,-120v56,-80,97,-192,123,-337xm924,-1081v27,-150,49,-267,37,-416v93,-14,191,-18,288,0v23,94,7,179,-14,297r-133,741v-26,157,-49,297,-41,455v-92,16,-165,16,-260,0v-16,-50,-16,-137,-6,-201v-59,94,-146,173,-261,211v-37,12,-75,19,-116,19v-183,2,-273,-131,-271,-314v5,-355,161,-605,410,-727v103,-50,225,-74,367,-65","w":1173},"e":{"d":"995,-47v-144,64,-404,101,-576,41v-166,-57,-261,-186,-261,-404v0,-187,71,-351,164,-462v97,-117,245,-211,448,-211v144,0,246,52,295,149v41,81,28,203,-18,274v-90,138,-270,205,-467,236r-138,23v16,128,81,194,222,194v119,0,186,-29,276,-63v43,51,54,132,55,223xm803,-734v30,-68,-10,-139,-84,-136v-124,5,-187,87,-231,175v-16,33,-27,67,-35,101v117,-16,244,-34,311,-92v19,-16,32,-32,39,-48","w":1042},"f":{"d":"-143,250v48,17,115,26,167,7v58,-21,92,-73,118,-139v16,-40,29,-91,40,-155r144,-801r-170,0v1,-87,11,-150,39,-221r170,0v49,-279,172,-463,471,-463v81,0,135,8,198,27v-19,92,-41,155,-80,227v-50,-16,-121,-26,-176,-9v-86,28,-108,117,-129,218r223,0v-1,92,-11,147,-38,221r-224,0r-147,828v-31,178,-87,308,-181,404v-104,107,-317,132,-493,77v7,-82,29,-156,68,-221","w":735},"g":{"d":"446,-362v-2,87,26,153,103,153v65,0,126,-40,182,-120v56,-80,97,-192,123,-337r31,-174v-90,-16,-176,0,-237,43v-121,85,-197,245,-202,435xm127,231v126,37,342,46,451,-22v91,-57,153,-144,182,-279r31,-129v-72,113,-194,224,-371,224v-182,0,-275,-134,-273,-316v5,-355,163,-601,411,-725v176,-88,448,-81,648,-20r-180,1013v-33,205,-131,338,-270,425v-110,69,-253,96,-412,98v-108,2,-207,-16,-276,-37v4,-98,20,-166,59,-232","w":1169},"h":{"d":"887,-727v0,-77,-31,-111,-103,-111v-62,0,-100,27,-137,75v-65,86,-103,201,-131,351r-76,412v-92,13,-197,14,-288,0r194,-1100v29,-185,44,-264,33,-397v93,-14,192,-18,289,0v7,21,10,47,10,78v-3,157,-53,354,-78,506v63,-87,186,-169,328,-168v173,1,262,85,260,270v0,48,-6,93,-14,139r-119,672v-100,15,-195,17,-291,0r115,-649v5,-27,8,-53,8,-78","w":1196},"i":{"d":"217,-838v-7,-87,13,-155,39,-221r414,0r-187,1059v-103,15,-181,17,-284,0r147,-838r-129,0xm451,-1509v89,-19,210,-21,299,0v0,108,-20,186,-50,272v-90,14,-205,14,-294,0v-2,-109,15,-185,45,-272","w":638},"j":{"d":"-139,262v75,19,187,22,239,-22v43,-36,70,-88,84,-162r162,-916r-129,0v-8,-84,16,-155,39,-221r414,0r-209,1188v-39,244,-199,371,-461,371v-63,0,-123,-8,-180,-23v-8,-83,6,-151,41,-215xm534,-1518v77,-13,148,-2,214,15v-1,99,-17,175,-46,258v-89,22,-205,26,-294,2v-5,-100,16,-182,45,-260v27,-7,55,-11,81,-15","w":638},"k":{"d":"379,-1497v93,-14,192,-18,289,0v7,21,10,47,10,78v0,60,-10,133,-25,219r-211,1200v-96,15,-193,17,-288,0r192,-1100v29,-185,44,-264,33,-397xm582,-555r215,-283v58,-77,89,-134,102,-221v97,-18,219,-15,315,0v-4,35,-17,72,-38,109v-21,37,-48,85,-91,139r-206,258r198,553v-29,3,-55,5,-79,7v-76,6,-152,4,-222,-7","w":1105},"l":{"d":"487,12v-187,-1,-301,-91,-299,-284v0,-44,7,-87,15,-127r135,-701v28,-138,49,-255,37,-397v93,-14,191,-18,289,0v25,94,-1,204,-19,297r-158,823v-4,23,-6,43,-6,58v-1,69,36,97,103,96v18,-1,56,-6,71,-13v18,61,32,144,21,222v-47,18,-118,26,-189,26","w":663},"m":{"d":"866,-737v0,-70,-25,-101,-92,-101v-61,0,-99,27,-133,75v-62,87,-97,202,-125,351r-76,412v-103,15,-192,17,-290,0r110,-604v26,-158,51,-296,43,-455v87,-16,178,-16,262,0v15,48,17,127,6,189v56,-107,189,-212,347,-211v152,2,226,64,241,207v58,-104,193,-209,348,-207v172,2,251,80,250,262v0,47,-5,96,-14,147r-119,672v-101,16,-194,16,-291,0r115,-649v5,-31,8,-61,8,-88v0,-70,-25,-101,-92,-101v-59,0,-96,27,-131,70v-59,72,-94,170,-117,299r-82,469v-101,16,-194,16,-291,0r115,-649v5,-31,8,-61,8,-88","w":1767},"n":{"d":"887,-727v0,-77,-31,-111,-103,-111v-62,0,-100,27,-137,75v-65,86,-103,201,-131,351r-76,412v-103,15,-192,17,-290,0r110,-604v26,-158,51,-296,43,-455v87,-16,178,-16,262,0v15,48,17,127,6,189v70,-113,181,-211,357,-211v173,0,262,85,260,270v0,48,-6,93,-14,139r-119,672v-100,15,-195,17,-291,0r115,-649v5,-27,8,-53,8,-78","w":1198},"o":{"d":"754,-1083v276,0,411,154,411,417v0,300,-126,522,-331,630v-75,40,-164,61,-265,61v-274,0,-409,-152,-409,-414v0,-297,130,-521,332,-631v74,-42,162,-63,262,-63xm596,-197v116,-1,176,-87,218,-171v40,-80,63,-194,63,-300v0,-125,-51,-188,-154,-188v-52,0,-94,18,-129,51v-92,89,-143,254,-143,426v0,121,48,182,145,182","w":1142},"p":{"d":"918,-659v0,-93,-35,-177,-132,-177v-63,0,-117,27,-162,80v-45,53,-77,141,-98,264r-45,265v83,21,188,8,249,-32v116,-76,188,-218,188,-400xm518,25v-37,0,-55,-3,-80,-7r-82,465v-91,17,-201,19,-290,0r192,-1087v26,-158,51,-296,43,-455v93,-16,167,-16,264,0v14,46,18,123,6,182v58,-111,196,-208,363,-206v208,3,301,156,297,383v-5,321,-150,550,-383,660v-90,43,-200,65,-330,65","w":1204},"q":{"d":"424,25v-183,2,-272,-136,-270,-318v4,-355,162,-598,409,-723v169,-86,449,-81,637,-20r-266,1519v-90,17,-198,19,-287,0r109,-628v-72,91,-180,168,-332,170xm453,-365v0,87,23,156,100,156v65,0,126,-40,181,-120v55,-80,96,-192,122,-337r31,-174v-89,-16,-175,1,-235,43v-120,84,-199,242,-199,432","w":1163},"r":{"d":"899,-805v-66,-13,-154,-2,-201,23v-120,64,-152,211,-182,370r-76,412v-103,15,-192,17,-290,0r110,-604v26,-158,51,-296,43,-455v87,-16,178,-16,262,0v15,48,17,127,6,189v45,-79,114,-149,204,-184v48,-19,124,-23,175,-7v9,90,-16,198,-51,256","w":806},"s":{"d":"145,-250v89,41,206,64,324,45v69,-11,131,-45,131,-123v0,-93,-103,-109,-174,-139v-102,-44,-188,-110,-188,-256v0,-191,119,-288,269,-335v146,-45,356,-27,472,32v-8,84,-29,150,-70,211v-51,-28,-144,-52,-221,-51v-79,1,-160,19,-160,100v0,41,26,73,78,96v133,59,283,104,285,293v1,144,-65,239,-151,302v-87,64,-220,100,-367,100v-97,-1,-217,-21,-289,-54v4,-79,24,-153,61,-221","w":911},"t":{"d":"565,12v-219,-2,-336,-65,-338,-276v0,-48,7,-89,15,-135r77,-439r-157,0v1,-87,11,-150,39,-221r157,0v17,-68,29,-155,27,-235v61,-44,183,-63,281,-64v26,95,-6,209,-21,299r254,0v0,90,-16,149,-39,221r-254,0r-71,404v-4,32,-11,66,-11,100v2,77,32,115,117,115v45,0,78,-7,111,-17v25,50,30,142,24,222v-59,18,-129,27,-211,26","w":780},"u":{"d":"457,23v-173,0,-262,-85,-260,-271v0,-48,6,-93,14,-139r119,-672v94,-15,195,-17,291,0r-115,649v-5,27,-8,53,-8,78v-1,77,31,111,102,111v62,0,100,-27,137,-75v65,-86,103,-198,131,-351r76,-412v104,-15,191,-17,291,0r-111,604v-26,158,-51,296,-43,455v-92,15,-167,17,-262,0v-14,-47,-16,-127,-6,-188v-69,114,-181,211,-356,211","w":1198},"v":{"d":"879,-1059v95,-16,234,-16,327,0v1,43,-6,75,-24,126v-16,45,-45,103,-84,175r-414,758v-76,11,-147,11,-233,9v-32,-1,-59,-4,-82,-9r-181,-1059v103,-16,210,-16,312,0r80,776r231,-499v48,-105,67,-159,68,-277","w":1087},"w":{"d":"1386,-782v39,-91,64,-170,58,-277v89,-16,219,-16,311,0v-3,132,-40,207,-96,316r-381,743v-94,14,-217,18,-311,0r-60,-674r-289,674r-82,8v-77,8,-161,4,-229,-8r-108,-1059v96,-13,215,-20,309,0r29,735r305,-735v87,-17,197,-15,288,0r58,737","w":1650},"x":{"d":"249,9v-85,1,-123,3,-202,-9v9,-82,33,-125,74,-190r229,-355r-119,-514v90,-15,196,-16,285,0r111,514r-213,363v-39,68,-61,99,-70,180v-37,7,-68,10,-95,11xm974,-1071v69,0,130,-1,191,10v-2,88,-17,153,-63,223r-184,281r129,557v-106,15,-198,17,-297,0r-109,-545r190,-321v40,-61,49,-117,54,-195v37,-7,66,-10,89,-10","w":1093},"y":{"d":"504,-2v-57,8,-139,9,-199,2r-96,-1059v97,-15,203,-17,301,0r55,926r134,-292r92,-213v40,-94,62,-164,85,-249v15,-57,20,-115,9,-172v93,-16,214,-16,307,0v21,103,-27,203,-54,285r-28,69v-35,85,-84,193,-148,325r-245,501v-71,142,-140,244,-251,317v-73,48,-150,62,-255,62v-67,0,-102,-10,-156,-25v7,-86,21,-155,58,-215v39,17,92,26,145,14v64,-15,107,-55,151,-109v31,-37,67,-102,95,-167","w":1110},"z":{"d":"940,-223v-1,87,-14,158,-39,223r-854,0r-12,-25r606,-811r-397,0v2,-88,12,-160,41,-223r800,0r7,25r-609,811r457,0","w":958},"{":{"d":"630,338v-237,9,-366,-73,-366,-291v0,-160,55,-282,55,-438v0,-115,-44,-182,-129,-232r9,-49v102,-44,167,-104,207,-208v31,-81,40,-196,61,-294v41,-194,103,-350,277,-411v66,-23,187,-39,272,-21v1,74,-26,166,-45,224v-85,-9,-154,13,-185,66v-32,54,-41,120,-57,198v-27,138,-45,247,-93,344v-35,71,-78,111,-149,143v76,44,115,102,111,228v-5,131,-54,268,-57,403v-2,98,59,119,166,115v-1,86,-13,147,-37,219v-13,3,-27,4,-40,4","w":790},"|":{"d":"483,-1587v89,-19,195,-21,281,0r-340,1931v-97,16,-188,16,-281,0","w":692},"}":{"d":"700,-941v-15,138,33,222,127,277r-8,50v-102,44,-167,104,-207,208v-31,81,-41,196,-61,293v-41,196,-102,351,-277,412v-54,19,-121,29,-200,29v-30,0,-54,-3,-72,-9v-1,-73,26,-166,45,-223v85,10,151,-13,183,-66v32,-53,45,-120,59,-198v25,-139,46,-249,93,-344v35,-71,78,-111,148,-143v-76,-44,-114,-102,-110,-228v4,-132,54,-267,57,-403v2,-98,-59,-119,-166,-115v1,-85,13,-149,37,-219v24,-5,50,-4,78,-4v220,-1,328,86,328,291v0,142,-40,262,-54,392","w":772},"~":{"d":"813,-676v-137,2,-198,-81,-332,-82v-53,0,-108,23,-164,70v-40,-55,-91,-104,-112,-176v75,-61,180,-120,313,-123v144,-3,200,85,342,82v68,-1,106,-29,154,-70v53,60,80,97,114,182v-71,68,-181,115,-315,117","w":1046},"\u00a0":{"w":428},"\u00a1":{"d":"276,-584v99,-16,183,-16,277,0r-162,1002v-98,17,-218,17,-315,0xm596,-756v-93,19,-207,20,-299,0v0,-117,22,-204,51,-299v93,-18,207,-19,299,0v0,117,-20,206,-51,299","w":612},"\u00a2":{"d":"809,-209v84,0,125,-13,199,-43v35,58,52,121,51,223v-68,30,-147,47,-238,52r-37,219v-61,16,-119,16,-178,0r39,-226v-222,-32,-338,-174,-338,-417v0,-274,127,-479,303,-595v66,-44,142,-70,228,-81r39,-223v59,-15,120,-19,178,0r-39,223v59,7,113,19,164,37v-5,86,-30,168,-70,229v-92,-40,-240,-61,-328,1v-106,75,-172,211,-176,382v-3,140,76,219,203,219"},"\u00a3":{"d":"737,-590v-1,133,-54,241,-110,332r528,0v-1,100,-22,180,-45,258r-946,0r-4,-29v163,-114,275,-292,280,-561r-192,0v0,-71,13,-144,39,-221r149,0v-32,-306,78,-529,298,-620v116,-48,322,-53,450,-18v57,16,108,33,151,52v-19,83,-55,158,-102,230v-77,-32,-153,-62,-268,-62v-199,0,-245,150,-235,359v1,20,2,40,5,59r322,0v6,80,-16,159,-39,221r-281,0"},"\u00a4":{"d":"1194,-700v0,92,-28,170,-66,229r142,139v-42,62,-94,125,-162,162r-143,-145v-132,79,-328,78,-459,0r-144,145v-77,-35,-122,-93,-163,-164r143,-143v-80,-132,-79,-321,4,-451r-147,-149v36,-78,90,-122,163,-164r152,151v133,-76,311,-76,444,0r150,-151v63,43,125,91,162,162r-146,143v47,73,70,151,70,236xm656,-500v50,24,115,24,164,0v71,-34,126,-100,126,-200v0,-101,-54,-170,-126,-204v-49,-23,-114,-24,-164,0v-72,34,-126,103,-126,204v0,100,56,165,126,200"},"\u00a5":{"d":"164,-319v-6,-60,11,-133,31,-175r340,0r24,-143r-340,0v0,-63,10,-121,31,-174r237,0r-204,-637v104,-14,212,-18,311,0r151,561r351,-561v99,-14,215,-17,313,0r-416,637r269,0v9,55,-13,137,-31,174r-375,0r-25,143r375,0v0,57,-10,116,-30,175r-375,0r-58,321v-95,14,-203,14,-297,0r58,-321r-340,0"},"\u00a6":{"d":"483,-1589v96,-16,189,-18,281,0r-121,686v-95,16,-187,16,-281,0xm264,-342v96,-16,189,-16,281,0r-121,686v-97,16,-188,16,-281,0","w":694},"\u00a7":{"d":"293,-246v94,47,259,72,390,39v47,-12,94,-42,93,-102v0,-21,-6,-37,-22,-45v-76,-39,-190,-68,-277,-99v-68,-24,-115,-55,-141,-95v-58,-85,-49,-206,9,-286v32,-45,72,-89,120,-133v-60,-67,-47,-212,0,-291v80,-134,235,-215,440,-215v141,0,231,19,334,58v-16,73,-65,161,-104,213v-59,-29,-138,-55,-224,-53v-95,2,-202,10,-202,108v0,56,40,65,92,82r209,68v69,23,116,54,140,93v24,39,36,79,36,122v-3,145,-80,232,-168,309v63,66,48,216,-5,291v-92,129,-262,207,-474,207v-140,0,-247,-19,-349,-58v15,-71,68,-160,103,-213xm637,-872v-38,31,-91,76,-90,143v0,41,30,70,90,88r201,61v36,-32,100,-75,96,-141v-4,-61,-45,-79,-111,-98","w":1187},"\u00a8":{"d":"596,-1214v-81,13,-184,14,-264,0v4,-92,14,-170,43,-242v81,-15,183,-16,264,0v-3,92,-15,168,-43,242xm827,-1456v81,-15,185,-16,265,0v-6,90,-18,166,-43,242v-81,13,-185,14,-265,0v-2,-94,14,-171,43,-242","w":1024},"\u00a9":{"d":"1016,-510v77,0,97,-5,160,-29v27,43,43,114,43,185v-72,29,-132,36,-224,37v-132,1,-228,-55,-293,-125v-89,-97,-128,-295,-74,-456v35,-103,102,-183,196,-228v109,-52,278,-43,384,4v-1,63,-12,139,-37,184v-59,-19,-87,-27,-155,-27v-128,0,-189,91,-189,228v0,141,64,227,189,227xm715,-172v143,62,356,62,499,0v208,-90,347,-276,347,-563v0,-287,-140,-472,-347,-563v-143,-63,-356,-62,-499,0v-208,91,-346,276,-346,563v0,286,138,473,346,563xm1275,-32v-182,77,-439,77,-621,0v-185,-78,-320,-214,-394,-400v-73,-182,-73,-423,0,-606v74,-188,209,-322,394,-400v182,-77,439,-78,621,-2v185,77,320,216,394,402v73,182,73,425,0,606v-74,186,-210,322,-394,400","w":1683},"\u00aa":{"d":"850,-1278v-69,-15,-139,0,-186,33v-95,67,-156,194,-156,344v0,79,26,119,78,119v52,0,100,-33,146,-100v46,-67,77,-158,97,-273xm485,-598v-155,0,-231,-93,-231,-244v0,-280,134,-476,332,-575v138,-69,371,-63,526,-17r-80,455v-11,68,-18,128,-24,180v-6,52,-9,92,-9,121v0,21,-1,37,2,57v-70,9,-152,14,-221,0v-12,-36,-14,-103,-6,-151v-59,89,-147,174,-289,174","w":1024},"\u00ab":{"d":"178,-551r430,-448v92,-19,222,-16,318,0r-437,467r256,442v-97,14,-206,18,-299,0xm725,-551r430,-448v92,-19,222,-16,318,0r-437,467r256,442v-97,14,-206,18,-299,0","w":1329},"\u00ac":{"d":"1143,-850r0,590v-81,16,-172,16,-252,0r0,-338r-623,0v-16,-81,-16,-172,0,-252r875,0"},"\u00ad":{"d":"207,-475v1,-95,19,-172,43,-252r512,0v3,92,-19,179,-43,252r-512,0","w":749},"\u00ae":{"d":"891,-360v-57,11,-140,10,-201,0r0,-783v77,-13,140,-20,230,-20v130,0,222,23,278,69v56,46,84,106,84,181v0,89,-43,168,-90,206r-31,25r180,320v-70,10,-161,12,-231,0r-184,-359v39,-24,83,-52,110,-83v21,-23,31,-50,31,-83v-1,-68,-43,-108,-119,-106v-24,0,-33,1,-57,6r0,627xm715,-172v143,62,356,62,499,0v208,-90,347,-276,347,-563v0,-287,-140,-472,-347,-563v-143,-63,-356,-62,-499,0v-208,91,-346,276,-346,563v0,286,138,473,346,563xm1275,-32v-182,77,-439,77,-621,0v-185,-78,-320,-214,-394,-400v-73,-182,-73,-423,0,-606v74,-188,209,-322,394,-400v182,-77,439,-78,621,-2v185,77,320,216,394,402v73,182,73,425,0,606v-74,186,-210,322,-394,400","w":1683},"\u00af":{"d":"410,-1241v-5,-84,8,-142,34,-207r543,0v6,84,-11,145,-35,207r-542,0","w":1024},"\u00b0":{"d":"250,-1060v-33,-74,-32,-163,0,-238v46,-107,138,-189,282,-189v144,0,242,82,288,189v32,75,33,164,0,238v-48,105,-142,188,-288,188v-144,0,-235,-84,-282,-188xm406,-1178v0,75,54,134,126,134v71,0,132,-58,132,-134v0,-75,-60,-137,-132,-137v-71,0,-126,63,-126,137","w":772},"\u00b1":{"d":"201,0v1,-102,15,-166,43,-248r284,0r62,-352r-318,0v0,-79,14,-162,43,-248r318,0r65,-362v80,-16,176,-18,256,0r-65,362r317,0v5,92,-17,174,-43,248r-317,0r-62,352r334,0v6,89,-15,183,-43,248r-874,0"},"\u00b2":{"d":"887,-819v0,71,-13,139,-35,194r-641,0r-8,-37r313,-301v38,-37,74,-73,106,-109v32,-36,48,-73,48,-112v0,-61,-32,-92,-97,-92v-73,1,-128,24,-184,49v-21,-48,-47,-108,-51,-174v73,-36,190,-72,297,-72v167,0,285,87,285,238v0,183,-120,259,-213,354r-66,62r246,0","w":921},"\u00b3":{"d":"682,-901v0,-95,-120,-101,-203,-74r-35,-45r226,-244r-279,0v0,-71,12,-127,31,-184r541,0r14,41r-238,285v106,15,174,88,174,202v0,168,-113,254,-247,296v-136,42,-321,18,-424,-29v11,-65,46,-127,82,-168v102,45,283,68,344,-27v10,-15,14,-32,14,-53","w":921},"\u00b4":{"d":"664,-1473v104,-15,249,-17,354,0r-289,252v-83,14,-186,19,-274,0","w":1024},"\u00b5":{"d":"567,25v-68,1,-129,-28,-155,-66r-90,526v-89,13,-196,17,-283,0r272,-1544v93,-16,193,-16,287,0r-114,630v-5,29,-7,56,-7,79v0,104,50,148,152,149v59,0,104,-21,137,-63v33,-42,58,-102,72,-180r110,-615v91,-16,194,-16,287,0r-191,1061v-63,14,-158,13,-221,-2v-5,-40,-3,-95,2,-133v-58,95,-129,154,-258,158","w":1193},"\u00b6":{"d":"659,-641v-164,-13,-292,-70,-351,-191v-55,-112,-30,-304,30,-398v120,-186,366,-259,670,-255r-252,1495v-19,0,-40,0,-60,-1r-59,-3v-30,-2,-64,-5,-84,-12xm1143,-1485v65,1,163,0,205,15r-246,1468v-47,13,-143,14,-211,14","w":1261},"\u00b7":{"d":"532,-438v-93,19,-207,19,-299,0v0,-118,22,-204,52,-299v93,-19,207,-19,299,0v0,118,-22,204,-52,299","w":591},"\u00b8":{"d":"449,225v-43,0,-88,5,-121,19r-13,-15r146,-278r137,0r-86,158v11,-3,27,-4,49,-5v105,-1,175,60,174,166v-3,171,-142,220,-311,224v-63,1,-146,-14,-178,-37v12,-48,30,-95,57,-131v42,11,79,24,127,24v56,0,121,-8,121,-65v0,-52,-46,-60,-102,-60","w":1024},"\u00b9":{"d":"293,-625v-5,-74,7,-142,35,-192r164,0r63,-363r-154,58v-37,-53,-58,-100,-67,-176r409,-160r84,0r-110,641r174,0v6,67,-9,149,-35,192r-563,0","w":921},"\u00ba":{"d":"610,-596v-224,3,-336,-115,-336,-328v0,-232,106,-409,267,-495v60,-33,132,-49,215,-49v224,0,336,117,336,329v0,235,-104,410,-267,495v-60,32,-132,48,-215,48xm631,-780v87,0,135,-68,165,-132v28,-61,48,-150,48,-229v0,-93,-38,-139,-113,-139v-88,0,-131,69,-161,134v-28,61,-46,152,-46,231v0,90,36,135,107,135","w":1024},"\u00bb":{"d":"514,-569r-262,-430v97,-14,204,-20,299,0r270,471r-424,438v-97,18,-226,14,-325,0xm1059,-569r-262,-430v97,-14,204,-20,299,0r270,471r-424,438v-97,18,-226,14,-325,0","w":1345},"\u00bc":{"d":"2075,-315v3,62,-9,115,-27,163r-84,0r-25,150v-58,11,-144,11,-198,0r24,-150r-422,0r-14,-36r432,-668v69,8,146,43,189,78r-314,463r156,0r29,-160v56,-10,141,-7,196,0r-26,160r84,0xm1608,-1452v97,-16,182,-16,284,0r-991,1448v-100,17,-183,15,-283,0xm293,-625v-5,-74,7,-142,35,-192r164,0r63,-363r-154,58v-37,-53,-58,-100,-67,-176r409,-160r84,0r-110,641r174,0v6,67,-9,149,-35,192r-563,0","w":2150},"\u00bd":{"d":"1573,-1452v97,-16,182,-16,285,0r-992,1448v-99,17,-183,15,-282,0xm293,-625v-5,-74,7,-142,35,-192r164,0r63,-363r-154,58v-37,-53,-58,-100,-67,-176r409,-160r84,0r-110,641r174,0v6,67,-9,149,-35,192r-563,0xm2081,-196v0,71,-13,139,-35,194r-641,0r-8,-37r313,-301v38,-37,74,-73,106,-109v32,-36,48,-73,48,-112v0,-61,-32,-92,-97,-92v-73,1,-128,24,-184,49v-21,-48,-47,-108,-51,-174v73,-36,190,-72,297,-72v167,0,285,87,285,238v0,183,-120,259,-213,354r-66,62r246,0","w":2150},"\u00be":{"d":"2030,-315v2,61,-11,115,-27,163r-84,0r-25,150v-58,11,-144,11,-198,0r24,-150r-422,0r-14,-36r432,-668v69,8,146,43,189,78r-314,463r156,0r29,-160v56,-10,141,-7,196,0r-26,160r84,0xm1544,-1452v96,-16,183,-16,285,0r-991,1448v-99,16,-184,16,-283,0xm682,-901v0,-95,-120,-101,-203,-74r-35,-45r226,-244r-279,0v0,-71,12,-127,31,-184r541,0r14,41r-238,285v106,15,174,88,174,202v0,168,-113,254,-247,296v-136,42,-321,18,-424,-29v11,-65,46,-127,82,-168v102,45,283,68,344,-27v10,-15,14,-32,14,-53","w":2150},"\u00bf":{"d":"874,379v-106,45,-225,61,-354,61v-141,0,-249,-29,-326,-88v-77,-59,-116,-145,-116,-258v0,-203,114,-329,238,-420v48,-34,99,-61,155,-82r33,-186v88,-15,185,-18,268,0r-61,352v-122,22,-236,80,-294,172v-22,35,-34,75,-34,121v0,99,85,145,190,144v103,-1,150,-17,240,-48v34,67,55,141,61,232xm819,-758v-93,20,-207,20,-299,0v0,-117,22,-204,51,-299v92,-18,208,-19,299,0v0,118,-20,204,-51,299","w":907},"\u00c0":{"d":"1104,-1591v-69,14,-194,16,-268,4r-271,-242v39,-5,94,-7,138,-9v20,-1,39,-1,57,-1v52,0,124,4,164,10xm739,-1473v108,-15,232,-17,342,0r181,1473v-107,16,-195,16,-304,0r-26,-297r-449,0r-131,297v-96,16,-207,16,-301,0xm909,-543r-53,-590r-262,590r315,0","w":1296},"\u00c1":{"d":"948,-1810v94,-15,250,-15,344,0r-291,221v-77,12,-206,11,-280,-2xm739,-1473v108,-15,232,-17,342,0r181,1473v-107,16,-195,16,-304,0r-26,-297r-449,0r-131,297v-96,16,-207,16,-301,0xm909,-543r-53,-590r-262,590r315,0","w":1296},"\u00c2":{"d":"829,-1823v98,-10,225,-17,322,2r156,222v-71,17,-201,17,-275,-3r-61,-100r-105,100v-74,21,-208,19,-282,3xm739,-1473v108,-15,232,-17,342,0r181,1473v-107,16,-195,16,-304,0r-26,-297r-449,0r-131,297v-96,16,-207,16,-301,0xm909,-543r-53,-590r-262,590r315,0","w":1296},"\u00c3":{"d":"653,-1593v-28,-30,-67,-96,-71,-148v50,-55,143,-116,247,-114v112,2,169,71,281,71v70,0,95,-15,145,-57v29,34,68,96,72,151v-53,55,-144,112,-250,111v-111,-2,-172,-72,-280,-72v-72,0,-90,20,-144,58xm739,-1473v108,-15,232,-17,342,0r181,1473v-107,16,-195,16,-304,0r-26,-297r-449,0r-131,297v-96,16,-207,16,-301,0xm909,-543r-53,-590r-262,590r315,0","w":1296},"\u00c4":{"d":"1055,-1833v81,-16,184,-16,264,0v-6,90,-16,166,-43,242v-81,13,-184,14,-264,0v-2,-95,13,-170,43,-242xm823,-1591v-81,13,-184,14,-264,0v4,-93,14,-168,43,-242v81,-15,184,-16,264,0v-4,93,-14,168,-43,242xm739,-1473v108,-15,232,-17,342,0r181,1473v-107,16,-195,16,-304,0r-26,-297r-449,0r-131,297v-96,16,-207,16,-301,0xm909,-543r-53,-590r-262,590r315,0","w":1296},"\u00c5":{"d":"1194,-1690v1,98,-51,177,-107,222r181,1468v-107,16,-195,16,-303,0r-27,-297r-449,0r-131,297v-96,16,-207,16,-301,0r688,-1473v-35,-35,-68,-92,-67,-159v2,-134,72,-221,169,-264v35,-14,73,-21,114,-21v140,0,233,95,233,227xm915,-543r-51,-606r-264,606r315,0xm836,-1649v1,61,23,111,86,111v71,0,113,-69,112,-139v-1,-61,-20,-111,-84,-111v-75,0,-115,64,-114,139","w":1325},"\u00c6":{"d":"1810,-254v9,97,-19,175,-43,254r-821,0r53,-303r-467,0r-206,303v-98,15,-230,17,-326,0r987,-1473r1024,0v8,97,-16,179,-45,254r-508,0r-55,320r403,0v0,82,-15,167,-45,256r-403,0r-70,389r522,0xm1042,-551r121,-692r-12,0r-451,692r342,0","w":1869},"\u00c7":{"d":"729,225v-44,0,-87,5,-121,19r-12,-15r109,-211v-312,-31,-492,-234,-492,-559v0,-282,93,-516,227,-677v130,-158,324,-279,594,-279v140,0,224,11,326,59v-19,96,-43,159,-86,240v-141,-61,-333,-58,-456,16v-184,110,-279,332,-283,615v-3,241,145,347,393,329v68,-5,124,-23,180,-41v30,66,47,161,53,248v-90,35,-206,52,-323,56r-45,84v11,-3,27,-4,49,-5v105,-1,175,60,174,166v-3,171,-142,220,-311,224v-64,1,-146,-15,-179,-37v12,-48,29,-95,58,-131v42,11,79,24,127,24v56,0,120,-8,120,-65v0,-52,-46,-60,-102,-60","w":1175},"\u00c8":{"d":"1032,-1591v-69,14,-194,16,-268,4r-270,-242v107,-11,253,-15,358,0xm1026,-254v9,97,-21,175,-43,254r-821,0r258,-1473r807,0v8,97,-17,179,-45,254r-508,0r-56,320r404,0v0,82,-15,167,-45,256r-404,0r-69,389r522,0","w":1085},"\u00c9":{"d":"877,-1810v93,-15,251,-15,344,0r-291,221v-77,12,-206,11,-281,-2xm1026,-254v9,97,-21,175,-43,254r-821,0r258,-1473r807,0v8,97,-17,179,-45,254r-508,0r-56,320r404,0v0,82,-15,167,-45,256r-404,0r-69,389r522,0","w":1085},"\u00ca":{"d":"743,-1823v98,-10,225,-17,322,2r156,222v-71,17,-201,17,-275,-3r-61,-100r-105,100v-74,21,-208,19,-282,3xm1026,-254v9,97,-21,175,-43,254r-821,0r258,-1473r807,0v8,97,-17,179,-45,254r-508,0r-56,320r404,0v0,82,-15,167,-45,256r-404,0r-69,389r522,0","w":1085},"\u00cb":{"d":"995,-1833v81,-15,185,-16,265,0v-7,89,-18,165,-43,242v-81,13,-185,14,-265,0v-2,-94,14,-169,43,-242xm764,-1591v-81,13,-184,14,-264,0v4,-93,14,-168,43,-242v81,-15,184,-16,264,0v-4,93,-14,168,-43,242xm1026,-254v9,97,-21,175,-43,254r-821,0r258,-1473r807,0v8,97,-17,179,-45,254r-508,0r-56,320r404,0v0,82,-15,167,-45,256r-404,0r-69,389r522,0","w":1085},"\u00cc":{"d":"809,-1591v-69,14,-194,16,-268,4r-271,-242v39,-5,94,-7,139,-9v20,-1,39,-1,56,-1v52,0,124,4,164,10xm420,-1470v101,-18,205,-21,301,0r-258,1470v-109,16,-198,16,-301,0","w":620},"\u00cd":{"d":"625,-1810v93,-15,251,-15,344,0r-291,221v-77,12,-206,11,-281,-2xm420,-1470v101,-18,205,-21,301,0r-258,1470v-109,16,-198,16,-301,0","w":620},"\u00ce":{"d":"496,-1823v98,-10,224,-17,321,2r156,222v-71,17,-201,17,-275,-3r-61,-100r-105,100v-74,21,-208,19,-282,3xm420,-1470v101,-18,205,-21,301,0r-258,1470v-109,16,-198,16,-301,0","w":620},"\u00cf":{"d":"748,-1833v81,-16,184,-16,264,0v-7,89,-18,165,-43,242v-81,13,-184,14,-264,0v-2,-95,13,-170,43,-242xm516,-1591v-81,13,-184,14,-264,0v4,-93,14,-168,43,-242v81,-15,184,-16,264,0v-4,93,-14,168,-43,242xm420,-1470v101,-18,205,-21,301,0r-258,1470v-109,16,-198,16,-301,0","w":620},"\u00d0":{"d":"156,-653v-5,-81,5,-147,32,-207r148,0r108,-610v55,-7,111,-12,168,-18v158,-16,338,-11,466,32v237,80,394,252,397,559v3,304,-105,532,-265,682v-155,146,-386,239,-675,240v-147,1,-227,-10,-349,-25r115,-653r-145,0xm1153,-868v0,-252,-131,-389,-397,-370v-15,1,-32,2,-51,5r-66,373r274,0v5,69,-6,138,-34,207r-277,0r-74,415v105,15,232,4,315,-40v191,-101,310,-301,310,-590","w":1429},"\u00d1":{"d":"690,-1593v-28,-30,-67,-96,-72,-148v50,-55,144,-116,248,-114v112,2,169,71,281,71v71,0,93,-15,145,-57v29,34,66,97,72,151v-53,55,-145,112,-250,111v-111,-2,-172,-72,-280,-72v-72,0,-90,20,-144,58xm420,-1473v80,-17,168,-15,250,0r362,936r162,-936v89,-14,187,-19,270,0r-260,1473v-95,16,-155,16,-246,0r-364,-934r-162,934v-85,15,-184,17,-270,0","w":1363},"\u00d2":{"d":"1243,-1591v-69,14,-194,16,-268,4r-270,-242v107,-11,253,-15,358,0xm965,-1497v349,4,508,208,508,559v0,364,-127,641,-330,813v-105,89,-244,149,-430,150v-347,2,-508,-207,-508,-549v0,-266,74,-486,183,-654v80,-125,191,-222,338,-278v72,-27,152,-41,239,-41xm739,-225v117,0,196,-61,251,-131v110,-141,169,-356,169,-598v0,-191,-74,-287,-221,-287v-118,0,-196,60,-252,130v-113,140,-170,358,-170,601v0,190,74,285,223,285","w":1425},"\u00d3":{"d":"1010,-1810v93,-15,251,-15,344,0r-291,221v-77,12,-206,11,-281,-2xm965,-1497v349,4,508,208,508,559v0,364,-127,641,-330,813v-105,89,-244,149,-430,150v-347,2,-508,-207,-508,-549v0,-266,74,-486,183,-654v80,-125,191,-222,338,-278v72,-27,152,-41,239,-41xm739,-225v117,0,196,-61,251,-131v110,-141,169,-356,169,-598v0,-191,-74,-287,-221,-287v-118,0,-196,60,-252,130v-113,140,-170,358,-170,601v0,190,74,285,223,285","w":1425},"\u00d4":{"d":"895,-1823v98,-10,225,-17,322,2r155,222v-70,17,-201,17,-274,-3r-62,-100r-104,100v-74,21,-209,19,-283,3xm965,-1497v349,4,508,208,508,559v0,364,-127,641,-330,813v-105,89,-244,149,-430,150v-347,2,-508,-207,-508,-549v0,-266,74,-486,183,-654v80,-125,191,-222,338,-278v72,-27,152,-41,239,-41xm739,-225v117,0,196,-61,251,-131v110,-141,169,-356,169,-598v0,-191,-74,-287,-221,-287v-118,0,-196,60,-252,130v-113,140,-170,358,-170,601v0,190,74,285,223,285","w":1425},"\u00d5":{"d":"731,-1593v-28,-30,-67,-96,-72,-148v50,-55,144,-116,248,-114v112,2,169,71,281,71v71,0,93,-15,145,-57v29,34,66,97,72,151v-53,55,-145,112,-250,111v-112,-2,-172,-72,-281,-72v-72,0,-88,21,-143,58xm965,-1497v349,4,508,208,508,559v0,364,-127,641,-330,813v-105,89,-244,149,-430,150v-347,2,-508,-207,-508,-549v0,-266,74,-486,183,-654v80,-125,191,-222,338,-278v72,-27,152,-41,239,-41xm739,-225v117,0,196,-61,251,-131v110,-141,169,-356,169,-598v0,-191,-74,-287,-221,-287v-118,0,-196,60,-252,130v-113,140,-170,358,-170,601v0,190,74,285,223,285","w":1425},"\u00d6":{"d":"1145,-1833v81,-16,184,-16,264,0v-6,90,-16,166,-43,242v-81,13,-184,14,-264,0v-2,-95,13,-170,43,-242xm913,-1591v-81,13,-184,14,-264,0v4,-93,14,-168,43,-242v81,-15,184,-16,264,0v-4,93,-14,168,-43,242xm965,-1497v349,4,508,208,508,559v0,364,-127,641,-330,813v-105,89,-244,149,-430,150v-347,2,-508,-207,-508,-549v0,-266,74,-486,183,-654v80,-125,191,-222,338,-278v72,-27,152,-41,239,-41xm739,-225v117,0,196,-61,251,-131v110,-141,169,-356,169,-598v0,-191,-74,-287,-221,-287v-118,0,-196,60,-252,130v-113,140,-170,358,-170,601v0,190,74,285,223,285","w":1425},"\u00d7":{"d":"559,-713r-182,-223v30,-34,58,-67,94,-96v38,-31,76,-58,113,-80r182,223r264,-225v68,49,118,118,160,192r-266,228r178,213v-58,69,-127,125,-205,174r-178,-213r-270,229v-32,-22,-71,-64,-99,-96v-26,-29,-42,-63,-61,-98"},"\u00d8":{"d":"713,25v-132,0,-235,-28,-314,-82r-71,92v-46,13,-133,9,-183,0r152,-195v-137,-192,-100,-590,-12,-814v86,-218,221,-399,441,-482v169,-64,423,-53,548,43r65,-84v54,-11,126,-15,183,0r-146,186v141,194,109,592,17,821v-86,214,-222,394,-441,475v-72,27,-152,40,-239,40xm580,-287v60,74,213,79,302,26v167,-100,239,-313,268,-548v10,-80,13,-143,5,-217xm1094,-1182v-61,-73,-210,-74,-298,-23v-168,99,-241,312,-270,547v-10,77,-13,140,-8,214","w":1425},"\u00d9":{"d":"1171,-1591v-69,14,-194,16,-268,4r-270,-242v39,-5,94,-7,138,-9v20,-1,39,-1,56,-1v51,0,124,4,164,10xm682,25v-302,-3,-440,-129,-440,-437v0,-68,7,-146,22,-233r146,-828v93,-17,206,-17,299,0r-134,764v-15,94,-30,175,-30,269v0,138,40,207,176,207v178,0,232,-116,273,-262v17,-59,31,-131,46,-214r134,-764v96,-17,206,-17,301,0r-146,828v-53,294,-129,532,-373,626v-74,29,-166,44,-274,44","w":1368},"\u00da":{"d":"1016,-1810v93,-15,251,-15,344,0r-291,221v-77,12,-206,11,-281,-2xm682,25v-302,-3,-440,-129,-440,-437v0,-68,7,-146,22,-233r146,-828v93,-17,206,-17,299,0r-134,764v-15,94,-30,175,-30,269v0,138,40,207,176,207v178,0,232,-116,273,-262v17,-59,31,-131,46,-214r134,-764v96,-17,206,-17,301,0r-146,828v-53,294,-129,532,-373,626v-74,29,-166,44,-274,44","w":1368},"\u00db":{"d":"870,-1823v98,-10,225,-17,322,2r156,222v-71,17,-201,17,-275,-3r-61,-100r-105,100v-74,21,-208,19,-282,3xm682,25v-302,-3,-440,-129,-440,-437v0,-68,7,-146,22,-233r146,-828v93,-17,206,-17,299,0r-134,764v-15,94,-30,175,-30,269v0,138,40,207,176,207v178,0,232,-116,273,-262v17,-59,31,-131,46,-214r134,-764v96,-17,206,-17,301,0r-146,828v-53,294,-129,532,-373,626v-74,29,-166,44,-274,44","w":1368},"\u00dc":{"d":"1124,-1833v81,-15,185,-16,265,0v-7,89,-18,165,-43,242v-81,13,-185,14,-265,0v-2,-94,14,-169,43,-242xm893,-1591v-81,13,-184,14,-264,0v4,-93,14,-168,43,-242v81,-15,184,-16,264,0v-4,93,-14,168,-43,242xm682,25v-302,-3,-440,-129,-440,-437v0,-68,7,-146,22,-233r146,-828v93,-17,206,-17,299,0r-134,764v-15,94,-30,175,-30,269v0,138,40,207,176,207v178,0,232,-116,273,-262v17,-59,31,-131,46,-214r134,-764v96,-17,206,-17,301,0r-146,828v-53,294,-129,532,-373,626v-74,29,-166,44,-274,44","w":1368},"\u00dd":{"d":"911,-1810v94,-15,250,-15,344,0r-290,221v-77,11,-207,11,-281,-2xm510,-526r-268,-947v109,-14,213,-19,315,0r158,654r379,-654v99,-14,218,-14,317,0r-600,947r-92,526v-95,16,-207,17,-301,0","w":1153},"\u00de":{"d":"436,-1477v26,-3,50,-5,73,-6v75,-4,158,-1,226,6r-43,228v136,2,277,23,370,81v110,68,196,176,193,359v-6,288,-158,460,-377,543v-102,39,-233,53,-366,41r-37,225v-97,14,-202,13,-299,0xm942,-793v0,-169,-123,-224,-293,-202r-92,520v48,8,141,9,193,-11v117,-44,192,-140,192,-307","w":1218},"\u00df":{"d":"-170,250v48,17,116,26,168,7v58,-21,92,-73,118,-139v16,-40,29,-91,40,-155r182,-1022v51,-285,182,-463,514,-463v134,0,234,39,300,100v54,50,83,122,85,214v2,129,-65,209,-126,277r-87,97v-48,54,-55,129,-3,180v57,57,112,104,157,176v46,75,44,216,4,298v-65,130,-199,204,-391,205v-97,0,-179,-15,-248,-45v23,-79,55,-156,96,-222v45,30,96,41,162,41v69,0,137,-45,137,-121v0,-34,-12,-62,-37,-84v-52,-48,-116,-94,-162,-152v-52,-66,-44,-191,4,-262v54,-79,129,-150,183,-226v27,-37,41,-78,41,-121v1,-77,-69,-123,-150,-121v-51,0,-91,15,-121,44v-30,29,-51,87,-67,173r-193,1061v-31,177,-87,308,-180,404v-103,107,-318,132,-494,77v7,-82,29,-156,68,-221","w":1236},"\u00e0":{"d":"883,-840v-90,-16,-177,0,-237,43v-120,85,-200,246,-200,437v0,101,34,152,101,151v65,0,126,-40,182,-120v56,-80,97,-192,123,-337xm418,25v-183,2,-273,-131,-271,-314v5,-355,163,-602,410,-727v170,-86,449,-81,637,-20r-100,577v-26,157,-49,297,-41,455v-92,16,-165,16,-260,0v-14,-47,-18,-129,-9,-193v-39,63,-90,115,-151,158v-61,43,-133,64,-215,64xm525,-1473v106,-17,247,-15,354,0r182,252v-89,18,-190,15,-274,0","w":1165},"\u00e1":{"d":"883,-840v-90,-16,-177,0,-237,43v-120,85,-200,246,-200,437v0,101,34,152,101,151v65,0,126,-40,182,-120v56,-80,97,-192,123,-337xm418,25v-183,2,-273,-131,-271,-314v5,-355,163,-602,410,-727v170,-86,449,-81,637,-20r-100,577v-26,157,-49,297,-41,455v-92,16,-165,16,-260,0v-14,-47,-18,-129,-9,-193v-39,63,-90,115,-151,158v-61,43,-133,64,-215,64xm881,-1473v104,-15,249,-17,354,0r-289,252v-83,14,-186,19,-274,0","w":1165},"\u00e2":{"d":"883,-840v-90,-16,-177,0,-237,43v-120,85,-200,246,-200,437v0,101,34,152,101,151v65,0,126,-40,182,-120v56,-80,97,-192,123,-337xm418,25v-183,2,-273,-131,-271,-314v5,-355,163,-602,410,-727v170,-86,449,-81,637,-20r-100,577v-26,157,-49,297,-41,455v-92,16,-165,16,-260,0v-14,-47,-18,-129,-9,-193v-39,63,-90,115,-151,158v-61,43,-133,64,-215,64xm719,-1473v98,-10,225,-18,321,3r156,251v-70,17,-199,18,-273,-2r-61,-131r-104,131v-76,20,-211,20,-285,2","w":1165},"\u00e3":{"d":"883,-840v-90,-16,-177,0,-237,43v-120,85,-200,246,-200,437v0,101,34,152,101,151v65,0,126,-40,182,-120v56,-80,97,-192,123,-337xm418,25v-183,2,-273,-131,-271,-314v5,-355,163,-602,410,-727v170,-86,449,-81,637,-20r-100,577v-26,157,-49,297,-41,455v-92,16,-165,16,-260,0v-14,-47,-18,-129,-9,-193v-39,63,-90,115,-151,158v-61,43,-133,64,-215,64xm561,-1223v-28,-30,-68,-95,-72,-147v51,-55,143,-116,248,-115v111,2,169,72,281,72v70,0,93,-16,145,-57v30,34,67,96,72,151v-53,55,-144,112,-250,111v-111,-2,-171,-72,-281,-72v-72,0,-88,20,-143,57","w":1165},"\u00e4":{"d":"883,-840v-90,-16,-177,0,-237,43v-120,85,-200,246,-200,437v0,101,34,152,101,151v65,0,126,-40,182,-120v56,-80,97,-192,123,-337xm418,25v-183,2,-273,-131,-271,-314v5,-355,163,-602,410,-727v170,-86,449,-81,637,-20r-100,577v-26,157,-49,297,-41,455v-92,16,-165,16,-260,0v-14,-47,-18,-129,-9,-193v-39,63,-90,115,-151,158v-61,43,-133,64,-215,64xm741,-1214v-81,13,-184,14,-264,0v4,-92,14,-170,43,-242v81,-15,183,-16,264,0v-3,92,-15,168,-43,242xm972,-1456v81,-15,185,-16,265,0v-6,90,-18,166,-43,242v-81,13,-185,14,-265,0v-2,-94,14,-171,43,-242","w":1165},"\u00e5":{"d":"924,-1534v-65,0,-99,64,-99,125v0,64,27,96,82,96v63,-1,101,-55,101,-125v0,-64,-28,-96,-84,-96xm895,-1190v-127,0,-214,-77,-211,-209v2,-117,60,-195,143,-235v31,-15,68,-23,109,-23v129,2,214,79,211,221v-3,117,-63,192,-150,228v-31,13,-65,18,-102,18xm883,-840v-90,-16,-177,0,-237,43v-120,85,-200,246,-200,437v0,101,34,152,101,151v65,0,126,-40,182,-120v56,-80,97,-192,123,-337xm418,25v-183,2,-273,-131,-271,-314v5,-355,163,-602,410,-727v170,-86,449,-81,637,-20r-100,577v-26,157,-49,297,-41,455v-92,16,-165,16,-260,0v-14,-47,-18,-129,-9,-193v-39,63,-90,115,-151,158v-61,43,-133,64,-215,64","w":1165},"\u00e6":{"d":"1106,-942v73,-70,198,-143,348,-141v136,2,231,54,274,149v37,82,26,204,-20,274v-90,138,-270,205,-467,236r-137,23v16,127,81,193,221,194v119,0,187,-29,277,-63v43,51,54,132,55,223v-96,42,-229,70,-363,72v-236,3,-371,-85,-434,-248v-67,93,-136,157,-208,193v-72,36,-147,55,-222,55v-193,0,-283,-126,-283,-314v0,-354,163,-602,407,-727v156,-80,393,-86,570,-24xm883,-840v-90,-16,-177,0,-237,43v-120,85,-200,246,-200,437v0,101,34,151,101,151v68,0,129,-40,184,-120v55,-80,95,-192,121,-337xm1464,-734v34,-67,-10,-139,-84,-136v-124,5,-186,87,-230,175v-16,33,-28,67,-36,101v143,-21,298,-37,350,-140","w":1703},"\u00e7":{"d":"520,225v-44,0,-87,5,-121,19r-12,-15r111,-213v-225,-29,-340,-174,-340,-417v0,-295,146,-509,349,-621v139,-76,371,-77,523,-18v-4,85,-30,168,-69,229v-90,-40,-237,-59,-327,-3v-114,71,-174,206,-177,386v-2,140,75,219,202,219v83,0,127,-13,199,-43v35,58,52,121,51,223v-80,39,-167,51,-280,54r-45,84v11,-3,27,-4,49,-5v105,-1,175,60,174,166v-3,171,-142,220,-311,224v-64,1,-146,-15,-179,-37v12,-48,29,-95,58,-131v42,11,79,24,127,24v56,0,121,-8,121,-65v0,-52,-48,-60,-103,-60","w":942},"\u00e8":{"d":"995,-47v-144,64,-404,101,-576,41v-166,-57,-261,-186,-261,-404v0,-187,71,-351,164,-462v97,-117,245,-211,448,-211v144,0,246,52,295,149v41,81,28,203,-18,274v-90,138,-270,205,-467,236r-138,23v16,128,81,194,222,194v119,0,186,-29,276,-63v43,51,54,132,55,223xm803,-734v30,-68,-10,-139,-84,-136v-124,5,-187,87,-231,175v-16,33,-27,67,-35,101v117,-16,244,-34,311,-92v19,-16,32,-32,39,-48xm445,-1473v106,-17,247,-15,354,0r182,252v-89,18,-190,15,-274,0","w":1042},"\u00e9":{"d":"995,-47v-144,64,-404,101,-576,41v-166,-57,-261,-186,-261,-404v0,-187,71,-351,164,-462v97,-117,245,-211,448,-211v144,0,246,52,295,149v41,81,28,203,-18,274v-90,138,-270,205,-467,236r-138,23v16,128,81,194,222,194v119,0,186,-29,276,-63v43,51,54,132,55,223xm803,-734v30,-68,-10,-139,-84,-136v-124,5,-187,87,-231,175v-16,33,-27,67,-35,101v117,-16,244,-34,311,-92v19,-16,32,-32,39,-48xm768,-1473v104,-15,249,-17,354,0r-289,252v-83,14,-186,19,-274,0","w":1042},"\u00ea":{"d":"995,-47v-144,64,-404,101,-576,41v-166,-57,-261,-186,-261,-404v0,-187,71,-351,164,-462v97,-117,245,-211,448,-211v144,0,246,52,295,149v41,81,28,203,-18,274v-90,138,-270,205,-467,236r-138,23v16,128,81,194,222,194v119,0,186,-29,276,-63v43,51,54,132,55,223xm803,-734v30,-68,-10,-139,-84,-136v-124,5,-187,87,-231,175v-16,33,-27,67,-35,101v117,-16,244,-34,311,-92v19,-16,32,-32,39,-48xm633,-1473v98,-10,225,-18,321,3r156,251v-70,17,-199,18,-273,-2r-61,-131r-104,131v-76,20,-211,20,-285,2","w":1042},"\u00eb":{"d":"995,-47v-144,64,-404,101,-576,41v-166,-57,-261,-186,-261,-404v0,-187,71,-351,164,-462v97,-117,245,-211,448,-211v144,0,246,52,295,149v41,81,28,203,-18,274v-90,138,-270,205,-467,236r-138,23v16,128,81,194,222,194v119,0,186,-29,276,-63v43,51,54,132,55,223xm803,-734v30,-68,-10,-139,-84,-136v-124,5,-187,87,-231,175v-16,33,-27,67,-35,101v117,-16,244,-34,311,-92v19,-16,32,-32,39,-48xm647,-1214v-81,13,-184,14,-264,0v4,-92,14,-170,43,-242v81,-15,183,-16,264,0v-3,92,-15,168,-43,242xm878,-1456v81,-15,185,-16,265,0v-6,90,-18,166,-43,242v-81,13,-185,14,-265,0v-2,-94,14,-171,43,-242","w":1042},"\u00ec":{"d":"217,-838v-7,-87,11,-156,39,-221r414,0r-187,1059v-103,15,-181,17,-284,0r147,-838r-129,0xm195,-1473v106,-17,247,-15,354,0r182,252v-89,18,-190,15,-274,0","w":638},"\u00ed":{"d":"217,-838v-7,-87,11,-156,39,-221r414,0r-187,1059v-103,15,-181,17,-284,0r147,-838r-129,0xm502,-1473v104,-15,249,-17,354,0r-289,252v-83,14,-186,19,-274,0","w":638},"\u00ee":{"d":"217,-838v-7,-87,11,-156,39,-221r414,0r-187,1059v-103,15,-181,17,-284,0r147,-838r-129,0xm387,-1473v98,-10,225,-18,321,3r156,251v-70,17,-199,18,-273,-2r-61,-131r-104,131v-76,20,-211,20,-285,2","w":638},"\u00ef":{"d":"217,-838v-7,-87,11,-156,39,-221r414,0r-187,1059v-103,15,-181,17,-284,0r147,-838r-129,0xm406,-1214v-81,13,-184,14,-264,0v4,-92,14,-170,43,-242v81,-15,183,-16,264,0v-3,92,-15,168,-43,242xm637,-1456v81,-15,185,-16,265,0v-6,90,-18,166,-43,242v-81,13,-185,14,-265,0v-2,-94,14,-171,43,-242","w":638},"\u00f0":{"d":"569,25v-265,0,-407,-152,-407,-406v0,-272,117,-468,302,-564v97,-51,236,-72,352,-29v41,15,75,36,104,65v-28,-94,-74,-188,-132,-246r-182,108v-32,-23,-68,-71,-80,-116r140,-82v-43,-20,-109,-36,-166,-39v1,-89,12,-168,53,-225v143,-1,282,43,358,106r179,-104v34,32,60,61,73,116r-141,88v143,179,196,527,123,823v-46,191,-141,344,-293,434v-78,47,-172,71,-283,71xm453,-385v0,122,38,196,153,197v107,1,166,-70,205,-144v37,-70,57,-173,57,-270v0,-116,-41,-184,-155,-184v-107,0,-166,70,-205,142v-36,67,-55,167,-55,259","w":1171},"\u00f1":{"d":"887,-727v0,-77,-31,-111,-103,-111v-62,0,-100,27,-137,75v-65,86,-103,201,-131,351r-76,412v-103,15,-192,17,-290,0r110,-604v26,-158,51,-296,43,-455v87,-16,178,-16,262,0v15,48,17,127,6,189v70,-113,181,-211,357,-211v173,0,262,85,260,270v0,48,-6,93,-14,139r-119,672v-100,15,-195,17,-291,0r115,-649v5,-27,8,-53,8,-78xm512,-1223v-28,-30,-68,-95,-72,-147v51,-55,143,-116,248,-115v111,2,169,72,281,72v70,0,93,-16,145,-57v30,34,67,96,72,151v-53,55,-144,112,-250,111v-111,-2,-171,-72,-281,-72v-72,0,-88,20,-143,57","w":1198},"\u00f2":{"d":"754,-1083v276,0,411,154,411,417v0,300,-126,522,-331,630v-75,40,-164,61,-265,61v-274,0,-409,-152,-409,-414v0,-297,130,-521,332,-631v74,-42,162,-63,262,-63xm596,-197v116,-1,176,-87,218,-171v40,-80,63,-194,63,-300v0,-125,-51,-188,-154,-188v-52,0,-94,18,-129,51v-92,89,-143,254,-143,426v0,121,48,182,145,182xm494,-1473v106,-17,247,-15,354,0r182,252v-89,18,-190,15,-274,0","w":1142},"\u00f3":{"d":"754,-1083v276,0,411,154,411,417v0,300,-126,522,-331,630v-75,40,-164,61,-265,61v-274,0,-409,-152,-409,-414v0,-297,130,-521,332,-631v74,-42,162,-63,262,-63xm596,-197v116,-1,176,-87,218,-171v40,-80,63,-194,63,-300v0,-125,-51,-188,-154,-188v-52,0,-94,18,-129,51v-92,89,-143,254,-143,426v0,121,48,182,145,182xm787,-1473v104,-15,249,-17,354,0r-289,252v-83,14,-186,19,-274,0","w":1142},"\u00f4":{"d":"754,-1083v276,0,411,154,411,417v0,300,-126,522,-331,630v-75,40,-164,61,-265,61v-274,0,-409,-152,-409,-414v0,-297,130,-521,332,-631v74,-42,162,-63,262,-63xm596,-197v116,-1,176,-87,218,-171v40,-80,63,-194,63,-300v0,-125,-51,-188,-154,-188v-52,0,-94,18,-129,51v-92,89,-143,254,-143,426v0,121,48,182,145,182xm664,-1473v98,-10,225,-18,321,3r156,251v-70,17,-199,18,-273,-2r-61,-131r-104,131v-76,20,-211,20,-285,2","w":1142},"\u00f5":{"d":"754,-1083v276,0,411,154,411,417v0,300,-126,522,-331,630v-75,40,-164,61,-265,61v-274,0,-409,-152,-409,-414v0,-297,130,-521,332,-631v74,-42,162,-63,262,-63xm596,-197v116,-1,176,-87,218,-171v40,-80,63,-194,63,-300v0,-125,-51,-188,-154,-188v-52,0,-94,18,-129,51v-92,89,-143,254,-143,426v0,121,48,182,145,182xm485,-1223v-28,-30,-68,-95,-72,-147v51,-55,143,-116,248,-115v111,2,169,72,281,72v70,0,93,-16,145,-57v30,34,67,96,72,151v-53,55,-144,112,-250,111v-111,-2,-171,-72,-281,-72v-72,0,-88,20,-143,57","w":1142},"\u00f6":{"d":"754,-1083v276,0,411,154,411,417v0,300,-126,522,-331,630v-75,40,-164,61,-265,61v-274,0,-409,-152,-409,-414v0,-297,130,-521,332,-631v74,-42,162,-63,262,-63xm596,-197v116,-1,176,-87,218,-171v40,-80,63,-194,63,-300v0,-125,-51,-188,-154,-188v-52,0,-94,18,-129,51v-92,89,-143,254,-143,426v0,121,48,182,145,182xm696,-1214v-81,13,-184,14,-264,0v4,-92,14,-170,43,-242v81,-15,183,-16,264,0v-3,92,-15,168,-43,242xm927,-1456v81,-15,185,-16,265,0v-6,90,-18,166,-43,242v-81,13,-185,14,-265,0v-2,-94,14,-171,43,-242","w":1142},"\u00f7":{"d":"653,-145v-119,0,-181,-116,-137,-223v27,-65,86,-114,176,-115v94,-1,154,60,152,155v-2,87,-53,140,-117,168v-23,10,-48,15,-74,15xm795,-977v-119,0,-182,-115,-137,-222v28,-66,86,-114,176,-116v94,-2,153,60,151,156v-2,87,-54,139,-117,167v-23,10,-47,15,-73,15xm309,-600v0,-102,16,-166,43,-248r862,0v11,90,-18,180,-43,248r-862,0"},"\u00f8":{"d":"252,-94v-108,-114,-112,-358,-56,-542v52,-169,153,-302,296,-384v131,-75,364,-86,495,-10r60,-76v36,-8,115,-8,155,0r-121,154v102,124,103,355,49,536v-49,168,-152,301,-296,380v-129,70,-349,83,-486,16r-57,73v-43,8,-113,9,-156,0xm823,-823v-62,-52,-175,-38,-229,18v-95,98,-146,267,-143,457xm877,-690r-369,469v61,43,168,24,219,-25v98,-94,151,-258,150,-444","w":1142},"\u00f9":{"d":"457,23v-173,0,-262,-85,-260,-271v0,-48,6,-93,14,-139r119,-672v94,-15,195,-17,291,0r-115,649v-5,27,-8,53,-8,78v-1,77,31,111,102,111v62,0,100,-27,137,-75v65,-86,103,-198,131,-351r76,-412v104,-15,191,-17,291,0r-111,604v-26,158,-51,296,-43,455v-92,15,-167,17,-262,0v-14,-47,-16,-127,-6,-188v-69,114,-181,211,-356,211xm445,-1473v106,-17,247,-15,354,0r182,252v-89,18,-190,15,-274,0","w":1198},"\u00fa":{"d":"457,23v-173,0,-262,-85,-260,-271v0,-48,6,-93,14,-139r119,-672v94,-15,195,-17,291,0r-115,649v-5,27,-8,53,-8,78v-1,77,31,111,102,111v62,0,100,-27,137,-75v65,-86,103,-198,131,-351r76,-412v104,-15,191,-17,291,0r-111,604v-26,158,-51,296,-43,455v-92,15,-167,17,-262,0v-14,-47,-16,-127,-6,-188v-69,114,-181,211,-356,211xm848,-1473v104,-15,249,-17,354,0r-289,252v-83,14,-186,19,-274,0","w":1198},"\u00fb":{"d":"457,23v-173,0,-262,-85,-260,-271v0,-48,6,-93,14,-139r119,-672v94,-15,195,-17,291,0r-115,649v-5,27,-8,53,-8,78v-1,77,31,111,102,111v62,0,100,-27,137,-75v65,-86,103,-198,131,-351r76,-412v104,-15,191,-17,291,0r-111,604v-26,158,-51,296,-43,455v-92,15,-167,17,-262,0v-14,-47,-16,-127,-6,-188v-69,114,-181,211,-356,211xm678,-1473v98,-10,225,-18,321,3r156,251v-70,17,-199,18,-273,-2r-61,-131r-104,131v-76,20,-211,20,-285,2","w":1198},"\u00fc":{"d":"457,23v-173,0,-262,-85,-260,-271v0,-48,6,-93,14,-139r119,-672v94,-15,195,-17,291,0r-115,649v-5,27,-8,53,-8,78v-1,77,31,111,102,111v62,0,100,-27,137,-75v65,-86,103,-198,131,-351r76,-412v104,-15,191,-17,291,0r-111,604v-26,158,-51,296,-43,455v-92,15,-167,17,-262,0v-14,-47,-16,-127,-6,-188v-69,114,-181,211,-356,211xm713,-1214v-81,13,-184,14,-264,0v4,-92,14,-170,43,-242v81,-15,183,-16,264,0v-3,92,-15,168,-43,242xm944,-1456v81,-15,185,-16,265,0v-6,90,-18,166,-43,242v-81,13,-185,14,-265,0v-2,-94,14,-171,43,-242","w":1198},"\u00fd":{"d":"504,-2v-57,8,-139,9,-199,2r-96,-1059v97,-15,203,-17,301,0r55,926r134,-292r92,-213v40,-94,62,-164,85,-249v15,-57,20,-115,9,-172v93,-16,214,-16,307,0v21,103,-27,203,-54,285r-28,69v-35,85,-84,193,-148,325r-245,501v-71,142,-140,244,-251,317v-73,48,-150,62,-255,62v-67,0,-102,-10,-156,-25v7,-86,21,-155,58,-215v39,17,92,26,145,14v64,-15,107,-55,151,-109v31,-37,67,-102,95,-167xm762,-1473v104,-15,249,-17,354,0r-289,252v-83,14,-186,19,-274,0","w":1110},"\u00fe":{"d":"918,-659v0,-93,-35,-177,-132,-177v-63,0,-117,27,-162,80v-45,53,-77,141,-98,264r-45,265v83,21,188,8,249,-32v116,-76,188,-218,188,-400xm518,25v-37,0,-55,-3,-80,-7r-82,465v-91,17,-201,19,-290,0r268,-1523v26,-158,54,-296,45,-455v92,-17,195,-15,287,-2v29,136,-8,294,-33,420r-39,200v61,-111,171,-208,340,-206v208,3,301,156,297,383v-5,321,-150,550,-383,660v-90,43,-200,65,-330,65","w":1204},"\u00ff":{"d":"504,-2v-57,8,-139,9,-199,2r-96,-1059v97,-15,203,-17,301,0r55,926r134,-292r92,-213v40,-94,62,-164,85,-249v15,-57,20,-115,9,-172v93,-16,214,-16,307,0v21,103,-27,203,-54,285r-28,69v-35,85,-84,193,-148,325r-245,501v-71,142,-140,244,-251,317v-73,48,-150,62,-255,62v-67,0,-102,-10,-156,-25v7,-86,21,-155,58,-215v39,17,92,26,145,14v64,-15,107,-55,151,-109v31,-37,67,-102,95,-167xm627,-1214v-81,13,-184,14,-264,0v4,-92,14,-170,43,-242v81,-15,183,-16,264,0v-3,92,-15,168,-43,242xm858,-1456v81,-15,185,-16,265,0v-6,90,-18,166,-43,242v-81,13,-185,14,-265,0v-2,-94,14,-171,43,-242","w":1110},"\u0152":{"d":"1982,-1473v11,95,-16,180,-45,254r-507,0r-56,320r404,0v0,82,-15,167,-45,256r-404,0r-69,389r522,0v9,97,-21,175,-43,254r-815,0v-60,16,-143,25,-217,25v-348,-3,-502,-208,-502,-557v0,-399,155,-719,415,-877v94,-59,207,-88,336,-88v82,0,155,8,220,24r806,0xm1130,-1221v-110,-38,-232,-47,-326,5v-172,95,-248,309,-278,543v-29,226,-9,462,211,458v85,0,168,-16,226,-49","w":1841},"\u0153":{"d":"1065,-901v93,-91,215,-184,401,-182v134,2,229,56,274,149v40,81,28,203,-18,274v-90,138,-269,206,-467,236r-137,23v16,127,81,193,221,194v119,0,187,-29,277,-63v43,51,54,132,55,223v-96,42,-229,69,-362,72v-188,5,-301,-78,-365,-185v-89,101,-211,183,-401,185v-254,3,-386,-162,-383,-414v4,-294,128,-519,326,-631v72,-42,156,-63,253,-63v167,0,272,77,326,182xm596,-197v116,-1,176,-87,218,-171v40,-80,63,-194,63,-300v0,-125,-51,-188,-154,-188v-52,0,-94,18,-129,51v-92,89,-143,254,-143,426v0,121,48,182,145,182xm1478,-734v33,-67,-9,-139,-83,-136v-124,5,-187,86,-231,175v-16,33,-27,67,-36,101v143,-21,299,-37,350,-140","w":1718},"\u0178":{"d":"987,-1833v81,-15,184,-16,264,0v-6,90,-16,166,-43,242v-81,13,-184,14,-264,0v-2,-95,13,-170,43,-242xm756,-1591v-81,13,-184,14,-264,0v4,-93,14,-168,43,-242v81,-15,184,-16,264,0v-4,92,-15,168,-43,242xm510,-526r-268,-947v109,-14,213,-19,315,0r158,654r379,-654v99,-14,218,-14,317,0r-600,947r-92,526v-95,16,-207,17,-301,0","w":1153},"\u02c6":{"d":"623,-1473v98,-10,225,-18,321,3r156,251v-70,17,-199,18,-273,-2r-61,-131r-104,131v-76,20,-211,20,-285,2","w":1019},"\u02dc":{"d":"426,-1223v-28,-30,-68,-95,-72,-147v51,-55,143,-116,248,-115v111,2,169,72,281,72v70,0,93,-16,145,-57v30,34,67,96,72,151v-53,55,-144,112,-250,111v-111,-2,-171,-72,-281,-72v-72,0,-88,20,-143,57","w":1024},"\u2013":{"d":"82,-436v-3,-111,14,-165,41,-252r1024,0v6,97,-18,173,-43,252r-1022,0","w":1024},"\u2014":{"d":"68,-436v-6,-92,13,-184,41,-252r2048,0v6,97,-18,173,-43,252r-2046,0","w":2048},"\u2018":{"d":"700,-946v-81,18,-186,16,-268,0r-149,-524v85,-19,198,-22,282,0","w":581},"\u2019":{"d":"459,-1470v84,-19,199,-21,282,0r-241,524v-81,16,-189,17,-269,0","w":557},"\u201a":{"d":"258,-293v82,-23,201,-22,283,0r-234,522v-83,17,-188,19,-270,0","w":593},"\u201c":{"d":"700,-946v-81,18,-186,16,-268,0r-149,-524v85,-19,198,-22,282,0xm1134,-946v-81,18,-186,16,-268,0r-149,-524v85,-19,198,-22,282,0","w":1015},"\u201d":{"d":"459,-1470v84,-19,199,-21,282,0r-241,524v-81,16,-189,17,-269,0xm893,-1470v84,-19,199,-21,282,0r-241,524v-81,16,-189,17,-269,0","w":991},"\u201e":{"d":"258,-293v82,-23,201,-22,283,0r-234,522v-83,17,-188,19,-270,0xm692,-293v82,-23,201,-22,283,0r-234,522v-83,17,-188,19,-270,0","w":1028},"\u2022":{"d":"306,-632v-32,-74,-33,-165,0,-238v48,-104,137,-189,282,-189v144,0,235,86,282,189v33,73,32,164,0,238v-32,76,-90,129,-164,163v-73,33,-164,33,-238,0v-75,-33,-129,-87,-162,-163","w":921},"\u2026":{"d":"444,0v-93,19,-207,19,-299,0v0,-118,22,-204,52,-299v93,-19,207,-19,299,0v0,118,-22,204,-52,299xm997,0v-93,19,-207,19,-299,0v0,-118,22,-204,52,-299v93,-19,207,-19,299,0v0,118,-22,204,-52,299xm1550,0v-93,19,-207,19,-299,0v0,-118,22,-204,52,-299v93,-19,207,-19,299,0v0,118,-22,204,-52,299","w":1697},"\u2039":{"d":"178,-551r430,-448v92,-19,222,-16,318,0r-437,467r256,442v-97,14,-206,18,-299,0","w":782},"\u203a":{"d":"514,-569r-262,-430v97,-14,204,-20,299,0r270,471r-424,438v-97,18,-226,14,-325,0","w":800},"\u20ac":{"d":"872,25v-344,2,-523,-168,-550,-482r-189,0v-3,-59,8,-116,31,-172r155,0r9,-84v3,-27,7,-55,12,-82r-145,0v-6,-60,10,-126,28,-172r166,0v86,-222,236,-392,467,-467v172,-56,431,-47,567,29v-19,96,-43,152,-86,234v-144,-62,-363,-61,-476,25v-61,47,-111,106,-146,179r422,0v9,64,-14,123,-29,172r-449,0v-9,53,-15,109,-18,166r436,0v9,55,-11,136,-30,172r-400,0v25,152,109,220,287,221v95,1,167,-18,237,-43v29,66,48,159,54,246v-96,39,-226,57,-353,58"},"\u2122":{"d":"649,-631v-67,16,-143,22,-211,0r0,-622r-196,0v-11,-56,-12,-137,0,-195r602,0v10,60,11,135,0,195r-195,0r0,622xm1130,-631v-67,22,-136,13,-204,0r45,-815r62,-7v56,-8,107,1,157,7r156,389r151,-389v66,-13,142,-12,211,0r45,815v-69,14,-142,21,-211,0r-26,-416r-115,269v-48,10,-103,7,-156,0r-94,-260","w":1638}}});
