/*!
 * The following copyright notice may not be removed under any circumstances.
 * 
 * Copyright:
 * Copyright (c) 2008 by Jos Buivenga. All rights reserved.
 * 
 * Trademark:
 * Museo Sans is a trademark of Jos Buivenga.
 * 
 * Description:
 * Spaced and kerned with iKern.
 * 
 * Manufacturer:
 * Jos Buivenga
 * 
 * Designer:
 * Jos Buivenga
 * 
 * Vendor URL:
 * http://www.josbuivenga.demon.nl
 */
Cufon.registerFont({"w":821,"face":{"font-family":"Museo Sans 500","font-weight":400,"font-stretch":"normal","units-per-em":"1000","panose-1":"2 0 0 0 0 0 0 0 0 0","ascent":"750","descent":"-250","x-height":"12","bbox":"-55 -892 957.571 210","underline-thickness":"50","underline-position":"-50","stemh":"86","stemv":"99","unicode-range":"U+0020-U+2122"},"glyphs":{" ":{"w":257},"!":{"d":"116,-194r-7,-512r100,0r-6,512r-87,0xm110,0r0,-97r99,0r0,97r-99,0","w":318},"\"":{"d":"203,-530r0,-188r76,0r0,188r-76,0xm63,-530r0,-188r76,0r0,188r-76,0","w":342},"#":{"d":"141,0r33,-191r-130,0r12,-74r131,0r29,-168r-129,0r12,-73r130,0r35,-200r81,0r-35,200r155,0r35,-200r81,0r-35,200r131,0r-13,73r-130,0r-30,168r130,0r-13,74r-129,0r-34,191r-81,0r33,-191r-155,0r-33,191r-81,0xm268,-265r155,0r30,-168r-155,0","w":718},"$":{"d":"54,-81r56,-75v0,0,75,76,180,76v66,0,122,-37,122,-104v0,-146,-346,-123,-346,-337v0,-97,75,-178,186,-194r0,-94r71,0r0,93v112,8,171,69,171,69r-45,82v0,0,-65,-61,-155,-61v-76,0,-128,47,-128,103v0,140,346,111,346,336v0,100,-71,183,-189,197r0,92r-71,0r0,-92v-128,-13,-198,-91,-198,-91","w":566},"%":{"d":"199,-422v-84,0,-151,-66,-151,-148v0,-81,67,-148,151,-148v84,0,152,67,152,148v0,82,-68,148,-152,148xm63,0r540,-706r94,0r-540,706r-94,0xm199,-496v42,0,74,-32,74,-74v0,-41,-32,-75,-74,-75v-42,0,-74,34,-74,75v0,42,32,74,74,74xm410,-136v0,-81,67,-148,152,-148v83,0,152,67,152,148v0,82,-69,148,-152,148v-85,0,-152,-66,-152,-148xm488,-136v0,42,32,74,74,74v41,0,74,-32,74,-74v0,-41,-33,-75,-74,-75v-42,0,-74,34,-74,75","w":761},"&":{"d":"54,-198v0,-78,46,-155,124,-181r0,-2v0,0,-93,-32,-93,-155v0,-117,92,-182,217,-182v39,0,86,11,86,11r-25,79v0,0,-29,-6,-53,-6v-70,0,-125,39,-125,108v0,44,21,111,130,111r131,0r0,-96r97,0r0,96r94,0r0,86r-94,0r0,94v0,157,-93,247,-244,247v-147,0,-245,-91,-245,-210xm155,-203v0,68,56,124,144,124v90,0,147,-49,147,-160r0,-90r-135,0v-100,0,-156,47,-156,126","w":684},"'":{"d":"63,-530r0,-188r77,0r0,188r-77,0","w":203},"(":{"d":"189,95v-72,-120,-116,-274,-116,-435v0,-144,42,-277,116,-395r85,0v-155,250,-145,569,0,830r-85,0","w":302},")":{"d":"113,95r-85,0v145,-261,156,-580,0,-830r85,0v74,118,116,251,116,395v0,161,-44,315,-116,435","w":302},"*":{"d":"155,-329r-72,-52r89,-110r0,-2r-136,-37r26,-84r133,50r-7,-142r91,0r-8,142r134,-50r27,84r-137,37r0,2r88,110r-71,52r-77,-118r-2,0","w":467},"+":{"d":"77,-246r0,-78r224,0r0,-246r82,0r0,246r223,0r0,78r-223,0r0,246r-82,0r0,-246r-224,0","w":683},",":{"d":"27,101r62,-206r99,0r-84,206r-77,0","w":255},"-":{"d":"90,-242r0,-86r292,0r0,86r-292,0","w":472},".":{"d":"76,0r0,-103r102,0r0,103r-102,0","w":254},"\/":{"d":"36,42r254,-786r86,0r-254,786r-86,0","w":404},"0":{"d":"312,12v-188,0,-249,-162,-249,-366v0,-203,61,-364,249,-364v189,0,250,161,250,364v0,204,-61,366,-250,366xm312,-79v116,0,149,-121,149,-275v0,-153,-33,-273,-149,-273v-115,0,-148,120,-148,273v0,154,33,275,148,275","w":625},"1":{"d":"56,0r0,-86r156,0r1,-500v-6,-1,-8,14,-36,41r-66,65r-60,-62r169,-164r88,0r0,620r154,0r0,86r-406,0","w":489},"2":{"d":"60,0v-3,-19,-5,-37,-5,-54v0,-252,346,-288,346,-454v0,-70,-53,-117,-127,-117v-93,0,-143,90,-143,90r-73,-49v0,0,64,-134,223,-134v130,0,223,81,223,203v0,232,-337,268,-339,429r350,0r0,86r-455,0","w":572},"3":{"d":"40,-84r54,-75v0,0,69,77,171,77v79,0,144,-53,144,-129v0,-87,-77,-130,-164,-130r-49,0r-23,-53r154,-181v24,-30,45,-43,44,-48v-76,6,-211,2,-299,3r0,-86r422,0r0,63r-192,221v93,10,207,70,207,207v0,121,-95,227,-240,227v-144,0,-229,-96,-229,-96","w":567},"4":{"d":"31,-189r0,-62r326,-455r113,0r0,433r96,0r0,84r-96,0r0,189r-97,0r0,-189r-342,0xm140,-273r233,0r0,-257v0,-33,4,-70,4,-70v-6,-1,-17,31,-37,58r-200,267r0,2","w":606},"5":{"d":"48,-86r55,-72v0,0,55,76,155,76v83,0,155,-57,155,-143v0,-85,-70,-145,-161,-145v-69,0,-119,35,-119,35r-57,-21r35,-350r356,0r0,86r-270,0r-17,149v1,22,-9,38,-3,37v0,0,39,-22,91,-22v149,0,246,103,246,230v0,136,-107,238,-250,238v-145,0,-216,-98,-216,-98","w":563},"6":{"d":"323,12v-151,0,-264,-132,-264,-333v0,-181,99,-397,318,-397v83,0,137,29,137,29r-32,85v0,0,-45,-23,-101,-23v-130,0,-197,120,-212,237r2,0v30,-40,94,-67,156,-67v134,0,223,102,223,233v0,139,-95,236,-227,236xm322,-79v81,0,130,-63,130,-145v0,-86,-55,-149,-145,-149v-80,0,-144,48,-144,99v0,92,69,195,159,195","w":599},"7":{"d":"86,0r275,-556v20,-43,42,-62,41,-67v-104,7,-254,1,-367,3r0,-86r472,0r0,68r-319,638r-102,0","w":529},"8":{"d":"57,-204v0,-108,94,-175,113,-188v-46,-33,-79,-76,-79,-141v0,-94,71,-185,220,-185v131,0,222,73,222,189v0,94,-75,174,-84,184v54,33,96,77,96,150v0,110,-95,207,-242,207v-141,0,-246,-88,-246,-216xm443,-198v0,-76,-105,-106,-200,-152v-23,16,-85,64,-85,140v0,81,70,133,145,133v74,0,140,-48,140,-121xm189,-531v0,78,94,108,185,147v11,-11,62,-65,62,-139v0,-65,-52,-106,-126,-106v-78,0,-121,44,-121,98","w":607},"9":{"d":"222,12v-84,0,-137,-29,-137,-29r32,-86v0,0,45,24,101,24v130,0,197,-120,212,-237r-2,0v-29,40,-94,66,-156,66v-134,0,-223,-101,-223,-232v0,-139,95,-236,227,-236v150,0,264,131,264,333v0,181,-99,397,-318,397xm292,-333v80,0,144,-49,144,-99v0,-92,-69,-195,-159,-195v-82,0,-130,63,-130,145v0,86,54,149,145,149","w":599},":":{"d":"95,-403r0,-103r102,0r0,103r-102,0xm95,0r0,-103r102,0r0,103r-102,0","w":292},";":{"d":"47,101r53,-206r100,0r-75,206r-78,0xm101,-403r0,-103r102,0r0,103r-102,0","w":293},"<":{"d":"33,-252r0,-66r466,-208r0,89r-358,151r0,2r358,151r0,89","w":558},"=":{"d":"96,-340r0,-78r477,0r0,78r-477,0xm96,-151r0,-78r477,0r0,78r-477,0","w":669},">":{"d":"59,-44r0,-89r357,-151r0,-2r-357,-151r0,-89r466,208r0,66","w":558},"?":{"d":"144,-194r0,-47v0,-152,170,-174,170,-289v0,-56,-48,-99,-114,-99v-63,0,-114,42,-114,42r-54,-69v0,0,66,-64,175,-64v113,0,209,72,209,183v0,165,-177,182,-177,302r0,41r-95,0xm142,0r0,-97r99,0r0,97r-99,0","w":489},"@":{"d":"59,-241v0,-206,161,-370,365,-370v193,0,260,97,260,203r0,283r72,0r0,73r-273,0v-125,0,-207,-88,-207,-189v0,-99,81,-187,207,-187r108,0v-2,-57,-59,-103,-162,-103v-155,0,-273,134,-273,290v0,158,114,287,284,287r0,79v-224,0,-381,-162,-381,-366xm374,-242v0,65,48,117,116,117r101,0r0,-236r-99,0v-70,0,-118,54,-118,119"},"A":{"d":"517,0r-71,-203r-266,0r-70,203r-102,0r254,-706r104,0r254,706r-103,0xm315,-609r-2,0v-21,89,-75,233,-107,324r214,0r-78,-224v-12,-36,-27,-100,-27,-100","w":628},"B":{"d":"96,0r0,-706r247,0v119,0,205,66,205,180v0,69,-34,124,-88,152r0,2v74,22,116,92,116,171v0,133,-103,201,-227,201r-253,0xm195,-409r148,0v64,0,104,-45,104,-107v0,-62,-38,-104,-106,-104r-146,0r0,211xm195,-86r159,0v76,0,121,-48,121,-120v0,-72,-48,-121,-122,-121r-158,0r0,241","w":634},"C":{"d":"48,-357v0,-205,154,-361,359,-361v170,0,257,93,257,93r-49,74v0,0,-82,-77,-204,-77v-158,0,-261,120,-261,270v0,151,105,279,262,279v133,0,218,-92,218,-92r53,71v0,0,-97,112,-274,112v-212,0,-361,-162,-361,-369","w":722},"D":{"d":"96,0r0,-706r234,0v216,0,358,129,358,352v0,224,-142,354,-358,354r-234,0xm195,-86r128,0v159,0,263,-94,263,-268v0,-173,-105,-266,-263,-266r-128,0r0,534","w":740},"E":{"d":"96,0r0,-706r410,0r0,86r-311,0r0,221r253,0r0,86r-253,0r0,227r328,0r0,86r-427,0","w":573},"F":{"d":"96,0r0,-706r389,0r0,86r-290,0r0,232r247,0r0,86r-247,0r0,302r-99,0","w":521},"G":{"d":"49,-354v0,-204,154,-364,360,-364v169,0,257,85,257,85r-50,74v0,0,-79,-69,-199,-69v-166,0,-266,121,-266,272v0,164,112,277,260,277v122,0,200,-88,200,-88r0,-102r-115,0r0,-86r205,0r0,355r-87,0r1,-74v-6,-1,-75,86,-219,86v-190,0,-347,-150,-347,-366","w":760},"H":{"d":"96,0r0,-706r99,0r0,310r366,0r0,-310r99,0r0,706r-99,0r0,-310r-366,0r0,310r-99,0","w":756},"I":{"d":"96,0r0,-706r99,0r0,706r-99,0","w":291},"J":{"d":"30,-203r0,-35r98,0r0,30v0,96,56,129,112,129v55,0,110,-32,110,-125r0,-416r-178,0r0,-86r277,0r0,503v0,153,-107,215,-210,215v-103,0,-209,-63,-209,-215","w":537},"K":{"d":"96,0r0,-706r99,0r0,297r105,0r178,-297r109,0r-205,335r0,2r218,369r-112,0r-188,-324r-105,0r0,324r-99,0","w":623},"L":{"d":"96,0r0,-706r99,0r0,620r316,0r0,86r-415,0","w":529},"M":{"d":"74,0r57,-706r104,0r162,382v16,39,35,95,35,95r2,0v52,-146,137,-330,197,-477r104,0r57,706r-98,0r-35,-445v-3,-43,-1,-104,-1,-104r-2,0v0,0,-21,65,-38,104r-141,318r-88,0r-140,-318v-16,-38,-38,-106,-38,-106r-2,0v0,0,1,63,-2,106r-34,445r-99,0","w":866},"N":{"d":"96,0r0,-706r98,0r314,459v26,38,59,102,59,102r2,0v0,0,-7,-63,-7,-102r0,-459r99,0r0,706r-97,0r-315,-458v-26,-39,-59,-103,-59,-103r-2,0v0,0,7,63,7,103r0,458r-99,0","w":757},"O":{"d":"48,-358v0,-203,159,-360,363,-360v204,0,362,157,362,360v0,208,-158,370,-362,370v-204,0,-363,-162,-363,-370xm150,-358v0,159,117,279,261,279v144,0,260,-120,260,-279v0,-154,-116,-270,-260,-270v-144,0,-261,116,-261,270"},"P":{"d":"96,0r0,-706r258,0v129,0,222,87,222,221v0,134,-93,224,-222,224r-159,0r0,261r-99,0xm195,-347r143,0v85,0,137,-53,137,-138v0,-85,-52,-135,-136,-135r-144,0r0,273","w":607},"Q":{"d":"49,-357v0,-204,158,-361,362,-361v205,0,363,157,363,361v0,89,-32,171,-83,233r84,80r-58,62r-82,-82v-61,49,-138,76,-224,76v-204,0,-362,-163,-362,-369xm151,-357v0,158,114,278,260,278v53,0,112,-19,153,-52r-83,-81r58,-62r81,82v32,-44,52,-103,52,-165v0,-156,-114,-271,-261,-271v-146,0,-260,115,-260,271","w":833},"R":{"d":"96,0r0,-706v105,3,281,-10,348,16v72,27,119,98,119,191v0,90,-50,166,-127,191v-1,6,7,8,21,34r150,274r-112,0r-149,-281r-151,0r0,281r-99,0xm195,-367r142,0v77,0,125,-49,125,-128v0,-52,-21,-87,-56,-109v-33,-20,-146,-15,-211,-16r0,253","w":641},"S":{"d":"42,-81r56,-75v0,0,75,76,180,76v66,0,122,-37,122,-104v0,-153,-342,-120,-342,-337v0,-110,95,-197,228,-197v131,0,200,71,200,71r-45,82v0,0,-65,-61,-155,-61v-75,0,-128,47,-128,103v0,146,342,107,342,336v0,109,-84,199,-224,199v-150,0,-234,-93,-234,-93","w":546},"T":{"d":"247,0r0,-620r-242,0r0,-86r583,0r0,86r-242,0r0,620r-99,0","w":593},"U":{"d":"86,-250r0,-456r99,0r0,456v0,108,70,171,178,171v109,0,180,-63,180,-173r0,-454r99,0r0,456v0,157,-113,262,-278,262v-165,0,-278,-105,-278,-262","w":728},"V":{"d":"267,0r-261,-706r107,0r175,499v13,38,27,97,27,97r2,0v0,0,14,-59,27,-97r177,-499r105,0r-260,706r-99,0","w":632},"W":{"d":"428,-706r88,0r138,518v10,39,15,75,15,75r2,0v0,0,3,-37,13,-75r130,-518r102,0r-185,706r-115,0r-122,-458v-12,-45,-21,-100,-21,-100r-2,0v0,0,-9,55,-21,100r-122,458r-115,0r-180,-706r102,0r125,518v9,38,13,75,13,75r2,0v0,0,5,-36,15,-75","w":948},"X":{"d":"22,0r223,-364r-209,-342r114,0r111,191v25,39,41,85,47,84v31,-69,111,-200,154,-275r114,0r-209,342r223,364r-112,0r-128,-217r-45,-81v-6,-1,-20,40,-44,81r-128,217r-111,0","w":612},"Y":{"d":"245,0r0,-299r-237,-407r112,0r131,232v22,39,43,89,43,89v6,1,22,-47,45,-89r129,-232r112,0r-236,407r0,299r-99,0","w":588},"Z":{"d":"41,0r0,-66r340,-490v27,-43,52,-62,51,-67v-106,7,-257,1,-373,3r0,-86r496,0r0,65r-340,491v-27,42,-52,61,-51,66v0,0,19,-2,53,-2r342,0r0,86r-518,0","w":607},"[":{"d":"101,95r0,-830r165,0r0,73r-80,0r0,683r80,0r0,74r-165,0","w":301},"\\":{"d":"282,42r-254,-786r86,0r254,786r-86,0","w":404},"]":{"d":"35,21r81,0r0,-683r-81,0r0,-73r166,0r0,830r-166,0r0,-74","w":302},"^":{"d":"69,-247r200,-459r63,0r199,459r-87,0r-144,-352r-143,352r-88,0","w":613},"_":{"d":"28,0r538,0r0,78r-538,0r0,-78","w":594},"`":{"d":"256,-755r-95,-127r104,0r73,127r-82,0","w":499},"a":{"d":"35,-142v0,-167,220,-174,305,-174r22,0v3,-87,-44,-120,-111,-120v-78,0,-141,49,-141,49r-40,-71v0,0,73,-60,189,-60v128,0,200,70,200,198r0,320r-90,0r0,-48v-2,-24,6,-41,0,-40v0,0,-41,100,-162,100v-87,0,-172,-53,-172,-154xm133,-147v0,41,32,81,95,81v87,0,140,-89,135,-177r-25,0v-73,0,-205,5,-205,96","w":528},"b":{"d":"76,0r0,-706r97,0r0,231v2,26,-6,44,0,43v0,0,43,-86,162,-86v136,0,222,108,222,265v0,161,-97,265,-230,265v-113,0,-159,-87,-159,-87r-2,0v1,4,3,58,2,75r-92,0xm170,-251v0,90,47,180,143,180v80,0,146,-66,146,-181v0,-110,-59,-181,-143,-181v-76,0,-146,53,-146,182","w":600},"c":{"d":"40,-253v0,-150,112,-265,271,-265v127,0,190,74,190,74r-46,68v0,0,-54,-58,-140,-58v-102,0,-176,76,-176,180v0,103,74,182,179,182v94,0,156,-68,156,-68r39,71v0,0,-70,81,-202,81v-159,0,-271,-113,-271,-265","w":547},"d":{"d":"43,-253v0,-161,95,-265,229,-265v117,0,156,80,156,80r2,0v-5,-78,-1,-184,-2,-268r97,0r0,706r-92,0r1,-82r-2,0v0,0,-41,94,-166,94v-137,0,-223,-108,-223,-265xm142,-253v0,110,59,181,143,181v75,0,146,-53,146,-182v0,-90,-47,-180,-143,-180v-80,0,-146,66,-146,181","w":601},"e":{"d":"41,-253v0,-161,109,-265,253,-265v157,0,234,124,216,279r-369,0v5,111,84,167,174,167v87,0,150,-59,150,-59r40,71v0,0,-75,72,-196,72v-159,0,-268,-115,-268,-265xm144,-312r270,0v-3,-87,-57,-129,-122,-129v-74,0,-134,46,-148,129","w":555},"f":{"d":"103,0r0,-421r-63,0r0,-78r63,0r0,-24v0,-167,126,-188,190,-188v22,0,37,3,37,3r0,83v0,0,-10,-2,-25,-2v-37,0,-106,12,-106,106r0,22r120,0r0,78r-120,0r0,421r-96,0","w":336},"g":{"d":"121,92v0,0,63,34,139,34v88,0,160,-39,160,-142r1,-69r-2,0v-30,50,-77,79,-150,79v-141,0,-226,-113,-226,-259v0,-145,81,-253,221,-253v122,0,159,75,159,75r2,0v-2,-14,-1,-45,-1,-63r93,0r0,485v-1,239,-258,273,-428,189xm288,-90v70,0,134,-42,134,-174v0,-132,-64,-170,-143,-170v-88,0,-138,64,-138,167v0,105,56,177,147,177","w":593},"h":{"d":"341,-429v-96,0,-168,77,-168,192r0,237r-97,0r0,-706r97,0r0,259v2,25,-6,43,0,42v22,-49,86,-113,187,-113v119,0,174,65,174,194r0,324r-97,0r0,-302v0,-71,-15,-127,-96,-127","w":603},"i":{"d":"75,-607r0,-99r98,0r0,99r-98,0xm76,0r0,-506r97,0r0,506r-97,0","w":249},"j":{"d":"75,-607r0,-99r98,0r0,99r-98,0xm76,-506r96,0r0,523v0,169,-130,189,-193,189v-21,0,-34,-2,-34,-2r0,-83v0,0,9,1,22,1v37,0,109,-12,109,-111r0,-517","w":248},"k":{"d":"76,0r0,-706r97,0r0,386r71,0r138,-186r110,0r-168,223r0,2r187,281r-113,0r-152,-238r-73,0r0,238r-97,0","w":526},"l":{"d":"70,-138r0,-568r97,0r0,551v2,69,27,75,71,71r0,86v0,0,-15,2,-32,2v-55,0,-136,-15,-136,-142","w":265},"m":{"d":"324,-430v-92,0,-151,88,-151,199r0,231r-97,0r0,-506r94,0r0,67v2,21,-6,38,0,37v24,-59,95,-116,174,-116v85,0,135,39,152,115r2,0v28,-61,98,-115,180,-115v114,0,167,65,167,194r0,324r-97,0r0,-303v0,-71,-14,-127,-90,-127v-92,0,-149,89,-149,199r0,231r-97,0r0,-303v0,-66,-10,-127,-88,-127","w":914},"n":{"d":"341,-429v-98,0,-168,76,-168,192r0,237r-97,0r0,-506r94,0r0,67v2,21,-6,38,0,37v20,-44,80,-116,190,-116v119,0,174,65,174,194r0,324r-97,0r0,-302v0,-71,-15,-127,-96,-127","w":603},"o":{"d":"39,-254v0,-153,122,-264,273,-264v151,0,273,111,273,264v0,154,-122,266,-273,266v-151,0,-273,-112,-273,-266xm138,-254v0,106,79,182,174,182v96,0,174,-76,174,-182v0,-105,-78,-180,-174,-180v-95,0,-174,75,-174,180","w":624},"p":{"d":"76,200r0,-706r89,0r0,43v2,21,-6,38,0,37v0,0,43,-92,170,-92v136,0,222,108,222,265v0,161,-97,265,-229,265v-111,0,-155,-83,-155,-83r-2,0v0,0,2,18,2,44r0,227r-97,0xm170,-251v0,90,50,180,143,180v80,0,146,-66,146,-181v0,-110,-59,-181,-143,-181v-76,0,-146,53,-146,182","w":600},"q":{"d":"43,-253v0,-161,95,-265,229,-265v117,0,160,85,160,85r2,0r-1,-73r92,0r0,706r-97,0r0,-231v-2,-27,6,-45,0,-44v0,0,-42,87,-162,87v-137,0,-223,-108,-223,-265xm142,-253v0,110,59,181,143,181v75,0,146,-53,146,-182v0,-90,-47,-180,-143,-180v-80,0,-146,66,-146,181","w":601},"r":{"d":"76,0r0,-506r94,0r0,88v2,22,-6,39,0,38v27,-81,89,-143,185,-130r0,96v-108,-22,-182,79,-182,207r0,207r-97,0","w":375},"s":{"d":"35,-62r47,-69v0,0,57,59,145,59v42,0,84,-22,84,-63v0,-93,-260,-74,-260,-239v0,-92,82,-144,183,-144v111,0,163,56,163,56r-39,73v0,0,-45,-45,-125,-45v-42,0,-83,18,-83,62v0,91,260,71,260,237v0,84,-72,147,-183,147v-124,0,-192,-74,-192,-74","w":448},"t":{"d":"97,-185r0,-236r-66,0r0,-78r69,0r0,-146r94,0r0,146r122,0r0,78r-122,0r0,225v0,101,71,114,108,114v14,0,23,-2,23,-2r0,86v0,0,-14,2,-34,2v-65,0,-194,-20,-194,-189","w":358},"u":{"d":"69,-182r0,-324r97,0r0,302v0,70,14,126,95,126v103,0,164,-91,164,-191r0,-237r97,0r0,506r-94,0r0,-67v-2,-22,6,-38,0,-37v-21,50,-87,116,-186,116v-114,0,-173,-60,-173,-194","w":598},"v":{"d":"196,0r-189,-506r103,0r123,342v12,29,12,71,19,69v1,0,8,-41,18,-69r123,-342r102,0r-187,506r-112,0","w":502},"w":{"d":"180,0r-163,-506r103,0r105,355v10,27,8,56,15,54v0,0,5,-28,13,-54r110,-354r89,0r109,354v10,27,10,56,16,54v0,0,4,-28,12,-54r106,-355r102,0r-163,506r-107,0r-105,-325v-10,-27,-10,-57,-16,-55v-31,122,-81,259,-118,380r-108,0","w":814},"x":{"d":"270,-169v-9,-13,-12,-29,-17,-28v-35,64,-83,134,-121,197r-110,0r172,-260r-163,-246r111,0r94,154v10,14,14,31,19,30v0,0,9,-17,17,-30r94,-154r111,0r-163,246r172,260r-110,0","w":508},"y":{"d":"5,179r34,-74v0,0,28,21,59,21v39,0,72,-28,91,-74r25,-58r-212,-500r109,0r127,331v10,26,19,61,19,61v6,2,9,-33,19,-60r123,-332r105,0r-237,597v-31,78,-93,119,-164,119v-57,0,-98,-31,-98,-31","w":510},"z":{"d":"39,0r0,-56r255,-320v23,-30,43,-44,42,-49v0,0,-16,2,-49,2r-237,0r0,-83r417,0r0,56r-255,321v-22,29,-44,43,-43,48v0,0,17,-2,50,-2r257,0r0,83r-437,0","w":517},"{":{"d":"134,-77r0,-96v0,-102,-85,-109,-85,-109r0,-86v0,0,85,-7,85,-111r0,-84v0,-158,114,-174,162,-174v14,0,23,1,23,1r0,74r-14,0v-25,0,-86,9,-86,105r0,103v0,99,-81,127,-81,127r0,2v0,0,81,24,81,127r0,115v0,96,61,105,86,105r14,0r0,74v0,0,-9,2,-23,2v-48,0,-162,-16,-162,-175","w":350},"|":{"d":"99,159r0,-951r85,0r0,951r-85,0","w":283},"}":{"d":"31,22r14,0v25,0,86,-9,86,-105r0,-115v0,-103,81,-127,81,-127r0,-2v0,0,-81,-28,-81,-127r0,-103v0,-96,-61,-105,-86,-105r-14,0r0,-74v0,0,9,-1,23,-1v48,0,162,16,162,174r0,84v0,104,85,111,85,111r0,86v0,0,-85,7,-85,109r0,96v0,159,-114,175,-162,175v-14,0,-23,-2,-23,-2r0,-74","w":350},"~":{"d":"67,-204v0,-116,53,-169,140,-169v105,0,116,98,191,98v53,0,67,-52,67,-94r79,0v0,117,-53,169,-139,169v-105,0,-116,-97,-192,-97v-52,0,-67,52,-67,93r-79,0","w":608},"\u00a0":{"w":257},"\u00a1":{"d":"94,-409r0,-97r99,0r0,97r-99,0xm94,200r7,-512r87,0r6,512r-100,0","w":289},"\u00a2":{"d":"264,13r0,-86v-132,-18,-211,-136,-211,-280v0,-145,79,-263,211,-281r0,-84r71,0r0,84v88,13,154,72,188,155r-88,34v-25,-56,-67,-99,-133,-99v-96,0,-150,83,-150,191v0,111,51,190,150,190v65,0,108,-42,133,-99r88,35v-32,74,-94,144,-188,154r0,86r-71,0","w":576},"\u00a3":{"d":"73,-319r0,-70r44,0r0,-136v0,-111,91,-193,217,-193v101,0,167,64,167,64r-57,69v0,0,-48,-43,-109,-43v-74,0,-118,48,-118,107r0,132r184,0r0,70r-184,0r0,233r325,0r0,86r-486,0r0,-86r61,0r0,-233r-44,0","w":591},"\u00a5":{"d":"90,-347r0,-63r103,0r-165,-296r113,0r118,220v22,47,43,102,43,102r2,0v0,0,18,-56,43,-102r119,-220r113,0r-166,296r102,0r0,63r-135,0r-27,48r0,37r162,0r0,63r-162,0r0,199r-100,0r0,-199r-163,0r0,-63r163,0r0,-37r-27,-48r-136,0","w":607},"\u00a7":{"d":"139,-111r-70,-390v-28,-123,49,-216,183,-217v86,0,141,51,141,51r-46,64v0,0,-40,-34,-95,-34v-60,0,-107,33,-107,101v0,12,3,25,6,40r68,385r-80,0xm48,11r44,-67v0,0,41,37,97,37v59,0,106,-35,106,-105v0,-13,-3,-28,-6,-45r-66,-376r79,0r70,390v25,126,-50,217,-183,217v-87,0,-141,-51,-141,-51","w":442},"\u00a8":{"d":"293,-781r0,-101r80,0r0,101r-80,0xm126,-781r0,-101r80,0r0,101r-80,0","w":499},"\u00a9":{"d":"54,-353v0,-203,158,-365,355,-365v199,0,358,162,358,365v0,203,-159,365,-358,365v-197,0,-355,-162,-355,-365xm127,-353v0,167,123,297,282,297v161,0,285,-130,285,-297v0,-167,-124,-297,-285,-297v-159,0,-282,130,-282,297xm219,-352v0,-105,76,-200,197,-200v115,0,163,99,163,99r-61,33v0,0,-34,-63,-99,-63v-79,0,-124,62,-124,131v0,71,43,131,124,131v66,0,99,-63,99,-63r61,33v0,0,-48,99,-163,99v-121,0,-197,-94,-197,-200"},"\u00aa":{"d":"182,-382v-53,0,-108,-34,-108,-97v0,-111,134,-110,198,-110v2,-50,-25,-70,-64,-69v-43,0,-83,28,-83,28r-29,-49v0,0,45,-37,121,-37v83,0,127,45,127,126r0,201r-68,0r0,-46v-6,-1,-25,53,-94,53xm197,-441v48,0,77,-48,75,-97v-47,0,-126,-1,-126,54v0,23,18,43,51,43xm73,-265r0,-57r275,0r0,57r-275,0","w":422},"\u00ab":{"d":"245,-282r164,-206r97,0r-164,206r164,205r-97,0xm208,-77r-164,-205r164,-206r97,0r-164,206r164,205r-97,0","w":556},"\u00ac":{"d":"60,-340r0,-78r477,0r0,267r-81,0r0,-189r-396,0","w":614},"\u00ad":{"d":"70,-242r0,-86r292,0r0,86r-292,0","w":431},"\u00ae":{"d":"54,-353v0,-203,158,-365,355,-365v199,0,358,162,358,365v0,203,-159,365,-358,365v-197,0,-355,-162,-355,-365xm127,-353v0,167,123,297,282,297v161,0,285,-130,285,-297v0,-167,-124,-297,-285,-297v-159,0,-282,130,-282,297xm287,-166r0,-377r145,0v71,0,119,45,119,115v0,58,-38,92,-69,100r85,162r-78,0r-70,-146r-61,0r0,146r-71,0xm358,-364r60,0v37,0,61,-24,61,-64v0,-39,-24,-61,-61,-61r-60,0r0,125"},"\u00af":{"d":"122,-784r0,-70r255,0r0,70r-255,0","w":499},"\u00b0":{"d":"194,-422v-84,0,-151,-66,-151,-148v0,-81,67,-148,151,-148v84,0,152,67,152,148v0,82,-68,148,-152,148xm194,-496v42,0,74,-33,74,-74v0,-41,-32,-75,-74,-75v-42,0,-74,34,-74,75v0,41,32,74,74,74","w":389},"\u00b1":{"d":"76,-246r0,-78r224,0r0,-246r82,0r0,246r223,0r0,78r-223,0r0,246r-82,0r0,-246r-224,0xm92,95r497,0r0,78r-497,0r0,-78","w":681},"\u00b2":{"d":"50,-423v-1,-12,-3,-25,-3,-36v0,-169,212,-177,212,-277v0,-37,-30,-65,-72,-65v-49,0,-84,48,-84,48r-49,-45v0,0,45,-72,137,-72v82,0,144,52,144,131v0,146,-200,156,-206,250r213,0r0,66r-292,0","w":389},"\u00b3":{"d":"187,-413v-101,0,-147,-66,-147,-66r42,-53v0,0,36,50,102,50v42,0,83,-32,83,-76v0,-58,-59,-76,-123,-71r-16,-38r89,-103v9,-13,25,-21,24,-26v-46,6,-123,2,-177,3r0,-67r271,0r0,48r-109,126v60,9,117,48,117,128v0,77,-64,145,-156,145","w":389},"\u00b4":{"d":"161,-755r73,-127r104,0r-96,127r-81,0","w":499},"\u00b5":{"d":"83,200r0,-706r97,0r0,302v0,70,14,126,94,126v104,0,165,-91,165,-191r0,-237r97,0r0,506r-94,0r0,-69v-2,-20,7,-37,-1,-35v0,0,-47,116,-186,116v-70,0,-88,-32,-93,-31v8,42,8,158,7,219r-86,0","w":619},"\u00b6":{"d":"280,50r0,-291v-129,0,-237,-102,-237,-233v0,-131,107,-232,236,-232r272,0r0,86r-196,0r0,670r-75,0xm417,50r0,-613r74,0r0,613r-74,0","w":590},"\u00b7":{"d":"88,-239r0,-103r99,0r0,103r-99,0","w":275},"\u00b8":{"d":"219,-23r49,10v-1,24,-8,42,-12,63v41,5,72,30,72,73v0,62,-51,84,-102,84v-32,0,-55,-7,-55,-7r0,-58v0,0,20,7,42,7v25,0,48,-8,48,-31v0,-26,-41,-34,-71,-30","w":499},"\u00b9":{"d":"71,-423r0,-66r93,0r0,-249v-1,-15,5,-27,0,-26v-5,11,-40,44,-53,56r-46,-49r106,-103r68,0r0,371r91,0r0,66r-259,0","w":389},"\u00ba":{"d":"233,-384v-95,0,-171,-70,-171,-168v0,-95,76,-165,170,-165v95,0,172,70,172,165v0,98,-77,168,-171,168xm233,-448v54,0,98,-43,98,-104v0,-59,-44,-101,-98,-101v-55,0,-99,42,-99,101v0,61,44,104,99,104xm78,-265r0,-57r312,0r0,57r-312,0","w":467},"\u00bb":{"d":"252,-77r164,-205r-164,-206r97,0r164,206r-164,205r-97,0xm50,-77r164,-205r-164,-206r97,0r164,206r-164,205r-97,0","w":557},"\u00bc":{"d":"336,0r-75,0r336,-706r75,0xm59,-269r0,-66r93,0r0,-249v-1,-15,5,-27,0,-26v-5,11,-40,44,-53,56r-46,-49r106,-103r68,0r0,371r91,0r0,66r-259,0xm778,0r0,-107r-208,0r0,-50r201,-280r81,0r0,264r61,0r0,66r-61,0r0,107r-74,0xm652,-173r126,0r0,-123v0,-26,3,-58,3,-58v-6,-1,-14,26,-31,48r-98,131r0,2","w":967},"\u00bd":{"d":"338,0r-75,0r336,-706r75,0xm59,-269r0,-66r93,0r0,-249v-1,-15,5,-27,0,-26v-5,11,-40,44,-53,56r-46,-49r106,-103r68,0r0,371r91,0r0,66r-259,0xm603,0v-1,-12,-3,-25,-3,-36v0,-169,212,-177,212,-277v0,-37,-30,-65,-72,-65v-49,0,-84,48,-84,48r-49,-45v0,0,45,-72,137,-72v82,0,144,52,144,131v0,146,-200,156,-206,250r213,0r0,66r-292,0","w":961},"\u00be":{"d":"348,0r-75,0r336,-706r75,0xm790,0r0,-107r-208,0r0,-50r201,-280r81,0r0,264r61,0r0,66r-61,0r0,107r-74,0xm664,-173r126,0r0,-123v0,-26,3,-58,3,-58v-6,-1,-14,26,-31,48r-98,131r0,2xm187,-259v-101,0,-147,-66,-147,-66r42,-53v0,0,36,50,102,50v42,0,83,-32,83,-76v0,-58,-59,-76,-123,-71r-16,-38r89,-103v9,-13,25,-21,24,-26v-46,6,-123,2,-177,3r0,-67r271,0r0,48r-109,126v60,9,117,48,117,128v0,77,-64,145,-156,145","w":979},"\u00bf":{"d":"214,-409r0,-97r99,0r0,97r-99,0xm39,28v0,-165,177,-182,177,-303r0,-37r94,0r0,43v0,152,-169,175,-169,289v0,56,48,100,114,100v63,0,114,-43,114,-43r53,69v0,0,-65,64,-174,64v-113,0,-209,-71,-209,-182","w":450},"\u00c0":{"d":"517,0r-71,-203r-266,0r-70,203r-102,0r254,-706r104,0r254,706r-103,0xm315,-609r-2,0v-21,89,-75,233,-107,324r214,0r-78,-224v-12,-36,-27,-100,-27,-100xm275,-755r-95,-127r104,0r73,127r-82,0","w":628},"\u00c1":{"d":"517,0r-71,-203r-266,0r-70,203r-102,0r254,-706r104,0r254,706r-103,0xm315,-609r-2,0v-21,89,-75,233,-107,324r214,0r-78,-224v-12,-36,-27,-100,-27,-100xm270,-755r73,-127r104,0r-96,127r-81,0","w":628},"\u00c2":{"d":"517,0r-71,-203r-266,0r-70,203r-102,0r254,-706r104,0r254,706r-103,0xm315,-609r-2,0v-21,89,-75,233,-107,324r214,0r-78,-224v-12,-36,-27,-100,-27,-100xm175,-755r88,-127r101,0r88,127r-85,0r-53,-80r-2,0r-52,80r-85,0","w":628},"\u00c3":{"d":"517,0r-71,-203r-266,0r-70,203r-102,0r254,-706r104,0r254,706r-103,0xm315,-609r-2,0v-21,89,-75,233,-107,324r214,0r-78,-224v-12,-36,-27,-100,-27,-100xm146,-756v0,-84,34,-127,102,-127v67,0,83,68,126,68v30,0,39,-36,39,-65r70,0v0,83,-34,127,-102,127v-67,0,-83,-68,-126,-68v-30,0,-39,35,-39,65r-70,0","w":628},"\u00c4":{"d":"517,0r-71,-203r-266,0r-70,203r-102,0r254,-706r104,0r254,706r-103,0xm315,-609r-2,0v-21,89,-75,233,-107,324r214,0r-78,-224v-12,-36,-27,-100,-27,-100xm358,-781r0,-101r80,0r0,101r-80,0xm191,-781r0,-101r80,0r0,101r-80,0","w":628},"\u00c5":{"d":"517,0r-71,-203r-266,0r-70,203r-102,0r254,-706r104,0r254,706r-103,0xm315,-609r-2,0v-21,89,-75,233,-107,324r214,0r-78,-224v-12,-36,-27,-100,-27,-100xm314,-743v-45,0,-85,-28,-85,-74v0,-47,40,-75,85,-75v44,0,85,28,85,75v0,46,-41,74,-85,74xm314,-784v19,0,33,-14,33,-33v0,-21,-14,-35,-33,-35v-20,0,-33,14,-33,35v0,19,13,33,33,33","w":628},"\u00c6":{"d":"4,0r292,-706r516,0r0,86r-312,0r0,221r254,0r0,86r-254,0r0,227r329,0r0,86r-427,0r0,-314r-169,0r-126,314r-103,0xm356,-620r-90,224r136,0r0,-224r-46,0","w":878},"\u00c7":{"d":"50,-357v0,-205,154,-361,359,-361v170,0,257,93,257,93r-49,74v0,0,-82,-77,-204,-77v-158,0,-261,120,-261,270v0,151,105,279,262,279v133,0,218,-92,218,-92r53,71v0,0,-92,105,-259,112r-8,38v41,5,72,30,72,73v0,62,-51,84,-102,84v-32,0,-55,-7,-55,-7r0,-58v0,0,20,7,42,7v25,0,48,-8,48,-31v0,-26,-41,-34,-71,-30r20,-78v-191,-18,-322,-173,-322,-367","w":724},"\u00c8":{"d":"96,0r0,-706r410,0r0,86r-311,0r0,221r253,0r0,86r-253,0r0,227r328,0r0,86r-427,0xm273,-755r-95,-127r104,0r73,127r-82,0","w":573},"\u00c9":{"d":"96,0r0,-706r410,0r0,86r-311,0r0,221r253,0r0,86r-253,0r0,227r328,0r0,86r-427,0xm269,-755r73,-127r104,0r-96,127r-81,0","w":573},"\u00ca":{"d":"96,0r0,-706r410,0r0,86r-311,0r0,221r253,0r0,86r-253,0r0,227r328,0r0,86r-427,0xm174,-755r88,-127r101,0r88,127r-85,0r-53,-80r-2,0r-52,80r-85,0","w":573},"\u00cb":{"d":"96,0r0,-706r410,0r0,86r-311,0r0,221r253,0r0,86r-253,0r0,227r328,0r0,86r-427,0xm356,-781r0,-101r80,0r0,101r-80,0xm189,-781r0,-101r80,0r0,101r-80,0","w":573},"\u00cc":{"d":"96,0r0,-706r99,0r0,706r-99,0xm107,-755r-95,-127r104,0r73,127r-82,0","w":291},"\u00cd":{"d":"96,0r0,-706r99,0r0,706r-99,0xm103,-755r73,-127r104,0r-96,127r-81,0","w":291},"\u00ce":{"d":"96,0r0,-706r99,0r0,706r-99,0xm7,-755r88,-127r101,0r88,127r-85,0r-53,-80r-2,0r-52,80r-85,0","w":291},"\u00cf":{"d":"96,0r0,-706r99,0r0,706r-99,0xm190,-781r0,-101r80,0r0,101r-80,0xm23,-781r0,-101r80,0r0,101r-80,0","w":291},"\u00d0":{"d":"115,0r0,-312r-59,0r0,-82r59,0r0,-312r234,0v216,0,358,129,358,352v0,224,-142,354,-358,354r-234,0xm214,-86r128,0v159,0,263,-94,263,-268v0,-173,-105,-266,-263,-266r-128,0r0,226r149,0r0,82r-149,0r0,226","w":759},"\u00d1":{"d":"96,0r0,-706r98,0r314,459v26,38,59,102,59,102r2,0v0,0,-7,-63,-7,-102r0,-459r99,0r0,706r-97,0r-315,-458v-26,-39,-59,-103,-59,-103r-2,0v0,0,7,63,7,103r0,458r-99,0xm210,-756v0,-84,34,-127,102,-127v67,0,83,68,126,68v30,0,39,-36,39,-65r70,0v0,83,-34,127,-102,127v-67,0,-83,-68,-126,-68v-30,0,-39,35,-39,65r-70,0","w":757},"\u00d2":{"d":"48,-358v0,-203,159,-360,363,-360v204,0,362,157,362,360v0,208,-158,370,-362,370v-204,0,-363,-162,-363,-370xm150,-358v0,159,117,279,261,279v144,0,260,-120,260,-279v0,-154,-116,-270,-260,-270v-144,0,-261,116,-261,270xm372,-755r-95,-127r104,0r73,127r-82,0"},"\u00d3":{"d":"48,-358v0,-203,159,-360,363,-360v204,0,362,157,362,360v0,208,-158,370,-362,370v-204,0,-363,-162,-363,-370xm150,-358v0,159,117,279,261,279v144,0,260,-120,260,-279v0,-154,-116,-270,-260,-270v-144,0,-261,116,-261,270xm368,-755r73,-127r104,0r-96,127r-81,0"},"\u00d4":{"d":"48,-358v0,-203,159,-360,363,-360v204,0,362,157,362,360v0,208,-158,370,-362,370v-204,0,-363,-162,-363,-370xm150,-358v0,159,117,279,261,279v144,0,260,-120,260,-279v0,-154,-116,-270,-260,-270v-144,0,-261,116,-261,270xm272,-755r88,-127r101,0r88,127r-85,0r-53,-80r-2,0r-52,80r-85,0"},"\u00d5":{"d":"48,-358v0,-203,159,-360,363,-360v204,0,362,157,362,360v0,208,-158,370,-362,370v-204,0,-363,-162,-363,-370xm150,-358v0,159,117,279,261,279v144,0,260,-120,260,-279v0,-154,-116,-270,-260,-270v-144,0,-261,116,-261,270xm243,-756v0,-84,34,-127,102,-127v67,0,83,68,126,68v30,0,39,-36,39,-65r70,0v0,83,-34,127,-102,127v-67,0,-83,-68,-126,-68v-30,0,-39,35,-39,65r-70,0"},"\u00d6":{"d":"48,-358v0,-203,159,-360,363,-360v204,0,362,157,362,360v0,208,-158,370,-362,370v-204,0,-363,-162,-363,-370xm150,-358v0,159,117,279,261,279v144,0,260,-120,260,-279v0,-154,-116,-270,-260,-270v-144,0,-261,116,-261,270xm455,-781r0,-101r80,0r0,101r-80,0xm288,-781r0,-101r80,0r0,101r-80,0"},"\u00d7":{"d":"63,-55r206,-230r-206,-230r55,-55r204,228r205,-228r55,55r-207,230r207,230r-55,55r-205,-227r-204,227","w":645},"\u00d8":{"d":"50,-358v0,-203,159,-360,363,-360v68,0,131,18,185,49r46,-63r49,34r-46,64v79,65,128,163,128,276v0,208,-158,370,-362,370v-71,0,-137,-19,-192,-53r-47,66r-50,-34r49,-69v-76,-67,-123,-166,-123,-280xm673,-358v0,-80,-31,-150,-82,-198r-314,438v39,25,86,39,136,39v144,0,260,-120,260,-279xm152,-358v0,81,30,151,78,201r313,-435v-38,-23,-83,-36,-130,-36v-144,0,-261,116,-261,270","w":824},"\u00d9":{"d":"86,-250r0,-456r99,0r0,456v0,108,70,171,178,171v109,0,180,-63,180,-173r0,-454r99,0r0,456v0,157,-113,262,-278,262v-165,0,-278,-105,-278,-262xm325,-755r-95,-127r104,0r73,127r-82,0","w":728},"\u00da":{"d":"86,-250r0,-456r99,0r0,456v0,108,70,171,178,171v109,0,180,-63,180,-173r0,-454r99,0r0,456v0,157,-113,262,-278,262v-165,0,-278,-105,-278,-262xm320,-755r73,-127r104,0r-96,127r-81,0","w":728},"\u00db":{"d":"86,-250r0,-456r99,0r0,456v0,108,70,171,178,171v109,0,180,-63,180,-173r0,-454r99,0r0,456v0,157,-113,262,-278,262v-165,0,-278,-105,-278,-262xm225,-755r88,-127r101,0r88,127r-85,0r-53,-80r-2,0r-52,80r-85,0","w":728},"\u00dc":{"d":"86,-250r0,-456r99,0r0,456v0,108,70,171,178,171v109,0,180,-63,180,-173r0,-454r99,0r0,456v0,157,-113,262,-278,262v-165,0,-278,-105,-278,-262xm408,-781r0,-101r80,0r0,101r-80,0xm241,-781r0,-101r80,0r0,101r-80,0","w":728},"\u00dd":{"d":"245,0r0,-299r-237,-407r112,0r131,232v22,39,43,89,43,89v6,1,22,-47,45,-89r129,-232r112,0r-236,407r0,299r-99,0xm251,-755r73,-127r104,0r-96,127r-81,0","w":588},"\u00de":{"d":"96,0r0,-706r98,0r0,120r160,0v129,0,221,87,221,221v0,134,-92,224,-222,224r-159,0r0,141r-98,0xm194,-227r144,0v85,0,137,-53,137,-138v0,-85,-52,-135,-136,-135r-145,0r0,273","w":607},"\u00df":{"d":"76,0r0,-530v0,-123,107,-188,216,-188v111,0,190,72,190,161v0,97,-100,126,-100,186v0,63,179,99,179,226v0,102,-83,152,-171,152v-93,0,-142,-29,-142,-29r0,-86v0,0,56,31,130,31v44,0,84,-21,84,-72v0,-81,-179,-112,-179,-219v0,-83,101,-115,101,-188v0,-39,-32,-78,-95,-78v-59,0,-116,36,-116,111r0,523r-97,0","w":588},"\u00e0":{"d":"35,-142v0,-167,220,-174,305,-174r22,0v3,-87,-44,-120,-111,-120v-78,0,-141,49,-141,49r-40,-71v0,0,73,-60,189,-60v128,0,200,70,200,198r0,320r-90,0r0,-48v-2,-24,6,-41,0,-40v0,0,-41,100,-162,100v-87,0,-172,-53,-172,-154xm133,-147v0,41,32,81,95,81v87,0,140,-89,135,-177r-25,0v-73,0,-205,5,-205,96xm224,-579r-95,-127r104,0r73,127r-82,0","w":528},"\u00e1":{"d":"35,-142v0,-167,220,-174,305,-174r22,0v3,-87,-44,-120,-111,-120v-78,0,-141,49,-141,49r-40,-71v0,0,73,-60,189,-60v128,0,200,70,200,198r0,320r-90,0r0,-48v-2,-24,6,-41,0,-40v0,0,-41,100,-162,100v-87,0,-172,-53,-172,-154xm133,-147v0,41,32,81,95,81v87,0,140,-89,135,-177r-25,0v-73,0,-205,5,-205,96xm218,-579r73,-127r104,0r-96,127r-81,0","w":528},"\u00e2":{"d":"35,-142v0,-167,220,-174,305,-174r22,0v3,-87,-44,-120,-111,-120v-78,0,-141,49,-141,49r-40,-71v0,0,73,-60,189,-60v128,0,200,70,200,198r0,320r-90,0r0,-48v-2,-24,6,-41,0,-40v0,0,-41,100,-162,100v-87,0,-172,-53,-172,-154xm133,-147v0,41,32,81,95,81v87,0,140,-89,135,-177r-25,0v-73,0,-205,5,-205,96xm123,-579r88,-127r101,0r88,127r-85,0r-53,-80r-2,0r-52,80r-85,0","w":528},"\u00e3":{"d":"35,-142v0,-167,220,-174,305,-174r22,0v3,-87,-44,-120,-111,-120v-78,0,-141,49,-141,49r-40,-71v0,0,73,-60,189,-60v128,0,200,70,200,198r0,320r-90,0r0,-48v-2,-24,6,-41,0,-40v0,0,-41,100,-162,100v-87,0,-172,-53,-172,-154xm133,-147v0,41,32,81,95,81v87,0,140,-89,135,-177r-25,0v-73,0,-205,5,-205,96xm94,-580v0,-84,34,-127,102,-127v67,0,83,68,126,68v30,0,39,-36,39,-65r70,0v0,83,-34,127,-102,127v-67,0,-83,-68,-126,-68v-30,0,-39,35,-39,65r-70,0","w":528},"\u00e4":{"d":"35,-142v0,-167,220,-174,305,-174r22,0v3,-87,-44,-120,-111,-120v-78,0,-141,49,-141,49r-40,-71v0,0,73,-60,189,-60v128,0,200,70,200,198r0,320r-90,0r0,-48v-2,-24,6,-41,0,-40v0,0,-41,100,-162,100v-87,0,-172,-53,-172,-154xm133,-147v0,41,32,81,95,81v87,0,140,-89,135,-177r-25,0v-73,0,-205,5,-205,96xm306,-605r0,-101r80,0r0,101r-80,0xm139,-605r0,-101r80,0r0,101r-80,0","w":528},"\u00e5":{"d":"35,-142v0,-167,220,-174,305,-174r22,0v3,-87,-44,-120,-111,-120v-78,0,-141,49,-141,49r-40,-71v0,0,73,-60,189,-60v128,0,200,70,200,198r0,320r-90,0r0,-48v-2,-24,6,-41,0,-40v0,0,-41,100,-162,100v-87,0,-172,-53,-172,-154xm133,-147v0,41,32,81,95,81v87,0,140,-89,135,-177r-25,0v-73,0,-205,5,-205,96xm262,-567v-45,0,-85,-28,-85,-74v0,-47,40,-75,85,-75v44,0,85,28,85,75v0,46,-41,74,-85,74xm262,-608v19,0,33,-14,33,-33v0,-21,-14,-35,-33,-35v-20,0,-33,14,-33,35v0,19,13,33,33,33","w":528},"\u00e6":{"d":"36,-142v0,-158,198,-174,302,-174r25,0v3,-87,-44,-120,-114,-120v-76,0,-139,49,-139,49r-39,-71v0,0,70,-60,185,-60v94,0,143,35,168,89r2,0v40,-59,103,-89,185,-89v145,0,222,122,209,275r-363,0v5,114,77,171,168,171v87,0,150,-58,150,-58r40,70v0,0,-75,72,-195,72v-102,0,-178,-48,-218,-127r-2,0v-9,26,-60,127,-191,127v-93,0,-173,-56,-173,-154xm461,-316r263,0v-3,-86,-58,-125,-120,-125v-74,0,-129,40,-143,125xm135,-147v0,42,31,81,95,81v88,0,138,-90,134,-177r-47,0v-76,0,-182,14,-182,96","w":864},"\u00e7":{"d":"41,-253v0,-150,112,-265,271,-265v127,0,190,74,190,74r-46,68v0,0,-54,-58,-140,-58v-102,0,-176,76,-176,180v0,103,74,182,179,182v94,0,156,-68,156,-68r39,71v0,0,-66,76,-190,81r-8,38v41,5,72,30,72,73v0,62,-51,84,-102,84v-32,0,-55,-7,-55,-7r0,-58v0,0,20,7,42,7v25,0,48,-8,48,-31v0,-26,-41,-34,-71,-30r20,-79v-136,-18,-229,-123,-229,-262","w":548},"\u00e8":{"d":"41,-253v0,-161,109,-265,253,-265v157,0,234,124,216,279r-369,0v5,111,84,167,174,167v87,0,150,-59,150,-59r40,71v0,0,-75,72,-196,72v-159,0,-268,-115,-268,-265xm144,-312r270,0v-3,-87,-57,-129,-122,-129v-74,0,-134,46,-148,129xm256,-579r-95,-127r104,0r73,127r-82,0","w":555},"\u00e9":{"d":"41,-253v0,-161,109,-265,253,-265v157,0,234,124,216,279r-369,0v5,111,84,167,174,167v87,0,150,-59,150,-59r40,71v0,0,-75,72,-196,72v-159,0,-268,-115,-268,-265xm144,-312r270,0v-3,-87,-57,-129,-122,-129v-74,0,-134,46,-148,129xm251,-579r73,-127r104,0r-96,127r-81,0","w":555},"\u00ea":{"d":"41,-253v0,-161,109,-265,253,-265v157,0,234,124,216,279r-369,0v5,111,84,167,174,167v87,0,150,-59,150,-59r40,71v0,0,-75,72,-196,72v-159,0,-268,-115,-268,-265xm144,-312r270,0v-3,-87,-57,-129,-122,-129v-74,0,-134,46,-148,129xm155,-579r88,-127r101,0r88,127r-85,0r-53,-80r-2,0r-52,80r-85,0","w":555},"\u00eb":{"d":"41,-253v0,-161,109,-265,253,-265v157,0,234,124,216,279r-369,0v5,111,84,167,174,167v87,0,150,-59,150,-59r40,71v0,0,-75,72,-196,72v-159,0,-268,-115,-268,-265xm144,-312r270,0v-3,-87,-57,-129,-122,-129v-74,0,-134,46,-148,129xm338,-605r0,-101r80,0r0,101r-80,0xm171,-605r0,-101r80,0r0,101r-80,0","w":555},"\u00ec":{"d":"86,-579r-95,-127r104,0r73,127r-82,0xm76,0r0,-506r97,0r0,506r-97,0","w":249},"\u00ed":{"d":"82,-579r73,-127r104,0r-96,127r-81,0xm76,0r0,-506r97,0r0,506r-97,0","w":249},"\u00ee":{"d":"76,0r0,-506r97,0r0,506r-97,0xm-13,-579r88,-127r101,0r88,127r-85,0r-53,-80r-2,0r-52,80r-85,0","w":249},"\u00ef":{"d":"169,-605r0,-101r80,0r0,101r-80,0xm2,-605r0,-101r80,0r0,101r-80,0xm76,0r0,-506r97,0r0,506r-97,0","w":249},"\u00f0":{"d":"43,-235v0,-118,83,-231,237,-231v83,0,120,43,125,42v-21,-56,-60,-100,-109,-133r-181,80r-10,-62r124,-55v-40,-20,-85,-36,-129,-46r27,-79v71,16,143,42,207,80r139,-61r9,61r-92,42v84,70,144,176,144,322v0,135,-72,287,-254,287v-152,0,-237,-122,-237,-247xm141,-233v0,82,48,161,141,161v109,0,153,-100,153,-186v0,-75,-55,-130,-141,-130v-104,0,-153,77,-153,155","w":589},"\u00f1":{"d":"341,-429v-98,0,-168,76,-168,192r0,237r-97,0r0,-506r94,0r0,67v2,21,-6,38,0,37v20,-44,80,-116,190,-116v119,0,174,65,174,194r0,324r-97,0r0,-302v0,-71,-15,-127,-96,-127xm145,-580v0,-84,34,-127,102,-127v67,0,83,68,126,68v30,0,39,-36,39,-65r70,0v0,83,-34,127,-102,127v-67,0,-83,-68,-126,-68v-30,0,-39,35,-39,65r-70,0","w":603},"\u00f2":{"d":"39,-254v0,-153,122,-264,273,-264v151,0,273,111,273,264v0,154,-122,266,-273,266v-151,0,-273,-112,-273,-266xm138,-254v0,106,79,182,174,182v96,0,174,-76,174,-182v0,-105,-78,-180,-174,-180v-95,0,-174,75,-174,180xm273,-579r-95,-127r104,0r73,127r-82,0","w":624},"\u00f3":{"d":"39,-254v0,-153,122,-264,273,-264v151,0,273,111,273,264v0,154,-122,266,-273,266v-151,0,-273,-112,-273,-266xm138,-254v0,106,79,182,174,182v96,0,174,-76,174,-182v0,-105,-78,-180,-174,-180v-95,0,-174,75,-174,180xm269,-579r73,-127r104,0r-96,127r-81,0","w":624},"\u00f4":{"d":"39,-254v0,-153,122,-264,273,-264v151,0,273,111,273,264v0,154,-122,266,-273,266v-151,0,-273,-112,-273,-266xm138,-254v0,106,79,182,174,182v96,0,174,-76,174,-182v0,-105,-78,-180,-174,-180v-95,0,-174,75,-174,180xm174,-579r88,-127r101,0r88,127r-85,0r-53,-80r-2,0r-52,80r-85,0","w":624},"\u00f5":{"d":"39,-254v0,-153,122,-264,273,-264v151,0,273,111,273,264v0,154,-122,266,-273,266v-151,0,-273,-112,-273,-266xm138,-254v0,106,79,182,174,182v96,0,174,-76,174,-182v0,-105,-78,-180,-174,-180v-95,0,-174,75,-174,180xm144,-580v0,-84,34,-127,102,-127v67,0,83,68,126,68v30,0,39,-36,39,-65r70,0v0,83,-34,127,-102,127v-67,0,-83,-68,-126,-68v-30,0,-39,35,-39,65r-70,0","w":624},"\u00f6":{"d":"39,-254v0,-153,122,-264,273,-264v151,0,273,111,273,264v0,154,-122,266,-273,266v-151,0,-273,-112,-273,-266xm138,-254v0,106,79,182,174,182v96,0,174,-76,174,-182v0,-105,-78,-180,-174,-180v-95,0,-174,75,-174,180xm356,-605r0,-101r80,0r0,101r-80,0xm189,-605r0,-101r80,0r0,101r-80,0","w":624},"\u00f7":{"d":"270,-435r0,-91r94,0r0,91r-94,0xm65,-246r0,-78r505,0r0,78r-505,0xm270,-44r0,-91r94,0r0,91r-94,0","w":635},"\u00f8":{"d":"39,-254v0,-153,122,-264,273,-264v49,0,95,12,135,33r40,-55r47,34r-39,54v55,47,90,117,90,198v0,154,-122,266,-273,266v-46,0,-90,-11,-128,-29r-39,55r-48,-35r37,-52v-58,-47,-95,-120,-95,-205xm138,-254v0,53,19,98,50,130r208,-289v-119,-62,-258,22,-258,159xm486,-254v0,-49,-17,-91,-45,-122r-205,287v122,55,252,-31,250,-165","w":624},"\u00f9":{"d":"69,-182r0,-324r97,0r0,302v0,70,14,126,95,126v103,0,164,-91,164,-191r0,-237r97,0r0,506r-94,0r0,-67v-2,-22,6,-38,0,-37v-21,50,-87,116,-186,116v-114,0,-173,-60,-173,-194xm257,-579r-95,-127r104,0r73,127r-82,0","w":598},"\u00fa":{"d":"69,-182r0,-324r97,0r0,302v0,70,14,126,95,126v103,0,164,-91,164,-191r0,-237r97,0r0,506r-94,0r0,-67v-2,-22,6,-38,0,-37v-21,50,-87,116,-186,116v-114,0,-173,-60,-173,-194xm252,-579r73,-127r104,0r-96,127r-81,0","w":598},"\u00fb":{"d":"69,-182r0,-324r97,0r0,302v0,70,14,126,95,126v103,0,164,-91,164,-191r0,-237r97,0r0,506r-94,0r0,-67v-2,-22,6,-38,0,-37v-21,50,-87,116,-186,116v-114,0,-173,-60,-173,-194xm157,-579r88,-127r101,0r88,127r-85,0r-53,-80r-2,0r-52,80r-85,0","w":598},"\u00fc":{"d":"69,-182r0,-324r97,0r0,302v0,70,14,126,95,126v103,0,164,-91,164,-191r0,-237r97,0r0,506r-94,0r0,-67v-2,-22,6,-38,0,-37v-21,50,-87,116,-186,116v-114,0,-173,-60,-173,-194xm340,-605r0,-101r80,0r0,101r-80,0xm173,-605r0,-101r80,0r0,101r-80,0","w":598},"\u00fd":{"d":"5,179r34,-74v0,0,28,21,59,21v39,0,72,-28,91,-74r25,-58r-212,-500r109,0r127,331v10,26,19,61,19,61v6,2,9,-33,19,-60r123,-332r105,0r-237,597v-31,78,-93,119,-164,119v-57,0,-98,-31,-98,-31xm215,-579r73,-127r104,0r-96,127r-81,0","w":510},"\u00fe":{"d":"76,200r0,-906r97,0r-1,272r2,0v13,-14,53,-84,159,-84v138,0,225,111,225,265v0,156,-94,265,-228,265v-116,0,-157,-83,-157,-83r-2,0v0,0,2,18,2,44r0,227r-97,0xm170,-252v0,104,56,180,145,180v82,0,144,-72,144,-181v0,-107,-57,-181,-142,-181v-77,0,-147,51,-147,182","w":600},"\u00ff":{"d":"5,179r34,-74v0,0,28,21,59,21v39,0,72,-28,91,-74r25,-58r-212,-500r109,0r127,331v10,26,19,61,19,61v6,2,9,-33,19,-60r123,-332r105,0r-237,597v-31,78,-93,119,-164,119v-57,0,-98,-31,-98,-31xm302,-605r0,-101r80,0r0,101r-80,0xm135,-605r0,-101r80,0r0,101r-80,0","w":510},"\u0152":{"d":"48,-354v0,-203,157,-361,365,-361v49,0,88,9,123,9r358,0r0,86r-312,0r0,221r254,0r0,86r-254,0r0,227r330,0r0,86r-375,0v-35,0,-75,9,-124,9v-208,0,-365,-159,-365,-363xm150,-354v0,156,108,277,263,277v40,0,71,-7,71,-7r0,-538v0,0,-31,-8,-71,-8v-155,0,-263,122,-263,276","w":960},"\u0153":{"d":"40,-252v0,-160,123,-266,270,-266v100,0,175,47,219,120r2,0v40,-75,111,-120,208,-120v157,2,234,124,216,279r-369,0v8,112,86,167,174,167v87,0,150,-59,150,-59r40,71v0,0,-75,72,-196,72v-105,0,-180,-49,-221,-123r-2,0v-43,75,-119,123,-221,123v-147,0,-270,-104,-270,-264xm589,-312r270,0v-3,-86,-56,-129,-121,-129v-75,0,-135,46,-149,129xm139,-252v0,110,79,180,173,180v94,0,174,-70,174,-183v0,-109,-81,-179,-174,-179v-94,0,-173,72,-173,182","w":1000},"\u0178":{"d":"245,0r0,-299r-237,-407r112,0r131,232v22,39,43,89,43,89v6,1,22,-47,45,-89r129,-232r112,0r-236,407r0,299r-99,0xm335,-781r0,-101r80,0r0,101r-80,0xm168,-781r0,-101r80,0r0,101r-80,0","w":588},"\u02c6":{"d":"111,-755r88,-127r101,0r88,127r-85,0r-53,-80r-2,0r-52,80r-85,0","w":499},"\u02dc":{"d":"81,-756v0,-84,34,-127,102,-127v67,0,83,68,126,68v30,0,39,-36,39,-65r70,0v0,83,-34,127,-102,127v-67,0,-83,-68,-126,-68v-30,0,-39,35,-39,65r-70,0","w":499},"\u2013":{"d":"90,-246r0,-78r526,0r0,78r-526,0","w":706},"\u2014":{"d":"90,-246r0,-78r726,0r0,78r-726,0","w":906},"\u2018":{"d":"49,-522r66,-195r71,0r-43,195r-94,0","w":227},"\u2019":{"d":"51,-523r43,-195r94,0r-65,195r-72,0","w":219},"\u201a":{"d":"42,90r43,-195r91,0r-65,195r-69,0","w":244},"\u201c":{"d":"190,-522r66,-195r72,0r-43,195r-95,0xm49,-522r66,-195r72,0r-43,195r-95,0","w":369},"\u201d":{"d":"192,-523r43,-195r95,0r-65,195r-73,0xm51,-523r43,-195r95,0r-66,195r-72,0","w":360},"\u201e":{"d":"180,90r43,-195r92,0r-65,195r-70,0xm42,90r43,-195r91,0r-65,195r-69,0","w":383},"\u2022":{"d":"206,-136v-86,0,-155,-69,-155,-155v0,-86,69,-155,155,-155v85,0,154,69,154,155v0,86,-69,155,-154,155","w":411},"\u2026":{"d":"595,0r0,-103r99,0r0,103r-99,0xm335,0r0,-103r100,0r0,103r-100,0xm76,0r0,-103r99,0r0,103r-99,0","w":770},"\u2039":{"d":"208,-77r-164,-205r164,-206r97,0r-164,206r164,205r-97,0","w":355},"\u203a":{"d":"50,-77r164,-205r-164,-206r97,0r164,206r-164,205r-97,0","w":355},"\u20ac":{"d":"38,-258r0,-63r55,0v-2,-18,-3,-50,0,-72r-55,0r0,-64r67,0v40,-152,173,-261,338,-261v56,0,101,12,101,12r-24,91v0,0,-37,-11,-79,-11v-112,0,-198,67,-231,169r281,0r-13,64r-282,0v-4,22,-4,49,-1,72r270,0r-13,63r-240,0v31,105,121,176,233,176v50,0,91,-13,91,-13r19,90v0,0,-48,17,-112,17v-170,0,-302,-111,-339,-270r-66,0","w":591},"\u2122":{"d":"435,-266r35,-440r69,0r104,230v10,19,11,44,16,42v0,0,5,-24,13,-42r104,-230r70,0r34,440r-75,0r-21,-263v-3,-16,5,-32,-1,-30r-95,212r-61,0r-95,-212r-2,0v0,0,2,15,1,30r-21,263r-75,0xm175,-266r0,-373r-152,0r0,-67r380,0r0,67r-152,0r0,373r-76,0","w":940}}});
