/*!
 * The following copyright notice may not be removed under any circumstances.
 * 
 * Copyright:
 * Copyright (c) 2009 by Jos Buivenga. All rights reserved.
 * 
 * Trademark:
 * Museo Slab is a trademark of Jos Buivenga.
 * 
 * Description:
 * Spaced and kerned with iKern.
 * 
 * Manufacturer:
 * Jos Buivenga
 * 
 * Designer:
 * Jos Buivenga
 * 
 * Vendor URL:
 * http://www.exljbris.com
 */
Cufon.registerFont({"w":555,"face":{"font-family":"Museo Slab 500","font-weight":400,"font-stretch":"normal","units-per-em":"1000","panose-1":"2 0 0 0 0 0 0 0 0 0","ascent":"750","descent":"-250","x-height":"12","bbox":"-16 -902 993 217","underline-thickness":"50","underline-position":"-50","stemh":"78","stemv":"100","unicode-range":"U+0020-U+2122"},"glyphs":{" ":{"w":250},"!":{"d":"80,-194r-7,-512r100,0r-6,512r-87,0xm74,0r0,-98r100,0r0,98r-100,0","w":247},"\"":{"d":"204,-506r0,-212r76,0r0,212r-76,0xm64,-506r0,-212r76,0r0,212r-76,0","w":344},"#":{"d":"139,0r34,-191r-131,0r12,-74r131,0r30,-168r-130,0r12,-73r130,0r35,-200r81,0r-35,200r155,0r35,-200r82,0r-35,200r130,0r-12,73r-131,0r-30,168r130,0r-12,74r-130,0r-33,191r-82,0r34,-191r-155,0r-34,191r-81,0xm266,-265r155,0r30,-168r-155,0","w":717},"$":{"d":"42,-96r54,-71v0,0,78,76,180,76v68,0,124,-39,124,-104v0,-139,-346,-103,-346,-321v0,-93,75,-168,186,-184r0,-109r71,0r0,108v112,8,171,69,171,69r-43,77v0,0,-68,-61,-155,-61v-79,0,-130,42,-130,98v0,148,346,105,346,317v0,98,-71,183,-189,196r0,107r-71,0r0,-107v-128,-13,-198,-91,-198,-91","w":543},"%":{"d":"194,-422v-84,0,-151,-66,-151,-148v0,-81,67,-148,151,-148v84,0,152,67,152,148v0,82,-68,148,-152,148xm58,0r540,-706r94,0r-540,706r-94,0xm194,-496v42,0,74,-32,74,-74v0,-41,-32,-75,-74,-75v-42,0,-74,34,-74,75v0,42,32,74,74,74xm405,-136v0,-81,67,-148,152,-148v83,0,151,67,151,148v0,82,-68,148,-151,148v-85,0,-152,-66,-152,-148xm483,-136v0,42,32,74,74,74v41,0,74,-32,74,-74v0,-41,-33,-75,-74,-75v-42,0,-74,34,-74,75","w":750},"&":{"d":"49,-197v0,-80,47,-156,128,-182r0,-2v0,0,-98,-32,-98,-155v0,-117,97,-182,226,-182v42,0,88,11,88,11r-25,79v0,0,-29,-6,-53,-6v-76,0,-135,39,-135,108v0,46,21,113,131,113r150,0r0,-98r97,0r0,98r93,0r0,82r-93,0r0,96v0,157,-98,247,-253,247v-154,0,-256,-91,-256,-209xm150,-205v0,73,58,128,155,128v94,0,156,-50,156,-162r0,-92r-155,0v-101,0,-156,48,-156,126","w":675},"'":{"d":"64,-506r0,-212r77,0r0,212r-77,0","w":205},"(":{"d":"185,95v-72,-120,-116,-274,-116,-435v0,-144,42,-277,116,-395r85,0v-155,250,-146,569,0,830r-85,0","w":314},")":{"d":"44,95v145,-261,156,-580,0,-830r85,0v74,118,116,251,116,395v0,161,-44,315,-116,435r-85,0","w":314},"*":{"d":"161,-329r-72,-52r89,-110r0,-2r-137,-37r27,-84r133,50r-8,-142r91,0r-8,142r134,-50r28,84r-138,37r0,2r89,110r-72,52r-77,-118r-2,0","w":479},"+":{"d":"42,-246r0,-78r224,0r0,-246r82,0r0,246r223,0r0,78r-223,0r0,246r-82,0r0,-246r-224,0","w":613},",":{"d":"20,124r70,-229r102,0r-95,229r-77,0","w":261},"-":{"d":"92,-242r0,-86r292,0r0,86r-292,0","w":476},".":{"d":"76,0r0,-105r104,0r0,105r-104,0","w":256},"\/":{"d":"41,42r255,-786r86,0r-255,786r-86,0","w":424},"0":{"d":"310,12v-189,0,-250,-162,-250,-366v0,-203,61,-364,250,-364v188,0,250,161,250,364v0,204,-62,366,-250,366xm310,-77v115,0,148,-121,148,-277v0,-154,-33,-276,-148,-276v-116,0,-148,122,-148,276v0,156,32,277,148,277","w":620},"1":{"d":"51,0r0,-82r156,0r1,-503v-6,-1,-8,13,-36,40r-66,65r-60,-62r169,-164r88,0r0,624r154,0r0,82r-406,0","w":479},"2":{"d":"54,0v-3,-19,-5,-37,-5,-54v0,-252,351,-283,351,-457v0,-73,-52,-119,-127,-119v-93,0,-146,94,-146,94r-70,-48v0,0,64,-134,224,-134v129,0,223,81,223,203v0,227,-345,264,-347,433r288,0r0,-94r87,0r0,176r-478,0","w":586},"3":{"d":"69,-534r0,-172r431,0r0,69r-187,220v88,9,200,66,200,202v0,121,-95,227,-242,227v-145,0,-229,-96,-229,-96r52,-71v0,0,71,78,172,78v79,0,145,-56,145,-134v1,-98,-94,-143,-198,-129r-23,-52r172,-207v11,-16,28,-23,27,-28v-67,6,-159,2,-233,3r0,90r-87,0","w":570},"4":{"d":"26,-189r0,-62r327,-455r112,0r0,437r96,0r0,80r-96,0r0,189r-97,0r0,-189r-342,0xm344,-553r-210,282r0,2r234,0r0,-277v0,-24,5,-54,5,-54r-3,0v0,0,-10,26,-26,47","w":599},"5":{"d":"42,-79r52,-70v0,0,59,72,161,72v89,0,159,-64,159,-144v0,-87,-63,-146,-160,-146v-75,0,-124,36,-124,36r-58,-21r35,-354r365,0r0,172r-87,0r0,-90r-192,0r-18,169v-1,14,-9,30,-3,28v0,0,39,-22,100,-22v146,0,244,98,244,224v0,133,-109,237,-256,237v-143,0,-218,-91,-218,-91","w":564},"6":{"d":"320,12v-154,0,-264,-132,-264,-330v0,-187,99,-400,321,-400v81,0,135,29,135,29r-31,83v0,0,-45,-24,-102,-24v-130,0,-198,121,-213,240r2,0v31,-40,94,-67,160,-67v133,0,224,102,224,231v0,140,-99,238,-232,238xm160,-266v0,82,65,189,159,189v82,0,132,-62,132,-149v0,-85,-54,-148,-151,-148v-79,0,-140,51,-140,108","w":597},"7":{"d":"103,0r292,-590v11,-26,23,-32,22,-37v-83,7,-199,1,-290,3r0,90r-87,0r0,-172r484,0r0,68r-319,638r-102,0","w":543},"8":{"d":"54,-199v0,-113,94,-178,114,-192v-50,-33,-86,-77,-86,-142v0,-94,72,-185,220,-185v132,0,224,74,224,186v0,97,-71,172,-84,185v58,34,101,81,101,153v0,108,-95,206,-242,206v-141,0,-247,-90,-247,-211xm180,-532v0,81,94,108,188,149v11,-13,61,-68,61,-138v0,-70,-51,-111,-127,-111v-79,0,-122,45,-122,100xm154,-209v0,81,69,134,146,134v74,0,142,-50,142,-119v0,-82,-94,-105,-204,-155v-20,15,-84,61,-84,140","w":600},"9":{"d":"45,-481v0,-140,100,-237,233,-237v153,0,263,132,263,330v0,185,-98,400,-321,400v-81,0,-136,-29,-136,-29r31,-84v0,0,45,24,103,24v131,0,199,-121,214,-240r-2,0v-31,38,-95,64,-161,64v-133,0,-224,-101,-224,-228xm147,-481v0,84,54,145,148,145v78,0,142,-50,142,-107v0,-84,-68,-187,-159,-187v-81,0,-131,64,-131,149","w":597},":":{"d":"97,0r0,-105r104,0r0,105r-104,0xm97,-401r0,-105r104,0r0,105r-104,0","w":298},";":{"d":"102,-401r0,-105r102,0r0,105r-102,0xm43,124r61,-229r102,0r-85,229r-78,0","w":299},"<":{"d":"58,-252r0,-66r466,-208r0,89r-357,151r0,2r357,151r0,89","w":613},"=":{"d":"68,-340r0,-78r477,0r0,78r-477,0xm68,-151r0,-78r477,0r0,78r-477,0","w":613},">":{"d":"88,-44r0,-89r358,-151r0,-2r-358,-151r0,-89r467,208r0,66","w":613},"?":{"d":"148,-194r0,-47v0,-152,170,-174,170,-289v0,-56,-48,-99,-114,-99v-63,0,-114,42,-114,42r-54,-69v0,0,66,-64,175,-64v113,0,209,72,209,183v0,165,-177,182,-177,302r0,41r-95,0xm145,0r0,-98r101,0r0,98r-101,0","w":469},"@":{"d":"43,-242v0,-205,155,-369,378,-369v173,0,247,97,247,203r0,283r72,0r0,73r-273,0v-125,0,-207,-88,-207,-189v0,-99,81,-187,207,-187r108,0v-1,-56,-61,-103,-157,-103v-162,0,-278,134,-278,291v0,156,115,286,284,286r0,79v-223,0,-381,-161,-381,-367xm358,-241v0,63,49,116,117,116r100,0r0,-236r-98,0v-70,0,-119,54,-119,120","w":787},"A":{"d":"11,0r0,-78r68,0r225,-628r113,0r225,628r68,0r0,78r-245,0r0,-78r75,0r-55,-157r-250,0r-55,157r76,0r0,78r-245,0xm260,-315r200,0r-86,-245v-10,-29,-12,-54,-12,-54r-3,0v0,0,-2,25,-12,54","w":721},"B":{"d":"623,-201v0,129,-94,201,-236,201r-334,0r0,-78r88,0r0,-551r-88,0r0,-77r321,0v134,-4,221,57,221,180v0,69,-34,124,-89,152r0,2v76,22,117,91,117,171xm493,-517v0,-69,-42,-107,-119,-107r-133,0r0,215r148,0v64,0,104,-44,104,-108xm391,-82v80,4,130,-48,130,-124v0,-73,-48,-121,-122,-121r-158,0r0,245r150,0","w":680},"C":{"d":"49,-357v0,-207,157,-361,361,-361v85,0,269,31,269,140r0,86r-93,0r0,-55v0,-62,-107,-85,-172,-85v-151,0,-262,111,-262,271v0,167,114,286,268,286v50,0,176,-18,176,-83r0,-55r93,0r0,86v0,104,-177,139,-275,139v-212,0,-365,-163,-365,-369","w":744},"D":{"d":"727,-353v0,222,-135,353,-372,353r-302,0r0,-78r88,0r0,-551r-88,0r0,-77r301,0v59,0,103,3,150,17v135,42,223,164,223,336xm623,-353v0,-174,-94,-277,-274,-271r-108,0r0,542r108,0v178,2,274,-97,274,-271","w":779},"E":{"d":"53,0r0,-78r88,0r0,-551r-88,0r0,-77r511,0r0,164r-87,0r0,-82r-236,0r0,227r250,0r0,82r-250,0r0,233r253,0r0,-85r87,0r0,167r-528,0","w":632},"F":{"d":"53,0r0,-78r88,0r0,-551r-88,0r0,-77r489,0r0,167r-87,0r0,-81r-214,0r0,234r244,0r0,82r-244,0r0,226r96,0r0,78r-284,0","w":577},"G":{"d":"49,-355v0,-209,150,-363,370,-363v124,0,271,50,271,139r0,87r-92,0r0,-52v0,-59,-93,-88,-176,-88v-165,0,-269,112,-269,274v0,163,106,283,272,283v63,0,189,-19,189,-88r0,-93r-138,0r0,-78r230,0r0,198v0,109,-182,148,-288,148v-217,0,-369,-158,-369,-367","w":766},"H":{"d":"53,0r0,-78r88,0r0,-551r-88,0r0,-77r277,0r0,77r-89,0r0,235r366,0r0,-235r-89,0r0,-77r277,0r0,77r-88,0r0,551r88,0r0,78r-277,0r0,-78r89,0r0,-234r-366,0r0,234r89,0r0,78r-277,0","w":848},"I":{"d":"53,0r0,-78r88,0r0,-551r-88,0r0,-77r277,0r0,77r-89,0r0,551r89,0r0,78r-277,0","w":382},"J":{"d":"24,-197r0,-41r97,0v-5,88,20,161,109,161v56,0,107,-34,107,-130r0,-422r-102,0r0,-77r281,0r0,77r-79,0r0,428v0,151,-106,213,-208,213v-101,0,-205,-58,-205,-209"},"K":{"d":"53,0r0,-78r88,0r0,-551r-88,0r0,-77r265,0r0,77r-77,0r0,222r91,0r154,-222r-65,0r0,-77r239,0r0,77r-68,0r-183,255v-1,6,17,9,40,49r127,221v13,28,44,27,83,26r0,78r-71,0v-59,0,-76,-14,-98,-53r-136,-244v-12,-20,-26,-28,-55,-28r-58,0r0,247r87,0r0,78r-275,0","w":692},"L":{"d":"54,0r0,-78r88,0r0,-546r-88,0r0,-82r277,0r0,82r-89,0r0,542r246,0r0,-114r88,0r0,196r-522,0","w":604},"M":{"d":"38,0r0,-78r88,0r45,-551r-90,0r0,-77r200,0r181,430v13,30,12,52,18,51v0,0,4,-22,16,-51r181,-430r200,0r0,77r-90,0r45,551r88,0r0,78r-272,0r0,-78r85,0r-32,-422v-1,-22,3,-58,3,-58r-3,0v0,0,-8,34,-16,54r-162,371r-88,0r-162,-371v-8,-20,-16,-54,-16,-54r-3,0v0,0,4,36,3,58r-32,422r85,0r0,78r-272,0","w":958},"N":{"d":"53,0r0,-78r88,0r0,-551r-88,0r0,-77r187,0r347,506v15,21,19,53,27,51v0,0,-5,-35,-5,-57r0,-423r-90,0r0,-77r279,0r0,77r-89,0r0,629r-98,0r-347,-506v-16,-21,-19,-53,-27,-51v0,0,4,35,4,57r0,422r91,0r0,78r-279,0","w":838},"O":{"d":"48,-358v0,-203,158,-360,363,-360v204,0,363,157,363,360v0,208,-159,370,-363,370v-205,0,-363,-162,-363,-370xm151,-358v0,159,116,281,260,281v143,0,259,-122,259,-281v0,-154,-116,-272,-259,-272v-144,0,-260,118,-260,272","w":822},"P":{"d":"623,-487v0,136,-89,228,-239,222r-143,0r0,187r89,0r0,78r-277,0r0,-78r88,0r0,-551r-88,0r0,-77r329,0v150,-7,241,82,241,219xm522,-487v0,-90,-54,-137,-149,-137r-132,0r0,277r131,0v97,1,150,-49,150,-140","w":653},"Q":{"d":"49,-357v0,-204,156,-361,363,-361v205,0,364,151,364,356v0,92,-31,174,-85,238r84,80r-57,62r-83,-83v-61,50,-138,77,-224,77v-205,0,-362,-163,-362,-369xm152,-357v0,158,114,280,260,280v52,0,113,-18,154,-53r-104,-103r57,-61r103,104v32,-46,53,-105,53,-168v0,-154,-115,-272,-263,-272v-146,0,-260,117,-260,273","w":825},"R":{"d":"359,-706v153,-6,253,54,253,198v0,102,-56,175,-146,198v-1,6,16,10,30,35r100,174v12,25,36,23,70,23r0,78r-60,0v-60,0,-74,-11,-98,-53r-109,-193v-18,-30,-31,-39,-74,-39r-84,0r0,207r87,0r0,78r-275,0r0,-78r88,0r0,-551r-88,0r0,-77r306,0xm511,-500v0,-88,-59,-124,-153,-124r-117,0r0,257r142,0v77,0,128,-50,128,-133","w":702},"S":{"d":"53,-212r92,0r0,52v0,52,67,83,141,83v81,0,140,-38,140,-108v0,-82,-83,-110,-170,-143v-93,-36,-188,-75,-188,-200v0,-133,107,-190,226,-190v106,0,214,40,214,117r0,83r-93,0r0,-49v0,-41,-63,-63,-121,-63v-69,0,-124,32,-124,97v0,75,71,100,150,130v104,39,207,79,207,210v0,135,-110,205,-241,205v-110,0,-233,-49,-233,-150r0,-74","w":578},"T":{"d":"193,0r0,-78r89,0r0,-546r-166,0r0,110r-87,0r0,-192r606,0r0,192r-87,0r0,-110r-166,0r0,546r89,0r0,78r-278,0","w":664},"U":{"d":"399,12v-167,-1,-279,-99,-279,-275r0,-366r-89,0r0,-77r278,0r0,77r-89,0r0,365v-2,120,65,187,179,187v112,0,179,-68,179,-188r0,-364r-89,0r0,-77r277,0r0,77r-88,0r0,366v0,67,-18,128,-49,172v-48,68,-134,103,-230,103","w":797},"V":{"d":"304,0r-223,-629r-69,0r0,-77r252,0r0,77r-78,0r158,465v8,25,12,55,12,55r3,0v0,0,4,-30,12,-55r158,-465r-78,0r0,-77r252,0r0,77r-70,0r-223,629r-106,0","w":714},"W":{"d":"16,-629r0,-77r251,0r0,77r-84,0r110,463v5,25,8,53,8,53r3,0v0,0,4,-28,10,-53r148,-540r85,0r147,540v7,25,10,53,10,53r4,0v0,0,2,-28,7,-53r110,-463r-84,0r0,-77r252,0r0,77r-68,0r-158,629r-114,0r-138,-501v-7,-25,-9,-56,-9,-56r-4,0v0,0,-2,31,-9,56r-138,501r-114,0r-157,-629r-68,0","w":1009},"X":{"d":"30,0r0,-78r66,0r182,-279r-179,-272r-65,0r0,-77r246,0r0,77r-75,0r135,213v6,1,8,-10,19,-28r113,-185r-73,0r0,-77r239,0r0,77r-66,0r-183,281r180,270r67,0r0,78r-246,0r0,-78r74,0r-136,-213v-6,-1,-7,11,-18,29r-114,184r74,0r0,78r-240,0","w":669},"Y":{"d":"186,0r0,-78r89,0r0,-221r-198,-330r-67,0r0,-77r243,0r0,77r-74,0r131,222v10,16,11,31,16,30v43,-84,99,-170,146,-252r-73,0r0,-77r241,0r0,77r-67,0r-198,330r0,221r89,0r0,78r-278,0","w":650},"Z":{"d":"54,0r0,-66r364,-525v14,-23,30,-31,29,-36v-87,7,-206,1,-301,3r0,110r-87,0r0,-192r509,0r0,65r-364,526v-14,23,-30,31,-29,36v92,-7,216,-1,316,-3r0,-114r87,0r0,196r-524,0","w":632},"[":{"d":"97,95r0,-830r165,0r0,73r-80,0r0,683r80,0r0,74r-165,0","w":311},"\\":{"d":"297,42r-255,-786r86,0r254,786r-85,0","w":423},"]":{"d":"49,21r81,0r0,-683r-81,0r0,-73r166,0r0,830r-166,0r0,-74","w":312},"^":{"d":"69,-247r200,-459r63,0r200,459r-88,0r-144,-352r-143,352r-88,0","w":613},"_":{"d":"10,0r537,0r0,78r-537,0r0,-78","w":557},"`":{"d":"263,-755r-124,-127r112,0r103,127r-91,0","w":499},"a":{"d":"33,-141v0,-159,211,-170,295,-170r32,0v6,-88,-40,-127,-108,-127v-80,0,-145,49,-145,49r-39,-69v0,0,74,-60,192,-60v129,0,197,67,197,195r0,226v-1,34,44,19,73,22r0,75r-101,0v-48,-1,-63,-23,-63,-62v0,-21,8,-34,2,-33v0,0,-44,107,-167,107v-84,0,-168,-49,-168,-153xm131,-149v0,45,33,86,91,86v93,0,145,-92,139,-185r-25,0v-46,0,-205,2,-205,99"},"b":{"d":"85,0r0,-631r-85,0r0,-75r182,0r0,234v2,25,-7,43,-1,42v0,0,45,-88,163,-88v137,0,223,108,223,265v0,161,-97,265,-231,265v-117,0,-160,-92,-160,-92r-2,0v2,5,4,61,3,80r-92,0xm179,-251v0,90,47,179,144,179v79,0,145,-65,145,-180v0,-110,-59,-181,-143,-181v-75,0,-146,53,-146,182","w":609},"c":{"d":"40,-252v0,-155,117,-266,268,-266v75,0,198,28,198,115r0,62r-86,0r0,-35v0,-39,-64,-58,-109,-58v-102,0,-172,72,-172,180v0,115,81,182,178,182v86,0,144,-51,162,-65r37,71v-23,21,-96,78,-203,78v-146,0,-273,-101,-273,-264","w":553},"d":{"d":"42,-253v0,-161,94,-265,230,-265v115,0,156,85,156,85r2,0v-6,-50,-2,-139,-3,-198r-84,0r0,-75r181,0r0,609v-1,34,44,19,73,22r0,75r-101,0v-48,-1,-63,-23,-63,-62v0,-18,7,-28,1,-27v0,0,-41,101,-171,101v-136,0,-221,-108,-221,-265xm141,-253v0,110,59,181,143,181v75,0,146,-54,146,-180v0,-93,-47,-181,-143,-181v-81,0,-146,65,-146,180","w":629},"e":{"d":"41,-253v0,-161,109,-265,253,-265v156,0,234,122,216,274r-370,0v6,112,85,172,175,172v88,0,151,-57,151,-57r40,71v0,0,-76,70,-197,70v-159,0,-268,-115,-268,-265xm144,-306r269,0v-3,-89,-57,-135,-121,-135v-74,0,-134,50,-148,135"},"f":{"d":"48,0r0,-75r79,0r0,-356r-84,0r0,-75r84,0r0,-25v0,-162,122,-182,182,-182v27,0,46,3,46,3r0,80v0,0,-13,-3,-36,-3v-32,0,-95,9,-95,100r0,27r122,0r0,75r-122,0r0,356r93,0r0,75r-269,0","w":375},"g":{"d":"121,94v0,0,63,34,139,34v88,0,160,-40,160,-144v0,-19,0,-63,3,-72r-2,0v-30,50,-78,82,-152,82v-140,0,-226,-113,-226,-259v0,-145,81,-253,222,-253v66,0,136,25,164,83r2,0v-7,-37,5,-71,56,-71r108,0r0,75v-29,3,-77,-12,-78,20r0,390v-1,239,-258,273,-428,189xm288,-90v70,0,134,-42,134,-174v0,-132,-64,-170,-143,-170v-87,0,-137,64,-137,167v0,105,55,177,146,177","w":626},"h":{"d":"32,0r0,-75r80,0r0,-556r-85,0r0,-75r181,0r0,262v2,25,-7,43,-1,42v22,-49,88,-116,189,-116v119,0,174,65,174,194r0,249r79,0r0,75r-176,0r0,-302v0,-71,-15,-127,-96,-127v-99,0,-169,84,-169,192r0,162r80,0r0,75r-256,0","w":674},"i":{"d":"125,-607r0,-99r102,0r0,99r-102,0xm48,0r0,-75r79,0r0,-356r-84,0r0,-75r181,0r0,431r80,0r0,75r-256,0","w":336},"j":{"d":"112,-607r0,-99r102,0r0,99r-102,0xm-16,125v0,0,9,1,22,1v37,0,108,-13,108,-114r0,-443r-85,0r0,-75r182,0r0,521v0,169,-131,191,-194,191v-20,0,-33,-2,-33,-2r0,-79","w":296},"k":{"d":"32,0r0,-75r80,0r0,-556r-85,0r0,-75r181,0r0,394r74,0r101,-119r-66,0r0,-75r230,0r0,75r-67,0r-125,146v0,6,16,6,37,43r86,147v10,24,42,20,76,20r0,75r-76,0v-46,0,-61,-8,-83,-47r-100,-171v-15,-28,-50,-18,-87,-20r0,163r68,0r0,75r-244,0","w":587},"l":{"d":"85,-144r0,-487r-84,0r0,-75r181,0r0,556v0,43,10,72,54,72v16,0,27,-1,27,-1r-1,80v-95,9,-177,-8,-177,-145","w":293},"m":{"d":"48,0r0,-75r79,0r0,-335v0,-35,-53,-17,-84,-21r0,-75r114,0v54,-1,64,29,64,82v0,17,-7,30,-1,29v25,-60,98,-123,180,-123v81,0,131,37,148,119r2,0v28,-63,98,-119,181,-119v112,0,165,65,165,194r0,249r80,0r0,75r-177,0r0,-303v0,-71,-13,-127,-89,-127v-95,0,-149,97,-149,197r0,158r79,0r0,75r-176,0r0,-303v0,-66,-10,-127,-88,-127v-96,0,-152,102,-152,201r0,154r80,0r0,75r-256,0","w":1000},"n":{"d":"48,0r0,-75r79,0r0,-334v0,-36,-53,-18,-84,-22r0,-75r114,0v55,-1,64,29,64,82v0,17,-7,30,-1,29v10,-27,69,-123,197,-123v116,0,168,65,168,194r0,249r80,0r0,75r-177,0r0,-302v0,-71,-14,-127,-95,-127v-102,0,-169,93,-169,194r0,160r80,0r0,75r-256,0","w":689},"o":{"d":"40,-254v0,-153,122,-264,273,-264v151,0,273,111,273,264v0,154,-122,266,-273,266v-151,0,-273,-112,-273,-266xm139,-254v0,106,78,182,174,182v95,0,174,-76,174,-182v0,-105,-79,-180,-174,-180v-96,0,-174,75,-174,180","w":626},"p":{"d":"34,125r79,0r0,-534v0,-36,-53,-18,-84,-22r0,-75r112,0v60,-3,67,38,60,83r2,0v0,0,42,-95,170,-95v136,0,222,108,222,265v0,161,-97,265,-229,265v-111,0,-157,-86,-157,-86r-2,0v5,47,2,142,3,199r80,0r0,75r-256,0r0,-75xm208,-251v0,90,49,179,143,179v80,0,146,-65,146,-180v0,-110,-59,-181,-144,-181v-75,0,-145,53,-145,182","w":637},"q":{"d":"42,-253v0,-161,95,-265,229,-265v98,0,147,70,161,88r2,0v-2,-6,-2,-58,-2,-76r92,0r0,631r79,0r0,75r-255,0r0,-75r79,0r0,-159v-2,-27,7,-45,1,-44v0,0,-44,90,-163,90v-137,0,-223,-108,-223,-265xm141,-253v0,110,59,181,143,181v75,0,146,-53,146,-182v0,-90,-47,-180,-144,-180v-79,0,-145,66,-145,181","w":609},"r":{"d":"50,0r0,-75r76,0r0,-334v0,-15,-8,-22,-22,-22r-63,0r0,-75r114,0v57,-2,65,34,65,91v0,21,-6,36,0,35v27,-81,89,-143,185,-130r0,96v0,0,-12,-3,-28,-3v-108,0,-154,109,-154,208r0,134r75,0r0,75r-248,0","w":423},"s":{"d":"40,-109r0,-54r85,0r0,33v0,43,60,63,116,63v57,0,102,-23,102,-65v0,-51,-56,-66,-126,-92v-75,-27,-158,-62,-158,-154v0,-100,99,-140,187,-140v71,0,175,28,175,102r0,61r-85,0r0,-33v0,-31,-40,-52,-89,-52v-48,0,-90,20,-90,61v0,48,56,68,117,89v78,26,167,59,167,153v0,96,-88,149,-203,149v-92,0,-198,-41,-198,-121","w":481},"t":{"d":"103,-185r0,-246r-85,0r0,-75r87,0r0,-139r95,0r0,139r121,0r0,75r-121,0r0,237v0,103,70,116,108,116v14,0,23,-1,23,-1r0,81v0,0,-14,2,-35,2v-64,0,-193,-20,-193,-189","w":360},"u":{"d":"105,-182r0,-249r-85,0r0,-75r182,0r0,304v0,70,14,126,95,126v101,0,164,-97,164,-197r0,-158r-85,0r0,-75r182,0r0,410v-1,33,46,19,75,22r0,74r-105,0v-53,0,-64,-27,-64,-78v0,-18,6,-31,0,-30v-10,27,-67,120,-193,120v-109,0,-166,-60,-166,-194","w":665},"v":{"d":"9,-431r0,-75r227,0r0,75r-65,0r107,295v8,22,11,47,11,47r3,0v0,0,3,-25,11,-47r108,-295r-65,0r0,-75r226,0r0,75r-63,0r-164,431r-109,0r-163,-431r-64,0","w":581},"w":{"d":"10,-431r0,-75r226,0r0,75r-68,0r86,294v6,21,8,47,8,47r3,0v0,0,2,-26,8,-47r111,-368r88,0r111,368v6,21,8,47,8,47r3,0v0,0,2,-26,8,-47r87,-294r-69,0r0,-75r226,0r0,75r-63,0r-130,431r-108,0r-107,-338v-8,-24,-5,-50,-11,-48v0,0,-2,25,-9,48r-107,338r-108,0r-130,-431r-63,0","w":856},"x":{"d":"37,0r0,-75r76,0r121,-186r-112,-170r-82,0r0,-75r142,0r90,147v11,16,14,34,19,33v29,-55,77,-125,110,-180r134,0r0,75r-77,0r-113,169r125,187r68,0r0,75r-129,0r-102,-164v-12,-16,-15,-33,-20,-32v-33,62,-81,134,-118,196r-132,0","w":572},"y":{"d":"64,105v0,0,29,24,72,24v43,0,76,-30,93,-70r21,-50r-177,-440r-64,0r0,-75r231,0r0,75r-67,0r113,301v10,23,4,46,12,44v0,0,4,-22,12,-44r112,-301r-65,0r0,-75r224,0r0,75r-63,0r-200,511v-34,86,-100,130,-178,130v-65,0,-109,-32,-109,-32","w":590},"z":{"d":"48,-64r279,-338v16,-21,29,-26,28,-31v-59,4,-151,1,-217,2r0,81r-85,0r0,-156r419,0r0,64r-277,338v-16,21,-29,25,-28,30r227,-1r0,-81r85,0r0,156r-431,0r0,-64","w":527},"{":{"d":"118,-77r0,-96v0,-102,-85,-109,-85,-109r0,-86v0,0,85,-7,85,-111r0,-84v0,-158,114,-174,162,-174v14,0,24,1,24,1r0,74r-14,0v-26,0,-87,9,-87,105r0,103v0,99,-81,127,-81,127r0,2v0,0,81,24,81,127r0,115v0,96,61,105,87,105r14,0r0,74v0,0,-10,2,-24,2v-48,0,-162,-16,-162,-175","w":337},"|":{"d":"95,159r0,-951r85,0r0,951r-85,0","w":275},"}":{"d":"34,22r14,0v25,0,86,-9,86,-105r0,-115v0,-103,81,-127,81,-127r0,-2v0,0,-81,-28,-81,-127r0,-103v0,-96,-61,-105,-86,-105r-14,0r0,-74v0,0,9,-1,23,-1v48,0,162,16,162,174r0,84v0,104,85,111,85,111r0,86v0,0,-85,7,-85,109r0,96v0,159,-114,175,-162,175v-14,0,-23,-2,-23,-2r0,-74","w":337},"~":{"d":"67,-204v0,-116,53,-169,139,-169v106,0,116,98,192,98v52,0,67,-52,67,-94r79,0v0,117,-54,169,-140,169v-105,0,-116,-97,-192,-97v-52,0,-66,52,-66,93r-79,0","w":609},"\u00a0":{"w":260},"\u00a1":{"d":"69,-408r0,-98r101,0r0,98r-101,0xm70,200r6,-512r87,0r7,512r-100,0","w":240},"\u00a2":{"d":"252,13r0,-86v-131,-18,-211,-136,-211,-280v0,-145,80,-263,211,-281r0,-84r71,0r0,84v88,13,154,72,188,155r-88,34v-25,-56,-67,-99,-132,-99v-97,0,-151,83,-151,191v0,111,51,190,151,190v64,0,107,-42,132,-99r88,35v-32,74,-94,144,-188,154r0,86r-71,0","w":554},"\u00a3":{"d":"43,0r0,-80r86,0r0,-239r-68,0r0,-70r68,0r0,-136v0,-111,91,-193,217,-193v101,0,167,62,167,62r-55,68v0,0,-50,-41,-111,-41v-74,0,-118,48,-118,108r0,132r180,0r0,70r-180,0r0,237r255,0r0,-114r87,0r0,196r-528,0","w":614},"\u00a5":{"d":"104,-199r0,-63r163,0r0,-37r-27,-48r-136,0r0,-63r103,0r-165,-296r113,0r118,220v22,47,43,102,43,102r2,0v0,0,18,-56,43,-102r119,-220r113,0r-166,296r102,0r0,63r-135,0r-27,48r0,37r162,0r0,63r-162,0r0,199r-100,0r0,-199r-163,0","w":634},"\u00a7":{"d":"137,-111r-71,-390v-25,-125,49,-217,183,-217v87,0,141,51,141,51r-46,64v0,0,-40,-34,-95,-34v-59,0,-106,33,-106,101v0,12,2,25,5,40r68,385r-79,0xm45,11r44,-67v0,0,42,37,97,37v59,0,106,-35,106,-105v0,-13,-3,-28,-6,-45r-66,-376r79,0r70,390v25,126,-50,217,-183,217v-87,0,-141,-51,-141,-51","w":435},"\u00a8":{"d":"306,-781r0,-101r86,0r0,101r-86,0xm106,-781r0,-101r86,0r0,101r-86,0","w":499},"\u00a9":{"d":"45,-353v0,-203,158,-365,355,-365v199,0,358,162,358,365v0,203,-159,365,-358,365v-197,0,-355,-162,-355,-365xm118,-353v0,167,123,297,282,297v161,0,285,-130,285,-297v0,-167,-124,-297,-285,-297v-159,0,-282,130,-282,297xm210,-352v0,-105,76,-200,197,-200v115,0,163,99,163,99r-61,33v0,0,-34,-63,-99,-63v-79,0,-124,62,-124,131v0,71,43,131,124,131v66,0,99,-63,99,-63r61,33v0,0,-48,99,-163,99v-121,0,-197,-94,-197,-200","w":802},"\u00aa":{"d":"183,-382v-54,0,-109,-34,-109,-97v0,-111,135,-110,199,-110v2,-50,-26,-70,-64,-69v-44,0,-83,28,-83,28r-29,-49v0,0,45,-37,121,-37v83,0,127,45,127,126r0,201r-68,0r0,-46v-6,-1,-25,53,-94,53xm198,-441v47,0,76,-48,74,-97v-47,0,-125,0,-125,54v0,23,18,43,51,43xm74,-265r0,-57r274,0r0,57r-274,0","w":424},"\u00ab":{"d":"245,-282r164,-206r97,0r-164,206r164,205r-97,0xm207,-77r-164,-205r164,-206r97,0r-164,206r164,205r-97,0","w":561},"\u00ac":{"d":"49,-340r0,-78r477,0r0,267r-81,0r0,-189r-396,0","w":594},"\u00ad":{"d":"92,-242r0,-86r292,0r0,86r-292,0","w":476},"\u00ae":{"d":"45,-353v0,-203,158,-365,355,-365v199,0,358,162,358,365v0,203,-159,365,-358,365v-197,0,-355,-162,-355,-365xm118,-353v0,167,123,297,282,297v161,0,285,-130,285,-297v0,-167,-124,-297,-285,-297v-159,0,-282,130,-282,297xm278,-166r0,-377r145,0v71,0,119,45,119,115v0,58,-38,92,-69,100r85,162r-78,0r-70,-146r-61,0r0,146r-71,0xm349,-364r60,0v37,0,61,-24,61,-64v0,-39,-24,-61,-61,-61r-60,0r0,125","w":802},"\u00af":{"d":"122,-784r0,-71r255,0r0,71r-255,0","w":499},"\u00b0":{"d":"195,-422v-84,0,-151,-66,-151,-148v0,-81,67,-148,151,-148v84,0,152,67,152,148v0,82,-68,148,-152,148xm195,-496v42,0,75,-33,75,-74v0,-41,-33,-75,-75,-75v-41,0,-73,34,-73,75v0,41,32,74,73,74","w":391},"\u00b1":{"d":"42,-246r0,-78r224,0r0,-246r82,0r0,246r223,0r0,78r-223,0r0,246r-82,0r0,-246r-224,0xm58,95r497,0r0,78r-497,0r0,-78","w":613},"\u00b2":{"d":"33,-463v0,-160,214,-174,214,-273v0,-37,-30,-65,-71,-65v-50,0,-85,48,-85,48r-49,-45v0,0,47,-72,140,-72v85,0,141,54,141,128v0,147,-206,155,-212,257r157,0r0,-51r63,0r0,113r-294,0v0,0,-4,-25,-4,-40","w":373},"\u00b3":{"d":"46,-747r0,-113r280,0r0,48r-112,130v61,9,120,46,120,124v0,77,-63,145,-156,145v-100,0,-147,-66,-147,-66r42,-51v0,0,34,50,102,50v43,0,83,-32,83,-76v0,-58,-57,-76,-120,-71r-16,-38r95,-115v12,-15,23,-16,22,-23v-30,5,-92,2,-130,3r0,53r-63,0","w":374},"\u00b4":{"d":"144,-755r104,-127r111,0r-124,127r-91,0","w":499},"\u00b5":{"d":"71,200r0,-706r97,0r0,302v0,70,14,126,94,126v104,0,165,-91,165,-191r0,-237r97,0r0,506r-94,0r0,-69v-2,-20,7,-37,-1,-35v0,0,-47,116,-186,116v-70,0,-88,-32,-93,-31v8,42,8,158,7,219r-86,0","w":595},"\u00b6":{"d":"272,50r0,-291v-129,0,-237,-102,-237,-233v0,-131,107,-232,236,-232r272,0r0,86r-196,0r0,670r-75,0xm409,50r0,-613r74,0r0,613r-74,0","w":596},"\u00b7":{"d":"89,-237r0,-106r102,0r0,106r-102,0","w":280},"\u00b8":{"d":"186,97r32,-122r51,10v-2,27,-11,47,-16,71v44,3,79,32,79,75v0,62,-55,86,-111,86v-30,0,-54,-7,-54,-7r0,-53v0,0,19,6,44,6v23,0,51,-5,51,-32v0,-29,-39,-36,-76,-34","w":499},"\u00b9":{"d":"37,-423r0,-62r103,0r0,-247v-2,-19,7,-32,1,-31v-13,18,-46,47,-64,65r-46,-49r117,-113r67,0r0,375r102,0r0,62r-280,0","w":336},"\u00ba":{"d":"235,-384v-94,0,-171,-70,-171,-168v0,-95,77,-165,170,-165v95,0,172,70,172,165v0,98,-77,168,-171,168xm235,-449v54,0,98,-42,98,-103v0,-59,-44,-101,-98,-101v-55,0,-99,42,-99,101v0,61,44,103,99,103xm80,-265r0,-57r312,0r0,57r-312,0","w":471},"\u00bb":{"d":"256,-77r164,-205r-164,-206r97,0r164,206r-164,205r-97,0xm55,-77r164,-205r-164,-206r97,0r164,206r-164,205r-97,0","w":560},"\u00bc":{"d":"785,0r0,-109r-208,0r0,-48r201,-280r81,0r0,269r62,0r0,59r-62,0r0,109r-74,0xm654,-168r131,0r0,-146v0,-20,4,-45,4,-45r-3,0v0,0,-9,22,-21,39r-111,150r0,2xm268,0r336,-706r75,0r-335,706r-76,0xm56,-269r0,-62r103,0r0,-247v-2,-19,7,-32,1,-31v-13,18,-46,47,-64,65r-46,-49r117,-113r67,0r0,375r102,0r0,62r-280,0","w":957},"\u00bd":{"d":"599,-40v0,-160,214,-174,214,-273v0,-37,-30,-65,-71,-65v-50,0,-85,48,-85,48r-49,-45v0,0,47,-72,140,-72v85,0,141,54,141,128v0,147,-206,155,-212,257r157,0r0,-51r63,0r0,113r-294,0v0,0,-4,-25,-4,-40xm263,0r336,-706r75,0r-335,706r-76,0xm49,-269r0,-62r103,0r0,-247v-2,-19,7,-32,1,-31v-13,18,-46,47,-64,65r-46,-49r117,-113r67,0r0,375r102,0r0,62r-280,0","w":941},"\u00be":{"d":"796,0r0,-109r-208,0r0,-48r201,-280r81,0r0,269r62,0r0,59r-62,0r0,109r-74,0xm665,-168r131,0r0,-146v0,-20,4,-45,4,-45r-3,0v0,0,-9,22,-21,39r-111,150r0,2xm61,-593r0,-113r280,0r0,48r-112,130v61,9,120,46,120,124v0,77,-63,145,-156,145v-100,0,-147,-66,-147,-66r42,-51v0,0,34,50,102,50v43,0,83,-32,83,-76v0,-58,-57,-76,-120,-71r-16,-38r95,-115v12,-15,23,-16,22,-23v-30,5,-92,2,-130,3r0,53r-63,0xm278,0r336,-706r75,0r-335,706r-76,0","w":970},"\u00bf":{"d":"222,-408r0,-98r100,0r0,98r-100,0xm48,28v0,-165,177,-182,177,-303r0,-37r94,0r0,43v0,152,-170,175,-170,289v0,56,49,100,115,100v63,0,114,-43,114,-43r53,69v0,0,-65,64,-174,64v-114,0,-209,-71,-209,-182","w":465},"\u00c0":{"d":"12,0r0,-78r68,0r225,-628r113,0r225,628r68,0r0,78r-245,0r0,-78r75,0r-55,-157r-250,0r-55,157r76,0r0,78r-245,0xm261,-315r200,0r-86,-245v-10,-29,-12,-54,-12,-54r-3,0v0,0,-2,25,-12,54xm329,-755r-124,-127r112,0r103,127r-91,0","w":723},"\u00c1":{"d":"11,0r0,-78r68,0r225,-628r113,0r225,628r68,0r0,78r-245,0r0,-78r75,0r-55,-157r-250,0r-55,157r76,0r0,78r-245,0xm260,-315r200,0r-86,-245v-10,-29,-12,-54,-12,-54r-3,0v0,0,-2,25,-12,54xm299,-755r104,-127r111,0r-124,127r-91,0","w":721},"\u00c2":{"d":"11,0r0,-78r68,0r225,-628r113,0r225,628r68,0r0,78r-245,0r0,-78r75,0r-55,-157r-250,0r-55,157r76,0r0,78r-245,0xm260,-315r200,0r-86,-245v-10,-29,-12,-54,-12,-54r-3,0v0,0,-2,25,-12,54xm219,-755r88,-127r105,0r88,127r-87,0r-53,-80r-2,0r-52,80r-87,0","w":721},"\u00c3":{"d":"11,0r0,-78r68,0r225,-628r113,0r225,628r68,0r0,78r-245,0r0,-78r75,0r-55,-157r-250,0r-55,157r76,0r0,78r-245,0xm260,-315r200,0r-86,-245v-10,-29,-12,-54,-12,-54r-3,0v0,0,-2,25,-12,54xm190,-756v0,-84,34,-127,102,-127v72,0,86,67,127,67v32,0,40,-35,40,-64r72,0v0,83,-34,127,-102,127v-72,0,-86,-67,-127,-67v-32,0,-40,34,-40,64r-72,0","w":721},"\u00c4":{"d":"11,0r0,-78r68,0r225,-628r113,0r225,628r68,0r0,78r-245,0r0,-78r75,0r-55,-157r-250,0r-55,157r76,0r0,78r-245,0xm260,-315r200,0r-86,-245v-10,-29,-12,-54,-12,-54r-3,0v0,0,-2,25,-12,54xm417,-781r0,-101r86,0r0,101r-86,0xm217,-781r0,-101r86,0r0,101r-86,0","w":721},"\u00c5":{"d":"11,0r0,-78r68,0r225,-628r113,0r225,628r68,0r0,78r-245,0r0,-78r75,0r-55,-157r-250,0r-55,157r76,0r0,78r-245,0xm260,-315r200,0r-86,-245v-10,-29,-12,-54,-12,-54r-3,0v0,0,-2,25,-12,54xm360,-739v-48,0,-92,-30,-92,-80v0,-52,44,-83,92,-83v48,0,94,31,94,83v0,50,-46,80,-94,80xm360,-783v23,0,37,-15,37,-36v0,-24,-14,-39,-37,-39v-21,0,-36,15,-36,39v0,21,14,36,36,36","w":721},"\u00c6":{"d":"12,0r0,-78r63,0r227,-551r-77,0r0,-77r648,0r0,164r-83,0r0,-82r-237,0r0,227r248,0r0,82r-248,0r0,233r254,0r0,-83r83,0r0,165r-523,0r0,-78r86,0r0,-238r-180,0r-97,238r76,0r0,78r-240,0xm303,-394r150,0r0,-230r-56,0","w":941},"\u00c7":{"d":"348,97r23,-87v-190,-20,-322,-175,-322,-367v0,-207,157,-361,361,-361v85,0,269,31,269,140r0,86r-93,0r0,-55v0,-62,-107,-85,-172,-85v-151,0,-262,111,-262,271v0,167,114,286,268,286v50,0,176,-18,176,-83r0,-55r93,0r0,86v0,100,-164,136,-263,139r-10,44v43,3,79,32,79,75v0,62,-56,86,-111,86v-31,0,-55,-7,-55,-7r0,-53v0,0,19,6,45,6v23,0,50,-5,50,-32v1,-29,-39,-36,-76,-34","w":744},"\u00c8":{"d":"53,0r0,-78r88,0r0,-551r-88,0r0,-77r511,0r0,164r-87,0r0,-82r-236,0r0,227r250,0r0,82r-250,0r0,233r253,0r0,-85r87,0r0,167r-528,0xm294,-755r-124,-127r112,0r103,127r-91,0","w":632},"\u00c9":{"d":"266,-755r104,-127r111,0r-124,127r-91,0xm53,0r0,-78r88,0r0,-551r-88,0r0,-77r511,0r0,164r-87,0r0,-82r-236,0r0,227r250,0r0,82r-250,0r0,233r253,0r0,-85r87,0r0,167r-528,0","w":632},"\u00ca":{"d":"186,-755r88,-127r105,0r88,127r-87,0r-53,-80r-2,0r-52,80r-87,0xm53,0r0,-78r88,0r0,-551r-88,0r0,-77r511,0r0,164r-87,0r0,-82r-236,0r0,227r250,0r0,82r-250,0r0,233r253,0r0,-85r87,0r0,167r-528,0","w":632},"\u00cb":{"d":"383,-781r0,-101r86,0r0,101r-86,0xm183,-781r0,-101r86,0r0,101r-86,0xm53,0r0,-78r88,0r0,-551r-88,0r0,-77r511,0r0,164r-87,0r0,-82r-236,0r0,227r250,0r0,82r-250,0r0,233r253,0r0,-85r87,0r0,167r-528,0","w":632},"\u00cc":{"d":"53,0r0,-78r88,0r0,-551r-88,0r0,-77r277,0r0,77r-89,0r0,551r89,0r0,78r-277,0xm160,-755r-124,-127r112,0r103,127r-91,0","w":382},"\u00cd":{"d":"53,0r0,-78r88,0r0,-551r-88,0r0,-77r277,0r0,77r-89,0r0,551r89,0r0,78r-277,0xm131,-755r104,-127r111,0r-124,127r-91,0","w":382},"\u00ce":{"d":"53,0r0,-78r88,0r0,-551r-88,0r0,-77r277,0r0,77r-89,0r0,551r89,0r0,78r-277,0xm51,-755r88,-127r105,0r88,127r-87,0r-53,-80r-2,0r-52,80r-87,0","w":382},"\u00cf":{"d":"53,0r0,-78r88,0r0,-551r-88,0r0,-77r277,0r0,77r-89,0r0,551r89,0r0,78r-277,0xm248,-781r0,-101r86,0r0,101r-86,0xm48,-781r0,-101r86,0r0,101r-86,0","w":382},"\u00d0":{"d":"53,0r0,-78r88,0r0,-234r-75,0r0,-82r75,0r0,-235r-88,0r0,-77r324,0v216,0,358,129,358,352v0,224,-142,354,-358,354r-324,0xm241,-82r129,0v157,0,261,-95,261,-272v0,-175,-105,-270,-261,-270r-129,0r0,230r155,0r0,82r-155,0r0,230","w":787},"\u00d1":{"d":"53,0r0,-78r88,0r0,-551r-88,0r0,-77r187,0r347,506v15,21,19,53,27,51v0,0,-5,-35,-5,-57r0,-423r-90,0r0,-77r279,0r0,77r-89,0r0,629r-98,0r-347,-506v-16,-21,-19,-53,-27,-51v0,0,4,35,4,57r0,422r91,0r0,78r-279,0xm254,-756v0,-84,34,-127,102,-127v72,0,86,67,127,67v32,0,40,-35,40,-64r72,0v0,83,-34,127,-102,127v-72,0,-86,-67,-127,-67v-32,0,-40,34,-40,64r-72,0","w":838},"\u00d2":{"d":"48,-358v0,-203,158,-360,363,-360v204,0,363,157,363,360v0,208,-159,370,-363,370v-205,0,-363,-162,-363,-370xm151,-358v0,159,116,281,260,281v143,0,259,-122,259,-281v0,-154,-116,-272,-259,-272v-144,0,-260,118,-260,272xm379,-755r-124,-127r112,0r103,127r-91,0","w":822},"\u00d3":{"d":"350,-755r104,-127r111,0r-124,127r-91,0xm48,-358v0,-203,158,-360,363,-360v204,0,363,157,363,360v0,208,-159,370,-363,370v-205,0,-363,-162,-363,-370xm151,-358v0,159,116,281,260,281v143,0,259,-122,259,-281v0,-154,-116,-272,-259,-272v-144,0,-260,118,-260,272","w":822},"\u00d4":{"d":"270,-755r88,-127r105,0r88,127r-87,0r-53,-80r-2,0r-52,80r-87,0xm48,-358v0,-203,158,-360,363,-360v204,0,363,157,363,360v0,208,-159,370,-363,370v-205,0,-363,-162,-363,-370xm151,-358v0,159,116,281,260,281v143,0,259,-122,259,-281v0,-154,-116,-272,-259,-272v-144,0,-260,118,-260,272","w":822},"\u00d5":{"d":"48,-358v0,-203,158,-360,363,-360v204,0,363,157,363,360v0,208,-159,370,-363,370v-205,0,-363,-162,-363,-370xm151,-358v0,159,116,281,260,281v143,0,259,-122,259,-281v0,-154,-116,-272,-259,-272v-144,0,-260,118,-260,272xm241,-756v0,-84,34,-127,102,-127v72,0,86,67,127,67v32,0,40,-35,40,-64r72,0v0,83,-34,127,-102,127v-72,0,-86,-67,-127,-67v-32,0,-40,34,-40,64r-72,0","w":822},"\u00d6":{"d":"468,-781r0,-101r86,0r0,101r-86,0xm268,-781r0,-101r86,0r0,101r-86,0xm48,-358v0,-203,158,-360,363,-360v204,0,363,157,363,360v0,208,-159,370,-363,370v-205,0,-363,-162,-363,-370xm151,-358v0,159,116,281,260,281v143,0,259,-122,259,-281v0,-154,-116,-272,-259,-272v-144,0,-260,118,-260,272","w":822},"\u00d7":{"d":"46,-55r207,-230r-207,-230r55,-55r205,228r205,-228r55,55r-208,230r208,230r-55,55r-205,-227r-205,227","w":613},"\u00d8":{"d":"122,-9r49,-68v-76,-68,-123,-167,-123,-281v0,-203,159,-360,362,-360v69,0,132,18,186,50r45,-64r49,34r-45,63v79,66,128,165,128,277v0,208,-159,370,-363,370v-71,0,-135,-19,-191,-54r-48,67xm229,-158r311,-433v-38,-23,-82,-36,-130,-36v-144,0,-260,115,-260,269v0,80,30,151,79,200xm274,-119v39,26,86,40,136,40v145,0,261,-120,261,-279v0,-79,-32,-150,-83,-197","w":821},"\u00d9":{"d":"399,12v-167,-1,-279,-99,-279,-275r0,-366r-89,0r0,-77r278,0r0,77r-89,0r0,365v-2,120,65,187,179,187v112,0,179,-68,179,-188r0,-364r-89,0r0,-77r277,0r0,77r-88,0r0,366v0,67,-18,128,-49,172v-48,68,-134,103,-230,103xm367,-755r-124,-127r112,0r103,127r-91,0","w":797},"\u00da":{"d":"338,-755r104,-127r111,0r-124,127r-91,0xm399,12v-167,-1,-279,-99,-279,-275r0,-366r-89,0r0,-77r278,0r0,77r-89,0r0,365v-2,120,65,187,179,187v112,0,179,-68,179,-188r0,-364r-89,0r0,-77r277,0r0,77r-88,0r0,366v0,67,-18,128,-49,172v-48,68,-134,103,-230,103","w":797},"\u00db":{"d":"258,-755r88,-127r105,0r88,127r-87,0r-53,-80r-2,0r-52,80r-87,0xm399,12v-167,-1,-279,-99,-279,-275r0,-366r-89,0r0,-77r278,0r0,77r-89,0r0,365v-2,120,65,187,179,187v112,0,179,-68,179,-188r0,-364r-89,0r0,-77r277,0r0,77r-88,0r0,366v0,67,-18,128,-49,172v-48,68,-134,103,-230,103","w":797},"\u00dc":{"d":"456,-781r0,-101r86,0r0,101r-86,0xm256,-781r0,-101r86,0r0,101r-86,0xm399,12v-167,-1,-279,-99,-279,-275r0,-366r-89,0r0,-77r278,0r0,77r-89,0r0,365v-2,120,65,187,179,187v112,0,179,-68,179,-188r0,-364r-89,0r0,-77r277,0r0,77r-88,0r0,366v0,67,-18,128,-49,172v-48,68,-134,103,-230,103","w":797},"\u00dd":{"d":"186,0r0,-78r89,0r0,-221r-198,-330r-67,0r0,-77r243,0r0,77r-74,0r131,222v10,16,11,31,16,30v43,-84,99,-170,146,-252r-73,0r0,-77r241,0r0,77r-67,0r-198,330r0,221r89,0r0,78r-278,0xm266,-755r104,-127r111,0r-124,127r-91,0","w":650},"\u00de":{"d":"53,0r0,-78r88,0r0,-551r-88,0r0,-77r277,0r0,77r-90,0r0,72r167,0v129,0,214,73,214,192v0,121,-85,197,-215,197r-166,0r0,90r90,0r0,78r-277,0xm240,-246r146,0v85,0,134,-43,134,-119v0,-75,-49,-114,-133,-114r-147,0r0,233","w":650},"\u00df":{"d":"32,0r0,-75r80,0r0,-455v0,-123,107,-188,216,-188v111,0,190,72,190,161v0,97,-101,126,-101,186v0,63,179,99,179,226v0,102,-82,152,-171,152v-93,0,-141,-29,-141,-29r0,-86v0,0,56,31,130,31v44,0,84,-21,84,-72v0,-81,-179,-112,-179,-219v0,-83,100,-115,100,-188v0,-39,-32,-78,-95,-78v-58,0,-116,36,-116,111r0,523r-176,0","w":622},"\u00e0":{"d":"33,-141v0,-159,211,-170,295,-170r32,0v6,-88,-40,-127,-108,-127v-80,0,-145,49,-145,49r-39,-69v0,0,74,-60,192,-60v129,0,197,67,197,195r0,226v-1,34,44,19,73,22r0,75r-101,0v-48,-1,-63,-23,-63,-62v0,-21,8,-34,2,-33v0,0,-44,107,-167,107v-84,0,-168,-49,-168,-153xm131,-149v0,45,33,86,91,86v93,0,145,-92,139,-185r-25,0v-46,0,-205,2,-205,99xm231,-579r-124,-127r112,0r103,127r-91,0"},"\u00e1":{"d":"33,-141v0,-159,211,-170,295,-170r32,0v6,-88,-40,-127,-108,-127v-80,0,-145,49,-145,49r-39,-69v0,0,74,-60,192,-60v129,0,197,67,197,195r0,226v-1,34,44,19,73,22r0,75r-101,0v-48,-1,-63,-23,-63,-62v0,-21,8,-34,2,-33v0,0,-44,107,-167,107v-84,0,-168,-49,-168,-153xm131,-149v0,45,33,86,91,86v93,0,145,-92,139,-185r-25,0v-46,0,-205,2,-205,99xm202,-579r104,-127r111,0r-124,127r-91,0"},"\u00e2":{"d":"33,-141v0,-159,211,-170,295,-170r32,0v6,-88,-40,-127,-108,-127v-80,0,-145,49,-145,49r-39,-69v0,0,74,-60,192,-60v129,0,197,67,197,195r0,226v-1,34,44,19,73,22r0,75r-101,0v-48,-1,-63,-23,-63,-62v0,-21,8,-34,2,-33v0,0,-44,107,-167,107v-84,0,-168,-49,-168,-153xm131,-149v0,45,33,86,91,86v93,0,145,-92,139,-185r-25,0v-46,0,-205,2,-205,99xm122,-579r88,-127r105,0r88,127r-87,0r-53,-80r-2,0r-52,80r-87,0"},"\u00e3":{"d":"33,-141v0,-159,211,-170,295,-170r32,0v6,-88,-40,-127,-108,-127v-80,0,-145,49,-145,49r-39,-69v0,0,74,-60,192,-60v129,0,197,67,197,195r0,226v-1,34,44,19,73,22r0,75r-101,0v-48,-1,-63,-23,-63,-62v0,-21,8,-34,2,-33v0,0,-44,107,-167,107v-84,0,-168,-49,-168,-153xm131,-149v0,45,33,86,91,86v93,0,145,-92,139,-185r-25,0v-46,0,-205,2,-205,99xm93,-580v0,-84,34,-127,102,-127v72,0,86,67,127,67v32,0,40,-35,40,-64r72,0v0,83,-34,127,-102,127v-72,0,-86,-67,-127,-67v-32,0,-40,34,-40,64r-72,0"},"\u00e4":{"d":"33,-141v0,-159,211,-170,295,-170r32,0v6,-88,-40,-127,-108,-127v-80,0,-145,49,-145,49r-39,-69v0,0,74,-60,192,-60v129,0,197,67,197,195r0,226v-1,34,44,19,73,22r0,75r-101,0v-48,-1,-63,-23,-63,-62v0,-21,8,-34,2,-33v0,0,-44,107,-167,107v-84,0,-168,-49,-168,-153xm131,-149v0,45,33,86,91,86v93,0,145,-92,139,-185r-25,0v-46,0,-205,2,-205,99xm320,-605r0,-101r86,0r0,101r-86,0xm120,-605r0,-101r86,0r0,101r-86,0"},"\u00e5":{"d":"33,-141v0,-159,211,-170,295,-170r32,0v6,-88,-40,-127,-108,-127v-80,0,-145,49,-145,49r-39,-69v0,0,74,-60,192,-60v129,0,197,67,197,195r0,226v-1,34,44,19,73,22r0,75r-101,0v-48,-1,-63,-23,-63,-62v0,-21,8,-34,2,-33v0,0,-44,107,-167,107v-84,0,-168,-49,-168,-153xm131,-149v0,45,33,86,91,86v93,0,145,-92,139,-185r-25,0v-46,0,-205,2,-205,99xm263,-563v-48,0,-92,-30,-92,-80v0,-52,44,-83,92,-83v48,0,94,31,94,83v0,50,-46,80,-94,80xm263,-607v23,0,37,-15,37,-36v0,-24,-14,-39,-37,-39v-21,0,-36,15,-36,39v0,21,14,36,36,36"},"\u00e6":{"d":"34,-141v0,-159,194,-167,300,-167r27,0v6,-92,-41,-130,-111,-130v-80,0,-144,49,-144,49r-39,-69v0,0,73,-60,191,-60v93,0,140,35,164,89r2,0v41,-59,103,-89,180,-89v151,1,232,122,214,273r-363,0v5,116,78,176,169,176v86,0,149,-59,149,-59r40,68v0,0,-75,72,-195,72v-102,0,-178,-48,-218,-127r-2,0v-9,26,-60,127,-190,127v-93,0,-174,-55,-174,-153xm459,-308r264,0v-3,-87,-59,-133,-121,-133v-74,0,-129,47,-143,133xm131,-146v0,43,33,82,94,82v89,0,142,-90,137,-181r-47,0v-77,0,-184,12,-184,99","w":863},"\u00e7":{"d":"243,97r24,-89v-126,-18,-227,-114,-227,-260v0,-155,117,-266,268,-266v75,0,198,28,198,115r0,62r-86,0r0,-35v0,-39,-64,-58,-109,-58v-102,0,-172,72,-172,180v0,115,81,182,178,182v86,0,144,-51,162,-65r37,71v-22,20,-93,75,-195,78r-10,44v43,3,79,32,79,75v0,62,-56,86,-111,86v-30,0,-55,-7,-55,-7r0,-53v0,0,20,6,45,6v23,0,50,-5,50,-32v1,-29,-39,-36,-76,-34","w":553},"\u00e8":{"d":"41,-253v0,-161,109,-265,253,-265v156,0,234,122,216,274r-370,0v6,112,85,172,175,172v88,0,151,-57,151,-57r40,71v0,0,-76,70,-197,70v-159,0,-268,-115,-268,-265xm144,-306r269,0v-3,-89,-57,-135,-121,-135v-74,0,-134,50,-148,135xm263,-579r-124,-127r112,0r103,127r-91,0"},"\u00e9":{"d":"234,-579r104,-127r111,0r-124,127r-91,0xm41,-253v0,-161,109,-265,253,-265v156,0,234,122,216,274r-370,0v6,112,85,172,175,172v88,0,151,-57,151,-57r40,71v0,0,-76,70,-197,70v-159,0,-268,-115,-268,-265xm144,-306r269,0v-3,-89,-57,-135,-121,-135v-74,0,-134,50,-148,135"},"\u00ea":{"d":"154,-579r88,-127r105,0r88,127r-87,0r-53,-80r-2,0r-52,80r-87,0xm41,-253v0,-161,109,-265,253,-265v156,0,234,122,216,274r-370,0v6,112,85,172,175,172v88,0,151,-57,151,-57r40,71v0,0,-76,70,-197,70v-159,0,-268,-115,-268,-265xm144,-306r269,0v-3,-89,-57,-135,-121,-135v-74,0,-134,50,-148,135"},"\u00eb":{"d":"352,-605r0,-101r86,0r0,101r-86,0xm152,-605r0,-101r86,0r0,101r-86,0xm41,-253v0,-161,109,-265,253,-265v156,0,234,122,216,274r-370,0v6,112,85,172,175,172v88,0,151,-57,151,-57r40,71v0,0,-76,70,-197,70v-159,0,-268,-115,-268,-265xm144,-306r269,0v-3,-89,-57,-135,-121,-135v-74,0,-134,50,-148,135"},"\u00ec":{"d":"47,0r0,-75r74,0r0,-356r-76,0r0,-75r173,0r0,431r73,0r0,75r-244,0xm137,-579r-124,-127r112,0r103,127r-91,0","w":323},"\u00ed":{"d":"108,-579r104,-127r111,0r-124,127r-91,0xm47,0r0,-75r74,0r0,-356r-76,0r0,-75r173,0r0,431r73,0r0,75r-244,0","w":323},"\u00ee":{"d":"28,-579r88,-127r105,0r88,127r-87,0r-53,-80r-2,0r-52,80r-87,0xm47,0r0,-75r74,0r0,-356r-76,0r0,-75r173,0r0,431r73,0r0,75r-244,0","w":323},"\u00ef":{"d":"47,0r0,-75r74,0r0,-356r-76,0r0,-75r173,0r0,431r73,0r0,75r-244,0xm208,-605r0,-101r86,0r0,101r-86,0xm35,-605r0,-101r86,0r0,101r-86,0","w":323},"\u00f0":{"d":"43,-235v0,-118,82,-231,236,-231v84,0,120,43,125,42v-21,-56,-61,-103,-111,-136r-178,78r-10,-52r129,-58v-40,-20,-90,-38,-134,-48r27,-79v70,16,148,44,212,83r133,-60r10,53r-95,43v85,70,146,179,146,325v0,135,-71,287,-253,287v-152,0,-237,-122,-237,-247xm141,-233v0,82,48,161,141,161v109,0,153,-100,153,-186v0,-75,-55,-130,-141,-130v-104,0,-153,77,-153,155","w":590},"\u00f1":{"d":"48,0r0,-75r79,0r0,-334v0,-36,-53,-18,-84,-22r0,-75r114,0v55,-1,64,29,64,82v0,17,-7,30,-1,29v10,-27,69,-123,197,-123v116,0,168,65,168,194r0,249r80,0r0,75r-177,0r0,-302v0,-71,-14,-127,-95,-127v-102,0,-169,93,-169,194r0,160r80,0r0,75r-256,0xm194,-580v0,-84,34,-127,102,-127v72,0,86,67,127,67v32,0,40,-35,40,-64r72,0v0,83,-34,127,-102,127v-72,0,-86,-67,-127,-67v-32,0,-40,34,-40,64r-72,0","w":689},"\u00f2":{"d":"40,-254v0,-153,122,-264,273,-264v151,0,273,111,273,264v0,154,-122,266,-273,266v-151,0,-273,-112,-273,-266xm139,-254v0,106,78,182,174,182v95,0,174,-76,174,-182v0,-105,-79,-180,-174,-180v-96,0,-174,75,-174,180xm281,-579r-124,-127r112,0r103,127r-91,0","w":626},"\u00f3":{"d":"253,-579r104,-127r111,0r-124,127r-91,0xm40,-254v0,-153,122,-264,273,-264v151,0,273,111,273,264v0,154,-122,266,-273,266v-151,0,-273,-112,-273,-266xm139,-254v0,106,78,182,174,182v95,0,174,-76,174,-182v0,-105,-79,-180,-174,-180v-96,0,-174,75,-174,180","w":626},"\u00f4":{"d":"173,-579r88,-127r105,0r88,127r-87,0r-53,-80r-2,0r-52,80r-87,0xm40,-254v0,-153,122,-264,273,-264v151,0,273,111,273,264v0,154,-122,266,-273,266v-151,0,-273,-112,-273,-266xm139,-254v0,106,78,182,174,182v95,0,174,-76,174,-182v0,-105,-79,-180,-174,-180v-96,0,-174,75,-174,180","w":626},"\u00f5":{"d":"40,-254v0,-153,122,-264,273,-264v151,0,273,111,273,264v0,154,-122,266,-273,266v-151,0,-273,-112,-273,-266xm139,-254v0,106,78,182,174,182v95,0,174,-76,174,-182v0,-105,-79,-180,-174,-180v-96,0,-174,75,-174,180xm143,-580v0,-84,34,-127,102,-127v72,0,86,67,127,67v32,0,40,-35,40,-64r72,0v0,83,-34,127,-102,127v-72,0,-86,-67,-127,-67v-32,0,-40,34,-40,64r-72,0","w":626},"\u00f6":{"d":"370,-605r0,-101r86,0r0,101r-86,0xm170,-605r0,-101r86,0r0,101r-86,0xm40,-254v0,-153,122,-264,273,-264v151,0,273,111,273,264v0,154,-122,266,-273,266v-151,0,-273,-112,-273,-266xm139,-254v0,106,78,182,174,182v95,0,174,-76,174,-182v0,-105,-79,-180,-174,-180v-96,0,-174,75,-174,180","w":626},"\u00f7":{"d":"259,-435r0,-91r94,0r0,91r-94,0xm54,-246r0,-78r505,0r0,78r-505,0xm259,-44r0,-91r94,0r0,91r-94,0","w":613},"\u00f8":{"d":"101,5r37,-53v-59,-47,-97,-121,-97,-206v0,-153,121,-264,272,-264v49,0,97,13,137,35r40,-55r43,30r-39,54v55,47,92,119,92,200v0,154,-122,266,-273,266v-46,0,-92,-12,-130,-32r-39,56xm193,-124r206,-287v-117,-65,-260,19,-260,157v0,52,23,98,54,130xm235,-92v119,61,252,-27,252,-162v0,-48,-20,-92,-48,-123","w":626},"\u00f9":{"d":"105,-182r0,-249r-85,0r0,-75r182,0r0,304v0,70,14,126,95,126v101,0,164,-97,164,-197r0,-158r-85,0r0,-75r182,0r0,410v-1,33,46,19,75,22r0,74r-105,0v-53,0,-64,-27,-64,-78v0,-18,6,-31,0,-30v-10,27,-67,120,-193,120v-109,0,-166,-60,-166,-194xm287,-579r-124,-127r112,0r103,127r-91,0","w":665},"\u00fa":{"d":"259,-579r104,-127r111,0r-124,127r-91,0xm105,-182r0,-249r-85,0r0,-75r182,0r0,304v0,70,14,126,95,126v101,0,164,-97,164,-197r0,-158r-85,0r0,-75r182,0r0,410v-1,33,46,19,75,22r0,74r-105,0v-53,0,-64,-27,-64,-78v0,-18,6,-31,0,-30v-10,27,-67,120,-193,120v-109,0,-166,-60,-166,-194","w":665},"\u00fb":{"d":"178,-579r88,-127r105,0r88,127r-87,0r-53,-80r-2,0r-52,80r-87,0xm105,-182r0,-249r-85,0r0,-75r182,0r0,304v0,70,14,126,95,126v101,0,164,-97,164,-197r0,-158r-85,0r0,-75r182,0r0,410v-1,33,46,19,75,22r0,74r-105,0v-53,0,-64,-27,-64,-78v0,-18,6,-31,0,-30v-10,27,-67,120,-193,120v-109,0,-166,-60,-166,-194","w":665},"\u00fc":{"d":"376,-605r0,-101r86,0r0,101r-86,0xm176,-605r0,-101r86,0r0,101r-86,0xm105,-182r0,-249r-85,0r0,-75r182,0r0,304v0,70,14,126,95,126v101,0,164,-97,164,-197r0,-158r-85,0r0,-75r182,0r0,410v-1,33,46,19,75,22r0,74r-105,0v-53,0,-64,-27,-64,-78v0,-18,6,-31,0,-30v-10,27,-67,120,-193,120v-109,0,-166,-60,-166,-194","w":665},"\u00fd":{"d":"64,105v0,0,29,24,72,24v43,0,76,-30,93,-70r21,-50r-177,-440r-64,0r0,-75r231,0r0,75r-67,0r113,301v10,23,4,46,12,44v0,0,4,-22,12,-44r112,-301r-65,0r0,-75r224,0r0,75r-63,0r-200,511v-34,86,-100,130,-178,130v-65,0,-109,-32,-109,-32xm240,-579r104,-127r111,0r-124,127r-91,0","w":590},"\u00fe":{"d":"3,-631r0,-75r179,0r0,232v2,26,-6,43,0,42v0,0,39,-86,160,-86v137,0,224,111,224,265v0,156,-93,265,-227,265v-117,0,-157,-85,-157,-85r-2,0v4,48,1,141,2,198r79,0r0,75r-256,0r0,-75r80,0r0,-756r-82,0xm179,-252v0,104,55,180,145,180v82,0,144,-72,144,-181v0,-107,-57,-181,-142,-181v-78,0,-147,51,-147,182","w":608},"\u00ff":{"d":"64,105v0,0,29,24,72,24v43,0,76,-30,93,-70r21,-50r-177,-440r-64,0r0,-75r231,0r0,75r-67,0r113,301v10,23,4,46,12,44v0,0,4,-22,12,-44r112,-301r-65,0r0,-75r224,0r0,75r-63,0r-200,511v-34,86,-100,130,-178,130v-65,0,-109,-32,-109,-32xm357,-605r0,-101r86,0r0,101r-86,0xm157,-605r0,-101r86,0r0,101r-86,0","w":590},"\u0152":{"d":"49,-354v0,-203,157,-361,366,-361v48,0,87,9,122,9r369,0r0,164r-83,0r0,-82r-237,0r0,228r247,0r0,81r-247,0r0,233r254,0r0,-83r83,0r0,165r-385,0v-35,0,-75,9,-123,9v-209,0,-366,-159,-366,-363xm151,-354v0,157,108,279,264,279v40,0,71,-8,71,-8r0,-541v0,0,-31,-7,-71,-7v-156,0,-264,122,-264,277","w":974},"\u0153":{"d":"40,-252v0,-160,122,-266,269,-266v101,0,176,47,220,120r2,0v40,-75,111,-120,208,-120v155,1,234,123,216,275r-369,0v8,113,86,173,174,173v87,0,150,-58,150,-58r40,68v0,0,-76,72,-196,72v-105,0,-180,-49,-221,-123r-2,0v-44,75,-119,123,-221,123v-148,0,-270,-104,-270,-264xm589,-306r270,0v-3,-86,-56,-135,-121,-135v-75,0,-135,50,-149,135xm139,-252v0,110,79,180,173,180v94,0,174,-70,174,-183v0,-109,-81,-179,-174,-179v-94,0,-173,72,-173,182","w":1000},"\u0178":{"d":"186,0r0,-78r89,0r0,-221r-198,-330r-67,0r0,-77r243,0r0,77r-74,0r131,222v10,16,11,31,16,30v43,-84,99,-170,146,-252r-73,0r0,-77r241,0r0,77r-67,0r-198,330r0,221r89,0r0,78r-278,0xm383,-781r0,-101r86,0r0,101r-86,0xm183,-781r0,-101r86,0r0,101r-86,0","w":650},"\u02c6":{"d":"109,-755r88,-127r105,0r88,127r-87,0r-53,-80r-2,0r-52,80r-87,0","w":499},"\u02dc":{"d":"79,-756v0,-84,34,-127,102,-127v72,0,86,67,127,67v32,0,40,-35,40,-64r72,0v0,83,-34,127,-102,127v-72,0,-86,-67,-127,-67v-32,0,-40,34,-40,64r-72,0","w":499},"\u2013":{"d":"94,-246r0,-78r526,0r0,78r-526,0","w":714},"\u2014":{"d":"94,-246r0,-78r726,0r0,78r-726,0","w":914},"\u2018":{"d":"47,-499r71,-218r72,0r-49,218r-94,0","w":229},"\u2019":{"d":"50,-499r49,-218r94,0r-71,218r-72,0","w":223},"\u201a":{"d":"36,113r49,-218r92,0r-71,218r-70,0","w":246},"\u201c":{"d":"47,-499r71,-218r72,0r-48,218r-95,0xm194,-499r71,-218r72,0r-48,218r-95,0","w":377},"\u201d":{"d":"197,-499r49,-218r94,0r-71,218r-72,0xm50,-499r49,-218r94,0r-71,218r-72,0","w":370},"\u201e":{"d":"181,113r49,-218r91,0r-71,218r-69,0xm36,113r49,-218r92,0r-71,218r-70,0","w":390},"\u2022":{"d":"206,-136v-85,0,-154,-69,-154,-155v0,-86,69,-155,154,-155v86,0,155,69,155,155v0,86,-69,155,-155,155","w":413},"\u2026":{"d":"595,0r0,-105r101,0r0,105r-101,0xm335,0r0,-105r102,0r0,105r-102,0xm76,0r0,-105r101,0r0,105r-101,0","w":772},"\u2039":{"d":"207,-77r-164,-205r164,-206r97,0r-164,206r164,205r-97,0","w":359},"\u203a":{"d":"55,-77r164,-205r-164,-206r97,0r164,206r-164,205r-97,0","w":359},"\u20ac":{"d":"44,-250r0,-61r55,0v-3,-23,-3,-64,0,-92r-55,0r0,-62r66,0v41,-146,172,-253,337,-253v55,0,101,12,101,12r-23,86v0,0,-39,-10,-80,-10v-112,0,-197,67,-230,165r280,0r-13,62r-281,0v-4,30,-3,61,0,92r265,0r-13,61r-235,0v31,102,118,173,230,173v51,0,92,-14,92,-14r19,86v0,0,-49,17,-112,17v-171,0,-300,-110,-338,-262r-65,0","w":599},"\u2122":{"d":"440,-266r35,-440r70,0r104,230v10,19,10,44,15,42v0,0,6,-24,14,-42r104,-230r70,0r34,440r-76,0r-20,-263v-3,-16,5,-32,-1,-30r-95,212r-61,0r-95,-212r-2,0v0,0,2,15,1,30r-21,263r-76,0xm181,-266r0,-373r-153,0r0,-67r381,0r0,67r-153,0r0,373r-75,0","w":954}}});
